{
    "args": {
        "model": "llama_8b",
        "dataset": "CB_drlDomain",
        "token_mode": "last_token",
        "ood": true,
        "smoke_test": false,
        "components": 50,
        "mode": "default",
        "model_name": "llama_8b",
        "target_dataset": "CB_multisocial",
        "datetime": "2026-05-05 21:36:45"
    },
    "test_metrics": {
        "test_metrics_by_layer": [
            {
                "n_total": 496,
                "auroc": 0.6876138137356921,
                "accuracy": 0.657258064516129,
                "f1": 0.5454545454545454,
                "tpr_at_fpr_0_05": 0.0846774193548387,
                "optimal_threshold_f1": 0.5,
                "optimal_threshold_acc": 0.5,
                "aupr": 0.6983758992570407
            },
            {
                "n_total": 496,
                "auroc": 0.5787591050988554,
                "accuracy": 0.5544354838709677,
                "f1": 0.5226781857451404,
                "tpr_at_fpr_0_05": 0.06854838709677419,
                "optimal_threshold_f1": 0.5,
                "optimal_threshold_acc": 0.5,
                "aupr": 0.5618864468501759
            },
            {
                "n_total": 496,
                "auroc": 0.6882316597294486,
                "accuracy": 0.6229838709677419,
                "f1": 0.519280205655527,
                "tpr_at_fpr_0_05": 0.23387096774193547,
                "optimal_threshold_f1": 0.5,
                "optimal_threshold_acc": 0.5,
                "aupr": 0.6969631452871048
            },
            {
                "n_total": 496,
                "auroc": 0.713693418314256,
                "accuracy": 0.6673387096774194,
                "f1": 0.6080760095011877,
                "tpr_at_fpr_0_05": 0.2217741935483871,
                "optimal_threshold_f1": 0.5,
                "optimal_threshold_acc": 0.5,
                "aupr": 0.7322625762856791
            },
            {
                "n_total": 496,
                "auroc": 0.7480489073881373,
                "accuracy": 0.6310483870967742,
                "f1": 0.45045045045045046,
                "tpr_at_fpr_0_05": 0.31048387096774194,
                "optimal_threshold_f1": 0.5,
                "optimal_threshold_acc": 0.5,
                "aupr": 0.7692732992613787
            },
            {
                "n_total": 496,
                "auroc": 0.7481789802289283,
                "accuracy": 0.5625,
                "f1": 0.2277580071174377,
                "tpr_at_fpr_0_05": 0.29435483870967744,
                "optimal_threshold_f1": 0.5,
                "optimal_threshold_acc": 0.5,
                "aupr": 0.7691996378982243
            },
            {
                "n_total": 496,
                "auroc": 0.7705840270551509,
                "accuracy": 0.5604838709677419,
                "f1": 0.2158273381294964,
                "tpr_at_fpr_0_05": 0.35080645161290325,
                "optimal_threshold_f1": 0.5,
                "optimal_threshold_acc": 0.5,
                "aupr": 0.8016358440791063
            },
            {
                "n_total": 496,
                "auroc": 0.8002894120707595,
                "accuracy": 0.5625,
                "f1": 0.2277580071174377,
                "tpr_at_fpr_0_05": 0.43548387096774194,
                "optimal_threshold_f1": 0.5,
                "optimal_threshold_acc": 0.5,
                "aupr": 0.8230132447241277
            },
            {
                "n_total": 496,
                "auroc": 0.7698035900104059,
                "accuracy": 0.5625,
                "f1": 0.23859649122807017,
                "tpr_at_fpr_0_05": 0.3064516129032258,
                "optimal_threshold_f1": 0.5,
                "optimal_threshold_acc": 0.5,
                "aupr": 0.7730014626728587
            },
            {
                "n_total": 496,
                "auroc": 0.7541298126951093,
                "accuracy": 0.5806451612903226,
                "f1": 0.3202614379084967,
                "tpr_at_fpr_0_05": 0.2620967741935484,
                "optimal_threshold_f1": 0.5,
                "optimal_threshold_acc": 0.5,
                "aupr": 0.7571776375730372
            },
            {
                "n_total": 496,
                "auroc": 0.7975741415192508,
                "accuracy": 0.6431451612903226,
                "f1": 0.45871559633027525,
                "tpr_at_fpr_0_05": 0.39919354838709675,
                "optimal_threshold_f1": 0.5,
                "optimal_threshold_acc": 0.5,
                "aupr": 0.8204239699549092
            },
            {
                "n_total": 496,
                "auroc": 0.7732830385015608,
                "accuracy": 0.6370967741935484,
                "f1": 0.45454545454545453,
                "tpr_at_fpr_0_05": 0.4274193548387097,
                "optimal_threshold_f1": 0.5,
                "optimal_threshold_acc": 0.5,
                "aupr": 0.7977258919845426
            },
            {
                "n_total": 496,
                "auroc": 0.7958344172736732,
                "accuracy": 0.6391129032258065,
                "f1": 0.4525993883792049,
                "tpr_at_fpr_0_05": 0.45161290322580644,
                "optimal_threshold_f1": 0.5,
                "optimal_threshold_acc": 0.5,
                "aupr": 0.8233411042611034
            },
            {
                "n_total": 496,
                "auroc": 0.7943060613943808,
                "accuracy": 0.6451612903225806,
                "f1": 0.4666666666666667,
                "tpr_at_fpr_0_05": 0.46774193548387094,
                "optimal_threshold_f1": 0.5,
                "optimal_threshold_acc": 0.5,
                "aupr": 0.8196989754331132
            },
            {
                "n_total": 496,
                "auroc": 0.8028583506763788,
                "accuracy": 0.6794354838709677,
                "f1": 0.5417867435158501,
                "tpr_at_fpr_0_05": 0.47580645161290325,
                "optimal_threshold_f1": 0.5,
                "optimal_threshold_acc": 0.5,
                "aupr": 0.8355321997149153
            },
            {
                "n_total": 496,
                "auroc": 0.756519901144641,
                "accuracy": 0.6310483870967742,
                "f1": 0.44036697247706424,
                "tpr_at_fpr_0_05": 0.3185483870967742,
                "optimal_threshold_f1": 0.5,
                "optimal_threshold_acc": 0.5,
                "aupr": 0.7757350966936327
            },
            {
                "n_total": 496,
                "auroc": 0.7822255463059314,
                "accuracy": 0.6451612903225806,
                "f1": 0.4823529411764706,
                "tpr_at_fpr_0_05": 0.40725806451612906,
                "optimal_threshold_f1": 0.5,
                "optimal_threshold_acc": 0.5,
                "aupr": 0.8101494441092872
            },
            {
                "n_total": 496,
                "auroc": 0.7989724245577523,
                "accuracy": 0.6754032258064516,
                "f1": 0.5386819484240688,
                "tpr_at_fpr_0_05": 0.4153225806451613,
                "optimal_threshold_f1": 0.5,
                "optimal_threshold_acc": 0.5,
                "aupr": 0.8245120359899458
            },
            {
                "n_total": 496,
                "auroc": 0.7968424817898023,
                "accuracy": 0.6895161290322581,
                "f1": 0.6030927835051546,
                "tpr_at_fpr_0_05": 0.40725806451612906,
                "optimal_threshold_f1": 0.5,
                "optimal_threshold_acc": 0.5,
                "aupr": 0.8233715890626087
            },
            {
                "n_total": 496,
                "auroc": 0.7804858220603537,
                "accuracy": 0.6834677419354839,
                "f1": 0.5650969529085873,
                "tpr_at_fpr_0_05": 0.4274193548387097,
                "optimal_threshold_f1": 0.5,
                "optimal_threshold_acc": 0.5,
                "aupr": 0.8060807171696318
            },
            {
                "n_total": 496,
                "auroc": 0.7876560874089491,
                "accuracy": 0.6633064516129032,
                "f1": 0.5424657534246575,
                "tpr_at_fpr_0_05": 0.3911290322580645,
                "optimal_threshold_f1": 0.5,
                "optimal_threshold_acc": 0.5,
                "aupr": 0.8104296221335265
            },
            {
                "n_total": 496,
                "auroc": 0.7926964099895941,
                "accuracy": 0.6592741935483871,
                "f1": 0.5014749262536873,
                "tpr_at_fpr_0_05": 0.45161290322580644,
                "optimal_threshold_f1": 0.5,
                "optimal_threshold_acc": 0.5,
                "aupr": 0.8198843457726189
            },
            {
                "n_total": 496,
                "auroc": 0.7819166233090531,
                "accuracy": 0.6794354838709677,
                "f1": 0.5571030640668524,
                "tpr_at_fpr_0_05": 0.4112903225806452,
                "optimal_threshold_f1": 0.5,
                "optimal_threshold_acc": 0.5,
                "aupr": 0.8037126592913
            },
            {
                "n_total": 496,
                "auroc": 0.7866155046826224,
                "accuracy": 0.6875,
                "f1": 0.5776566757493188,
                "tpr_at_fpr_0_05": 0.42338709677419356,
                "optimal_threshold_f1": 0.5,
                "optimal_threshold_acc": 0.5,
                "aupr": 0.8044768149577841
            },
            {
                "n_total": 496,
                "auroc": 0.7782745837669095,
                "accuracy": 0.6834677419354839,
                "f1": 0.5768194070080862,
                "tpr_at_fpr_0_05": 0.4032258064516129,
                "optimal_threshold_f1": 0.5,
                "optimal_threshold_acc": 0.5,
                "aupr": 0.8007599582082952
            },
            {
                "n_total": 496,
                "auroc": 0.7737382934443289,
                "accuracy": 0.6733870967741935,
                "f1": 0.5645161290322581,
                "tpr_at_fpr_0_05": 0.3911290322580645,
                "optimal_threshold_f1": 0.5,
                "optimal_threshold_acc": 0.5,
                "aupr": 0.7976192317780857
            },
            {
                "n_total": 496,
                "auroc": 0.7662591050988554,
                "accuracy": 0.6915322580645161,
                "f1": 0.6184538653366584,
                "tpr_at_fpr_0_05": 0.38306451612903225,
                "optimal_threshold_f1": 0.5,
                "optimal_threshold_acc": 0.5,
                "aupr": 0.7899315518590926
            },
            {
                "n_total": 496,
                "auroc": 0.7745187304890739,
                "accuracy": 0.6995967741935484,
                "f1": 0.6636568848758465,
                "tpr_at_fpr_0_05": 0.35080645161290325,
                "optimal_threshold_f1": 0.5,
                "optimal_threshold_acc": 0.5,
                "aupr": 0.7943824214469274
            },
            {
                "n_total": 496,
                "auroc": 0.7838514568158169,
                "accuracy": 0.7237903225806451,
                "f1": 0.7243460764587525,
                "tpr_at_fpr_0_05": 0.4153225806451613,
                "optimal_threshold_f1": 0.5,
                "optimal_threshold_acc": 0.5,
                "aupr": 0.8006581739317797
            },
            {
                "n_total": 496,
                "auroc": 0.7632511706555672,
                "accuracy": 0.6895161290322581,
                "f1": 0.6804979253112033,
                "tpr_at_fpr_0_05": 0.3346774193548387,
                "optimal_threshold_f1": 0.5,
                "optimal_threshold_acc": 0.5,
                "aupr": 0.774194799059668
            },
            {
                "n_total": 496,
                "auroc": 0.7453661550468262,
                "accuracy": 0.6794354838709677,
                "f1": 0.6505494505494506,
                "tpr_at_fpr_0_05": 0.29435483870967744,
                "optimal_threshold_f1": 0.5,
                "optimal_threshold_acc": 0.5,
                "aupr": 0.7431311972445442
            },
            {
                "n_total": 496,
                "auroc": 0.7015803850156088,
                "accuracy": 0.6310483870967742,
                "f1": 0.6579439252336449,
                "tpr_at_fpr_0_05": 0.20161290322580644,
                "optimal_threshold_f1": 0.5,
                "optimal_threshold_acc": 0.5,
                "aupr": 0.6904329908381179
            },
            {
                "n_total": 496,
                "auroc": 0.6858090530697191,
                "accuracy": 0.6189516129032258,
                "f1": 0.6834170854271356,
                "tpr_at_fpr_0_05": 0.1693548387096774,
                "optimal_threshold_f1": 0.5,
                "optimal_threshold_acc": 0.5,
                "aupr": 0.670931491145828
            }
        ],
        "mean_projection_metrics": {
            "n_total": 496,
            "auroc": 0.8355391519250781,
            "accuracy": 0.6693548387096774,
            "f1": 0.5119047619047619,
            "tpr_at_fpr_0_05": 0.49193548387096775,
            "optimal_threshold_f1": 0.5,
            "optimal_threshold_acc": 0.5,
            "aupr": 0.8567980260022154
        },
        "weighted_projection_metrics": {
            "n_total": 496,
            "auroc": 0.8348887877211237,
            "accuracy": 0.6774193548387096,
            "f1": 0.5294117647058824,
            "tpr_at_fpr_0_05": 0.4879032258064516,
            "optimal_threshold_f1": 0.5,
            "optimal_threshold_acc": 0.5,
            "aupr": 0.8566124298458183
        },
        "weighted_projection": [
            0.1404339984599199,
            -1.7007726748311391,
            -6.993938935397145,
            -3.7402177616176577,
            6.089332733114518,
            -0.33315121642558493,
            -3.6012081886980085,
            2.4679238034034117,
            -6.076331382064719,
            -1.5996784042166956,
            -0.8890735100041995,
            -2.507154442924768,
            -1.13605996976245,
            0.05751677525059534,
            0.8439721909185851,
            -4.3055231233597135,
            -0.9392675668291899,
            -2.445552638448813,
            -1.6495984423267316,
            -2.4794709910226644,
            0.9626161768506154,
            -1.8453802189427821,
            -2.812895733330736,
            -1.7743395944515525,
            -1.2957602731342508,
            -2.0789885379802384,
            -2.950542553598188,
            -1.8158901865220436,
            0.036443059801451565,
            -3.6390603912608706,
            -7.337035622723538,
            -0.6696826452257657,
            -1.9318471196504363,
            -4.068903949874377,
            -3.0637804521773653,
            -0.5187294484052685,
            0.46296060524767557,
            1.2367888525293977,
            -2.5324562903538195,
            -3.7441163744230628,
            -1.171191093024318,
            -0.012684877934072792,
            -0.7962732490713593,
            -0.8004655626697892,
            -1.702130785020682,
            7.206538852581154,
            -2.7042325706616808,
            -2.299138722249268,
            -2.519524183461036,
            -3.0104417842914226,
            -0.7631602045505709,
            -3.868762458687217,
            -2.2582466023961962,
            -0.2490619896228029,
            -1.8766753997449315,
            -4.912087645097244,
            -1.1058270329316413,
            -0.76056520162882,
            -1.318085317226276,
            -1.4681810177092725,
            -2.155624456146998,
            2.857730483415495,
            -5.371907586639285,
            2.435520884531923,
            -5.432143941650288,
            -4.820972472568881,
            -2.5838772560099974,
            0.8658718189376152,
            -0.2004624665701199,
            0.8989134124874996,
            -2.712662971394571,
            1.192069734769339,
            -1.653725816714335,
            3.1107442255775064,
            -3.0608730085829627,
            0.17930854505150345,
            -2.0849987908440815,
            -1.5862336150206389,
            -2.926448807455617,
            -1.8844278594093675,
            0.2593373387045067,
            -2.988344909295271,
            -3.3225557162084374,
            -1.8293687512410386,
            -2.179641980927336,
            3.4483423075301696,
            -1.8286291591723438,
            -1.4311156780371106,
            -0.36186519046324134,
            -2.0860419870762885,
            -2.888051666743264,
            -2.760939799532926,
            -1.7547496700693437,
            -1.706557109169108,
            -0.1433996796873074,
            -3.119977377114115,
            -1.627745628952717,
            -0.21063704157715574,
            0.13942683105019926,
            -2.8245940889745693,
            -4.085964956141375,
            0.7882704910261024,
            -4.100078630463704,
            -0.6636455126088021,
            1.5053676679867714,
            -2.555352100773921,
            -2.2106018276725177,
            -1.4553461563470695,
            -0.5655896572952301,
            -2.8275301153973955,
            0.3135321854350064,
            -0.9565389898525878,
            -1.810896631669222,
            -1.3771516534481758,
            -2.0070745092651974,
            2.286123410433706,
            -2.292963879421069,
            -0.7032597680097371,
            -3.682013451290355,
            -2.1237308369010472,
            -2.5434493517880092,
            -1.2905685597718592,
            -1.7005869468474342,
            -6.919454765564152,
            -3.061884413056806,
            1.2460049307219063,
            -2.518021631611546,
            -5.347815469162936,
            -2.991010225295756,
            -0.24636005438951192,
            -2.879649979175883,
            -0.5006700819185093,
            -2.540326422616719,
            0.5825500201919721,
            -0.42666481760003216,
            -1.556942233592781,
            -0.7274329167062625,
            -0.23650572049228125,
            -1.8706353450225761,
            -4.374717134602715,
            -1.192835416714841,
            -0.6833720611675296,
            -1.1077140188065484,
            0.32403760733541953,
            -1.5340532968097356,
            -0.8262007317082009,
            -5.730268605904514,
            -2.1366832431746365,
            -3.9572218517146283,
            -3.8697656149109356,
            -1.2656129012908859,
            -2.4124580295683975,
            -3.3951778964844217,
            -1.9260209201619731,
            -0.7148613300618037,
            2.4271770188415602,
            -1.134172939527063,
            -2.8890313987478438,
            2.226829578088181,
            -2.7431578502538745,
            -4.744265476657975,
            -3.8851084655410197,
            -2.1566932083196413,
            -4.06049114852029,
            2.5760696918649364,
            -2.3858987288515396,
            -2.630511454845685,
            -2.5144774383441066,
            1.2236615976568204,
            -1.2363195276656533,
            -3.1839745234078767,
            -0.7193325942767971,
            -1.0420257901203636,
            -0.6133653542571096,
            -1.1285765983862726,
            -2.056724083666821,
            -0.6413108407384396,
            5.012935538625427,
            -1.6394949786371822,
            0.09082727875389013,
            -4.689184298631039,
            -2.253388639276557,
            0.8129133578343601,
            3.183693893296379,
            -2.1176455180241174,
            -3.5669192466418407,
            -2.245414507998305,
            -3.0100093563863304,
            -0.3496829943735085,
            -1.959032207465457,
            1.6199802438262805,
            -1.829138019205869,
            0.6307804250000184,
            3.2041627534380432,
            0.27872064554026016,
            -1.5498895507772268,
            -1.202535889694121,
            -2.902940808276449,
            -0.6714702022923618,
            0.773763360096005,
            -3.9508710055653493,
            -2.6885245038104975,
            -1.7697672868672318,
            -0.5618565711625688,
            -0.5284615773254228,
            -1.8345648570362902,
            -1.372047226915569,
            -1.669951594933371,
            -0.12406006904513991,
            -3.046289479891458,
            -0.7188740363975737,
            -1.7675880098485799,
            1.0156014074537287,
            4.9709154851966275,
            -2.261261248561343,
            -3.226688069101311,
            6.171721768880165,
            -0.46232209294913423,
            3.9628909524787597,
            -2.495509487138241,
            -1.4554775187868338,
            -3.3018805367901933,
            -2.061430052881419,
            -4.02416712364292,
            -2.1183122310372635,
            -0.5179762088991754,
            -1.7544022150252512,
            0.12216414450782703,
            -2.345523819567313,
            -1.240313656374584,
            -4.118670809054981,
            -3.9929437759504545,
            0.6515495760593005,
            -2.0778986354936264,
            -0.793163863600143,
            1.8771047974058177,
            -3.953363774739204,
            -3.3540726188616534,
            -3.013827132805909,
            -0.3536188495559566,
            0.7055118796746134,
            -2.5432108936023807,
            -3.5383247191357494,
            -3.0990743373308116,
            -0.46075220069305095,
            -2.3625108797764796,
            -2.0112837110257207,
            -3.6623325639617867,
            -0.4965993763514941,
            -0.4160291387343852,
            -1.949933258980549,
            -4.486806841780526,
            -3.148822898793467,
            3.6370058780596617,
            0.6363182997922897,
            -3.2104452761091387,
            -2.0396064802685876,
            -1.2863371313624656,
            -0.22421109098633765,
            6.588225999926355,
            0.7781705907483213,
            -2.8819757725528214,
            -1.201012816003844,
            -2.948190852443836,
            1.6651156874569275,
            1.1174311330455207,
            -0.3132328336623581,
            -1.3171201191169641,
            -0.2789041462826528,
            -0.7441984732928292,
            -2.1638145514369906,
            -2.830886275359464,
            -2.6866230662347395,
            -1.1962760915809836,
            3.9370954890711163,
            -1.4471954723662142,
            -2.978479862610099,
            -0.5821202573800791,
            0.7562092082589955,
            -2.5273722365738327,
            1.4287905049164586,
            0.048877099731432935,
            -1.880082390834125,
            1.2582821780543356,
            1.2808223735217454,
            -3.8409458522660134,
            0.757569053619811,
            -3.8678288978227604,
            2.8488992817389733,
            0.003837642651860526,
            -3.441168650411089,
            -0.8991438224977466,
            -0.44539326010178937,
            0.13351981789962086,
            -3.8172421374416423,
            -1.551301900426146,
            -1.5485381002201803,
            -4.798289179291437,
            -2.994414890364195,
            0.5590496758677576,
            -2.739849744810225,
            -1.5127383532872158,
            -3.006501893690153,
            -2.3624339344969947,
            -1.1067330713491288,
            -0.6536599796737472,
            -2.29786131718342,
            1.7791956442194188,
            -1.594653951640703,
            -1.4350234038193834,
            -1.2577515645681985,
            2.643669153682468,
            -2.3242844155692315,
            0.7697271940041738,
            -2.373864042075269,
            2.5531901575637126,
            -2.0084741892537634,
            -1.542790801037299,
            -2.802845284901097,
            -4.980658036404129,
            -3.2932663004089853,
            -0.5088363367613692,
            0.4914488711621133,
            -1.848509129801215,
            -3.6194968807408316,
            -1.0030459499745308,
            -4.751574202908984,
            1.7526995937919978,
            -2.0192636700805533,
            1.738725842978858,
            0.1845446722955015,
            -2.1259665734029127,
            -4.295362145428037,
            -2.349886519177271,
            0.8215335140104664,
            3.2103264406514826,
            4.466675002120735,
            -0.037885818767682655,
            0.8257480892119663,
            -1.944740613888924,
            1.337236155429239,
            -3.921378390061045,
            -2.8563275406768387,
            -1.5011046593656412,
            -3.338412356446979,
            4.090632556303962,
            5.672304275326338,
            -2.945486370454259,
            2.4418151474837466,
            -2.242662231434662,
            -3.5783114254874766,
            0.535456207759478,
            -3.829058634651653,
            1.2136421627273635,
            -4.354965688401337,
            -1.7813318917997023,
            -3.0611531455830523,
            -3.935507586103644,
            -2.760412658294215,
            0.9388256231397276,
            0.016499609255079095,
            1.0484118702176901,
            -1.2232589300430459,
            -1.4469955567040165,
            -1.3939938440527067,
            0.5695996512967844,
            -1.5419522031128168,
            -1.949420913080342,
            -1.3276388757374247,
            -1.9716319080343456,
            -2.123591913840613,
            6.166575989661135,
            0.6860695691708997,
            -0.3784617073359367,
            -1.2346820922785433,
            -2.3176737617932113,
            -1.6985636615146904,
            -2.840815107008679,
            -2.2975190019701763,
            -1.6706608773399714,
            -1.7977022501338455,
            -2.3357748977519606,
            -5.254797641207099,
            0.9219485138054282,
            -2.7435869054933466,
            -0.8093010982343815,
            1.7649016529937487,
            -2.798097529148238,
            6.58799291706657,
            0.789086161538552,
            3.481249302858464,
            0.42373350267140497,
            -3.3015612818853475,
            -2.8103100415609945,
            -2.175208302784785,
            -0.11999920455176735,
            -2.203286969345493,
            0.6733736970261139,
            -1.8425831303391773,
            -1.1178261547823964,
            -3.8730661174171845,
            -3.9949920771884946,
            -1.6901146837656467,
            -0.35093243976183064,
            -2.868210933983128,
            -0.04430440041414577,
            -1.41223862418394,
            -1.5355867148398223,
            -4.822629029790093,
            -2.686678218744034,
            -1.8377312134060966,
            -1.2678704981213824,
            -1.6046088814165567,
            0.20631180198346635,
            -2.384621419435706,
            -0.6769312740856831,
            -2.2567330436766886,
            0.7599272337261559,
            1.8641814661369738,
            -2.5569858738794053,
            2.661427987334609,
            -1.0897623838253168,
            -1.2932736403358744,
            -2.7305151084226895,
            -3.452349901813933,
            0.2148324924779092,
            2.398662625397499,
            -3.326502582329797,
            -2.465844844119889,
            -2.8664674105972514,
            -3.322263013069473,
            -2.070248148613999,
            -0.20443092113351669,
            -1.088964578277497,
            -1.6384644650519447,
            6.629018604331276,
            -1.5645557484490673,
            -3.4046301154113583,
            -1.57649985816982,
            -1.6470883338943638,
            -2.6833320813281163,
            -1.3177373832581951,
            -1.699084476503415,
            -3.301223255394168,
            -1.5019425393876085,
            1.2285303705267157,
            1.9108265757749223,
            -1.215842656025711,
            0.7726694976560338,
            -2.293809607490824,
            -2.952534704098623,
            -1.9247515142510705,
            -2.35815920259076,
            -1.4204623605344306,
            -3.6819344656795763,
            3.897042013583804,
            -1.82823858459077,
            -1.7245139181385196,
            -2.450840069763939,
            -3.3069881505022245,
            -0.6887070156599916,
            -3.556699797015277,
            -3.591170678504897,
            -2.6211984631090184,
            3.0986295096794647,
            -2.6118948270009406,
            -1.2884811473566833,
            -2.1911833290087,
            -1.544952680634977,
            -2.320706352023555,
            -1.2025290498561687,
            -0.19257692655640346,
            -4.806377137943575,
            -4.694635451565144,
            -2.8822151312691093,
            0.9820470192848243,
            -2.028244486426201,
            -1.4373982426529008,
            -5.720956678839469,
            -3.891382643356203,
            -2.190806876333388,
            0.33989396423577206,
            0.766578580601289,
            -2.0405971207064666,
            -0.8335446965327087,
            -3.2497784265432914,
            -1.670007899133457,
            -4.116899099023213,
            0.799881742725489,
            0.46516711768752994,
            0.7072319568571684,
            -1.3712213711354668,
            1.5106862087637685,
            -1.0997942298092054,
            -2.8435088458954327,
            -1.2264975356564536
        ],
        "mean_projection": [
            0.12844312045830494,
            -1.9115951805455413,
            -7.125036676839668,
            -3.8626461507648373,
            6.009761395313497,
            -0.3038411168343832,
            -3.7153856911034855,
            2.4513555699383356,
            -6.189338722722336,
            -1.8125322903545036,
            -0.9246502926444413,
            -2.6154483982887045,
            -1.2865277363903491,
            0.00732946216013353,
            0.854625393681718,
            -4.214495167136327,
            -1.1050462445225575,
            -2.3808145990030853,
            -1.8442653265359945,
            -2.6123416007496556,
            0.9720930746316191,
            -2.030730261779418,
            -2.74829056771893,
            -2.0292287313415973,
            -1.4806558256038587,
            -2.3041058386789293,
            -3.124314668032529,
            -2.0029893209419796,
            -0.14459070171771776,
            -3.8399153493825153,
            -7.467410339367834,
            -0.6388467244956189,
            -1.8743244651473399,
            -3.982499259980264,
            -3.186770657653999,
            -0.6120629298358887,
            0.26605462386754725,
            1.2385020499791146,
            -2.5907713590202732,
            -3.7262235495678695,
            -1.1285462023862483,
            0.00886388028954722,
            -0.7603071272625079,
            -0.9685165544416571,
            -1.8048879039632433,
            7.112366197764573,
            -3.0839432136673923,
            -2.558018714226728,
            -2.639238641457267,
            -3.166760268048791,
            -0.7275741072785032,
            -4.044037669132408,
            -2.4313506700232335,
            -0.2537317956997799,
            -2.09559353020901,
            -5.079006703613114,
            -1.2684075852807633,
            -0.7264148883811063,
            -1.3041786030096987,
            -1.6217779463722783,
            -2.094286342057588,
            2.804470438403076,
            -5.298835844633779,
            2.4157616478853376,
            -5.635436443120415,
            -4.9899619678891876,
            -2.8133611626624186,
            0.6865443553903959,
            -0.45175631720446047,
            0.9045409693342636,
            -2.858093654839991,
            1.1946266325873098,
            -1.6730840672032194,
            3.0813825953375598,
            -3.2850088928195245,
            0.199280345860817,
            -2.1195135462157615,
            -1.7037407162407314,
            -3.1419889093919062,
            -2.1347827164956596,
            0.2773841901988348,
            -3.2030216910407447,
            -3.370615977660228,
            -1.8105621192964916,
            -2.1865268109428864,
            3.41562188405298,
            -1.93999959998732,
            -1.5980440981817814,
            -0.5466187567382845,
            -2.212314432469077,
            -2.939451932106161,
            -2.994647668363249,
            -1.9509761481603725,
            -1.93899425672277,
            -0.11905636481730056,
            -3.1547111662553284,
            -1.7004474243416798,
            -0.3358862057009913,
            0.1608242989525126,
            -2.9381501695223724,
            -4.194644160411196,
            0.7961768787564292,
            -4.008488257859539,
            -0.6270450704577715,
            1.5041094271063602,
            -2.5566323866304597,
            -2.2941378335815057,
            -1.702724988047367,
            -0.7517828015508239,
            -2.941832877996967,
            0.2100292345416102,
            -0.9503677110783301,
            -1.837670249241789,
            -1.3326499160960308,
            -2.2346278843335816,
            2.272537461200846,
            -2.500702036194264,
            -0.8676439648507339,
            -3.871346532049948,
            -2.3284039101243463,
            -2.7535993911803285,
            -1.5059694090115503,
            -1.6819067045627738,
            -7.144911003222961,
            -3.2730414825356733,
            1.2465553465308186,
            -2.6603009301210294,
            -5.50778620800368,
            -3.2130738874925595,
            -0.5075797257741088,
            -3.005505083894859,
            -0.7786765569967876,
            -2.593349522703859,
            0.6333421902969575,
            -0.6464068749619494,
            -1.7776060086284975,
            -0.8435137361584143,
            -0.5142328057267433,
            -1.7816577128509148,
            -4.558711926724065,
            -1.2729053864117712,
            -0.9046639252709603,
            -1.2705566083777649,
            0.13675271283152554,
            -1.7383115640868052,
            -0.8793747769877494,
            -5.866309385466259,
            -2.2286392100569703,
            -3.870146866002375,
            -4.00287936714102,
            -1.4650082784864438,
            -2.6373162437074558,
            -3.5188394281773774,
            -2.1505267766940404,
            -1.003246463861597,
            2.1122574007482027,
            -1.1612722256075307,
            -3.0719646235596194,
            2.212703209034909,
            -2.8933423648011116,
            -4.9757318962603065,
            -3.958078703110891,
            -2.4037587504789166,
            -4.283390663727706,
            2.7991075403153687,
            -2.5876454293993945,
            -2.81584642171092,
            -2.7404087665209618,
            1.2296671112442634,
            -1.1935760157614892,
            -3.3506190374642237,
            -0.9341345528097089,
            -1.2072878387611339,
            -0.8342809847804031,
            -1.2456175669015506,
            -2.276605668480806,
            -0.9540107292640574,
            4.951216577696549,
            -1.8142187709199575,
            0.04563395031350776,
            -4.864859106345467,
            -2.3645240373663787,
            0.533394498332533,
            3.153578526365195,
            -2.146753891992591,
            -3.55079345186087,
            -2.440643544080882,
            -3.0951549872950253,
            -0.3524915220330831,
            -1.9721946331280018,
            1.414901841322707,
            -1.8955227420782634,
            0.30907466548069934,
            3.1725373064540365,
            0.038820362315017586,
            -1.704177615942491,
            -1.2879307420342894,
            -3.1384755424375688,
            -0.923299711263005,
            0.7807643942988026,
            -4.138868543761948,
            -2.802323946117849,
            -1.8810149537191128,
            -0.5315523109711846,
            -0.4971471246782171,
            -1.927738599200654,
            -1.5298911582649324,
            -1.618513386147737,
            -0.37634037893000905,
            -3.00549483510526,
            -0.9888274110470539,
            -1.9673023179393585,
            0.9884929531302902,
            4.911178202139161,
            -2.3255199987892214,
            -3.3692577075069075,
            6.089760142660374,
            -0.43198753891132674,
            3.919161467210253,
            -2.693789389671697,
            -1.6117038493116915,
            -3.478473411324924,
            -2.006421330072608,
            -4.0041927645905595,
            -2.3108685800728437,
            -0.7698496277363206,
            -2.0698941722856348,
            0.13810897789183768,
            -2.5828948234968263,
            -1.1956894974725703,
            -4.227601819791225,
            -4.213457574921879,
            0.6631791048575142,
            -2.3462347234685414,
            -0.7574207584846326,
            1.654406378572447,
            -4.181067253996943,
            -3.47928946837492,
            -3.0897968874874255,
            -0.32405659107467155,
            0.6883867875744267,
            -2.841269846507594,
            -3.783527865884257,
            -3.162498503197442,
            -0.7106443003578607,
            -2.521804708904753,
            -2.173085900093818,
            -3.8279246312904394,
            -0.6220970013806988,
            -0.6657999573721977,
            -2.115561221810757,
            -4.616555754718389,
            -3.2905380726049,
            3.601891317259226,
            0.4626378393915768,
            -3.3700839170444867,
            -2.2173336020018173,
            -1.3083745907280662,
            -0.19849863371543017,
            6.466878356819208,
            0.7875498527980247,
            -2.8780042943443545,
            -1.4482245693742248,
            -3.1270185106301156,
            1.6620793422441822,
            1.0880504029534663,
            -0.2857912138681376,
            -1.6020991399068438,
            -0.5335413601807578,
            -0.976214722707583,
            -2.3100224320880014,
            -3.0025621717929694,
            -2.617371354508469,
            -1.2555786947819878,
            3.8938208311591627,
            -1.669158230833117,
            -3.2170070572779883,
            -0.9080011963219129,
            0.6945875256506774,
            -2.6107061267510914,
            1.4271736585377948,
            -0.1552167785271366,
            -2.0654217903604946,
            1.2271755723980333,
            1.2817588228133872,
            -3.939165114132244,
            0.7682308189911298,
            -4.013604659176165,
            2.823272622473299,
            -0.2128550541032388,
            -3.598348185194675,
            -0.9327197817280131,
            -0.7075130909297149,
            0.15322295075925033,
            -4.019601396614591,
            -1.6448203787725448,
            -1.7032246649954206,
            -4.9972704159695365,
            -3.1152003022449644,
            0.5031793119528677,
            -2.9465838181955366,
            -1.751131734754136,
            -3.217441562259701,
            -2.5006984119374756,
            -1.1356012314639778,
            -0.6236250089750733,
            -2.5269635204101255,
            1.7715080501436367,
            -1.8487311790473022,
            -1.6041819206083292,
            -1.2479952144762216,
            2.6224457168212023,
            -2.5237429596309116,
            0.7139652774821241,
            -2.5422854666330195,
            2.352113725568439,
            -2.16644554003311,
            -1.495751617500302,
            -2.9468424560918787,
            -5.183224311706663,
            -3.3753518343219047,
            -0.7585369375769307,
            0.4391215364424655,
            -2.0155058073039154,
            -3.871485227668972,
            -1.1944836959370808,
            -4.953219231143487,
            1.7446446593064069,
            -2.2153928689077387,
            1.7349088399702115,
            0.2005857472665257,
            -2.3225171849348367,
            -4.417480652043453,
            -2.4949795392356253,
            0.5053233224967417,
            3.1812805339253813,
            4.2930175874805485,
            -0.048658776329098784,
            0.8320134751861185,
            -2.1763356337182604,
            1.3367882575454322,
            -4.052654284929225,
            -3.0292318087369936,
            -1.7528407677755917,
            -3.5209752307028213,
            4.044923741593345,
            5.602291803591929,
            -3.084811919788739,
            2.4252351562417074,
            -2.410960789678954,
            -3.758092884096005,
            0.3283840765864692,
            -4.022391396022507,
            1.2171481429563171,
            -4.256685741754323,
            -2.096706961620571,
            -3.1920646939289212,
            -4.1494206129691875,
            -2.9790975770477948,
            0.9474824287338343,
            -0.06543082829350867,
            1.0593328424783408,
            -1.3840415036928237,
            -1.5739522861968853,
            -1.4184677975068094,
            0.581030029911563,
            -1.7972485523738837,
            -2.078675298201997,
            -1.589333011508492,
            -1.9194279904074403,
            -2.279394461340411,
            6.0952472818603995,
            0.7009566976834362,
            -0.6192622262792918,
            -1.3948338254877153,
            -2.3491501874968015,
            -1.7977820331626586,
            -3.0834881306799784,
            -2.2022839935813416,
            -1.621077195123874,
            -1.9735070210627679,
            -2.6076211011957744,
            -5.4494919804298485,
            0.6327245687455018,
            -2.8737757881181962,
            -1.0537033855026752,
            1.7578025910994355,
            -3.003745426874692,
            6.50307833583061,
            0.7988229705630134,
            3.447844192936474,
            0.43732945067341955,
            -3.5117971489554045,
            -3.0272548952063367,
            -2.3307375439215297,
            -0.09405031735666429,
            -2.3161335843257476,
            0.6818285378457378,
            -2.037077676058553,
            -1.410063654851083,
            -3.9847847456620986,
            -4.2374502050390275,
            -1.8953783306112844,
            -0.324372820438671,
            -3.0708412613825953,
            -0.26578133815038807,
            -1.5484852245245204,
            -1.7989723844060816,
            -4.948412172138571,
            -2.6151931807012145,
            -1.7833315744737988,
            -1.4659561294984191,
            -1.7764404358523647,
            0.09916466797185561,
            -2.3193221804265747,
            -0.7113846468110012,
            -2.5063838047623097,
            0.45072646287214685,
            1.85825189841129,
            -2.7913782727719187,
            2.638248254226845,
            -1.2040693645366418,
            -1.4530278426791798,
            -2.9618268138488815,
            -3.7150472338803957,
            0.23746984027132664,
            2.348383270668741,
            -3.3492355094919763,
            -2.4703504025630254,
            -3.003313449935239,
            -3.509663564309829,
            -2.197215600525694,
            -0.18004049002032776,
            -1.2405431298090759,
            -1.7510035148970076,
            6.540493097732883,
            -1.7769365610203842,
            -3.4761071245394426,
            -1.8011523308262707,
            -1.8047872005758383,
            -2.8991202600584627,
            -1.5028517000445936,
            -1.9311981339508257,
            -3.3965717697130025,
            -1.4485939963649919,
            1.165649501004874,
            1.899678218175766,
            -1.2987893426084425,
            0.7797661191274665,
            -2.465119811541461,
            -3.089025400446575,
            -2.053197493524795,
            -2.562101984959153,
            -1.5215593980785989,
            -3.599717031993615,
            3.851543531440099,
            -2.0624932393178463,
            -1.8736760311361058,
            -2.5763818108869696,
            -3.5641779397613553,
            -0.654615268078388,
            -3.658384620456424,
            -3.7786105834064645,
            -2.556357633140503,
            3.0676038285145255,
            -2.8910600203083012,
            -1.5243189664022392,
            -2.444951233697405,
            -1.660166321983006,
            -2.544224809107001,
            -1.4608428830002234,
            -0.16795230359713656,
            -5.006480830032742,
            -4.901124633481028,
            -3.1457446652912346,
            0.9875093017062574,
            -2.184874165603298,
            -1.6436227890174753,
            -5.914286528877912,
            -4.040115276290892,
            -2.358540235702124,
            0.3552819233092356,
            0.7751290939581489,
            -2.13956175651692,
            -1.0008539962033336,
            -3.4704126794091525,
            -1.6492104660593763,
            -4.298297389294573,
            0.8062542224143463,
            0.4813104354957665,
            0.7149360930593288,
            -1.4890982442284795,
            1.4775379806792543,
            -1.3194230395305133,
            -3.0450286013217713,
            -1.1836728828201186
        ]
    }
}