{
    "args": {
        "model": "llama_8b",
        "dataset": "CB_drlDomain",
        "token_mode": "last_token",
        "ood": true,
        "smoke_test": false,
        "components": 50,
        "mode": "default",
        "model_name": "llama_8b",
        "target_dataset": "CB_drlDomain",
        "datetime": "2026-05-07 00:51:04"
    },
    "test_metrics": {
        "test_metrics_by_layer": [
            {
                "n_total": 496,
                "auroc": 0.638039802289282,
                "accuracy": 0.6350806451612904,
                "f1": 0.7228177641653905,
                "tpr_at_fpr_0_05": 0.0,
                "optimal_threshold_f1": 0.5,
                "optimal_threshold_acc": 0.5,
                "aupr": 0.5811097787347129
            },
            {
                "n_total": 496,
                "auroc": 0.9853180280957337,
                "accuracy": 0.9455645161290323,
                "f1": 0.9456740442655935,
                "tpr_at_fpr_0_05": 0.9395161290322581,
                "optimal_threshold_f1": 0.5,
                "optimal_threshold_acc": 0.5,
                "aupr": 0.9889104476717331
            },
            {
                "n_total": 496,
                "auroc": 0.9905372008324662,
                "accuracy": 0.9637096774193549,
                "f1": 0.964,
                "tpr_at_fpr_0_05": 0.9758064516129032,
                "optimal_threshold_f1": 0.5,
                "optimal_threshold_acc": 0.5,
                "aupr": 0.9925386028940196
            },
            {
                "n_total": 496,
                "auroc": 0.995057232049948,
                "accuracy": 0.9758064516129032,
                "f1": 0.975609756097561,
                "tpr_at_fpr_0_05": 0.9919354838709677,
                "optimal_threshold_f1": 0.5,
                "optimal_threshold_acc": 0.5,
                "aupr": 0.9963794088641259
            },
            {
                "n_total": 496,
                "auroc": 0.9973660249739855,
                "accuracy": 0.9879032258064516,
                "f1": 0.9878048780487805,
                "tpr_at_fpr_0_05": 0.9879032258064516,
                "optimal_threshold_f1": 0.5,
                "optimal_threshold_acc": 0.5,
                "aupr": 0.9977749692471174
            },
            {
                "n_total": 496,
                "auroc": 0.999447190426639,
                "accuracy": 0.9858870967741935,
                "f1": 0.9857433808553971,
                "tpr_at_fpr_0_05": 0.9959677419354839,
                "optimal_threshold_f1": 0.5,
                "optimal_threshold_acc": 0.5,
                "aupr": 0.9994640807437204
            },
            {
                "n_total": 496,
                "auroc": 0.9989431581685744,
                "accuracy": 0.9798387096774194,
                "f1": 0.9795081967213115,
                "tpr_at_fpr_0_05": 0.9919354838709677,
                "optimal_threshold_f1": 0.5,
                "optimal_threshold_acc": 0.5,
                "aupr": 0.9989784486901387
            },
            {
                "n_total": 496,
                "auroc": 0.9993171175858481,
                "accuracy": 0.9858870967741935,
                "f1": 0.9857433808553971,
                "tpr_at_fpr_0_05": 1.0,
                "optimal_threshold_f1": 0.5,
                "optimal_threshold_acc": 0.5,
                "aupr": 0.9993266085624808
            },
            {
                "n_total": 496,
                "auroc": 0.9989106399583767,
                "accuracy": 0.9758064516129032,
                "f1": 0.9754098360655737,
                "tpr_at_fpr_0_05": 0.9959677419354839,
                "optimal_threshold_f1": 0.5,
                "optimal_threshold_acc": 0.5,
                "aupr": 0.998970397797609
            },
            {
                "n_total": 496,
                "auroc": 0.9985529396462018,
                "accuracy": 0.9899193548387096,
                "f1": 0.9898580121703854,
                "tpr_at_fpr_0_05": 0.9919354838709677,
                "optimal_threshold_f1": 0.5,
                "optimal_threshold_acc": 0.5,
                "aupr": 0.9987261304102397
            },
            {
                "n_total": 496,
                "auroc": 0.9996910770031218,
                "accuracy": 0.9899193548387096,
                "f1": 0.9898167006109979,
                "tpr_at_fpr_0_05": 0.9959677419354839,
                "optimal_threshold_f1": 0.5,
                "optimal_threshold_acc": 0.5,
                "aupr": 0.999702829508242
            },
            {
                "n_total": 496,
                "auroc": 0.999561004162331,
                "accuracy": 0.9899193548387096,
                "f1": 0.9898167006109979,
                "tpr_at_fpr_0_05": 0.9959677419354839,
                "optimal_threshold_f1": 0.5,
                "optimal_threshold_acc": 0.5,
                "aupr": 0.9995770942859826
            },
            {
                "n_total": 496,
                "auroc": 0.9997886316337149,
                "accuracy": 0.9879032258064516,
                "f1": 0.9877551020408163,
                "tpr_at_fpr_0_05": 1.0,
                "optimal_threshold_f1": 0.5,
                "optimal_threshold_acc": 0.5,
                "aupr": 0.999794080490932
            },
            {
                "n_total": 496,
                "auroc": 0.9995284859521332,
                "accuracy": 0.9919354838709677,
                "f1": 0.991869918699187,
                "tpr_at_fpr_0_05": 0.9959677419354839,
                "optimal_threshold_f1": 0.5,
                "optimal_threshold_acc": 0.5,
                "aupr": 0.9995552224522296
            },
            {
                "n_total": 496,
                "auroc": 0.999658558792924,
                "accuracy": 0.9919354838709677,
                "f1": 0.991869918699187,
                "tpr_at_fpr_0_05": 0.9959677419354839,
                "optimal_threshold_f1": 0.5,
                "optimal_threshold_acc": 0.5,
                "aupr": 0.9996736932525422
            },
            {
                "n_total": 496,
                "auroc": 0.9998211498439126,
                "accuracy": 0.9879032258064516,
                "f1": 0.9877551020408163,
                "tpr_at_fpr_0_05": 1.0,
                "optimal_threshold_f1": 0.5,
                "optimal_threshold_acc": 0.5,
                "aupr": 0.9998238770372738
            },
            {
                "n_total": 496,
                "auroc": 0.9996422996878251,
                "accuracy": 0.9939516129032258,
                "f1": 0.9939148073022313,
                "tpr_at_fpr_0_05": 0.9959677419354839,
                "optimal_threshold_f1": 0.5,
                "optimal_threshold_acc": 0.5,
                "aupr": 0.9996613217208166
            },
            {
                "n_total": 496,
                "auroc": 0.9999837408949012,
                "accuracy": 0.9959677419354839,
                "f1": 0.9959514170040485,
                "tpr_at_fpr_0_05": 1.0,
                "optimal_threshold_f1": 0.5,
                "optimal_threshold_acc": 0.5,
                "aupr": 0.9999838061925119
            },
            {
                "n_total": 496,
                "auroc": 0.999886186264308,
                "accuracy": 0.9939516129032258,
                "f1": 0.9939393939393939,
                "tpr_at_fpr_0_05": 1.0,
                "optimal_threshold_f1": 0.5,
                "optimal_threshold_acc": 0.5,
                "aupr": 0.9998861798999457
            },
            {
                "n_total": 496,
                "auroc": 0.999886186264308,
                "accuracy": 0.9919354838709677,
                "f1": 0.9919354838709677,
                "tpr_at_fpr_0_05": 1.0,
                "optimal_threshold_f1": 0.5,
                "optimal_threshold_acc": 0.5,
                "aupr": 0.9998870936522943
            },
            {
                "n_total": 496,
                "auroc": 0.9999512226847035,
                "accuracy": 0.9939516129032258,
                "f1": 0.993963782696177,
                "tpr_at_fpr_0_05": 1.0,
                "optimal_threshold_f1": 0.5,
                "optimal_threshold_acc": 0.5,
                "aupr": 0.999951482830385
            },
            {
                "n_total": 496,
                "auroc": 0.9998699271592092,
                "accuracy": 0.9939516129032258,
                "f1": 0.993963782696177,
                "tpr_at_fpr_0_05": 1.0,
                "optimal_threshold_f1": 0.5,
                "optimal_threshold_acc": 0.5,
                "aupr": 0.9998705085623849
            },
            {
                "n_total": 496,
                "auroc": 0.9999024453694069,
                "accuracy": 0.9939516129032258,
                "f1": 0.993963782696177,
                "tpr_at_fpr_0_05": 1.0,
                "optimal_threshold_f1": 0.5,
                "optimal_threshold_acc": 0.5,
                "aupr": 0.9999028303510245
            },
            {
                "n_total": 496,
                "auroc": 0.9998211498439126,
                "accuracy": 0.9959677419354839,
                "f1": 0.9959677419354839,
                "tpr_at_fpr_0_05": 1.0,
                "optimal_threshold_f1": 0.5,
                "optimal_threshold_acc": 0.5,
                "aupr": 0.9998189944474914
            },
            {
                "n_total": 496,
                "auroc": 0.9998699271592092,
                "accuracy": 0.9959677419354839,
                "f1": 0.9959677419354839,
                "tpr_at_fpr_0_05": 1.0,
                "optimal_threshold_f1": 0.5,
                "optimal_threshold_acc": 0.5,
                "aupr": 0.999871335775965
            },
            {
                "n_total": 496,
                "auroc": 0.9998699271592092,
                "accuracy": 0.9959677419354839,
                "f1": 0.9959677419354839,
                "tpr_at_fpr_0_05": 1.0,
                "optimal_threshold_f1": 0.5,
                "optimal_threshold_acc": 0.5,
                "aupr": 0.9998705623780768
            },
            {
                "n_total": 496,
                "auroc": 0.9997398543184183,
                "accuracy": 0.9959677419354839,
                "f1": 0.9959677419354839,
                "tpr_at_fpr_0_05": 1.0,
                "optimal_threshold_f1": 0.5,
                "optimal_threshold_acc": 0.5,
                "aupr": 0.9997364210352077
            },
            {
                "n_total": 496,
                "auroc": 0.9997398543184184,
                "accuracy": 0.9959677419354839,
                "f1": 0.9959677419354839,
                "tpr_at_fpr_0_05": 1.0,
                "optimal_threshold_f1": 0.5,
                "optimal_threshold_acc": 0.5,
                "aupr": 0.9997377499840219
            },
            {
                "n_total": 496,
                "auroc": 0.9998699271592092,
                "accuracy": 0.9959677419354839,
                "f1": 0.9959677419354839,
                "tpr_at_fpr_0_05": 1.0,
                "optimal_threshold_f1": 0.5,
                "optimal_threshold_acc": 0.5,
                "aupr": 0.999871335775965
            },
            {
                "n_total": 496,
                "auroc": 0.9997723725286161,
                "accuracy": 0.9939516129032258,
                "f1": 0.9939393939393939,
                "tpr_at_fpr_0_05": 1.0,
                "optimal_threshold_f1": 0.5,
                "optimal_threshold_acc": 0.5,
                "aupr": 0.999771563617452
            },
            {
                "n_total": 496,
                "auroc": 0.9998699271592092,
                "accuracy": 0.9959677419354839,
                "f1": 0.9959677419354839,
                "tpr_at_fpr_0_05": 1.0,
                "optimal_threshold_f1": 0.5,
                "optimal_threshold_acc": 0.5,
                "aupr": 0.999871335775965
            },
            {
                "n_total": 496,
                "auroc": 0.9999512226847035,
                "accuracy": 0.9959677419354839,
                "f1": 0.9959677419354839,
                "tpr_at_fpr_0_05": 1.0,
                "optimal_threshold_f1": 0.5,
                "optimal_threshold_acc": 0.5,
                "aupr": 0.9999518056805038
            },
            {
                "n_total": 496,
                "auroc": 0.9999674817898023,
                "accuracy": 0.9979838709677419,
                "f1": 0.997979797979798,
                "tpr_at_fpr_0_05": 1.0,
                "optimal_threshold_f1": 0.5,
                "optimal_threshold_acc": 0.5,
                "aupr": 0.9999677419354839
            }
        ],
        "mean_projection_metrics": {
            "n_total": 496,
            "auroc": 0.9999349635796045,
            "accuracy": 0.9939516129032258,
            "f1": 0.9939148073022313,
            "tpr_at_fpr_0_05": 1.0,
            "optimal_threshold_f1": 0.5,
            "optimal_threshold_acc": 0.5,
            "aupr": 0.9999353543205078
        },
        "weighted_projection_metrics": {
            "n_total": 496,
            "auroc": 0.9999512226847035,
            "accuracy": 0.9939516129032258,
            "f1": 0.9939148073022313,
            "tpr_at_fpr_0_05": 1.0,
            "optimal_threshold_f1": 0.5,
            "optimal_threshold_acc": 0.5,
            "aupr": 0.999951482830385
        },
        "scores": {
            "mean_projection": [
                -4.3913606268090675,
                5.932513870765237,
                -7.610841682315312,
                -7.315446196383781,
                6.609981764162357,
                6.2097462284021905,
                7.659004843816052,
                -8.235253308600196,
                4.442288366998669,
                -6.171264055902404,
                -4.879431162890521,
                -4.958701114551991,
                7.433967511795414,
                4.348879095259168,
                -6.397183594210617,
                -8.18205091654731,
                4.816268030501668,
                9.665089888798255,
                2.977072579767893,
                -5.1563391042133455,
                8.674823701300816,
                9.052501977498371,
                9.130415941559932,
                -7.630512095916168,
                -4.722969353449846,
                7.3822184055004385,
                -5.525941195964133,
                5.2804594026147385,
                7.627190668737501,
                -4.919104691192369,
                2.5579380761615576,
                5.581049399540566,
                5.882484918090193,
                11.01081513079257,
                7.745681465654681,
                6.245680303505181,
                -2.6733109799210575,
                6.528286845936643,
                -4.9603784117414165,
                7.275704473157944,
                -7.647405135751292,
                -5.115024943074622,
                5.984636046762909,
                -3.328972401976076,
                9.982185737322524,
                7.323735411303447,
                5.349008378776749,
                -4.3878963990814706,
                7.3428106250735725,
                5.057740698576379,
                5.611562503373696,
                6.09209812427665,
                -4.72756336497608,
                6.461798017726977,
                4.240479089021981,
                5.914218081403873,
                -4.970368561311747,
                -5.18583498672597,
                -6.670369967569053,
                8.42382945783781,
                -0.17734675862724544,
                6.908753518744217,
                4.963142406148018,
                -5.206853860986802,
                -7.595630728447859,
                -3.4632439511682866,
                -7.111165804596384,
                5.346589686734494,
                5.043254663514133,
                -5.878624412466494,
                -6.419806330245071,
                2.8598299153680733,
                4.995578916591692,
                5.631435986177375,
                9.959577850112616,
                9.31190525788534,
                -7.34895615798876,
                6.212161538528807,
                -4.9640465071856585,
                6.363411793023828,
                -4.776322144115506,
                2.867988718530213,
                -6.304290792306148,
                -3.9828305038318965,
                -3.5849142532802616,
                5.750665540144311,
                -8.131662324027234,
                -6.261307277518527,
                -8.981074952639284,
                7.949785264864957,
                -5.948641158842226,
                -1.2247712021756598,
                5.498136437138119,
                -8.517585206296213,
                9.876870644543796,
                2.978021317890602,
                7.20511504134694,
                6.724148127074658,
                1.9872058606907406,
                4.449118897637425,
                -5.159295438436113,
                -2.2820187107113874,
                9.454264793560707,
                -6.3787142845983045,
                -5.694226928043341,
                9.332247880699846,
                -7.6548777834827035,
                -4.027143954964299,
                8.78541610337058,
                -7.995465235349038,
                -7.408997657400853,
                4.297940032923831,
                -3.106363681507331,
                -6.1009501502602586,
                -3.0892660932924625,
                -6.7590088877406505,
                -3.8966808104809942,
                7.5151980540929575,
                -5.726174268477194,
                -8.845873128691142,
                7.529978706366743,
                -5.598802670090232,
                -1.6627231871742034,
                2.5475222466765377,
                3.712029082061108,
                -4.872890110624479,
                -6.120136659991049,
                -5.775500183285736,
                -3.5826564990892225,
                -2.969670764253944,
                -7.959603579957966,
                -6.794938666370706,
                7.14900155055047,
                -4.481305009364105,
                6.302558003454028,
                -7.147844401652991,
                5.096727253427395,
                -6.628328687379774,
                5.490254028854906,
                -4.3606807280639615,
                7.077651525587089,
                -4.892512634330879,
                -3.04259840684773,
                8.55487020053489,
                4.909967235458507,
                -6.038155161887605,
                -5.847063784903526,
                -2.565076915937908,
                -6.0066630323769195,
                3.1682129431184385,
                4.962552275385481,
                4.335819868373662,
                6.733918251217758,
                0.1450320867326112,
                -4.210873916002569,
                5.57195853210943,
                -2.3777925927881496,
                6.928327790170026,
                -0.8713196771134945,
                -6.126927559494042,
                -2.3016167754092476,
                7.42177490756564,
                -4.336232147675579,
                4.096099863678295,
                5.779509609715109,
                -5.17889712496928,
                -9.290232853119837,
                -4.9915868624860975,
                7.412645809267856,
                8.001331465444137,
                4.590975487206562,
                -9.61602545660339,
                8.111321686084814,
                4.301360235867251,
                -4.765578320192093,
                -0.24371969187344547,
                -7.821630641005417,
                7.607834536071875,
                6.2029825225362885,
                4.555913664652966,
                -8.780710897714982,
                8.650007669163088,
                6.474655984416902,
                -7.327310727553501,
                -5.591461035198684,
                -8.999857544472464,
                8.556554856519337,
                6.175798955935187,
                6.355890125661568,
                -5.046622519346693,
                -0.18496187342574996,
                7.236876575187009,
                -5.683241021269946,
                -7.564608233099392,
                4.456712053446074,
                7.858749567969085,
                -3.9011220611495254,
                8.175239409918133,
                -5.935870384771822,
                -4.213486482929719,
                2.0370821804163746,
                7.88231653200268,
                4.588255350032459,
                -4.7722931814378935,
                7.561200506655152,
                -5.188363025162898,
                -8.20466402307774,
                11.580299728598968,
                -7.108671088329063,
                2.9003983585041486,
                -4.76929197666836,
                8.135293013614708,
                -4.433702063489518,
                2.1525670916658832,
                1.9307659021182866,
                -6.963134651429749,
                -7.463444013412107,
                4.82947650776108,
                5.278323870012283,
                -6.659391257059437,
                7.940985634222421,
                -6.3262540959394284,
                9.102563859894179,
                -3.4092716221373367,
                -6.479651430158529,
                7.4812121953087525,
                -11.084030015246036,
                5.733285841382305,
                -4.480473905707127,
                -4.502678690866848,
                -9.126916536246355,
                -7.064125097339326,
                6.247420424167206,
                -9.09062280849174,
                -2.7561845001717176,
                5.307960376142195,
                -2.6969074597994425,
                -5.0748396871617745,
                -3.520402905712596,
                8.65983206566025,
                -4.177436143442383,
                -9.034737667856573,
                8.999737908170959,
                -5.8174352938048255,
                4.1433484255841675,
                8.36020430199085,
                3.175611474252981,
                5.487597578107882,
                4.364822140538976,
                -4.748433772692974,
                -5.036019485772351,
                -6.531512780943815,
                -8.351317827665588,
                -7.107350417120479,
                7.893297178132864,
                -5.568450844170889,
                -7.333997144060798,
                5.290091713104678,
                -6.0614440426436,
                -7.814546809966599,
                4.315997098941213,
                5.219885944660695,
                5.890490606414563,
                9.900362104008382,
                9.839535562993609,
                6.924690201572177,
                -5.230385526230181,
                -6.465650952831383,
                6.333803806244911,
                6.107221981203919,
                7.422854683226468,
                6.263217298228694,
                -5.66745058573824,
                -6.603943075826182,
                -5.333386822150498,
                5.471902191707643,
                3.021185727309631,
                -1.7498126342391096,
                6.024316446561813,
                -7.818154193559838,
                5.435828977128728,
                -4.912844247056517,
                5.101824013285371,
                8.158662122817539,
                7.03766844475882,
                -9.015294757171304,
                5.779509609715109,
                -9.665683678926506,
                4.627907850273448,
                -2.555181283331698,
                -6.819435227251192,
                6.3996315225746985,
                11.071580337985765,
                7.85183091239271,
                7.617670560078533,
                3.5010082590500766,
                6.220457915791611,
                -3.8525789529225416,
                4.791540969410916,
                -9.938902134112793,
                -4.333467286448174,
                -3.7759063674885835,
                7.997830062672167,
                -8.920526165810966,
                -9.038814912367643,
                6.990716418130383,
                7.0067841062230105,
                6.36017695927591,
                9.008534677211115,
                11.410232524175832,
                7.714889395077091,
                7.301748837284906,
                -2.06985106581069,
                4.298270820731475,
                9.102844827284626,
                2.813813871436613,
                -6.470204455296895,
                -5.9798572878807335,
                7.754270665622799,
                -8.97347879220807,
                -6.848438174300591,
                0.28395742371994737,
                -5.630942811087524,
                -6.616141132822359,
                -6.126807003012472,
                -3.5625604186743587,
                4.2256887890748,
                -5.793075104746358,
                -7.168786365562431,
                7.276292839522476,
                -6.098366546960539,
                5.977164976196654,
                -4.467476727929584,
                7.547405924106417,
                -8.075812077506475,
                3.5039160948654615,
                -3.198353677122438,
                -4.4670989681037465,
                6.627559944905766,
                6.271170374711223,
                -6.858768715694441,
                -5.480011114255016,
                -8.470782314499818,
                -8.53226198209376,
                3.834091473450513,
                -7.405858137813151,
                -10.466283015702272,
                -9.004915946198437,
                6.161161886041181,
                -5.581976903190607,
                -5.330806261534637,
                5.138823199304161,
                -10.242905183988888,
                -4.009973772181539,
                7.487465182447064,
                3.5070286122494085,
                -3.4271765882893983,
                6.131074753700558,
                4.7065847357576045,
                -4.763954417950316,
                5.800707039685524,
                8.334058108158448,
                -6.512415640413392,
                3.7633384951620497,
                -5.628350481255015,
                8.439245929174628,
                4.886417439283901,
                -6.61327343253472,
                -6.006479362160067,
                -6.106473420389029,
                -6.328617544796597,
                8.983604165103287,
                -9.290674092337264,
                -2.3336919615268177,
                9.617938841928115,
                4.2719321052668064,
                -8.697545878816703,
                -8.797879764075816,
                8.054814573859677,
                6.9891231879429485,
                -11.443171318581518,
                -5.212917552775182,
                -5.855790341241638,
                -5.477231629286097,
                -3.9091047475982763,
                -6.527530161341389,
                7.342485038826203,
                7.784908176848016,
                6.364472023025667,
                2.703509754307732,
                3.1329341704925593,
                5.779509609715109,
                4.063601835525608,
                2.194411749842062,
                -4.667458289468493,
                -8.68229339736073,
                8.607055213496096,
                4.225330546708382,
                4.7086928492266535,
                -9.469829292834453,
                -4.679562207146013,
                -7.005470882041062,
                5.146645812051831,
                2.4613616958802838,
                6.478732764454497,
                10.422406522556418,
                6.094633204750496,
                3.993468592739477,
                -6.72910047643123,
                -3.4685669601436433,
                2.8202613936481407,
                6.918484265543586,
                7.933085497484993,
                -8.16562444545022,
                5.620528665166186,
                7.205973957554112,
                6.330528454439872,
                5.582443779290603,
                -5.61487384717682,
                -2.5639587188917945,
                -6.597044094557117,
                -6.647974452513867,
                7.371633852658438,
                -6.9203841763008205,
                6.949369377704704,
                -8.98987035431405,
                7.882642027039701,
                1.4889270813160995,
                5.2379883775232186,
                -3.7184037312113642,
                -3.2875558853254043,
                -6.008113425627283,
                6.333525423462754,
                4.839086768096448,
                -4.699276151851571,
                -5.648450663142753,
                -6.148906630215954,
                -5.881046296404262,
                -8.490261886792648,
                -7.74862429952081,
                6.4039112155356195,
                7.291837235079003,
                -5.84252053308613,
                -7.588116980213642,
                -6.983855812742362,
                6.10807969296098,
                -7.646845643034117,
                3.9877910513710972,
                7.74805686566522,
                -5.006849047968815,
                10.039162174580776,
                9.896065464265748,
                -1.6659242965473258,
                7.967994462792504,
                9.002068096759979,
                4.439103742593986,
                -4.264342051383109,
                8.475933418840809,
                -10.186513712148617,
                6.355639404328025,
                8.405607768546757,
                -5.165350951231033,
                -5.715307357327711,
                5.532190281210379,
                -3.5162225784868526,
                4.204886187727303,
                -8.317729248098944,
                -6.524523565609071,
                4.5639240414670255,
                10.964309491734022,
                -6.794494138538072,
                9.842588600201307,
                -8.69213108263914,
                -9.072211802203704,
                -4.990324665554763,
                6.417398997045751,
                5.543211813658534,
                -7.361218034336687,
                -7.6512507304340955,
                -9.506878926471103,
                6.035848425675016,
                -4.20832321868933,
                5.823618764719294,
                5.5272059992394516,
                -5.730005071112292,
                -6.935988671571305,
                6.565186433228967,
                8.486590173784705,
                -6.7068244446915966,
                -4.094459732989765,
                -7.715396997999488,
                8.142895734936928,
                5.259002474666582,
                6.343238176799488,
                -5.094658922733779,
                -8.664354389489995
            ],
            "weighted_projection": [
                -4.492048675796047,
                6.008004109337533,
                -7.764764165381313,
                -7.465852791980285,
                6.6951900793730115,
                6.291387528391288,
                7.765866561574335,
                -8.39356541645904,
                4.488246826491335,
                -6.297057972056597,
                -4.948580776748924,
                -5.062013100148641,
                7.531903191129876,
                4.395664828866199,
                -6.135992951147567,
                -8.341442392276514,
                4.870473841363616,
                9.804490925055513,
                3.003659940744781,
                -5.264130677934556,
                8.798162606828289,
                9.181571171105439,
                9.261235303526536,
                -7.750038417579518,
                -4.82249422952598,
                7.486062463827542,
                -5.640952913489224,
                5.343923528014133,
                7.729341575725415,
                -4.947051718354483,
                2.662383781035778,
                5.648040982016456,
                5.9553217095658555,
                11.171596263637234,
                7.8538283739725285,
                6.331732552502282,
                -2.7384078575735917,
                6.619196634070028,
                -5.068199148454126,
                7.373121865034871,
                -7.738581354446746,
                -5.226050252811429,
                6.060086231148488,
                -3.411275317169337,
                10.127889785719583,
                7.425437878110137,
                5.416115570327593,
                -4.488527142396006,
                7.441372799742799,
                5.118314764650246,
                5.679979225960641,
                6.204536942323565,
                -4.83500099302333,
                6.544233653652957,
                4.520457318722017,
                5.9894683477883985,
                -5.083770128599543,
                -5.3002275847507105,
                -6.806824891018841,
                8.542141929295742,
                -0.20343984615824845,
                7.000010129147586,
                5.022342586208361,
                -5.318316616515714,
                -7.746797001474164,
                -3.508629569363265,
                -7.256195843564716,
                5.408075535559683,
                5.105230902651565,
                -5.999285048362218,
                -6.550622011835449,
                2.884082493859175,
                5.057049030650598,
                5.7015634033322975,
                10.10436943517352,
                9.442146306245778,
                -7.41589723240073,
                6.289011236462382,
                -5.069886122935706,
                6.448237915905371,
                -4.880806297628297,
                2.8893357762263636,
                -6.434162257961842,
                -4.072170726004593,
                -3.5838689978932297,
                5.821062616583255,
                -8.297146292625916,
                -6.386517528866286,
                -9.157169375352812,
                8.056873948265231,
                -6.078378025616166,
                -1.265079463215382,
                5.566271190993477,
                -8.387478286030193,
                10.023778289218713,
                3.007275048338481,
                7.299499069094624,
                6.812347402096818,
                1.9990003469616675,
                4.569837780086619,
                -5.271945833685037,
                -2.3437959242080004,
                9.590723487571404,
                -6.436862567342943,
                -5.603624602028396,
                9.465842383615376,
                -7.809355553078188,
                -4.118719600804949,
                8.907703356484186,
                -8.153343985372262,
                -7.5562872199140365,
                4.346475365647458,
                -3.0556984845461566,
                -6.075177539132742,
                -3.1293277730925917,
                -6.893347735475872,
                -3.9865606179281077,
                7.618714936023347,
                -5.843884253588801,
                -8.700293550644025,
                7.631097259579461,
                -5.71583369574609,
                -1.7178177236069923,
                2.5650072926152476,
                3.7504394363018965,
                -4.979620942856648,
                -6.248638133076817,
                -5.903741204069036,
                -3.663181730082477,
                -3.0429110394263237,
                -8.121651605867592,
                -6.932675519467849,
                7.2510988179924185,
                -4.50064204312242,
                6.385072367707964,
                -7.290081017317061,
                5.156579509127546,
                -6.7659880002432224,
                5.553814539924289,
                -4.456796758963055,
                7.174320957591147,
                -4.7388003768378,
                -2.872691895280518,
                8.674952449190036,
                4.968209892066848,
                -6.165603662006184,
                -5.969568816833731,
                -2.6300276676849297,
                -6.1353082366511105,
                3.1956354321137876,
                5.021912328559597,
                4.377321908596057,
                6.820610140392378,
                0.12732621804716568,
                -4.306326066488022,
                5.645514326926471,
                -2.437539514432886,
                7.020445706326666,
                -0.9116293629256784,
                -6.254069251785496,
                -2.360320803057904,
                7.522611356853056,
                -4.431549657664353,
                4.142012824063872,
                5.849507567398754,
                -4.889814268470625,
                -9.472769041246622,
                -5.065975708135343,
                7.512356898257339,
                8.111649780367369,
                4.64123179446838,
                -9.502856325303886,
                8.223860523198423,
                4.351573648774038,
                -4.79067347319372,
                0.021524880163447092,
                -7.973559484060992,
                7.7119808621850705,
                6.284354815795099,
                4.613614158936392,
                -8.874892062631695,
                8.77101675508943,
                6.594258757749603,
                -7.472754305018058,
                -5.709690864652958,
                -8.873674380899098,
                8.677552202019038,
                6.2550321703809555,
                6.43802991459503,
                -5.153645513345716,
                -0.21231883296833354,
                7.330171306282726,
                -5.807107541212815,
                -7.638979974141073,
                4.511172879500887,
                7.965293787584658,
                -3.9881312097040835,
                8.28662841514647,
                -6.059067666219205,
                -4.308729606745376,
                2.047122350563926,
                8.066162794830088,
                4.640229454435965,
                -4.87542744373177,
                7.661676661235706,
                -4.993899752478246,
                -8.370457209048734,
                11.753919842376023,
                -7.248903926886782,
                2.9242956298859513,
                -4.874373314351025,
                8.24984893273324,
                -4.498816364335244,
                2.1664796767305403,
                1.9412116244496573,
                -6.806477879263569,
                -7.607958202707847,
                4.89031846043542,
                5.3410794171346225,
                -6.79450332145772,
                8.04943359808702,
                -6.455325080297452,
                9.22860249679283,
                -3.4962993482976783,
                -6.6093667764653485,
                7.5885536470360435,
                -11.298540624554782,
                5.802354328761524,
                -4.580793561063892,
                -4.606747874650322,
                -9.006237224176658,
                -7.207289865128388,
                6.325098449964966,
                -9.267817284543401,
                -2.8266905508947446,
                5.374443384049985,
                -2.72532782116946,
                -5.180895221469869,
                -3.60650568363232,
                8.776489123027103,
                -4.058452334422359,
                -9.211943324001073,
                9.126675805323108,
                -5.753998663482995,
                4.191317550761038,
                8.478069076483965,
                3.206177099606177,
                5.554655014688413,
                4.409254767807973,
                -4.85051140787089,
                -5.113072674028719,
                -6.671348686676695,
                -8.522062756041194,
                -7.252883399379705,
                8.001296272523986,
                -5.689690352877142,
                -7.482702718657944,
                5.353664762058209,
                -6.111380294598574,
                -7.900533078276993,
                4.363051607583856,
                5.280128983297973,
                5.963957835878864,
                10.041284149624493,
                9.977296353829544,
                7.014915982426837,
                -5.036026926219125,
                -6.5209919742860185,
                6.414862939408353,
                6.184316093159034,
                7.5250471122996325,
                6.3450460241891165,
                -5.577680570243272,
                -6.439588869595909,
                -5.448560470188808,
                5.572230075931675,
                3.047844305933884,
                -1.8036078462536373,
                6.09834782676211,
                -7.766274787319938,
                5.501463299425656,
                -5.018998802314922,
                5.160054339945894,
                8.270312741378461,
                7.12874460424101,
                -9.195574906596836,
                5.849507567398754,
                -9.55630976423742,
                4.715821789028878,
                -2.6192397003420904,
                -6.956998437956265,
                6.4886677589644774,
                11.230884853659868,
                7.961703853038473,
                7.726070758482166,
                3.5399339784302075,
                6.374867324817831,
                -3.9412708548554316,
                4.847981065048611,
                -10.130476024510573,
                -4.431429827343979,
                -3.8621625483308635,
                8.108677951449403,
                -8.794003266887316,
                -9.215180536389882,
                7.084855862154841,
                7.1003615404952445,
                6.4443423470955015,
                9.133720717554139,
                11.575582083283702,
                7.817266991521876,
                7.39910423629062,
                -2.1280348653597683,
                4.345914564890459,
                9.233030117702784,
                2.837290857669064,
                -6.523914493604287,
                -6.102302066680832,
                7.859757441424941,
                -9.072586692163169,
                -6.910290678353005,
                0.26801527702259254,
                -5.745795836726508,
                -6.753466296244114,
                -6.178097222417647,
                -3.6454231824776318,
                4.271976951438106,
                -5.840414335465162,
                -7.309033500155886,
                7.377689168890768,
                -6.221960193854798,
                6.0535729182797215,
                -4.565997308897156,
                7.652822546550802,
                -8.235427043577513,
                3.5347301536965823,
                -3.2704136626374534,
                -4.566774339971287,
                6.713315158141982,
                6.351828282520517,
                -6.998550934743939,
                -5.5970442294508995,
                -8.601865950071973,
                -8.700347187836835,
                3.8760250844761424,
                -7.518055220105077,
                -10.366459326682497,
                -9.124795244236456,
                6.237670826735987,
                -5.704281095885161,
                -5.440551502284065,
                5.1976383411002915,
                -10.445180227888445,
                -4.1016081863658425,
                7.587967235398182,
                3.539095102054107,
                -3.5080567159498504,
                6.210021704223957,
                4.761531585098105,
                -4.867065966922337,
                5.871249152920853,
                8.447424162214512,
                -6.644969044297929,
                3.8027237823992737,
                -5.424933097374747,
                8.557692076740524,
                4.942079043264956,
                -6.718132509713011,
                -6.1299074716376944,
                -6.232153858345912,
                -6.382472505090164,
                9.108823233001658,
                -9.173360454456448,
                -2.392757586223249,
                9.752498020027254,
                4.322116876118872,
                -8.832393592691265,
                -8.67486068609327,
                8.16704597302685,
                7.075513206750549,
                -11.659531949251118,
                -5.098701174899964,
                -5.69952051049549,
                -5.592713525528542,
                -3.9987028872734505,
                -6.661747874867494,
                7.441872072495405,
                7.891012398459466,
                6.445625969589723,
                2.7240958951772574,
                3.1611993521343824,
                5.849507567398754,
                4.1070602269090895,
                2.2060512455227226,
                -4.768754579245394,
                -8.553943179131824,
                8.731119707033502,
                4.2688058947525995,
                4.763592122779533,
                -9.336836227590988,
                -4.78254005664998,
                -7.1486477521154725,
                5.205172134049858,
                2.478427158431166,
                6.560476614940023,
                10.57344102327782,
                6.1704560388150345,
                4.096442958733994,
                -6.870899505813028,
                -3.5514551143390536,
                2.839345791329986,
                7.008769595186308,
                8.046353465465373,
                -8.330389972398715,
                5.689991870343275,
                7.297928636789969,
                6.409985426917336,
                5.652656209087398,
                -5.495926203678707,
                -2.5991115002344163,
                -6.733893311155617,
                -6.482104784375538,
                7.472898433079942,
                -7.059330908737297,
                7.040280847544777,
                -9.12995624846898,
                7.992253761423215,
                1.489593770205817,
                5.303918213372739,
                -3.803073011739573,
                -3.3638207160209044,
                -5.812110839864318,
                6.413388788238698,
                4.896065224776392,
                -4.799774811652997,
                -5.766913277880288,
                -6.006272602246113,
                -6.003692911015969,
                -8.657351071294125,
                -7.823176864489816,
                6.488279855872137,
                7.392634748328893,
                -5.965000569311794,
                -7.668762789777249,
                -7.130573005077002,
                6.1836965436509645,
                -7.5331069847123295,
                4.03078869099389,
                7.853609760818474,
                -5.116298164218898,
                10.18292586429187,
                10.043443810913612,
                -1.7154010555599168,
                8.080205724924902,
                9.129979030252876,
                4.490973933665071,
                -4.3591994578081525,
                8.596549063148316,
                -10.04810073012131,
                6.514367329768142,
                8.520513003349924,
                -5.275639382727457,
                -5.835702416861845,
                5.603526481191373,
                -3.6041782935090048,
                4.2476594071377916,
                -8.424595749811674,
                -6.266647219319601,
                4.619026149248666,
                11.122958936427457,
                -6.897897543480272,
                9.980703587750702,
                -8.586404766282847,
                -9.249795036116904,
                -5.018600527584257,
                6.501833527569716,
                5.609263755152784,
                -7.509016402958983,
                -7.5930110918645735,
                -9.397854766267576,
                6.115976429758059,
                -4.301962472657548,
                5.897949156418203,
                5.596382685299892,
                -5.8458472461867315,
                -7.075123092210755,
                6.650895889110476,
                8.60993420003241,
                -6.7678871610209175,
                -4.1893043411990085,
                -7.872374455068292,
                8.254934120074905,
                5.3261889308185815,
                6.429580743927999,
                -5.200349787815504,
                -8.836091626383343
            ]
        }
    }
}