{
    "args": {
        "model": "llama_8b",
        "dataset": "CB_tsm",
        "token_mode": "last_token",
        "ood": true,
        "smoke_test": false,
        "components": 50,
        "mode": "default",
        "model_name": "llama_8b",
        "target_dataset": "CB_drlDomain",
        "datetime": "2026-05-05 21:40:54"
    },
    "test_metrics": {
        "test_metrics_by_layer": [
            {
                "n_total": 496,
                "auroc": 0.5520291363163372,
                "accuracy": 0.4576612903225806,
                "f1": 0.035842293906810034,
                "tpr_at_fpr_0_05": 0.0,
                "optimal_threshold_f1": 0.5,
                "optimal_threshold_acc": 0.5,
                "aupr": 0.5434312732727944
            },
            {
                "n_total": 496,
                "auroc": 0.679858220603538,
                "accuracy": 0.5625,
                "f1": 0.3483483483483483,
                "tpr_at_fpr_0_05": 0.10080645161290322,
                "optimal_threshold_f1": 0.5,
                "optimal_threshold_acc": 0.5,
                "aupr": 0.6331330565322988
            },
            {
                "n_total": 496,
                "auroc": 0.7562109781477627,
                "accuracy": 0.6391129032258065,
                "f1": 0.49859943977591037,
                "tpr_at_fpr_0_05": 0.3387096774193548,
                "optimal_threshold_f1": 0.5,
                "optimal_threshold_acc": 0.5,
                "aupr": 0.7537044314843168
            },
            {
                "n_total": 496,
                "auroc": 0.6941011966701354,
                "accuracy": 0.6129032258064516,
                "f1": 0.48936170212765956,
                "tpr_at_fpr_0_05": 0.12096774193548387,
                "optimal_threshold_f1": 0.5,
                "optimal_threshold_acc": 0.5,
                "aupr": 0.6755119046795163
            },
            {
                "n_total": 496,
                "auroc": 0.7707303590010406,
                "accuracy": 0.6391129032258065,
                "f1": 0.478134110787172,
                "tpr_at_fpr_0_05": 0.32661290322580644,
                "optimal_threshold_f1": 0.5,
                "optimal_threshold_acc": 0.5,
                "aupr": 0.7745533891483474
            },
            {
                "n_total": 496,
                "auroc": 0.783054760665973,
                "accuracy": 0.6391129032258065,
                "f1": 0.49002849002849,
                "tpr_at_fpr_0_05": 0.2903225806451613,
                "optimal_threshold_f1": 0.5,
                "optimal_threshold_acc": 0.5,
                "aupr": 0.7822604357086833
            },
            {
                "n_total": 496,
                "auroc": 0.7836726066597295,
                "accuracy": 0.6693548387096774,
                "f1": 0.5543478260869565,
                "tpr_at_fpr_0_05": 0.35080645161290325,
                "optimal_threshold_f1": 0.5,
                "optimal_threshold_acc": 0.5,
                "aupr": 0.7935879634614542
            },
            {
                "n_total": 496,
                "auroc": 0.7053524973985432,
                "accuracy": 0.6169354838709677,
                "f1": 0.4692737430167598,
                "tpr_at_fpr_0_05": 0.2782258064516129,
                "optimal_threshold_f1": 0.5,
                "optimal_threshold_acc": 0.5,
                "aupr": 0.711368288687499
            },
            {
                "n_total": 496,
                "auroc": 0.7727302289281998,
                "accuracy": 0.6612903225806451,
                "f1": 0.5434782608695652,
                "tpr_at_fpr_0_05": 0.32661290322580644,
                "optimal_threshold_f1": 0.5,
                "optimal_threshold_acc": 0.5,
                "aupr": 0.782785547647356
            },
            {
                "n_total": 496,
                "auroc": 0.8488553590010406,
                "accuracy": 0.6975806451612904,
                "f1": 0.5833333333333334,
                "tpr_at_fpr_0_05": 0.49193548387096775,
                "optimal_threshold_f1": 0.5,
                "optimal_threshold_acc": 0.5,
                "aupr": 0.8630637347212426
            },
            {
                "n_total": 496,
                "auroc": 0.8210035119667013,
                "accuracy": 0.6794354838709677,
                "f1": 0.5595567867036011,
                "tpr_at_fpr_0_05": 0.4314516129032258,
                "optimal_threshold_f1": 0.5,
                "optimal_threshold_acc": 0.5,
                "aupr": 0.8408064151853378
            },
            {
                "n_total": 496,
                "auroc": 0.8545297866805411,
                "accuracy": 0.7217741935483871,
                "f1": 0.6290322580645161,
                "tpr_at_fpr_0_05": 0.5201612903225806,
                "optimal_threshold_f1": 0.5,
                "optimal_threshold_acc": 0.5,
                "aupr": 0.8736600848224229
            },
            {
                "n_total": 496,
                "auroc": 0.8673744797086369,
                "accuracy": 0.7399193548387096,
                "f1": 0.6717557251908397,
                "tpr_at_fpr_0_05": 0.5201612903225806,
                "optimal_threshold_f1": 0.5,
                "optimal_threshold_acc": 0.5,
                "aupr": 0.8793793981431645
            },
            {
                "n_total": 496,
                "auroc": 0.8339620187304891,
                "accuracy": 0.7096774193548387,
                "f1": 0.6108108108108108,
                "tpr_at_fpr_0_05": 0.4838709677419355,
                "optimal_threshold_f1": 0.5,
                "optimal_threshold_acc": 0.5,
                "aupr": 0.8528641254786579
            },
            {
                "n_total": 496,
                "auroc": 0.8662688605619148,
                "accuracy": 0.7237903225806451,
                "f1": 0.6307277628032345,
                "tpr_at_fpr_0_05": 0.5443548387096774,
                "optimal_threshold_f1": 0.5,
                "optimal_threshold_acc": 0.5,
                "aupr": 0.8840278377488431
            },
            {
                "n_total": 496,
                "auroc": 0.8253609521331946,
                "accuracy": 0.6875,
                "f1": 0.5584045584045584,
                "tpr_at_fpr_0_05": 0.5201612903225806,
                "optimal_threshold_f1": 0.5,
                "optimal_threshold_acc": 0.5,
                "aupr": 0.8548649290017081
            },
            {
                "n_total": 496,
                "auroc": 0.8627731529656607,
                "accuracy": 0.7116935483870968,
                "f1": 0.6145552560646901,
                "tpr_at_fpr_0_05": 0.5040322580645161,
                "optimal_threshold_f1": 0.5,
                "optimal_threshold_acc": 0.5,
                "aupr": 0.8785350206332283
            },
            {
                "n_total": 496,
                "auroc": 0.817133844953174,
                "accuracy": 0.657258064516129,
                "f1": 0.5277777777777778,
                "tpr_at_fpr_0_05": 0.3588709677419355,
                "optimal_threshold_f1": 0.5,
                "optimal_threshold_acc": 0.5,
                "aupr": 0.8276229372036767
            },
            {
                "n_total": 496,
                "auroc": 0.8301248699271593,
                "accuracy": 0.6814516129032258,
                "f1": 0.5433526011560693,
                "tpr_at_fpr_0_05": 0.42338709677419356,
                "optimal_threshold_f1": 0.5,
                "optimal_threshold_acc": 0.5,
                "aupr": 0.8484915078456825
            },
            {
                "n_total": 496,
                "auroc": 0.758991285119667,
                "accuracy": 0.655241935483871,
                "f1": 0.5210084033613446,
                "tpr_at_fpr_0_05": 0.34274193548387094,
                "optimal_threshold_f1": 0.5,
                "optimal_threshold_acc": 0.5,
                "aupr": 0.7900081766616913
            },
            {
                "n_total": 496,
                "auroc": 0.768649193548387,
                "accuracy": 0.6512096774193549,
                "f1": 0.504297994269341,
                "tpr_at_fpr_0_05": 0.3346774193548387,
                "optimal_threshold_f1": 0.5,
                "optimal_threshold_acc": 0.5,
                "aupr": 0.788295542576432
            },
            {
                "n_total": 496,
                "auroc": 0.7489431581685744,
                "accuracy": 0.6290322580645161,
                "f1": 0.49171270718232046,
                "tpr_at_fpr_0_05": 0.2782258064516129,
                "optimal_threshold_f1": 0.5,
                "optimal_threshold_acc": 0.5,
                "aupr": 0.7566995719770542
            },
            {
                "n_total": 496,
                "auroc": 0.7352204734651405,
                "accuracy": 0.6270161290322581,
                "f1": 0.463768115942029,
                "tpr_at_fpr_0_05": 0.23790322580645162,
                "optimal_threshold_f1": 0.5,
                "optimal_threshold_acc": 0.5,
                "aupr": 0.7419991842719802
            },
            {
                "n_total": 496,
                "auroc": 0.7543574401664932,
                "accuracy": 0.6189516129032258,
                "f1": 0.43243243243243246,
                "tpr_at_fpr_0_05": 0.27419354838709675,
                "optimal_threshold_f1": 0.5,
                "optimal_threshold_acc": 0.5,
                "aupr": 0.7667202570927761
            },
            {
                "n_total": 496,
                "auroc": 0.759885535900104,
                "accuracy": 0.6108870967741935,
                "f1": 0.42729970326409494,
                "tpr_at_fpr_0_05": 0.24596774193548387,
                "optimal_threshold_f1": 0.5,
                "optimal_threshold_acc": 0.5,
                "aupr": 0.765285535105979
            },
            {
                "n_total": 496,
                "auroc": 0.7512682101977106,
                "accuracy": 0.6330645161290323,
                "f1": 0.49444444444444446,
                "tpr_at_fpr_0_05": 0.3064516129032258,
                "optimal_threshold_f1": 0.5,
                "optimal_threshold_acc": 0.5,
                "aupr": 0.7644309473335631
            },
            {
                "n_total": 496,
                "auroc": 0.7682589750260146,
                "accuracy": 0.655241935483871,
                "f1": 0.5488126649076517,
                "tpr_at_fpr_0_05": 0.21774193548387097,
                "optimal_threshold_f1": 0.5,
                "optimal_threshold_acc": 0.5,
                "aupr": 0.7630146157072026
            },
            {
                "n_total": 496,
                "auroc": 0.7496748178980229,
                "accuracy": 0.6391129032258065,
                "f1": 0.5301837270341208,
                "tpr_at_fpr_0_05": 0.24193548387096775,
                "optimal_threshold_f1": 0.5,
                "optimal_threshold_acc": 0.5,
                "aupr": 0.7512977764100186
            },
            {
                "n_total": 496,
                "auroc": 0.7613813735691987,
                "accuracy": 0.6471774193548387,
                "f1": 0.5205479452054794,
                "tpr_at_fpr_0_05": 0.25806451612903225,
                "optimal_threshold_f1": 0.5,
                "optimal_threshold_acc": 0.5,
                "aupr": 0.7695401552462668
            },
            {
                "n_total": 496,
                "auroc": 0.7685191207075962,
                "accuracy": 0.6532258064516129,
                "f1": 0.5425531914893617,
                "tpr_at_fpr_0_05": 0.2620967741935484,
                "optimal_threshold_f1": 0.5,
                "optimal_threshold_acc": 0.5,
                "aupr": 0.7708796582526274
            },
            {
                "n_total": 496,
                "auroc": 0.7372366024973985,
                "accuracy": 0.6411290322580645,
                "f1": 0.5482233502538071,
                "tpr_at_fpr_0_05": 0.24193548387096775,
                "optimal_threshold_f1": 0.5,
                "optimal_threshold_acc": 0.5,
                "aupr": 0.7360283323984154
            },
            {
                "n_total": 496,
                "auroc": 0.7824043964620186,
                "accuracy": 0.6612903225806451,
                "f1": 0.5483870967741935,
                "tpr_at_fpr_0_05": 0.24193548387096775,
                "optimal_threshold_f1": 0.5,
                "optimal_threshold_acc": 0.5,
                "aupr": 0.7759482082416858
            },
            {
                "n_total": 496,
                "auroc": 0.777542924037461,
                "accuracy": 0.6693548387096774,
                "f1": 0.5393258426966292,
                "tpr_at_fpr_0_05": 0.3870967741935484,
                "optimal_threshold_f1": 0.5,
                "optimal_threshold_acc": 0.5,
                "aupr": 0.8010788481073495
            }
        ],
        "mean_projection_metrics": {
            "n_total": 496,
            "auroc": 0.8494406867845994,
            "accuracy": 0.6653225806451613,
            "f1": 0.5229885057471264,
            "tpr_at_fpr_0_05": 0.4153225806451613,
            "optimal_threshold_f1": 0.5,
            "optimal_threshold_acc": 0.5,
            "aupr": 0.8555076965580954
        },
        "weighted_projection_metrics": {
            "n_total": 496,
            "auroc": 0.8496195369406867,
            "accuracy": 0.6653225806451613,
            "f1": 0.5202312138728323,
            "tpr_at_fpr_0_05": 0.4596774193548387,
            "optimal_threshold_f1": 0.5,
            "optimal_threshold_acc": 0.5,
            "aupr": 0.8592484898417766
        },
        "weighted_projection": [
            -0.8332695744019145,
            0.4195506089641252,
            -0.5527733972258472,
            0.4080774350146665,
            -2.486148422489084,
            -2.809634982556118,
            -1.2992329048297955,
            0.3735323230462223,
            -2.130739529656103,
            -0.6296480115715151,
            -0.0019864499044897933,
            -1.4743757338624124,
            -1.239847588422212,
            -0.11581041031656186,
            -0.5331663399091165,
            2.0639771528561486,
            -2.283986137515822,
            -2.7520409343335595,
            -0.6504054457910597,
            -3.0558849822563094,
            -2.5733774462627266,
            -2.360847213669935,
            -0.9388427481344414,
            -3.8233069184434014,
            0.45889753981482206,
            -1.5461951036314114,
            -0.8027963793621707,
            0.7290968621098936,
            0.3907832869559816,
            -0.09177792916875324,
            -0.44308103439100127,
            -1.5488306089607309,
            -0.8111116231222316,
            -1.7388005597722225,
            -1.5036711810605732,
            -2.1511225281560478,
            -2.3896884841041834,
            -0.05976408758958439,
            -1.2646381766837353,
            -1.8442731163863706,
            -0.24034504621568445,
            -2.569750163110972,
            -1.9103663383572398,
            1.6005147906273791,
            -2.0013369520720588,
            -3.8586667731258224,
            -2.526842189441772,
            -3.333417268348192,
            0.16903497534852277,
            -3.1330104467281763,
            -2.0878005508395225,
            0.22793275115920214,
            -1.0606294165837125,
            -2.148549231802614,
            -0.570286522605509,
            0.45919759974708085,
            -4.489664663558805,
            0.28554529911484894,
            -0.7454154654468936,
            -0.08103211780083935,
            -0.7814281259353756,
            2.0100470542937203,
            -2.0940268970114944,
            -3.469236575326414,
            -1.9092236038368393,
            1.5583713296895216,
            -0.21567329749356715,
            -0.20305365100681694,
            0.6083071241474491,
            -0.3311208675292298,
            -3.152000030020805,
            -0.6048336089177025,
            -1.157797009050594,
            -0.3253550250240563,
            -0.8733529896783881,
            -0.4831254535805517,
            -1.090208105926154,
            -1.8553738531699369,
            -0.32426250428073655,
            -0.8695747350669167,
            0.9151939908144802,
            -0.5385915303157719,
            -1.3870459771585923,
            1.6722072802344934,
            1.235096148194923,
            -2.962767959544498,
            -2.418226156124294,
            -1.5449163170804745,
            -3.2828800345768117,
            -1.1075674463905503,
            -2.893361709186406,
            1.6005147906273791,
            -1.595179392215176,
            -0.7950308194894221,
            0.7389527669357628,
            -2.5552009941745917,
            -2.971680240075153,
            -2.522287577642708,
            -0.34609950025490077,
            -2.394527004496804,
            -1.157678703506868,
            0.9396955771859454,
            0.32335878914062166,
            -3.6778996976820393,
            -0.16639893724429908,
            -0.623635075386691,
            -1.1472045256774732,
            -3.458744022859877,
            -4.048166100743773,
            -1.1299194085249367,
            -1.34214818610204,
            0.6633783683716143,
            -2.230677395914247,
            -2.731125427689603,
            -1.9128729191074323,
            -1.1988477787434049,
            1.7555953489343445,
            1.1959442293262244,
            -3.7618323981885773,
            -3.7357520366564576,
            -1.5712801094654778,
            -0.011231743770920774,
            1.1613528477205426,
            -4.403661204684595,
            -0.7802461644828368,
            -1.7604199234570233,
            -2.2201919986095495,
            2.1576245342679257,
            -0.8536927337395251,
            -2.7255261442440704,
            -0.21650983955332628,
            1.5459716498734764,
            -1.9444403139631825,
            -3.22804057943776,
            -2.8055437486413193,
            2.636273408721599,
            -4.047910165596247,
            -2.6209604529029322,
            -0.6606839670347024,
            -3.2048138224218494,
            0.5430176913490131,
            -1.5102649443238778,
            0.08774180319366517,
            -2.6846215794214445,
            2.528755759665805,
            -2.6678313991209475,
            -1.832661485868442,
            -0.7947242073362233,
            -0.7393895363892409,
            0.27072951399166323,
            0.2546097572081978,
            -0.8976437270779725,
            -2.5146292683746156,
            -0.6886327589047508,
            -1.018204725603667,
            -2.3567048607144074,
            -0.7666621099547537,
            -1.9224598800190973,
            -0.6222456391791471,
            -1.2486495144491645,
            -4.508193711041574,
            -1.5594056160890153,
            -3.388261373490948,
            0.6186247083935649,
            -0.8971788757543312,
            -0.4933879536247744,
            0.941885178043383,
            -1.7607035229498895,
            0.5942427927118122,
            0.2769814859495782,
            -2.5546148390428205,
            1.3141923063406644,
            1.2681203571986337,
            0.8646622667924353,
            0.6820702393628884,
            -3.3224535170008296,
            -3.4285282804351978,
            -3.5766687351043105,
            -2.037386301789451,
            0.5858178886150531,
            0.019883321161186303,
            3.87291751066983,
            -3.713364155967369,
            -1.9907205199571028,
            -1.019945243780198,
            -1.2770976816072013,
            -4.32552593317575,
            -5.3358492649327465,
            0.801901273428633,
            -0.5510213323462305,
            -3.6813856905499884,
            -2.3848581991212296,
            -1.4641993182530064,
            -0.382439232068154,
            0.849423268012437,
            -1.2574142296270556,
            -2.508828164297009,
            -1.440583154467624,
            -3.586194949718977,
            0.8947066922215006,
            -2.680181184047992,
            -1.8453737190025772,
            -3.0646570073847736,
            1.0247383939308363,
            -2.275118970287574,
            -1.604124724949718,
            1.9308245806048747,
            -0.8276974950448694,
            2.180837772577551,
            1.1603888095663424,
            0.43204334150498735,
            -1.2320086069040648,
            1.3497918219107654,
            -1.4461975898013808,
            -0.17218444140343803,
            0.36236946733778364,
            -1.6029385623405337,
            -3.027866741491386,
            0.44350552781571906,
            -5.276627730455083,
            -1.5992147265524927,
            -1.4344969066163775,
            -1.1879176714078543,
            -4.932226469456211,
            -1.0721239493966839,
            -0.27487576479944653,
            -3.381657968914934,
            -1.620435958281443,
            0.8088271911539073,
            -0.4930136702117296,
            -1.160359132033911,
            -1.3106167011629846,
            1.5051538974690812,
            0.6938371828968466,
            0.39138103292169407,
            1.6179224223673003,
            0.22130687538254784,
            1.3542952800183263,
            -3.025367548409487,
            -2.547293653150231,
            -2.577254374361589,
            -0.5317615328961811,
            -2.7832492173475467,
            -2.782415672630365,
            -0.1679123865905333,
            -1.2353263529118774,
            -2.669578619553904,
            -1.4503087725611605,
            -1.7262716992197569,
            0.14140090989508705,
            2.2099677447835786,
            1.1720181784044075,
            -1.3564015537453429,
            -1.5957932909247803,
            -6.176710258544279,
            0.24521578574446273,
            -1.0083891306502546,
            -3.505194038202554,
            0.4964441112863623,
            -1.6835967680100903,
            -3.514746639486145,
            -1.14412815243077,
            0.9397139061160568,
            2.058949280505738,
            1.1337715714099368,
            -0.13881827773242822,
            -1.5449119543919039,
            -2.3918230889375067,
            -2.462769629209011,
            -4.342302497162518,
            -1.5164708237647717,
            0.049917177556074624,
            -2.8024829108985423,
            -2.4436683976100158,
            -1.6920375488044501,
            -0.9805097280562121,
            -2.1921611492236126,
            0.8172490104195212,
            -0.040901430505299666,
            -1.6042368589271838,
            -2.593501975596262,
            -2.894393753040778,
            -1.1303020482367838,
            0.6415309811434728,
            -3.226921583220766,
            0.855668789026489,
            0.03181411921931617,
            1.6005147906273791,
            -1.8072799097053922,
            4.033474600824884,
            3.838079082423665,
            -0.3125755908288481,
            0.03247952634688253,
            1.0751575324970681,
            -1.879615430430499,
            -2.9781946357636,
            0.2925074744431413,
            0.3714070682435186,
            -1.3286503691937286,
            -1.7413239427715985,
            0.6119574740786854,
            -1.1310384812024759,
            -3.267150322127049,
            -3.3886341245524405,
            1.727522648847707,
            -0.6013631448079058,
            -3.204995292442277,
            3.072283940808096,
            -1.8135282835429305,
            -3.295404442758459,
            -2.899100652685599,
            -2.4874295818075893,
            -2.326482317922392,
            -1.0485048323287074,
            3.266369421821025,
            3.928121574244462,
            2.230593442528657,
            -2.5834103170541343,
            -2.2268215039874906,
            -0.6018747958658818,
            -0.9549392890180386,
            -2.4600733134702413,
            2.5850624664880053,
            -2.7700456555871718,
            -1.7551235831922025,
            -3.184072873324684,
            -2.1330863451524595,
            -1.5106236614045878,
            -0.0023396331115171573,
            -3.3805286479577275,
            -2.0757284680139687,
            -2.2832929134902304,
            0.19322900894970124,
            -3.2823452992223583,
            -2.805612503840938,
            -0.5966947327141252,
            0.08423161765522222,
            -1.459655304246347,
            -0.3596314259611294,
            -2.0992859716434493,
            -2.4109070649874207,
            -2.0512001682056815,
            0.43000706095595176,
            -0.3578253123727254,
            -1.4194682901500737,
            0.7914387004521164,
            2.6781659206883015,
            -2.4824852136954916,
            -1.9595570392481014,
            -2.190992935098067,
            -0.5646233117730727,
            -1.5796405638262163,
            -1.8705087436764654,
            -1.1211786462036155,
            1.2066169978670807,
            -3.9103060362488744,
            -1.568477168846826,
            -2.0034714510454883,
            -2.7157374588871086,
            -1.022058634504995,
            -2.1497643998762004,
            -1.7624949269051586,
            -3.7406719530691555,
            -3.4295502677911633,
            0.7184819576445054,
            1.8920993178554613,
            -0.6147416072547146,
            -0.1029606315850355,
            -1.7035357640545252,
            4.312714559280907,
            -3.3507743719388707,
            -1.661023098110216,
            0.3859852868337877,
            -2.325518596084179,
            -1.0204284107817365,
            2.1775925655364654,
            0.3158801699806248,
            -3.211708235680268,
            -3.840028348616806,
            -3.092644617583343,
            -1.1806898534960875,
            1.2461493453373609,
            -1.2235176991364907,
            0.1043478489755422,
            -0.35467726477249434,
            -4.216833515085272,
            -2.212288673002079,
            1.7904245451207195,
            -2.295750888310476,
            -2.8564327644832153,
            -4.3866678146148885,
            -1.3073522340761343,
            -0.8088159076317135,
            -2.292647582885629,
            -1.547481080041627,
            -0.13565800622522614,
            3.135024170910134,
            -0.8506649809767266,
            -2.929800224160318,
            -2.499494044126011,
            -1.6538861594586978,
            1.6699104239431373,
            -2.4642979218906196,
            1.8390892418833145,
            -1.896391685057276,
            -1.6451051448476703,
            2.278478775716919,
            -1.746028954394969,
            1.780270239110565,
            -2.3861753270860055,
            3.343397995288701,
            -0.6867857547680841,
            -2.217972751912451,
            0.43185777716793844,
            0.545692098682703,
            1.0781243564371301,
            -0.9062894101419943,
            -3.209460077804996,
            -1.448710682485581,
            -3.68063081106017,
            -2.21696986687814,
            0.641596140052507,
            -0.30844268886077497,
            0.6497550418296549,
            0.592100591692105,
            -1.397272866419189,
            0.8880968989957874,
            -1.3007112550238313,
            -2.6438470471553006,
            -3.1338652012278647,
            1.5434267813930473,
            0.23885561995082083,
            0.9759983274547938,
            0.10338680242279163,
            0.5975190638343112,
            -2.2922583131578276,
            -2.7535858359708767,
            -2.046228000730882,
            0.8087836360850458,
            -1.6084279590532886,
            1.4881955861353975,
            -1.8924304421638278,
            -2.713168707712117,
            -0.25755640572132354,
            -1.6589543357627072,
            -1.986140660230648,
            2.05678817424488,
            1.2219074042589773,
            -1.7803538517075903,
            2.102845132565972,
            -1.4833996623409742,
            -4.334287924465596,
            -2.562544895741013,
            1.5830546241374273,
            1.7718424547206992,
            -0.6340087781547438,
            0.3470476507026142,
            0.9317996360205033,
            -3.405302275387429,
            -1.9830449752233708,
            -0.5779602448494845,
            -0.5849165280288346,
            0.018402978101831242,
            1.7364434968248978,
            -0.5868976666743846,
            0.7534380023839102,
            -2.1660516596036805,
            -2.2549788753278013,
            -2.3588538771294743,
            0.8750632627631355,
            -1.7698353617282274,
            -1.5469072430118305,
            -0.677344512979253,
            -2.097822521043931,
            -1.8027402300076112,
            2.517137926306049,
            -2.9782519269236127,
            -0.983780396901087,
            -2.4372444762599623,
            -3.5358372372218136,
            -3.1324071525319748,
            -2.0691590898026537,
            -1.5179322722594704,
            -2.3742646150363726,
            -1.3806028125076169,
            -1.9690425951181951,
            -2.12931549703788,
            -2.4777112061515045,
            -2.296319374325361,
            -1.238491950766653,
            -4.175214271273347,
            -2.7692342965531376,
            -2.4544747923838637,
            0.2370081389809861,
            -0.10526561083490743,
            -0.7725531815587444
        ],
        "mean_projection": [
            -0.7990877957210772,
            0.5204368549115612,
            -0.585813000037798,
            0.39129943565059805,
            -3.051501745441144,
            -3.2005908413446926,
            -1.286310951678012,
            0.4945582961210808,
            -2.279636790241744,
            -0.600852105937609,
            -0.009753893101795776,
            -1.30660849368076,
            -1.2227092535139024,
            -0.09869984985294974,
            -1.1805357043420133,
            1.9912645746957016,
            -2.2414971513703255,
            -2.679354852556275,
            -0.6139663197740963,
            -2.948879014613887,
            -2.900738498267725,
            -2.325055650182925,
            -0.7793053873373408,
            -4.358455707071215,
            0.4233170788645301,
            -1.5260148623934202,
            -0.8111350518889285,
            0.820578686032517,
            0.3449404589229409,
            -0.07448873517463155,
            -0.45512291506365465,
            -1.5491135913854497,
            -0.7723096335877297,
            -1.7209984959318108,
            -1.4436128440955238,
            -2.083494798619565,
            -2.332959735571204,
            -0.07116684442279474,
            -1.2354014714654484,
            -1.8399815485538753,
            -0.21824031414855233,
            -2.512531776712327,
            -1.8620982400689359,
            1.5431399310537532,
            -1.9562108884668112,
            -3.7493340087107425,
            -2.4973174025718405,
            -3.2756148013808346,
            0.15744898954236225,
            -3.027616103173943,
            -2.0460069392964186,
            0.2127306458686816,
            -1.006397443674542,
            -2.092311348107974,
            -0.5680557849777428,
            0.4458816814480507,
            -4.381260538041282,
            0.22294887371729386,
            -0.5879234238098946,
            -0.0829563480000475,
            -0.7769074880523642,
            1.9787152636949625,
            -2.417868521300646,
            -3.3964406596970096,
            -1.8941266989652639,
            1.5206229226722725,
            -0.23008203072649164,
            -0.16984047603449912,
            0.5769262794723257,
            -0.34134364589754024,
            -3.051736841098313,
            -0.5559037070042041,
            -1.1424062665579673,
            -0.31922114452518063,
            -0.8537122954708847,
            -0.34380004361582334,
            -1.2872341927662658,
            -2.1946537626505536,
            -0.20467893359764214,
            -0.8424785586043698,
            0.9105305330030166,
            -0.5191964255821082,
            -1.3801456679472717,
            1.6807480992458268,
            1.2788350172525988,
            -2.870561325068526,
            -2.3516382815357506,
            -1.5131967302712963,
            -3.6087816077016037,
            -1.0868239238339945,
            -2.8077010349816423,
            1.5431399310537532,
            -1.5835027285109218,
            -0.7620660120748699,
            0.7249462310213772,
            -2.519961418666566,
            -2.895227284071482,
            -2.451462580840539,
            -0.3555111680464813,
            -2.3570350590295304,
            -1.126109367171691,
            0.9160153314001865,
            0.33030945182717986,
            -3.6094077988076694,
            -0.18682843119195394,
            -0.48604424243880784,
            -1.103901216071531,
            -3.755879372533286,
            -3.95992536199437,
            -1.4731223262970268,
            -1.3363102204061692,
            0.6171451133999786,
            -2.7880967519993067,
            -2.9285827625924767,
            -1.8547628201905433,
            -1.1611316818145254,
            1.6926409368926463,
            1.1722699768949678,
            -3.691593213584345,
            -4.2956025641845725,
            -1.5477450646571425,
            0.010391667544044022,
            1.1636141028504732,
            -4.315176374257646,
            -0.7887752448013503,
            -1.7311551082162902,
            -2.193849046836934,
            1.8532361303057725,
            -0.8124466877301697,
            -2.659193681283159,
            -0.20940836264407797,
            1.5218115943944028,
            -2.280130546224365,
            -3.804941328485248,
            -3.041501733385149,
            2.5512465366737933,
            -3.9535507037967847,
            -2.557104072869027,
            -0.6411311772567304,
            -2.9535582642434,
            0.6326412700896382,
            -1.4816187444540818,
            0.07275762493174402,
            -3.2582107594176817,
            2.4568101668133764,
            -2.6314344767965756,
            -1.8064153593161554,
            -0.7536601158249067,
            -0.7263889796338331,
            0.2801293691448532,
            0.23393972760268075,
            -0.8614180297060049,
            -2.4521555788012326,
            -0.6696257124694989,
            -1.0163619537966384,
            -2.343949907057045,
            -0.9526967324305905,
            -1.8438150938048339,
            -0.646947238334889,
            -1.2056729798123313,
            -4.397302595446926,
            -1.9186591539594677,
            -3.938801271066154,
            0.7484520620980659,
            -0.8812698143019136,
            -0.34100396500384716,
            0.8837269761758958,
            -1.7450442019422623,
            0.5793820950204611,
            0.2398315065573385,
            -2.489551691058683,
            1.240072521023024,
            1.3421680457835263,
            0.8507343562820426,
            0.6780286482692469,
            -3.252473869802557,
            -3.3468884574261373,
            -3.5181055824826792,
            -1.9996544862790246,
            0.5757171970558099,
            0.0006207925063783312,
            3.7849897885204173,
            -3.6350007604552195,
            -2.325659636821441,
            -0.9940112363272983,
            -1.273606976896431,
            -4.225503980297781,
            -5.225448004670481,
            0.7554186818593579,
            -0.5410769980944802,
            -3.5900729792754875,
            -2.9576622372084196,
            -1.8272863878809613,
            -0.2504106322431616,
            0.8271944024347306,
            -1.2213880496586689,
            -2.4953025206875163,
            -1.4204754324882503,
            -3.535907658770895,
            0.8431131601631491,
            -2.636000287727813,
            -1.8176056935955658,
            -2.98655918702849,
            0.9604126451865255,
            -2.2429768645870958,
            -1.5867401571362467,
            1.8279530763492908,
            -0.7995247617875846,
            2.140133898248792,
            1.1030682645071253,
            0.4119611796256817,
            -1.215066761902314,
            1.3351264251410444,
            -1.391654886803264,
            -0.16515488392329802,
            0.3273201755424133,
            -1.861682447854543,
            -2.9442096137773532,
            0.39271462745934144,
            -5.771619270711926,
            -1.5840009617638278,
            -1.7354233475061573,
            -1.133842975256453,
            -4.837689132049598,
            -1.316291138524634,
            -0.14959635588445203,
            -3.3038033755851983,
            -1.5826830436272068,
            0.8138224835443383,
            -0.48077059231021674,
            -1.0954890870949936,
            -1.4759847341813377,
            1.4426705779953224,
            0.6678678997818431,
            0.39723276098848,
            1.5832596721804792,
            0.17897370936964338,
            1.2973002603937875,
            -2.941295630904297,
            -2.5013223565585,
            -2.50708470370208,
            -0.5415891634587414,
            -2.7345065541764026,
            -2.707477322273995,
            -0.16806258654687278,
            -1.254964663598829,
            -2.6161864613362265,
            -1.3928935096049944,
            -1.6834870482935405,
            0.13631668715565107,
            2.1592362735145483,
            1.1468220420865518,
            -1.476387128482888,
            -1.538185923783694,
            -6.047437068801413,
            0.2545259646121603,
            -1.026264232593512,
            -4.050769763212112,
            0.4992145638794201,
            -1.633714375056385,
            -3.4456415668904636,
            -1.1359380488677817,
            1.063466882475948,
            1.994027658397777,
            1.0898171485694677,
            -0.13724450826971923,
            -1.5188635435723605,
            -2.349229254841531,
            -2.394577669385896,
            -4.2568601582237005,
            -1.51029081814174,
            0.16987446929954966,
            -2.7537510180109495,
            -2.413563518388793,
            -1.6517616266883246,
            -0.9501366290229489,
            -2.1039686826989707,
            0.7870186865403025,
            -0.05618601940826883,
            -1.5642442728408559,
            -2.5451132912838164,
            -2.8368100477890197,
            -1.1520159915824886,
            0.5568145976669402,
            -3.3365643241005745,
            0.9489472405902751,
            0.06525860456134457,
            1.5431399310537532,
            -1.7508556875769625,
            3.892631604108074,
            3.7301870732105264,
            -0.32561029183561385,
            0.03245445277628713,
            1.0182062242782293,
            -1.8066749455775777,
            -2.9055702332971087,
            0.26446681555787105,
            0.3847918027986007,
            -1.2874392482225272,
            -1.668639490945781,
            0.5812088377766762,
            -1.1242388609969738,
            -3.8386504538886332,
            -3.2821634793075827,
            1.6979006900764504,
            -0.59592564751039,
            -3.136319922697742,
            2.9957225451415526,
            -1.7805207764783617,
            -3.261978386772446,
            -2.8429069067724533,
            -2.446605357897774,
            -2.3034213909331807,
            -1.0172751024216813,
            3.2067581506173717,
            3.831797243739671,
            2.1445734466406394,
            -2.369148034676877,
            -2.817595332517774,
            -0.6040206342827026,
            -0.9288541713554563,
            -2.396165121412127,
            2.502392842247154,
            -2.7276787235157873,
            -1.7379099603769053,
            -3.1102685604241214,
            -2.107593925256454,
            -1.3632516629215004,
            -0.005056541856543971,
            -3.281909483537843,
            -2.021548802390422,
            -2.2300249291961958,
            0.3242601086225426,
            -3.195076861274434,
            -2.7560953346007366,
            -0.5551974181843937,
            0.0814577438090097,
            -1.4158081390701343,
            -0.36325390435998883,
            -2.0249173209351436,
            -2.375992321333686,
            -1.986323551110498,
            0.41511336841188345,
            -0.3591441574245029,
            -1.389964288567762,
            0.7567028378917906,
            2.600362868818785,
            -2.421142846546507,
            -1.9391468819788418,
            -2.3392889610500176,
            -0.5622282103659925,
            -1.473435830014394,
            -1.8226305254243689,
            -1.0947917433957421,
            1.1793943520513357,
            -3.8356558174362285,
            -1.543147687210124,
            -1.9452146834314934,
            -2.6486235744664013,
            -1.3955433385196496,
            -2.104506214285516,
            -1.7475743449296879,
            -3.6222369875472276,
            -3.977405979479691,
            0.7002425923016511,
            1.8209004432390845,
            -0.6154600236652931,
            -0.13052435117589734,
            -1.6633760896818268,
            4.304651386534271,
            -3.9228547798235334,
            -1.6193839149138267,
            0.39124976535610956,
            -2.268767124982429,
            -0.9833194047108109,
            2.0977061988058585,
            0.29496170559225116,
            -3.747116200135143,
            -3.776951706728777,
            -3.0144084556503454,
            -1.1421304759457624,
            1.2057478409552087,
            -1.2057183749250768,
            0.1118965011729789,
            -0.36047996694640755,
            -4.121537430276945,
            -2.147843103695559,
            1.7414336472362373,
            -2.6974601805008653,
            -3.168490803405521,
            -4.306675018801657,
            -1.236302994364362,
            -0.7694398880779204,
            -2.2731379744380993,
            -1.4921322409670688,
            -0.08735447572025058,
            3.1763159296910164,
            -0.8486608227509763,
            -2.85809683467767,
            -2.4452371585788137,
            -1.6222046642431247,
            1.6533263124767665,
            -2.4244378309034986,
            1.7683569162449015,
            -1.8652875516266807,
            -1.6100547919502723,
            2.179154290234715,
            -1.6982424818281334,
            1.8451416069974278,
            -2.344969682574157,
            3.247234021761873,
            -0.6830166140625835,
            -2.206301797084007,
            0.5749905989475464,
            0.5558228807800786,
            1.0489566735980782,
            -0.8775968472010103,
            -3.106444703009913,
            -1.4117323955002294,
            -3.6041987918247584,
            -2.1929599824219475,
            0.5914969867408215,
            -0.3019494230480147,
            0.6260658823662536,
            0.7119219467647906,
            -1.3886859774395497,
            0.8330771828505429,
            -1.2645006531883374,
            -2.5769905724956135,
            -3.0287681814212366,
            1.4851192371106703,
            0.23713891022392142,
            0.9299494907174948,
            0.05574988154593813,
            0.5743672360893478,
            -2.2043897454877173,
            -3.341828605766123,
            -2.0250124700465544,
            0.7845345221996498,
            -1.5826164490653738,
            1.446320494559468,
            -1.8669028385006687,
            -2.6677513459246742,
            -0.2627311205286549,
            -1.993820902500356,
            -2.3269326067461344,
            1.9789429517197852,
            1.1904015991177734,
            -1.7528097709630919,
            2.0560689084804005,
            -1.450823358462653,
            -4.244288500386324,
            -2.526148600237104,
            1.5334000996281447,
            1.7097864767576423,
            -0.6158490302024326,
            0.3559465009440364,
            0.9421842689221375,
            -3.3357420057951765,
            -1.9146524724568246,
            -0.5332216058141156,
            -0.4385812619608721,
            0.022786586769207133,
            1.7078196431632509,
            -0.5957690398568442,
            0.8786786928940142,
            -2.1336997958555877,
            -2.1887683477759983,
            -2.3252621949189836,
            0.865853514998374,
            -1.7513322174336687,
            -1.5333866600984762,
            -0.6818591600038939,
            -2.0944726007343895,
            -1.7805543403950819,
            2.450105422976358,
            -2.903223031861276,
            -0.9640640732273505,
            -3.0254041472243225,
            -4.021876450350899,
            -3.071811605410821,
            -2.39041190797011,
            -1.4790583520693377,
            -2.3237524190462198,
            -1.3440217721097338,
            -1.9109847537627078,
            -2.0605785230982088,
            -2.4117286942499523,
            -2.2402388496478833,
            -1.1978114380853873,
            -4.073832886381261,
            -2.6930206915822255,
            -2.421532827624709,
            0.23162108331127054,
            -0.08225563060473191,
            -0.7301591406596878
        ]
    }
}