{
    "args": {
        "model": "llama_8b",
        "dataset": "drlDomain_writing_prompt",
        "token_mode": "last_token",
        "ood": false,
        "smoke_test": false,
        "components": 50,
        "mode": "default",
        "model_name": "llama_8b",
        "target_dataset": "drlDomain_writing_prompt",
        "datetime": "2026-05-07 10:17:52"
    },
    "test_metrics": {
        "test_metrics_by_layer": [
            {
                "n_total": 500,
                "auroc": 0.71388,
                "accuracy": 0.706,
                "f1": 0.7706708268330733,
                "tpr_at_fpr_0_05": 0.032,
                "optimal_threshold_f1": 0.5,
                "optimal_threshold_acc": 0.5,
                "aupr": 0.6419727989011037
            },
            {
                "n_total": 500,
                "auroc": 0.993472,
                "accuracy": 0.982,
                "f1": 0.9818181818181818,
                "tpr_at_fpr_0_05": 0.988,
                "optimal_threshold_f1": 0.5,
                "optimal_threshold_acc": 0.5,
                "aupr": 0.9953999683488228
            },
            {
                "n_total": 500,
                "auroc": 0.9947680000000001,
                "accuracy": 0.98,
                "f1": 0.9798387096774194,
                "tpr_at_fpr_0_05": 0.988,
                "optimal_threshold_f1": 0.5,
                "optimal_threshold_acc": 0.5,
                "aupr": 0.9961090649895906
            },
            {
                "n_total": 500,
                "auroc": 0.998,
                "accuracy": 0.992,
                "f1": 0.9919354838709677,
                "tpr_at_fpr_0_05": 0.996,
                "optimal_threshold_f1": 0.5,
                "optimal_threshold_acc": 0.5,
                "aupr": 0.9985984847039819
            },
            {
                "n_total": 500,
                "auroc": 0.99904,
                "accuracy": 0.988,
                "f1": 0.9878542510121457,
                "tpr_at_fpr_0_05": 0.996,
                "optimal_threshold_f1": 0.5,
                "optimal_threshold_acc": 0.5,
                "aupr": 0.9991833163844867
            },
            {
                "n_total": 500,
                "auroc": 0.99976,
                "accuracy": 0.99,
                "f1": 0.98989898989899,
                "tpr_at_fpr_0_05": 1.0,
                "optimal_threshold_f1": 0.5,
                "optimal_threshold_acc": 0.5,
                "aupr": 0.9997626963407885
            },
            {
                "n_total": 500,
                "auroc": 0.99848,
                "accuracy": 0.978,
                "f1": 0.9775967413441955,
                "tpr_at_fpr_0_05": 0.988,
                "optimal_threshold_f1": 0.5,
                "optimal_threshold_acc": 0.5,
                "aupr": 0.9985725036931062
            },
            {
                "n_total": 500,
                "auroc": 0.9970559999999999,
                "accuracy": 0.974,
                "f1": 0.9734151329243353,
                "tpr_at_fpr_0_05": 0.988,
                "optimal_threshold_f1": 0.5,
                "optimal_threshold_acc": 0.5,
                "aupr": 0.9975012711515268
            },
            {
                "n_total": 500,
                "auroc": 0.9988159999999999,
                "accuracy": 0.982,
                "f1": 0.9818181818181818,
                "tpr_at_fpr_0_05": 0.996,
                "optimal_threshold_f1": 0.5,
                "optimal_threshold_acc": 0.5,
                "aupr": 0.9988180813103307
            },
            {
                "n_total": 500,
                "auroc": 0.998624,
                "accuracy": 0.98,
                "f1": 0.9796747967479674,
                "tpr_at_fpr_0_05": 0.988,
                "optimal_threshold_f1": 0.5,
                "optimal_threshold_acc": 0.5,
                "aupr": 0.9987317657895016
            },
            {
                "n_total": 500,
                "auroc": 0.99984,
                "accuracy": 0.988,
                "f1": 0.9878542510121457,
                "tpr_at_fpr_0_05": 1.0,
                "optimal_threshold_f1": 0.5,
                "optimal_threshold_acc": 0.5,
                "aupr": 0.9998397984496521
            },
            {
                "n_total": 500,
                "auroc": 0.999904,
                "accuracy": 0.986,
                "f1": 0.9858012170385395,
                "tpr_at_fpr_0_05": 1.0,
                "optimal_threshold_f1": 0.5,
                "optimal_threshold_acc": 0.5,
                "aupr": 0.9999043814582937
            },
            {
                "n_total": 500,
                "auroc": 0.9999359999999999,
                "accuracy": 0.992,
                "f1": 0.9919354838709677,
                "tpr_at_fpr_0_05": 1.0,
                "optimal_threshold_f1": 0.5,
                "optimal_threshold_acc": 0.5,
                "aupr": 0.9999370078740157
            },
            {
                "n_total": 500,
                "auroc": 0.999904,
                "accuracy": 0.992,
                "f1": 0.9919354838709677,
                "tpr_at_fpr_0_05": 1.0,
                "optimal_threshold_f1": 0.5,
                "optimal_threshold_acc": 0.5,
                "aupr": 0.99990625
            },
            {
                "n_total": 500,
                "auroc": 0.999984,
                "accuracy": 0.99,
                "f1": 0.98989898989899,
                "tpr_at_fpr_0_05": 1.0,
                "optimal_threshold_f1": 0.5,
                "optimal_threshold_acc": 0.5,
                "aupr": 0.9999840637450199
            },
            {
                "n_total": 500,
                "auroc": 1.0,
                "accuracy": 0.99,
                "f1": 0.98989898989899,
                "tpr_at_fpr_0_05": 1.0,
                "optimal_threshold_f1": 0.5,
                "optimal_threshold_acc": 0.5,
                "aupr": 1.0
            },
            {
                "n_total": 500,
                "auroc": 0.999968,
                "accuracy": 0.998,
                "f1": 0.9979959919839679,
                "tpr_at_fpr_0_05": 1.0,
                "optimal_threshold_f1": 0.5,
                "optimal_threshold_acc": 0.5,
                "aupr": 0.999968253968254
            },
            {
                "n_total": 500,
                "auroc": 0.999936,
                "accuracy": 0.994,
                "f1": 0.9939879759519038,
                "tpr_at_fpr_0_05": 1.0,
                "optimal_threshold_f1": 0.5,
                "optimal_threshold_acc": 0.5,
                "aupr": 0.9999363814582938
            },
            {
                "n_total": 500,
                "auroc": 0.999952,
                "accuracy": 0.996,
                "f1": 0.996,
                "tpr_at_fpr_0_05": 1.0,
                "optimal_threshold_f1": 0.5,
                "optimal_threshold_acc": 0.5,
                "aupr": 0.9999519994879917
            },
            {
                "n_total": 500,
                "auroc": 0.999872,
                "accuracy": 0.996,
                "f1": 0.996,
                "tpr_at_fpr_0_05": 1.0,
                "optimal_threshold_f1": 0.5,
                "optimal_threshold_acc": 0.5,
                "aupr": 0.9998706959879131
            },
            {
                "n_total": 500,
                "auroc": 0.999936,
                "accuracy": 0.996,
                "f1": 0.996,
                "tpr_at_fpr_0_05": 1.0,
                "optimal_threshold_f1": 0.5,
                "optimal_threshold_acc": 0.5,
                "aupr": 0.9999358704557337
            },
            {
                "n_total": 500,
                "auroc": 0.999952,
                "accuracy": 0.996,
                "f1": 0.996,
                "tpr_at_fpr_0_05": 1.0,
                "optimal_threshold_f1": 0.5,
                "optimal_threshold_acc": 0.5,
                "aupr": 0.9999519994879917
            },
            {
                "n_total": 500,
                "auroc": 0.999968,
                "accuracy": 0.996,
                "f1": 0.996,
                "tpr_at_fpr_0_05": 1.0,
                "optimal_threshold_f1": 0.5,
                "optimal_threshold_acc": 0.5,
                "aupr": 0.9999680637450199
            },
            {
                "n_total": 500,
                "auroc": 0.999968,
                "accuracy": 0.998,
                "f1": 0.998003992015968,
                "tpr_at_fpr_0_05": 1.0,
                "optimal_threshold_f1": 0.5,
                "optimal_threshold_acc": 0.5,
                "aupr": 0.9999680637450199
            },
            {
                "n_total": 500,
                "auroc": 1.0,
                "accuracy": 0.998,
                "f1": 0.998003992015968,
                "tpr_at_fpr_0_05": 1.0,
                "optimal_threshold_f1": 0.5,
                "optimal_threshold_acc": 0.5,
                "aupr": 1.0
            },
            {
                "n_total": 500,
                "auroc": 0.999984,
                "accuracy": 0.998,
                "f1": 0.9979959919839679,
                "tpr_at_fpr_0_05": 1.0,
                "optimal_threshold_f1": 0.5,
                "optimal_threshold_acc": 0.5,
                "aupr": 0.9999840637450199
            },
            {
                "n_total": 500,
                "auroc": 0.999984,
                "accuracy": 0.996,
                "f1": 0.996,
                "tpr_at_fpr_0_05": 1.0,
                "optimal_threshold_f1": 0.5,
                "optimal_threshold_acc": 0.5,
                "aupr": 0.9999840637450199
            },
            {
                "n_total": 500,
                "auroc": 0.999984,
                "accuracy": 0.996,
                "f1": 0.996,
                "tpr_at_fpr_0_05": 1.0,
                "optimal_threshold_f1": 0.5,
                "optimal_threshold_acc": 0.5,
                "aupr": 0.9999840637450199
            },
            {
                "n_total": 500,
                "auroc": 0.999984,
                "accuracy": 0.998,
                "f1": 0.9979959919839679,
                "tpr_at_fpr_0_05": 1.0,
                "optimal_threshold_f1": 0.5,
                "optimal_threshold_acc": 0.5,
                "aupr": 0.9999840637450199
            },
            {
                "n_total": 500,
                "auroc": 0.999968,
                "accuracy": 0.998,
                "f1": 0.9979959919839679,
                "tpr_at_fpr_0_05": 1.0,
                "optimal_threshold_f1": 0.5,
                "optimal_threshold_acc": 0.5,
                "aupr": 0.999968253968254
            },
            {
                "n_total": 500,
                "auroc": 0.999952,
                "accuracy": 0.994,
                "f1": 0.993963782696177,
                "tpr_at_fpr_0_05": 1.0,
                "optimal_threshold_f1": 0.5,
                "optimal_threshold_acc": 0.5,
                "aupr": 0.9999522539682539
            },
            {
                "n_total": 500,
                "auroc": 0.99992,
                "accuracy": 0.99,
                "f1": 0.9899396378269618,
                "tpr_at_fpr_0_05": 1.0,
                "optimal_threshold_f1": 0.5,
                "optimal_threshold_acc": 0.5,
                "aupr": 0.9999200606789678
            },
            {
                "n_total": 500,
                "auroc": 0.999856,
                "accuracy": 0.992,
                "f1": 0.9919678714859438,
                "tpr_at_fpr_0_05": 1.0,
                "optimal_threshold_f1": 0.5,
                "optimal_threshold_acc": 0.5,
                "aupr": 0.9998557979314503
            }
        ],
        "mean_projection_metrics": {
            "n_total": 500,
            "auroc": 0.999984,
            "accuracy": 0.994,
            "f1": 0.993963782696177,
            "tpr_at_fpr_0_05": 1.0,
            "optimal_threshold_f1": 0.5,
            "optimal_threshold_acc": 0.5,
            "aupr": 0.9999840637450199
        },
        "weighted_projection_metrics": {
            "n_total": 500,
            "auroc": 1.0,
            "accuracy": 0.994,
            "f1": 0.993963782696177,
            "tpr_at_fpr_0_05": 1.0,
            "optimal_threshold_f1": 0.5,
            "optimal_threshold_acc": 0.5,
            "aupr": 1.0
        },
        "scores": {
            "mean_projection": [
                -7.221792456212079,
                4.442116433518978,
                -9.330917086981335,
                -5.882107138927992,
                -10.153523724063714,
                6.581979698088196,
                8.227247075105682,
                -11.921249250876965,
                -3.8940780566169018,
                7.731848235747185,
                -10.4489251527409,
                -10.329976531942895,
                9.63847421660198,
                13.217586912916452,
                -13.85672503098445,
                -4.52121865521061,
                5.560011783171315,
                6.446953467112647,
                8.046640308175101,
                -10.735767583112308,
                4.780898955043083,
                -10.847692860776904,
                9.586632883100805,
                -4.258870226787394,
                -4.124510353356879,
                -12.345678768343031,
                -10.108963811384124,
                -6.538461315196435,
                15.622661540255264,
                7.887410664084074,
                -10.778195109873357,
                7.973091817443929,
                7.315289527651521,
                7.05798556847675,
                10.012254767966288,
                -4.2916384597253225,
                9.134150154694943,
                -11.956633001958808,
                -9.701594261491362,
                -4.998116655947797,
                8.837459153949325,
                -8.323631461427539,
                -6.016049065046606,
                -12.657066624122734,
                2.9747738556214363,
                -6.204528784654385,
                11.153738822861003,
                9.74552948533867,
                7.93217607086261,
                -7.2896170196298415,
                11.040102501449292,
                -11.325618607352771,
                9.310944461474255,
                -12.717753379518998,
                -6.044653945494973,
                -10.76612040558516,
                7.715157673988644,
                7.670563470912421,
                -10.700534972563368,
                4.638800727775495,
                -11.130117094489352,
                8.597876997019787,
                10.651802909411872,
                7.4472366105881775,
                11.784392918748056,
                -6.891507038286126,
                -12.81988519837435,
                -6.969954803493125,
                -12.108956465350264,
                -5.5423061933664535,
                -10.63065227051082,
                0.33961275347860825,
                12.582952196037327,
                -11.882478356512648,
                6.428152502583944,
                12.632887897400673,
                -4.44964475511388,
                -3.03127178093187,
                -5.270754495036488,
                9.38882110602929,
                -10.705348430092455,
                4.230210703097676,
                6.9148207907474974,
                9.41719608423823,
                -11.233428332962562,
                -8.868713848032373,
                6.640811774503776,
                -7.597306183971948,
                -7.180840451478495,
                -6.627706676365791,
                -3.4638650675660316,
                9.267572882450153,
                6.814563598328471,
                10.64901394560929,
                3.4936360732850145,
                10.04813035132404,
                -10.769054327215072,
                9.515793869971894,
                7.697518885883522,
                -4.994053848796207,
                -8.512624517455045,
                11.917423981509206,
                -9.107714079480905,
                -13.943106691369628,
                -6.832912234277465,
                -6.6662031892599565,
                8.70090485994374,
                4.638776669738237,
                3.8086256062538393,
                -4.876724328570798,
                -8.243549299549494,
                -6.035805240239014,
                5.331946025792517,
                9.954262718190083,
                -6.210723745144961,
                -6.324366750104723,
                8.4903697819077,
                12.46461648817107,
                -5.240309392603674,
                -5.592971029008696,
                7.662722778961509,
                1.5507971364114623,
                9.813837167824616,
                11.866579202637833,
                -12.74989297716887,
                10.269129667433475,
                -12.64564423527266,
                4.8334825852634635,
                -12.194445463150458,
                5.760403013628488,
                -11.651533369159637,
                6.655639042508912,
                7.801178164925256,
                6.79634088450993,
                8.410153738491525,
                -5.74276468764432,
                12.2087835307452,
                9.324190501579162,
                -11.992862296551884,
                -11.53987592694837,
                -10.197695930822105,
                -7.6657459060537105,
                8.348912513349116,
                -12.129053683242143,
                9.656585357467355,
                5.083782049472807,
                -11.8722664430367,
                -5.749027235051076,
                7.260380271265463,
                -7.192155947151016,
                8.660743022862828,
                11.70859436659256,
                -8.735864062115345,
                -9.252227513248364,
                -10.106379445844633,
                7.440357847547066,
                11.905635142997694,
                4.6848975045070285,
                11.26104305448616,
                -6.394931260127699,
                -8.381804301645435,
                6.7529954404137715,
                -9.997286870581489,
                -6.508469698675211,
                4.159294379323483,
                13.149041862194583,
                2.3358476123023895,
                6.679275764809358,
                -7.4253290687738795,
                13.082172696633565,
                7.3530955677088805,
                -8.085655095857772,
                2.9646012341991588,
                -9.356882631369043,
                -8.338539655430624,
                11.458211992846408,
                -7.700289899095859,
                10.860357379276598,
                -7.540479666222783,
                -12.622503568990933,
                11.559498028248425,
                7.761597504528736,
                6.207624745486745,
                -9.166416714662095,
                5.733895010045096,
                -10.415141704030772,
                10.081634859569105,
                11.536429149701831,
                6.341382121753215,
                10.485389116225411,
                14.769562794539754,
                12.379383870368754,
                9.947889723488789,
                -13.348512865098545,
                6.9021662685440415,
                -7.43543322281948,
                1.9398063225943136,
                -9.95462546627212,
                -6.092070133256937,
                -7.615990729910538,
                -6.820207277146829,
                -8.703168952282834,
                2.5468795381795175,
                8.47044810717193,
                9.476698783375364,
                -5.281520042007838,
                -9.67225840835557,
                9.332703702768834,
                6.204267655547019,
                -7.213315764692886,
                -13.140433615220072,
                8.559457855318696,
                -6.11267938001441,
                9.073781794470122,
                9.135025227229649,
                6.590353795986266,
                8.472607975962271,
                -7.298802249862529,
                -6.63440820826899,
                -8.86488216648063,
                -14.487827952478428,
                -5.843831825185655,
                7.784352579249835,
                -5.541267056611119,
                -7.765916391892255,
                -8.003062603427603,
                9.91369735691468,
                11.86988084644411,
                -9.579317906953765,
                -9.541032658034434,
                9.785151034125688,
                9.345091468820106,
                -9.254003113954393,
                5.645851758006342,
                9.67398897013948,
                8.77740425315438,
                7.260380271265463,
                -3.8971565748848778,
                7.688160703307872,
                -11.277369114556933,
                12.523831730164876,
                5.784151400868641,
                -9.013344207765545,
                9.27647452710234,
                -11.042693179450689,
                5.752841047337305,
                -5.568191691012502,
                -9.723119272338595,
                8.750686034380902,
                -15.328449393122494,
                -6.111762980746804,
                10.477555431756562,
                9.361584956493523,
                8.166956816425177,
                9.800567256950663,
                8.985245989580347,
                8.489940163135358,
                -10.912513452271863,
                -11.76972231491933,
                7.563586058580094,
                6.53489071046706,
                -9.518492083134662,
                9.22403772628304,
                -10.754693715332138,
                13.413928918432095,
                12.208498285669547,
                -8.335517331038254,
                -8.90569017385422,
                -5.442900142720116,
                -7.4147359918535605,
                7.425783616798584,
                11.488843444642379,
                8.60861384141803,
                -6.9832774188256055,
                -8.18063906465521,
                -4.111544634272027,
                7.5841671938260165,
                6.729086082819975,
                9.963630143839191,
                7.112338206143723,
                11.225861130672458,
                6.532262570708352,
                -12.564282799065868,
                -7.399768799006047,
                -12.350358945213642,
                10.80726744092475,
                -5.952065550796775,
                8.431480440372189,
                -4.917836176372388,
                -10.895898091227185,
                10.710636396286333,
                9.87471374188397,
                -9.662194843170976,
                -0.926155712643465,
                -11.99014950293126,
                -4.642468487307088,
                12.013505213861091,
                -6.903847082471783,
                -12.002172095650106,
                -3.317621405445913,
                7.699496255915152,
                -5.484366309975389,
                -13.587635195611153,
                8.767323610205523,
                12.675546668948764,
                -9.818319318968143,
                7.260380271265463,
                7.8085018864701565,
                -8.7753415296273,
                -7.580666122359598,
                -4.544853315319325,
                -4.204737574387946,
                -5.029485718149623,
                -10.564974999681452,
                -8.559804128639414,
                -12.957722817350643,
                -7.336146912258121,
                5.068684860179262,
                12.812081927271514,
                -5.161858569182445,
                -10.597894044495089,
                7.6283679621678,
                -7.880507253282175,
                -11.33617382158333,
                15.340148538579706,
                -4.490730034590914,
                5.001487274929954,
                9.311046054745905,
                5.352035949541907,
                -8.700362254319355,
                7.084339365550687,
                -10.944584080093133,
                8.15230491501664,
                -8.11820341524637,
                8.702508186497015,
                -11.944153784413023,
                7.6182077653943745,
                9.843970093535873,
                9.18516543863838,
                5.758177594503156,
                -8.198248485237087,
                9.062428284448998,
                3.963218890227622,
                7.837779902640567,
                -10.830237980100714,
                -3.9699914808861294,
                -11.762546844759196,
                -9.708639183898239,
                -9.59066468074667,
                -7.373051515131296,
                10.556184183440546,
                -5.191964782435312,
                -10.726230106272368,
                13.922340260295291,
                -6.291360826426257,
                -6.821841777308194,
                -10.714013333985474,
                8.806127603089385,
                -8.512074836805736,
                5.690954813042982,
                -4.747454422575396,
                -11.040771523389454,
                9.016097284557045,
                -7.030094740956438,
                12.37171622503063,
                7.6319082216951895,
                -5.904776503335693,
                -11.065738241807855,
                4.400200892157028,
                -7.837050859616933,
                11.552671745242352,
                8.128736029655583,
                -5.94683433981084,
                -9.376523016440268,
                -7.006284191976288,
                5.756207268685206,
                -9.556026262586718,
                7.215432981663495,
                -11.062390027351718,
                4.382079187424004,
                -8.464412395563976,
                9.116778230271095,
                -2.747430104251696,
                -9.380665125424777,
                -11.176070053582963,
                -6.663640585434851,
                10.918824814574878,
                -9.052472315163667,
                -11.766914386253445,
                13.094996513899071,
                -5.581937035150532,
                -8.594650458808198,
                14.50827201988651,
                -6.775938850266437,
                17.833826900087598,
                9.194982057255325,
                9.659279772784707,
                5.718869183887048,
                11.805601958902677,
                -8.271634296825837,
                -5.3697065517439375,
                -6.308332106449163,
                7.737183696609836,
                10.120874026169925,
                2.1092777507823026,
                -8.16717161611877,
                -10.382463386198774,
                8.964784564818254,
                10.220015183856892,
                -10.10942591069722,
                -6.470964168719828,
                5.843206972301388,
                -10.548422980175792,
                -7.675337908253659,
                9.276309465194863,
                -6.856754524725392,
                6.755037209415134,
                -11.075627491573387,
                6.452452831490517,
                -6.55636280654578,
                -9.03552644603752,
                12.288775675120087,
                -10.59581348947744,
                -6.61110812946063,
                -3.313842789494928,
                -10.024663102515612,
                -6.574117718050861,
                7.05751174992455,
                -15.585765754738029,
                8.533148853515168,
                4.397279710604546,
                10.810836765926794,
                -9.170955580809412,
                8.330997143997717,
                7.643352754070024,
                -10.945556688184311,
                12.701465087880125,
                -12.363860222073919,
                -11.351095763542277,
                -8.42794015538276,
                10.013654959987214,
                7.435088051201271,
                9.247555319609738,
                -6.365303140125564,
                -5.979564760785446,
                7.260380271265463,
                10.587193825079321,
                -5.685558088627391,
                3.932673810918656,
                -13.377587264275999,
                5.570700167793902,
                9.459955994047348,
                -5.219872702867528,
                -6.663817286338504,
                8.715863848375154,
                11.698706123073643,
                -6.706040494658399,
                -5.420237901697557,
                8.792331374261144,
                6.752464971967388,
                -9.161597740936557,
                -2.693904730237929,
                -9.592218625114995,
                7.576687819015304,
                5.649745396337065,
                12.716331185082229,
                -7.715080262621301,
                16.40774291305064,
                12.879789667424937,
                -9.839006646536346,
                -10.296645066388383,
                13.647535142212675,
                -6.209541473640688,
                -9.995920310662804,
                7.344748526123619,
                9.13307394934042,
                4.163201708686453,
                7.2259299605193785,
                3.212368016815488,
                -8.682606200454815,
                13.77211880705594,
                11.282600564245952,
                12.811227250161572,
                7.6907402809952,
                8.835045105379677,
                9.499751872726861,
                7.260380271265463,
                8.325420436459101,
                -1.0866761622345968,
                6.704561357917039,
                -4.65868654880426,
                7.5649678113189305,
                -0.7134900508257949,
                -5.483075705328919,
                -9.884603689564324,
                10.255018049044196,
                -13.598793414214963,
                -10.228617384970134,
                -6.793783702256965,
                11.61614849234153
            ],
            "weighted_projection": [
                -7.1488633912013455,
                4.464464925792937,
                -9.502149331486503,
                -6.002661051173929,
                -10.334794619844853,
                6.6360115619482585,
                8.303225190546934,
                -12.127624017310309,
                -3.9858952906974423,
                7.80108461252125,
                -10.634966011577259,
                -10.278076869977504,
                9.734897371075228,
                13.366325447218735,
                -13.87261727114897,
                -4.625102253195925,
                5.599052514380897,
                6.497231271406695,
                8.117528113956496,
                -10.926394213778892,
                4.808816503852957,
                -10.9912500171965,
                9.681766943667032,
                -4.0929293103541555,
                -4.22130740683915,
                -12.338514388503134,
                -10.291248953353751,
                -6.6683550964195915,
                15.801476676347711,
                7.95796260601072,
                -10.96995868799556,
                8.047117425584961,
                7.376771523641486,
                6.080387479869705,
                10.112622485973064,
                -4.390614011125283,
                9.225001299154309,
                -11.770346285176442,
                -9.87602567757694,
                -5.103627488276059,
                8.920058649052573,
                -8.477532059798767,
                -6.139727572791391,
                -12.656357533771802,
                2.975486844422301,
                -6.331287305476295,
                11.271504813868805,
                9.841663342491703,
                8.005578371949277,
                -7.43137836472754,
                11.156362690286999,
                -11.178239397703349,
                9.403904717884512,
                -12.714338378672633,
                -6.166212365952988,
                -10.736884616373242,
                7.784739321357849,
                7.738238335507535,
                -10.655375241596841,
                4.664921776527967,
                -10.975947059040148,
                8.678663362781085,
                10.760623150739,
                7.512693399563933,
                11.907549825738382,
                -7.026580737154256,
                -12.821954946809646,
                -7.10608089977886,
                -12.098662040894148,
                -5.6580497380383115,
                -10.605465813613396,
                0.30547512678678773,
                12.720199997761782,
                -11.874147145349207,
                6.477199459549284,
                12.769871740205476,
                -4.551027251304318,
                -3.1116144000760726,
                -5.333825647744156,
                9.482971639241033,
                -10.674879355354754,
                4.250522923748418,
                6.974628863750695,
                9.509070382349304,
                -11.210548085821602,
                -8.798101193395208,
                6.693969618135166,
                -7.742421313759757,
                -7.321495732538969,
                -6.759384840226448,
                -3.236025430179126,
                9.357521045938167,
                6.870460360887874,
                10.758930130227329,
                3.5019553825109453,
                10.149027530181048,
                -10.739531042950674,
                9.607246577723247,
                7.767361015291632,
                -5.103200843637445,
                -8.670461419156723,
                12.044601106085517,
                -9.003285012117269,
                -13.958969198888365,
                -6.967769010436657,
                -6.526835872951199,
                8.784840838115668,
                4.666823193310715,
                3.8229841533718165,
                -4.9832395434510905,
                -8.398391087411639,
                -6.12084138304994,
                5.3679862754780805,
                10.054019912342198,
                -6.337330099475166,
                -6.223861692222606,
                8.570838589010448,
                12.601039355884582,
                -5.354531664728649,
                -5.709991364158968,
                7.730554113478274,
                1.7193543664491997,
                9.912360731623519,
                11.991732782709288,
                -12.74898680071868,
                10.375678729831616,
                -12.813912019764256,
                4.86280577669957,
                -12.403990853513788,
                5.801441082120425,
                -11.63573981592422,
                6.711049346988604,
                7.872474980136867,
                6.850544814323831,
                8.487272068095786,
                -5.864369721134702,
                12.340819036880347,
                9.415046539467081,
                -11.929948127955313,
                -11.520981044431451,
                -10.3801858981678,
                -7.81202403598714,
                8.425403854505507,
                -12.207011700322857,
                9.752873795963382,
                5.114025284119443,
                -11.859345534098967,
                -5.869679435745932,
                7.321869784346311,
                -7.33207699242388,
                8.742649131125713,
                11.833981451199808,
                -8.898759525366788,
                -9.420091794682591,
                -10.289249009864122,
                7.505683192817686,
                12.03145472805439,
                4.714328903869138,
                11.377785482550236,
                -6.521338247839336,
                -8.538644703362312,
                6.807251786533393,
                -9.956091573283862,
                -6.6376495783658775,
                4.178046106104697,
                13.29351414286293,
                2.328857319553015,
                6.732854444133531,
                -7.567391402987249,
                13.225537089394608,
                7.415167571062924,
                -8.238778409043666,
                2.9682169355004695,
                -9.529563533605353,
                -8.49441930061022,
                11.581801731643706,
                -7.846828252510095,
                10.976099441872773,
                -7.6878034805967586,
                -12.619759344378899,
                11.684740205647255,
                7.829728012169457,
                6.256175725813641,
                -9.333383419891888,
                5.773408693798216,
                -10.382848179216428,
                10.182884333049648,
                11.659249937242103,
                6.391478514568685,
                10.592419746340132,
                14.935413077283801,
                12.51355790716091,
                10.048339313966581,
                -13.355382102502292,
                6.959422436838298,
                -7.578376853057876,
                1.9270248980905134,
                -10.13351241085694,
                -6.216252426911658,
                -7.760768893920668,
                -6.956729537455018,
                -8.864768886859752,
                2.5439554566665294,
                8.548645218866003,
                9.569585199526559,
                -5.130082741228159,
                -9.626696805914943,
                9.421771113789426,
                6.251027371640516,
                -7.354856878112499,
                -13.145190605873308,
                8.64269738230045,
                -6.234146492566707,
                9.160996945511272,
                9.226196934041276,
                6.64668609843117,
                8.55255130558676,
                -7.43906234906562,
                -6.7179609680645775,
                -9.029038866887776,
                -14.511917450392417,
                -5.963897424936911,
                7.8544483013719555,
                -5.660151386543741,
                -7.914399634852137,
                -8.11908045613296,
                10.009999338931769,
                11.997220138219099,
                -9.532034319902287,
                -9.666181312215771,
                9.882416898661042,
                9.43792056374604,
                -9.423654417413728,
                5.684381593631316,
                9.767472455116527,
                8.860607355614066,
                7.321869784346311,
                -3.7744067616894434,
                7.758350191537018,
                -11.254528508033673,
                12.658620173745941,
                5.825417364783631,
                -9.180915620435174,
                9.366961137777627,
                -11.016609213047841,
                5.792672784547527,
                -5.685295879230139,
                -9.900574285725078,
                8.832729393246321,
                -15.36509434089659,
                -6.237804761552484,
                10.586383510692167,
                9.457850898176506,
                8.241861970905111,
                9.89817722380699,
                9.072553178345263,
                8.570292398337259,
                -11.105290237496874,
                -11.738220236017401,
                7.6319361502058,
                6.584905404652826,
                -9.691378104590923,
                9.31388660587763,
                -10.489010908897953,
                13.562253243627415,
                12.339685471831572,
                -8.442711286261387,
                -9.068377111877325,
                -5.557215442297723,
                -7.232196722800299,
                7.490041174256993,
                11.611835318297466,
                7.6530425289685375,
                -7.120973586816033,
                -8.114181008262182,
                -4.207218694636174,
                7.648524808410337,
                6.783605187807015,
                10.0651988938154,
                7.174225616764872,
                11.340697891052885,
                6.585043243253061,
                -12.543452848710423,
                -7.542895487222249,
                -12.341425079417476,
                10.919789045233731,
                -6.072770603223282,
                8.509364901701343,
                -5.025822649557544,
                -10.630953157656268,
                10.819431215114257,
                9.974634574437633,
                -9.61618975200333,
                -0.975974300802109,
                -11.997227137811343,
                -4.698282153789213,
                12.143996933912296,
                -7.040056644584888,
                -11.753942735836734,
                -3.4002958960591325,
                7.768178541722592,
                -5.290687101873597,
                -13.60573406442321,
                8.847903253000135,
                12.814923350712514,
                -9.538965041279093,
                7.321869784346311,
                7.878257196212009,
                -8.937889189056099,
                -7.727916747280157,
                -4.410288932622732,
                -4.26416121969574,
                -5.1382513849043105,
                -10.753254399946144,
                -8.718497328297142,
                -12.959424985931742,
                -7.47716775577852,
                5.101139115606961,
                12.947769560509661,
                -4.997846004872985,
                -10.786471531984272,
                7.694146793846299,
                -7.809926520711875,
                -11.535316089041896,
                15.514261388278603,
                -4.593272131010137,
                4.000791548862509,
                9.402858479945442,
                5.387308085380784,
                -8.861848810740558,
                7.144849486182875,
                -10.710986821646728,
                8.22822438156016,
                -8.272781787827574,
                8.78604319083379,
                -11.931133685066204,
                7.6846920246050825,
                9.944741090305357,
                9.275351786785142,
                5.798228920764862,
                -8.060662587462497,
                9.151926012025951,
                3.9792312111664607,
                7.907631698080535,
                -11.023283917067799,
                -4.063091348045567,
                -11.747199331600013,
                -9.88470725936878,
                -9.76476548497854,
                -7.244124954355935,
                10.661986663418656,
                -5.302169221488955,
                -10.694932928048656,
                14.074947829441657,
                -6.416735506097459,
                -6.956545799819107,
                -10.904896806979055,
                8.888955627983176,
                -8.670820036917315,
                4.693820389784999,
                -4.85453988320072,
                -10.999381880373559,
                9.10403517982327,
                -7.167985165269107,
                12.506006846863492,
                7.699685014691763,
                -6.023840173873808,
                -11.039940787735151,
                4.4222973064186695,
                -7.597922971630135,
                11.675947331604197,
                8.205538119008814,
                -5.759067408674492,
                -9.31111788412324,
                -7.143079957085224,
                5.7972721948315105,
                -9.729242624586025,
                7.277944014135094,
                -11.257134024727478,
                4.404062265325043,
                -8.399992986118585,
                9.205530999492424,
                -2.8252582124881367,
                -9.331207391352338,
                -11.374591557916318,
                -6.794551872771941,
                11.031776775110428,
                -9.217824151151035,
                -11.751220766604828,
                13.23675352999384,
                -5.700682461470366,
                -8.533705088652603,
                14.66993821019959,
                -6.908866013612537,
                18.045011063828017,
                8.246976291968567,
                9.753414115987239,
                5.7605738107869735,
                11.931075250734654,
                -8.42606660926127,
                -5.482083864505946,
                -6.436698162207317,
                7.805095537712031,
                10.223708237383187,
                2.097734094857815,
                -8.121254162003751,
                -10.566872227720799,
                9.050650856884662,
                10.322514535020064,
                -9.834013170901816,
                -6.599705768145833,
                5.885816887147007,
                -10.515034085289273,
                -7.787435425239889,
                9.368677664556984,
                -6.991914749461483,
                6.8100893610956375,
                -11.050805273475525,
                6.503081264959372,
                -6.688584732771957,
                -9.201916437212601,
                12.4201600678769,
                -10.564012219254685,
                -6.741347133985276,
                -3.3990565757476983,
                -9.984722258007055,
                -6.704114313516546,
                7.115943862969141,
                -15.625018846555342,
                8.613936102408106,
                4.420393298092657,
                10.921152186776315,
                -9.339759051563556,
                8.409343870411993,
                7.709866057436189,
                -10.91826005286317,
                12.839160725448057,
                -12.57940015505026,
                -11.550785793294828,
                -8.584977465854102,
                10.117193514217481,
                7.500840494570089,
                9.33789302048508,
                -6.494944620657256,
                -6.099471524760447,
                7.321869784346311,
                10.695268273151381,
                -5.804889788618326,
                2.9100800925407726,
                -13.384875571295753,
                5.609402434754749,
                9.552444834242387,
                -5.067910687418335,
                -6.79558791839683,
                8.799623960973893,
                11.823143324913,
                -6.790428807319798,
                -5.257180820082309,
                8.877678804941999,
                6.806422537688833,
                -9.106903409503081,
                -2.7706318334105213,
                -9.765303044492736,
                7.6447240066142195,
                5.68865550767257,
                12.855828697195424,
                -7.862382305202563,
                16.599000381728768,
                13.018334045547194,
                -10.01473186597057,
                -10.479157944930206,
                13.799352094793907,
                -6.33446343393941,
                -9.95574689043438,
                7.408597223175157,
                9.224442633903484,
                4.182206325925978,
                7.288977859154595,
                3.219374128321675,
                -8.796021099113995,
                13.927206427955564,
                11.399491588027033,
                12.950610125830124,
                7.7578468788165305,
                8.92086460193305,
                9.592937869166931,
                7.321869784346311,
                8.40233189323613,
                -0.8179981066685764,
                6.758547277752969,
                -4.4962774351121855,
                7.630384311240436,
                -0.5785278715312092,
                -5.40777331471555,
                -9.505973831047863,
                10.360192601468675,
                -13.609178600255246,
                -10.412144651513449,
                -6.928159862595767,
                11.74081106104445
            ]
        }
    }
}