{
    "args": {
        "model": "llama_8b",
        "dataset": "CB_drlDomain",
        "token_mode": "last_token",
        "ood": true,
        "smoke_test": false,
        "components": 50,
        "mode": "default",
        "model_name": "llama_8b",
        "target_dataset": "CB_tsm",
        "datetime": "2026-05-05 21:36:55"
    },
    "test_metrics": {
        "test_metrics_by_layer": [
            {
                "n_total": 496,
                "auroc": 0.470156412591051,
                "accuracy": 0.4737903225806452,
                "f1": 0.6156111929307806,
                "tpr_at_fpr_0_05": 0.0,
                "optimal_threshold_f1": 0.5,
                "optimal_threshold_acc": 0.5,
                "aupr": 0.48618469299616285
            },
            {
                "n_total": 496,
                "auroc": 0.5567767950052029,
                "accuracy": 0.5141129032258065,
                "f1": 0.6042692939244664,
                "tpr_at_fpr_0_05": 0.11290322580645161,
                "optimal_threshold_f1": 0.5,
                "optimal_threshold_acc": 0.5,
                "aupr": 0.5756737481606712
            },
            {
                "n_total": 496,
                "auroc": 0.5888560093652446,
                "accuracy": 0.5342741935483871,
                "f1": 0.6657018813314037,
                "tpr_at_fpr_0_05": 0.06854838709677419,
                "optimal_threshold_f1": 0.5,
                "optimal_threshold_acc": 0.5,
                "aupr": 0.576707248708771
            },
            {
                "n_total": 496,
                "auroc": 0.6079116805411031,
                "accuracy": 0.5241935483870968,
                "f1": 0.6589595375722543,
                "tpr_at_fpr_0_05": 0.09274193548387097,
                "optimal_threshold_f1": 0.5,
                "optimal_threshold_acc": 0.5,
                "aupr": 0.5932021188499953
            },
            {
                "n_total": 496,
                "auroc": 0.674785379812695,
                "accuracy": 0.5705645161290323,
                "f1": 0.6748091603053435,
                "tpr_at_fpr_0_05": 0.21370967741935484,
                "optimal_threshold_f1": 0.5,
                "optimal_threshold_acc": 0.5,
                "aupr": 0.6860475848118863
            },
            {
                "n_total": 496,
                "auroc": 0.7348465140478667,
                "accuracy": 0.6754032258064516,
                "f1": 0.6956521739130435,
                "tpr_at_fpr_0_05": 0.2862903225806452,
                "optimal_threshold_f1": 0.5,
                "optimal_threshold_acc": 0.5,
                "aupr": 0.7577789855729855
            },
            {
                "n_total": 496,
                "auroc": 0.7182459677419356,
                "accuracy": 0.6451612903225806,
                "f1": 0.6628352490421456,
                "tpr_at_fpr_0_05": 0.27419354838709675,
                "optimal_threshold_f1": 0.5,
                "optimal_threshold_acc": 0.5,
                "aupr": 0.7452390757823
            },
            {
                "n_total": 496,
                "auroc": 0.7018730489073881,
                "accuracy": 0.6491935483870968,
                "f1": 0.6506024096385542,
                "tpr_at_fpr_0_05": 0.23790322580645162,
                "optimal_threshold_f1": 0.5,
                "optimal_threshold_acc": 0.5,
                "aupr": 0.7288499866482134
            },
            {
                "n_total": 496,
                "auroc": 0.7030924817898022,
                "accuracy": 0.6431451612903226,
                "f1": 0.6452905811623246,
                "tpr_at_fpr_0_05": 0.2862903225806452,
                "optimal_threshold_f1": 0.5,
                "optimal_threshold_acc": 0.5,
                "aupr": 0.7276448614559494
            },
            {
                "n_total": 496,
                "auroc": 0.6821832726326742,
                "accuracy": 0.6229838709677419,
                "f1": 0.6029723991507431,
                "tpr_at_fpr_0_05": 0.25,
                "optimal_threshold_f1": 0.5,
                "optimal_threshold_acc": 0.5,
                "aupr": 0.710169918406189
            },
            {
                "n_total": 496,
                "auroc": 0.7404559053069719,
                "accuracy": 0.6391129032258065,
                "f1": 0.5513784461152882,
                "tpr_at_fpr_0_05": 0.29435483870967744,
                "optimal_threshold_f1": 0.5,
                "optimal_threshold_acc": 0.5,
                "aupr": 0.7537225183284009
            },
            {
                "n_total": 496,
                "auroc": 0.7390251040582727,
                "accuracy": 0.657258064516129,
                "f1": 0.5971563981042654,
                "tpr_at_fpr_0_05": 0.29435483870967744,
                "optimal_threshold_f1": 0.5,
                "optimal_threshold_acc": 0.5,
                "aupr": 0.7584110548117619
            },
            {
                "n_total": 496,
                "auroc": 0.7530079344432881,
                "accuracy": 0.6794354838709677,
                "f1": 0.6187050359712231,
                "tpr_at_fpr_0_05": 0.31048387096774194,
                "optimal_threshold_f1": 0.5,
                "optimal_threshold_acc": 0.5,
                "aupr": 0.7761220903803935
            },
            {
                "n_total": 496,
                "auroc": 0.7464880332986472,
                "accuracy": 0.6673387096774194,
                "f1": 0.6080760095011877,
                "tpr_at_fpr_0_05": 0.22580645161290322,
                "optimal_threshold_f1": 0.5,
                "optimal_threshold_acc": 0.5,
                "aupr": 0.7596772698644824
            },
            {
                "n_total": 496,
                "auroc": 0.7428622528616025,
                "accuracy": 0.6854838709677419,
                "f1": 0.6438356164383562,
                "tpr_at_fpr_0_05": 0.3185483870967742,
                "optimal_threshold_f1": 0.5,
                "optimal_threshold_acc": 0.5,
                "aupr": 0.7701816167639869
            },
            {
                "n_total": 496,
                "auroc": 0.744260535900104,
                "accuracy": 0.6814516129032258,
                "f1": 0.6425339366515838,
                "tpr_at_fpr_0_05": 0.36693548387096775,
                "optimal_threshold_f1": 0.5,
                "optimal_threshold_acc": 0.5,
                "aupr": 0.7753334639246983
            },
            {
                "n_total": 496,
                "auroc": 0.7285867585848076,
                "accuracy": 0.6653225806451613,
                "f1": 0.6278026905829597,
                "tpr_at_fpr_0_05": 0.3024193548387097,
                "optimal_threshold_f1": 0.5,
                "optimal_threshold_acc": 0.5,
                "aupr": 0.7506537234713548
            },
            {
                "n_total": 496,
                "auroc": 0.7117423257023934,
                "accuracy": 0.6290322580645161,
                "f1": 0.6260162601626016,
                "tpr_at_fpr_0_05": 0.2701612903225806,
                "optimal_threshold_f1": 0.5,
                "optimal_threshold_acc": 0.5,
                "aupr": 0.7349953765188888
            },
            {
                "n_total": 496,
                "auroc": 0.7229123309053069,
                "accuracy": 0.6310483870967742,
                "f1": 0.682842287694974,
                "tpr_at_fpr_0_05": 0.2903225806451613,
                "optimal_threshold_f1": 0.5,
                "optimal_threshold_acc": 0.5,
                "aupr": 0.7462234775483625
            },
            {
                "n_total": 496,
                "auroc": 0.7232537721123828,
                "accuracy": 0.6350806451612904,
                "f1": 0.6726943942133815,
                "tpr_at_fpr_0_05": 0.28225806451612906,
                "optimal_threshold_f1": 0.5,
                "optimal_threshold_acc": 0.5,
                "aupr": 0.7413302054189139
            },
            {
                "n_total": 496,
                "auroc": 0.732911680541103,
                "accuracy": 0.6411290322580645,
                "f1": 0.6751824817518248,
                "tpr_at_fpr_0_05": 0.34274193548387094,
                "optimal_threshold_f1": 0.5,
                "optimal_threshold_acc": 0.5,
                "aupr": 0.753586521019173
            },
            {
                "n_total": 496,
                "auroc": 0.7190264047866806,
                "accuracy": 0.6270161290322581,
                "f1": 0.6760070052539404,
                "tpr_at_fpr_0_05": 0.3064516129032258,
                "optimal_threshold_f1": 0.5,
                "optimal_threshold_acc": 0.5,
                "aupr": 0.7440704864986902
            },
            {
                "n_total": 496,
                "auroc": 0.7147990374609781,
                "accuracy": 0.6310483870967742,
                "f1": 0.680628272251309,
                "tpr_at_fpr_0_05": 0.29838709677419356,
                "optimal_threshold_f1": 0.5,
                "optimal_threshold_acc": 0.5,
                "aupr": 0.739913123592298
            },
            {
                "n_total": 496,
                "auroc": 0.6936947190426639,
                "accuracy": 0.6068548387096774,
                "f1": 0.674457429048414,
                "tpr_at_fpr_0_05": 0.22983870967741934,
                "optimal_threshold_f1": 0.5,
                "optimal_threshold_acc": 0.5,
                "aupr": 0.711827698955535
            },
            {
                "n_total": 496,
                "auroc": 0.7022795265348596,
                "accuracy": 0.625,
                "f1": 0.6804123711340206,
                "tpr_at_fpr_0_05": 0.20967741935483872,
                "optimal_threshold_f1": 0.5,
                "optimal_threshold_acc": 0.5,
                "aupr": 0.7168331271309499
            },
            {
                "n_total": 496,
                "auroc": 0.6939873829344432,
                "accuracy": 0.6088709677419355,
                "f1": 0.6755852842809364,
                "tpr_at_fpr_0_05": 0.2056451612903226,
                "optimal_threshold_f1": 0.5,
                "optimal_threshold_acc": 0.5,
                "aupr": 0.709668328631972
            },
            {
                "n_total": 496,
                "auroc": 0.6908818938605619,
                "accuracy": 0.6008064516129032,
                "f1": 0.6796116504854369,
                "tpr_at_fpr_0_05": 0.20161290322580644,
                "optimal_threshold_f1": 0.5,
                "optimal_threshold_acc": 0.5,
                "aupr": 0.7067634053634045
            },
            {
                "n_total": 496,
                "auroc": 0.6965888397502601,
                "accuracy": 0.6008064516129032,
                "f1": 0.6775244299674267,
                "tpr_at_fpr_0_05": 0.23790322580645162,
                "optimal_threshold_f1": 0.5,
                "optimal_threshold_acc": 0.5,
                "aupr": 0.7169979713823974
            },
            {
                "n_total": 496,
                "auroc": 0.6964262486992716,
                "accuracy": 0.5967741935483871,
                "f1": 0.673202614379085,
                "tpr_at_fpr_0_05": 0.24193548387096775,
                "optimal_threshold_f1": 0.5,
                "optimal_threshold_acc": 0.5,
                "aupr": 0.7241571865201275
            },
            {
                "n_total": 496,
                "auroc": 0.6999056971904266,
                "accuracy": 0.6149193548387096,
                "f1": 0.6789915966386555,
                "tpr_at_fpr_0_05": 0.2661290322580645,
                "optimal_threshold_f1": 0.5,
                "optimal_threshold_acc": 0.5,
                "aupr": 0.7226063352561304
            },
            {
                "n_total": 496,
                "auroc": 0.7017917533818938,
                "accuracy": 0.6169354838709677,
                "f1": 0.6768707482993197,
                "tpr_at_fpr_0_05": 0.25806451612903225,
                "optimal_threshold_f1": 0.5,
                "optimal_threshold_acc": 0.5,
                "aupr": 0.7203614663580098
            },
            {
                "n_total": 496,
                "auroc": 0.6870284859521332,
                "accuracy": 0.6169354838709677,
                "f1": 0.6833333333333333,
                "tpr_at_fpr_0_05": 0.22580645161290322,
                "optimal_threshold_f1": 0.5,
                "optimal_threshold_acc": 0.5,
                "aupr": 0.7074223740827443
            },
            {
                "n_total": 496,
                "auroc": 0.6806223985431841,
                "accuracy": 0.6008064516129032,
                "f1": 0.6876971608832808,
                "tpr_at_fpr_0_05": 0.18548387096774194,
                "optimal_threshold_f1": 0.5,
                "optimal_threshold_acc": 0.5,
                "aupr": 0.6999100540411907
            }
        ],
        "mean_projection_metrics": {
            "n_total": 496,
            "auroc": 0.7262454474505724,
            "accuracy": 0.6491935483870968,
            "f1": 0.6847826086956522,
            "tpr_at_fpr_0_05": 0.28225806451612906,
            "optimal_threshold_f1": 0.5,
            "optimal_threshold_acc": 0.5,
            "aupr": 0.7537779279525099
        },
        "weighted_projection_metrics": {
            "n_total": 496,
            "auroc": 0.7289932362122789,
            "accuracy": 0.6451612903225806,
            "f1": 0.6823104693140795,
            "tpr_at_fpr_0_05": 0.28225806451612906,
            "optimal_threshold_f1": 0.5,
            "optimal_threshold_acc": 0.5,
            "aupr": 0.7572070274297744
        },
        "weighted_projection": [
            -2.45427579248802,
            0.5201810457857396,
            -0.5228714678007857,
            1.0458374461345312,
            1.5362166443515035,
            1.1710620222143067,
            -3.325380641948411,
            -4.279012648857165,
            -0.5495218969983491,
            5.1462343621604125,
            0.4135221888485721,
            2.974178497863126,
            -0.7207440365783119,
            1.9456410821014065,
            5.087121829030769,
            1.91326506140791,
            1.0487413427700374,
            -3.3800812971350758,
            0.9351918551432264,
            3.010448916518226,
            4.041463266193314,
            0.7962880574381628,
            1.403611398244359,
            0.05629395180998483,
            -0.09528177247270396,
            -1.8187686461881107,
            6.583764449479273,
            -4.7319021978597275,
            2.8908045530260553,
            0.5585614009828974,
            0.4278281082471044,
            -3.9023495636482504,
            2.6788008042305536,
            4.384598650248812,
            -1.5800740305781327,
            -0.5047188232539899,
            -0.6041944743415029,
            1.4481273802086863,
            -2.783243156460018,
            3.650386795370125,
            3.077921578437037,
            1.1334046171568886,
            -2.512878505952894,
            -0.8219246980436588,
            0.28331385405574033,
            0.27752580484389255,
            1.4203615154432454,
            2.8484444563406335,
            3.0624267272075345,
            1.0260460126349142,
            2.843754787098676,
            0.7076839772807465,
            -0.8187093978682054,
            3.357780178867012,
            -0.49419902028507134,
            2.30961773816524,
            3.4428371497211097,
            3.824057220891626,
            2.824738259366533,
            3.1639342158515578,
            1.9998150053201351,
            0.41670262266168695,
            0.8596738641096161,
            -0.515755710799645,
            4.379768569523706,
            -0.8741462847771839,
            -5.185780009524976,
            0.720388197551333,
            2.8149838019932156,
            4.9748924347570895,
            3.2746083352840367,
            0.4706523307389088,
            1.907211337503197,
            -0.020990889191741267,
            4.919077253930973,
            1.785879257201366,
            4.084056646779596,
            2.839897941407185,
            3.7400580587208756,
            3.4923637508168976,
            7.1562991400988825,
            -2.7329200932807427,
            1.9290252829587458,
            -1.6040401172547352,
            1.3385506765287525,
            -3.533051453922114,
            1.4615089190811672,
            -2.8074088881177195,
            0.6840100956711017,
            -0.17386952491009972,
            -6.733735481775574,
            -1.652433086532428,
            0.3006040153910586,
            1.7794155872758644,
            -0.9531359135105271,
            5.709231120631282,
            -2.5218993673641483,
            -1.3439487995900574,
            -1.7236767749860087,
            2.7960893647729224,
            0.18514627198226388,
            -2.3511366111173775,
            5.425315364139866,
            1.0469961126076819,
            -0.35617876821822336,
            0.8969755112497391,
            -1.9337808426039425,
            -4.913121807312596,
            4.226710324274304,
            1.3412828175224143,
            0.9753606325697338,
            -0.5719693674028151,
            0.7319107201829956,
            -0.2992228433135067,
            0.2730912589745842,
            1.5681743609084768,
            -0.9128359825751254,
            1.5439085092919294,
            4.805306132047135,
            -0.28232614501728764,
            6.811980643103467,
            3.573192888233748,
            -4.295856692541811,
            0.732056903907741,
            1.378343552347161,
            1.1966843937352911,
            -5.059861429703912,
            -0.5794117053955176,
            2.7336221502072,
            -2.2882859821970194,
            1.2243498749354236,
            2.1818031398653783,
            1.8763774714450836,
            2.5826471588622417,
            -0.3622880072496798,
            -0.38066355932715257,
            -0.8234750282533722,
            1.6712733015480818,
            1.677875099905691,
            3.563474744648846,
            -1.7188944636825474,
            2.933993197939786,
            -0.5479945230517869,
            4.742642325437274,
            -0.3414029015309179,
            -3.2695712481312666,
            -2.5577286226742597,
            -1.0111006218556042,
            2.8983461811391824,
            0.6009823693506557,
            -1.0754534776283733,
            -1.2175150893371598,
            -2.9427699931206086,
            -0.9038679467047965,
            -1.3914379479921624,
            0.6963830217896384,
            0.3578226264533539,
            -0.8720233659580809,
            -0.14253265144178784,
            1.7464810473163583,
            0.3363312169450357,
            -0.9815741417717587,
            3.0321387561952857,
            3.449102588998416,
            0.1947852639860949,
            -0.09198436292272869,
            0.05341320525918805,
            3.3263919525725942,
            1.9679207918629509,
            -0.506483466838975,
            2.7585910946318024,
            -1.94743964028159,
            0.17606530832671313,
            2.446154692083394,
            3.4733372230825372,
            5.068920835204024,
            -1.0979796403634166,
            0.573592603813306,
            0.20588218527267846,
            -1.239667272639938,
            3.2662632575998667,
            4.310516960034895,
            0.22881895015467474,
            3.9541173739713718,
            1.6881140852676875,
            1.4366611658718627,
            1.6255354112706015,
            0.24739129521062717,
            2.9827402879168665,
            2.5588481671311785,
            5.906477939005113,
            2.306417858823785,
            0.39258098999750884,
            1.7831432384433559,
            5.2311800796744485,
            -2.1228412082079577,
            -1.938821704500025,
            4.6030183544897465,
            2.509980476714544,
            1.7082998740735036,
            2.2623198033410827,
            7.425087825533293,
            0.7870816498751373,
            4.820289152323207,
            0.8700560610525649,
            0.9908745834047628,
            -2.5016612908425104,
            0.1199012564228428,
            0.8209462086822907,
            4.845605146050882,
            2.033781121563037,
            -0.7903638903733756,
            1.3865651439401072,
            3.778528737061369,
            1.0267418662861192,
            0.06320459944200815,
            0.5230808318948308,
            0.09588801333198751,
            -0.6408948046567955,
            3.688925716871008,
            4.735874395620306,
            -2.110298315201642,
            -0.9491614969309131,
            -0.6797033891938501,
            8.831396633902449,
            1.6602661953774829,
            -0.7085248415537118,
            2.4958506892063106,
            0.6553534132223415,
            -1.0568550591652754,
            1.3001447996048796,
            3.5342399300305813,
            1.1110023695925657,
            4.214473043604903,
            3.1826855392319326,
            -2.764109926091574,
            4.2516283389390095,
            3.9344290890505285,
            2.87502937486365,
            -0.846687049267091,
            3.0198616275252963,
            0.8263139998650331,
            1.7726192731140415,
            0.2004633638510012,
            3.1816922064519364,
            1.5678076287245788,
            1.9882812555472984,
            -1.6612799159272165,
            4.389267973628771,
            0.9856979183153981,
            -2.405238068717124,
            -1.3601819295868705,
            2.8913135721151133,
            0.8916884168831516,
            -2.501518934046767,
            2.8541768437453654,
            1.4438017213343948,
            3.35238264038981,
            -0.44636287914135764,
            4.102363351861585,
            6.653752929632592,
            2.0337331948001167,
            4.327782990258476,
            0.11858849367656929,
            -0.31450613544618644,
            0.5066904583129392,
            2.5230121638704013,
            0.26051826355311786,
            1.5391287448474318,
            -5.3734821954090375,
            3.4060486040914895,
            -1.5893405759279058,
            3.2255677691096283,
            9.465603816371614,
            0.506849275395283,
            2.696333646355338,
            2.3063583393927067,
            3.8095879480109365,
            -1.3550387114439655,
            3.0221397360329463,
            -0.14085838222326,
            -0.21998283267981592,
            -1.381369979948096,
            0.0006210157859222881,
            0.215072645993385,
            -1.873063756804391,
            4.8959276340955284,
            1.0056271697825159,
            -0.4942964705517705,
            -0.4485620475896448,
            3.008222457254542,
            4.352139892720511,
            -1.5946765280944646,
            2.502710085989711,
            0.17208305082242464,
            2.8720049706223407,
            0.36055258584148253,
            1.1354051300391697,
            1.8647583688153548,
            4.104696128529628,
            3.1993651673680676,
            0.09960089437188421,
            0.9980911322431477,
            0.7620975508761111,
            3.1224948798734258,
            1.929647950055302,
            2.4141223111614503,
            -0.46534773160611115,
            2.542028174004495,
            3.892175649160225,
            1.1991951853560003,
            -1.9997521208325433,
            -0.6868844208818458,
            -1.0121839722039838,
            3.4713313450800776,
            -1.5922362012700444,
            1.503623202050549,
            -0.6105133170894892,
            -1.3325571454708633,
            -0.8303295897927322,
            -0.405782289618979,
            -0.602068983309143,
            -0.37540583549544365,
            3.748069730438135,
            2.987456028592474,
            2.144665289975738,
            0.3299929661108995,
            5.7774281549295505,
            -0.20480397237952896,
            6.499206111885722,
            -0.15987920067001027,
            3.1705776513574646,
            -0.5616814232461438,
            4.491547135296008,
            1.8933614189790766,
            0.8313947330331043,
            3.355372541560687,
            7.674184480851472,
            1.674462600980241,
            1.015329663213822,
            -2.2348492185312567,
            0.7185663774026663,
            5.653149324257517,
            1.3389018954760865,
            5.1422061205425305,
            3.2502609886692078,
            0.5900704325109911,
            0.7289771661483877,
            3.174814011492344,
            4.140301503354584,
            2.684531838203407,
            3.0930839368788243,
            3.6922203363149975,
            3.9464555026023276,
            -0.9757562660119858,
            1.694757436241244,
            -4.299664343915511,
            2.853532717866009,
            7.359290967188851,
            -2.125648896171256,
            1.7270696997943766,
            1.6176919122555582,
            1.3355259792077385,
            3.9529217229737292,
            5.966245561181978,
            0.5637657501784046,
            -0.2272767343405877,
            1.8057394332169063,
            1.33314840092687,
            5.22550002787605,
            -0.0018366583302226736,
            -1.5288660572655939,
            -0.569744026981134,
            1.1354483074282204,
            0.9929157215810819,
            4.4542041418731495,
            2.0457220280563773,
            1.4321656694789007,
            8.345019103600787,
            -1.2539785012368807,
            3.1357690409705317,
            -2.7642184785389,
            5.150987679188968,
            -1.0200091667043567,
            3.737802859770072,
            2.1921764493881004,
            4.32428592598791,
            0.9131576660798941,
            0.9132480984537047,
            0.10893272614914865,
            7.711771425195791,
            0.8497827603953436,
            -1.7611492607378532,
            3.330291755537361,
            3.5395522962747124,
            2.0576843522517616,
            -2.0551885866317035,
            -1.2896141381664332,
            4.839005142939466,
            1.9096617241610838,
            2.8460865914602747,
            4.523719368972625,
            6.31682613841277,
            1.860642279453636,
            3.2453646351685794,
            6.448538721455858,
            -0.5815727212075841,
            6.808240863384172,
            1.6027479388387653,
            3.9044265415423483,
            2.608510290636331,
            1.0912797579979852,
            0.02188328507241215,
            -2.8280963423897076,
            0.5787980276134832,
            1.3620713184675788,
            2.675744178855014,
            4.311409865095047,
            2.2316714184704103,
            2.4862184623425025,
            -1.0248266584660963,
            1.5831596701787358,
            1.1326233636888006,
            6.740931026946038,
            0.5858568351367522,
            3.0487217709595766,
            4.11806481514779,
            1.7649215762096762,
            2.00406773338597,
            1.7075994416406401,
            2.521765619174605,
            -0.15872927603906745,
            0.09736060430726098,
            0.5892772418267053,
            -2.099753785046101,
            4.162794187986124,
            7.6446106869327135,
            2.011401101959995,
            -0.3217637085743751,
            1.3981232361609683,
            0.1947064215985249,
            0.8168609957477587,
            1.2238283211618504,
            -0.03741530881410322,
            -0.5513625136360621,
            4.837770258815286,
            3.9235565477757306,
            0.9470276490088151,
            2.5239747270655575,
            8.197856838630226,
            0.10607943666862742,
            0.4721846513529935,
            -1.1527925376142574,
            2.3873953447135436,
            1.8858531181446951,
            -0.19286136463116593,
            0.0847407671412001,
            -1.3287978569016794,
            4.451802008506313,
            3.8043605865017476,
            0.5162240094711708,
            0.8881250717320064,
            2.2409082756640912,
            3.6053580848758955,
            -3.195950123495755,
            2.326751626250282,
            2.245239756704526,
            -3.1850704232606963,
            -0.45989048852622794,
            -1.4719794629373621,
            4.215548066280987,
            0.9535013071305274,
            4.0456078222502825,
            3.3641881178566115,
            -1.965908468702606,
            -1.4045473883437722,
            3.0131760482213528,
            -0.7145353704478434,
            -3.349029615798969,
            2.9804646637273864,
            -0.11790349477085174,
            0.34154787802603936,
            -1.7241033480077363,
            -0.35512956166922216,
            2.0476704285844907,
            3.4891502172591062,
            2.230781035584752,
            -0.030712095285961985,
            2.1423338956032016,
            0.4569189435206072,
            -2.9658389117288095,
            3.244120844561679,
            -1.428796560267563,
            3.5534267100772188,
            1.095049331047203,
            0.030113798086031374
        ],
        "mean_projection": [
            -2.4615518770114937,
            0.5336654359510216,
            -0.4946490826047303,
            1.0526124332136375,
            1.5361742451977485,
            1.1777911576097122,
            -3.3194486134061743,
            -4.4448433054494005,
            -0.5189796015615367,
            5.0879087707199036,
            0.4317459694127082,
            2.9547814231856178,
            -0.9863774383274866,
            1.9366784243809638,
            5.029084947384334,
            1.908659888766695,
            1.0558483086018862,
            -3.2997377091346145,
            0.9426327457526419,
            2.9845326893975606,
            4.001209355231583,
            0.8074404270337874,
            1.4035926202823508,
            0.08083369972180499,
            -0.33316276083167984,
            -1.7641264145339446,
            6.502114083652038,
            -4.630587779177424,
            2.8708914646105113,
            0.4970667451909146,
            0.4424850520135651,
            -3.813951300142388,
            2.6587522010988227,
            4.338218001979209,
            -1.5327975863717742,
            -0.4709023981339075,
            -0.6439129515595514,
            1.4494950363230144,
            -2.710183361572918,
            3.6149615526026455,
            3.0510974003741325,
            1.1394543116390459,
            -2.5193494428684304,
            -0.7854614913467641,
            0.30084834710623826,
            0.2989397069241417,
            1.4222383835105914,
            2.824991482121845,
            3.033924255769814,
            0.9644334391195906,
            2.8202174901209656,
            0.7186982833607092,
            -0.7788879181121965,
            3.323741904394585,
            -0.5194788004257013,
            2.295442032294106,
            3.4056193864371878,
            3.7816897867246912,
            2.8012891586853255,
            3.135426612999919,
            1.9904807200238042,
            0.4376630347097677,
            0.8675649384757236,
            -0.7842304899106243,
            4.32963260515518,
            -0.8365223434911381,
            -5.07397628355428,
            0.7325667809296658,
            2.794043664399178,
            4.916922934141506,
            3.244328762346281,
            0.4864483290519953,
            1.8291058213384315,
            0.007034460131721806,
            4.860882925642732,
            1.7809862748073044,
            4.041157033717149,
            2.8161462284796412,
            3.7000766399438945,
            3.4604129467065508,
            7.059855110307615,
            -2.6657421284072753,
            1.9191210058253103,
            -1.5508397154577274,
            1.3392245114536792,
            -3.4535464764608803,
            1.4630876028278428,
            -2.734078762624455,
            0.6984467795116677,
            -0.14871585494382844,
            -6.656734714702755,
            -1.6757421679472964,
            0.32621143934286106,
            1.7727144012048122,
            -0.9106335367028366,
            5.640246311788861,
            -2.453875325617727,
            -1.297600430268048,
            -1.93613303436456,
            2.7763211967823613,
            0.20438366700087804,
            -2.28833573368029,
            5.35948631596399,
            1.0537151682681454,
            -0.33002244888819027,
            0.9073608067530905,
            -1.8750967003402215,
            -5.071072980992911,
            4.18241918197396,
            1.3436005606695085,
            0.9822189775353704,
            -0.537700686152404,
            0.7432071947417698,
            -0.27166488973924635,
            0.2930240052137499,
            1.5680705571795839,
            -0.8783477515187469,
            1.5416169185804576,
            4.584809410017157,
            -0.5527357444724122,
            6.725509193237262,
            3.540554427277532,
            -4.202068010553284,
            0.7448679326740674,
            1.38089651643901,
            1.203211240820791,
            -5.016614239280093,
            -0.5481726759092509,
            2.7121607746708567,
            -2.4911668491430787,
            1.2304600343680365,
            2.170406051528539,
            1.8690978262700517,
            2.5606226307846387,
            -0.3345539550595238,
            -0.34632775460015947,
            -0.7833134847230278,
            1.670016574944484,
            1.6724228547659004,
            3.5300206537094034,
            -1.7843374451259024,
            2.9095906447871682,
            -0.5152871958922753,
            4.691870515540836,
            -0.31060713276503765,
            -3.1937499225988284,
            -2.487192473654173,
            -0.9706678329001337,
            2.875687598019096,
            0.6167164745670564,
            -1.3368736365654166,
            -1.171783645613022,
            -2.8700991310023674,
            -0.868211189972144,
            -1.4137810242034083,
            0.7086572450928303,
            0.37985904849628604,
            -0.8359062015714094,
            -0.11424448745430608,
            1.7424363472711983,
            0.3549022703021164,
            -1.2106722469066424,
            3.0025077098696826,
            3.4123364841395887,
            0.21797398064498893,
            -0.06708663388324908,
            0.07541753290503674,
            3.2980536027809153,
            1.956102576836928,
            -0.47393886942298186,
            2.735169845739292,
            -1.8945596743945348,
            0.19223445785331802,
            2.4331315105743254,
            3.437637494052913,
            5.006825940103384,
            -1.0579057886674121,
            0.5895551848203988,
            0.2272854403659612,
            -1.251298422006403,
            3.2379929622374153,
            4.26500786771004,
            0.24644947089873392,
            3.9113565955492566,
            1.682694644201112,
            1.4354069435449794,
            1.6248072426808058,
            0.26483510729405346,
            2.96125028171404,
            2.5399476328465074,
            5.837499821090744,
            2.2911351445947927,
            0.41000968608305205,
            1.7776431475239372,
            5.172342416087655,
            -2.067617225663968,
            -1.8831851412268525,
            4.5541156506980105,
            2.489520483261695,
            1.698428720762603,
            2.2501867084629334,
            7.324893283069143,
            0.7975221048980712,
            4.761506476874192,
            0.8839554638351476,
            0.9973331827288656,
            -2.5077008350872823,
            0.13701271788513728,
            0.8306238288409151,
            4.789491968668783,
            2.0235829396857388,
            -0.8358463969999571,
            1.3879020231037453,
            3.739614853759805,
            1.0332928045734826,
            0.01781600828410471,
            0.538475461388423,
            0.12244653024893265,
            -0.6055825232579428,
            3.651714741631757,
            4.679821392870215,
            -2.0505755943567614,
            -0.9084984603125437,
            -0.6455237402135612,
            8.709030146266787,
            1.595612647009314,
            -0.6741213109331268,
            2.4776316856856164,
            0.667933297923201,
            -1.0182792233902285,
            1.301827525791257,
            3.4305648386593504,
            0.8312462958796214,
            4.16779805077222,
            3.1567956464094378,
            -2.6896405353186528,
            4.20463023806933,
            3.8946099178852003,
            2.853310704294407,
            -0.807860208908762,
            2.998240393117617,
            0.7770564090218931,
            1.7669404315536712,
            0.14604539037842362,
            3.15184389203434,
            1.5649076337063546,
            1.978762807093701,
            -1.608904753026561,
            4.339056429105749,
            0.9918678333003205,
            -2.3429653492540874,
            -1.316434680648622,
            2.8666627287787407,
            0.9026248584663875,
            -2.433140722938741,
            2.834141140059613,
            1.442711169044327,
            3.322766099150704,
            -0.4134732890644358,
            4.059093116515237,
            6.568748628090041,
            2.0267163610765078,
            4.280894821981042,
            0.14309187751935531,
            -0.285734058322174,
            0.5182107130368159,
            2.505830774908722,
            0.28182287972825776,
            1.5387309832108014,
            -5.527560905033853,
            3.3758992697185013,
            -1.5415525749457244,
            3.1965118037565325,
            9.330359254792848,
            0.5179144403687341,
            2.6753553758260136,
            2.2954923915444017,
            3.7779173121627174,
            -1.367245230781889,
            2.993039815046926,
            -0.11316393966456764,
            -0.1923288299998087,
            -1.3339132772455615,
            0.02315004510884922,
            0.23336331742113303,
            -1.817053200814063,
            4.838193871074102,
            1.0161973742433925,
            -0.6544286162312453,
            -0.41185729934826226,
            2.980314005984873,
            4.30328225911013,
            -1.5469911401624286,
            2.4863470895491986,
            0.19354982248296787,
            2.8506755402068538,
            0.3809962150726253,
            1.1397150615548228,
            1.8611426320252427,
            4.058895967113211,
            3.1652640910831873,
            0.12337360252418689,
            1.010262837048051,
            0.7764666968006083,
            3.0890366202415382,
            1.9223320847661203,
            2.4006067359175316,
            -0.43206616934486586,
            2.5184724795466296,
            3.8557407187210826,
            1.206840718490157,
            -1.9483059954850157,
            -0.6504026283290497,
            -0.9694919344191719,
            3.4391146037131413,
            -1.5425373193502023,
            1.5000972569273463,
            -0.5772240059792976,
            -1.2863827782360644,
            -0.7909971393175808,
            -0.37327749172428254,
            -0.5710833814806328,
            -0.3452774543586417,
            3.7115769401317547,
            2.965306031214526,
            2.1326328576276286,
            0.2917206793721891,
            5.7075694786049,
            -0.1772830868063348,
            6.411381671952663,
            -0.13455271455645126,
            2.9746883038203373,
            -0.5311834819513435,
            4.440846381192543,
            1.8888775678956196,
            0.8452330190728825,
            3.3229955481994153,
            7.569182776349795,
            1.6714462367053746,
            1.0236362361196945,
            -2.2421706461148663,
            0.7301105334840348,
            5.584553049956216,
            1.3422323598661008,
            5.087075760347671,
            3.224884821175051,
            0.6041266976252258,
            0.7418878264942297,
            3.1473651808975376,
            4.092051879083188,
            2.6695696315391824,
            3.067212389823224,
            3.6516114972448457,
            3.905538838127866,
            -0.9326392757303918,
            1.6926862123507043,
            -4.205241192366405,
            2.831791156435687,
            7.265801085148668,
            -2.067357877675194,
            1.7245648309306325,
            1.6138244715288153,
            1.2656987398952082,
            3.9083736196498435,
            5.892927465143487,
            0.5056572794252927,
            -0.19668993697447296,
            1.8037573931352868,
            1.333152181824765,
            5.158506079926868,
            0.023616168023061487,
            -1.4814400860940715,
            -0.6119530047100712,
            1.1430240661983955,
            1.0017169074335468,
            4.403486094913478,
            2.037775021372464,
            1.4363080915992759,
            8.230022849165543,
            -1.2109314559087687,
            3.1115913968677806,
            -2.6916414058756932,
            5.088651598894857,
            -1.0502705577494427,
            3.6310091410146654,
            2.179414763032144,
            4.275508438279869,
            0.9214203180920445,
            0.9227340762424014,
            0.06033475520027254,
            7.606908809589402,
            0.8607304345496101,
            -1.7079718384637097,
            3.2980199405962463,
            3.5029735207641726,
            2.0488499094731902,
            -1.9971672216018883,
            -1.6030492187925405,
            4.7216433896023,
            1.9010073055117858,
            2.8224591388817784,
            4.469856911271773,
            6.235061414732228,
            1.8558684065979247,
            3.2145811577395316,
            6.364354718619429,
            -0.54746807374751,
            6.715776466924007,
            1.6007197446340318,
            3.863758065841982,
            2.5941765290765417,
            1.0947015617989053,
            0.045756876011793006,
            -2.844055969283621,
            0.5194934884350879,
            1.3609130544019512,
            2.5811275241755984,
            4.262351878501071,
            2.2175931125989874,
            2.4695090528191472,
            -0.9837832942241904,
            1.5146046739503847,
            1.1392701975204214,
            6.653448997336318,
            0.5992932684859916,
            3.0228092283927057,
            4.0746006039452,
            1.7622411682111152,
            1.9958031389416584,
            1.70531290004376,
            2.5058384563597538,
            -0.13242006907450182,
            0.1233628202634629,
            0.6000029017912684,
            -2.0421304062651453,
            4.059958787385414,
            7.542373453643416,
            2.004854691674189,
            -0.3471146325422054,
            1.3974624772276012,
            0.21111194965335248,
            0.7552681679172168,
            1.225146281536288,
            -0.0810591589459435,
            -0.7819061556143514,
            4.782817788716215,
            3.8828440066994125,
            0.9570688740681059,
            2.5090738878529644,
            8.086002011838918,
            0.13032450086618888,
            0.4914607802926514,
            -1.1117995318078555,
            2.3731443327813415,
            1.8823180197051057,
            -0.2372647339330764,
            -0.17679810409000943,
            -1.2786241214805725,
            4.400874369523998,
            4.915466144896927,
            0.4556647541271365,
            0.895863456101878,
            2.228593576816823,
            3.5700122101177785,
            -3.189236956991382,
            2.309303919487885,
            2.2312481979989394,
            -3.110797085493651,
            -0.42591211443556926,
            -1.4237022266733896,
            4.170547216727703,
            0.9616687973457505,
            4.0055997390034594,
            3.330780856273571,
            -2.208186146998618,
            -1.3598917375475121,
            2.987468516838893,
            -0.6726575038220449,
            -3.266599049437846,
            2.95558712257273,
            -0.0899144547671064,
            0.29407574021758187,
            -1.6732814943861136,
            -0.3250494605379597,
            2.0445444773320522,
            3.4579301189029166,
            2.217450375137625,
            -0.0034981800916686597,
            2.063370752996903,
            0.47386876108009024,
            -3.081877633996208,
            3.213052504219951,
            -1.3870296618948794,
            3.514910640134101,
            1.0267720132370168,
            0.05383093688036167
        ]
    }
}