{
    "args": {
        "model": "llama_8b",
        "dataset": "CB_drlDomain",
        "token_mode": "last_token",
        "ood": true,
        "smoke_test": false,
        "components": 50,
        "mode": "default",
        "model_name": "llama_8b",
        "target_dataset": "CB_multisocial",
        "datetime": "2026-05-07 00:51:48"
    },
    "test_metrics": {
        "test_metrics_by_layer": [
            {
                "n_total": 496,
                "auroc": 0.6876138137356921,
                "accuracy": 0.657258064516129,
                "f1": 0.5454545454545454,
                "tpr_at_fpr_0_05": 0.0846774193548387,
                "optimal_threshold_f1": 0.5,
                "optimal_threshold_acc": 0.5,
                "aupr": 0.6983758992570407
            },
            {
                "n_total": 496,
                "auroc": 0.5820271852237253,
                "accuracy": 0.5524193548387096,
                "f1": 0.5131578947368421,
                "tpr_at_fpr_0_05": 0.06048387096774194,
                "optimal_threshold_f1": 0.5,
                "optimal_threshold_acc": 0.5,
                "aupr": 0.5690337778776003
            },
            {
                "n_total": 496,
                "auroc": 0.6852725026014568,
                "accuracy": 0.6169354838709677,
                "f1": 0.5153061224489796,
                "tpr_at_fpr_0_05": 0.23790322580645162,
                "optimal_threshold_f1": 0.5,
                "optimal_threshold_acc": 0.5,
                "aupr": 0.6936737095153004
            },
            {
                "n_total": 496,
                "auroc": 0.7124577263267431,
                "accuracy": 0.6673387096774194,
                "f1": 0.6099290780141844,
                "tpr_at_fpr_0_05": 0.23387096774193547,
                "optimal_threshold_f1": 0.5,
                "optimal_threshold_acc": 0.5,
                "aupr": 0.7318103554914019
            },
            {
                "n_total": 496,
                "auroc": 0.7474473204994797,
                "accuracy": 0.6270161290322581,
                "f1": 0.4444444444444444,
                "tpr_at_fpr_0_05": 0.31048387096774194,
                "optimal_threshold_f1": 0.5,
                "optimal_threshold_acc": 0.5,
                "aupr": 0.7681719332382775
            },
            {
                "n_total": 496,
                "auroc": 0.7472034339229969,
                "accuracy": 0.5625,
                "f1": 0.2277580071174377,
                "tpr_at_fpr_0_05": 0.29435483870967744,
                "optimal_threshold_f1": 0.5,
                "optimal_threshold_acc": 0.5,
                "aupr": 0.7677697677209647
            },
            {
                "n_total": 496,
                "auroc": 0.7733480749219562,
                "accuracy": 0.5604838709677419,
                "f1": 0.2158273381294964,
                "tpr_at_fpr_0_05": 0.3548387096774194,
                "optimal_threshold_f1": 0.5,
                "optimal_threshold_acc": 0.5,
                "aupr": 0.8042286004540613
            },
            {
                "n_total": 496,
                "auroc": 0.8010861082206036,
                "accuracy": 0.5665322580645161,
                "f1": 0.24028268551236748,
                "tpr_at_fpr_0_05": 0.43548387096774194,
                "optimal_threshold_f1": 0.5,
                "optimal_threshold_acc": 0.5,
                "aupr": 0.8236915685370818
            },
            {
                "n_total": 496,
                "auroc": 0.7708441727367327,
                "accuracy": 0.5645161290322581,
                "f1": 0.24475524475524477,
                "tpr_at_fpr_0_05": 0.29838709677419356,
                "optimal_threshold_f1": 0.5,
                "optimal_threshold_acc": 0.5,
                "aupr": 0.773479640100591
            },
            {
                "n_total": 496,
                "auroc": 0.7533331165452652,
                "accuracy": 0.5826612903225806,
                "f1": 0.32131147540983607,
                "tpr_at_fpr_0_05": 0.25,
                "optimal_threshold_f1": 0.5,
                "optimal_threshold_acc": 0.5,
                "aupr": 0.7564690351121228
            },
            {
                "n_total": 496,
                "auroc": 0.7969562955254943,
                "accuracy": 0.6491935483870968,
                "f1": 0.4727272727272727,
                "tpr_at_fpr_0_05": 0.3951612903225806,
                "optimal_threshold_f1": 0.5,
                "optimal_threshold_acc": 0.5,
                "aupr": 0.8194573956210844
            },
            {
                "n_total": 496,
                "auroc": 0.7727627471383974,
                "accuracy": 0.6411290322580645,
                "f1": 0.463855421686747,
                "tpr_at_fpr_0_05": 0.4314516129032258,
                "optimal_threshold_f1": 0.5,
                "optimal_threshold_acc": 0.5,
                "aupr": 0.7971798013697315
            },
            {
                "n_total": 496,
                "auroc": 0.7970701092611863,
                "accuracy": 0.6431451612903226,
                "f1": 0.46200607902735563,
                "tpr_at_fpr_0_05": 0.45161290322580644,
                "optimal_threshold_f1": 0.5,
                "optimal_threshold_acc": 0.5,
                "aupr": 0.8245449703878021
            },
            {
                "n_total": 496,
                "auroc": 0.7943873569198752,
                "accuracy": 0.6532258064516129,
                "f1": 0.48502994011976047,
                "tpr_at_fpr_0_05": 0.4637096774193548,
                "optimal_threshold_f1": 0.5,
                "optimal_threshold_acc": 0.5,
                "aupr": 0.819630028385796
            },
            {
                "n_total": 496,
                "auroc": 0.8016714360041622,
                "accuracy": 0.6895161290322581,
                "f1": 0.5625,
                "tpr_at_fpr_0_05": 0.4838709677419355,
                "optimal_threshold_f1": 0.5,
                "optimal_threshold_acc": 0.5,
                "aupr": 0.8348067803576268
            },
            {
                "n_total": 496,
                "auroc": 0.7564386056191468,
                "accuracy": 0.6290322580645161,
                "f1": 0.43558282208588955,
                "tpr_at_fpr_0_05": 0.31048387096774194,
                "optimal_threshold_f1": 0.5,
                "optimal_threshold_acc": 0.5,
                "aupr": 0.774494370826795
            },
            {
                "n_total": 496,
                "auroc": 0.7800793444328824,
                "accuracy": 0.6471774193548387,
                "f1": 0.4868035190615836,
                "tpr_at_fpr_0_05": 0.3951612903225806,
                "optimal_threshold_f1": 0.5,
                "optimal_threshold_acc": 0.5,
                "aupr": 0.8070773246513212
            },
            {
                "n_total": 496,
                "auroc": 0.7994276795005202,
                "accuracy": 0.6774193548387096,
                "f1": 0.5428571428571428,
                "tpr_at_fpr_0_05": 0.4153225806451613,
                "optimal_threshold_f1": 0.5,
                "optimal_threshold_acc": 0.5,
                "aupr": 0.8241504379797924
            },
            {
                "n_total": 496,
                "auroc": 0.7963384495317378,
                "accuracy": 0.6854838709677419,
                "f1": 0.5958549222797928,
                "tpr_at_fpr_0_05": 0.3951612903225806,
                "optimal_threshold_f1": 0.5,
                "optimal_threshold_acc": 0.5,
                "aupr": 0.8228412391411546
            },
            {
                "n_total": 496,
                "auroc": 0.7803882674297606,
                "accuracy": 0.6814516129032258,
                "f1": 0.5611111111111111,
                "tpr_at_fpr_0_05": 0.41935483870967744,
                "optimal_threshold_f1": 0.5,
                "optimal_threshold_acc": 0.5,
                "aupr": 0.8056308302584246
            },
            {
                "n_total": 496,
                "auroc": 0.7868756503642039,
                "accuracy": 0.6612903225806451,
                "f1": 0.5409836065573771,
                "tpr_at_fpr_0_05": 0.3911290322580645,
                "optimal_threshold_f1": 0.5,
                "optimal_threshold_acc": 0.5,
                "aupr": 0.8096070496636615
            },
            {
                "n_total": 496,
                "auroc": 0.7935906607700312,
                "accuracy": 0.657258064516129,
                "f1": 0.5,
                "tpr_at_fpr_0_05": 0.45161290322580644,
                "optimal_threshold_f1": 0.5,
                "optimal_threshold_acc": 0.5,
                "aupr": 0.8211424114197852
            },
            {
                "n_total": 496,
                "auroc": 0.781136186264308,
                "accuracy": 0.6754032258064516,
                "f1": 0.5490196078431373,
                "tpr_at_fpr_0_05": 0.4153225806451613,
                "optimal_threshold_f1": 0.5,
                "optimal_threshold_acc": 0.5,
                "aupr": 0.8028063640752917
            },
            {
                "n_total": 496,
                "auroc": 0.7863716181061395,
                "accuracy": 0.6875,
                "f1": 0.5753424657534246,
                "tpr_at_fpr_0_05": 0.42338709677419356,
                "optimal_threshold_f1": 0.5,
                "optimal_threshold_acc": 0.5,
                "aupr": 0.8040059558006312
            },
            {
                "n_total": 496,
                "auroc": 0.7779006243496358,
                "accuracy": 0.6834677419354839,
                "f1": 0.5745257452574526,
                "tpr_at_fpr_0_05": 0.4032258064516129,
                "optimal_threshold_f1": 0.5,
                "optimal_threshold_acc": 0.5,
                "aupr": 0.8000300959336775
            },
            {
                "n_total": 496,
                "auroc": 0.7736244797086369,
                "accuracy": 0.6733870967741935,
                "f1": 0.5645161290322581,
                "tpr_at_fpr_0_05": 0.3911290322580645,
                "optimal_threshold_f1": 0.5,
                "optimal_threshold_acc": 0.5,
                "aupr": 0.7969874035803349
            },
            {
                "n_total": 496,
                "auroc": 0.7662591050988554,
                "accuracy": 0.6915322580645161,
                "f1": 0.6165413533834586,
                "tpr_at_fpr_0_05": 0.375,
                "optimal_threshold_f1": 0.5,
                "optimal_threshold_acc": 0.5,
                "aupr": 0.789421997534903
            },
            {
                "n_total": 496,
                "auroc": 0.7753967221644121,
                "accuracy": 0.7036290322580645,
                "f1": 0.6651480637813212,
                "tpr_at_fpr_0_05": 0.3467741935483871,
                "optimal_threshold_f1": 0.5,
                "optimal_threshold_acc": 0.5,
                "aupr": 0.7946414900817671
            },
            {
                "n_total": 496,
                "auroc": 0.7828921696149844,
                "accuracy": 0.7217741935483871,
                "f1": 0.7160493827160493,
                "tpr_at_fpr_0_05": 0.40725806451612906,
                "optimal_threshold_f1": 0.5,
                "optimal_threshold_acc": 0.5,
                "aupr": 0.7995668426272572
            },
            {
                "n_total": 496,
                "auroc": 0.764616935483871,
                "accuracy": 0.6854838709677419,
                "f1": 0.675,
                "tpr_at_fpr_0_05": 0.3387096774193548,
                "optimal_threshold_f1": 0.5,
                "optimal_threshold_acc": 0.5,
                "aupr": 0.7752166218694678
            },
            {
                "n_total": 496,
                "auroc": 0.7470408428720083,
                "accuracy": 0.6854838709677419,
                "f1": 0.6578947368421053,
                "tpr_at_fpr_0_05": 0.29435483870967744,
                "optimal_threshold_f1": 0.5,
                "optimal_threshold_acc": 0.5,
                "aupr": 0.7445122705104951
            },
            {
                "n_total": 496,
                "auroc": 0.7022144901144642,
                "accuracy": 0.6290322580645161,
                "f1": 0.6567164179104478,
                "tpr_at_fpr_0_05": 0.20161290322580644,
                "optimal_threshold_f1": 0.5,
                "optimal_threshold_acc": 0.5,
                "aupr": 0.6907763786684581
            },
            {
                "n_total": 496,
                "auroc": 0.6855651664932362,
                "accuracy": 0.6189516129032258,
                "f1": 0.6855241264559068,
                "tpr_at_fpr_0_05": 0.14516129032258066,
                "optimal_threshold_f1": 0.5,
                "optimal_threshold_acc": 0.5,
                "aupr": 0.6684779666416001
            }
        ],
        "mean_projection_metrics": {
            "n_total": 496,
            "auroc": 0.8353440426638918,
            "accuracy": 0.6693548387096774,
            "f1": 0.5119047619047619,
            "tpr_at_fpr_0_05": 0.49193548387096775,
            "optimal_threshold_f1": 0.5,
            "optimal_threshold_acc": 0.5,
            "aupr": 0.85614551474409
        },
        "weighted_projection_metrics": {
            "n_total": 496,
            "auroc": 0.834758714880333,
            "accuracy": 0.6794354838709677,
            "f1": 0.533724340175953,
            "tpr_at_fpr_0_05": 0.4838709677419355,
            "optimal_threshold_f1": 0.5,
            "optimal_threshold_acc": 0.5,
            "aupr": 0.8560232608735795
        },
        "scores": {
            "mean_projection": [
                -3.764915046801821,
                -1.1112577748056227,
                -1.2381214356652404,
                -0.3081662358869762,
                -2.0435750905196444,
                -0.7169288969421483,
                -3.9960840494518397,
                0.4319444544487464,
                1.2258789682599283,
                0.3362440861027256,
                -1.4677803846442168,
                -2.182596536508512,
                -0.6789318143026081,
                1.679140382932192,
                1.293173164057482,
                -1.9380190333640934,
                -0.0700487071037631,
                -1.6674456664683721,
                -2.545978773638616,
                -2.1655132685556597,
                -1.7815408598174778,
                -3.0248427250166072,
                0.25924780488247967,
                -0.8703084195337628,
                -0.638300934498783,
                -1.0757584212033298,
                -1.8471692318766544,
                1.438381762450202,
                -3.5314933009364835,
                -0.5864729135259479,
                -3.3531484055195393,
                -1.5291189561495544,
                -3.0603715353716434,
                -7.165936485539511,
                1.7496710276241256,
                -3.140125988323475,
                -0.2810840168378841,
                -3.8650406143138776,
                -0.7444544802285505,
                -1.4380907867417543,
                -3.384072240031075,
                -2.5524313261250353,
                -2.5339456629328514,
                -4.037758328926766,
                -2.093613596940476,
                6.10643526446727,
                -2.076856778412587,
                -1.915848552581635,
                0.8306122990421333,
                -2.4282549268249065,
                -3.0835997543036924,
                -3.1047435863476776,
                -0.16039120426894618,
                -1.4299384820669527,
                -3.4814848208584617,
                -4.856547818958403,
                -0.6334190716463571,
                1.505573131847191,
                -2.2379679658000784,
                -1.4602362828627762,
                0.05926125492353667,
                -2.6654324762916106,
                1.1646655802192423,
                -1.7224480001633644,
                0.12463222144692875,
                -1.231450858301175,
                -3.6572019690646806,
                -1.494912547524993,
                -2.9703199716722626,
                -0.2890415087974749,
                0.6277990410468715,
                -2.7671375903731956,
                -2.8644440135314166,
                -1.5919921747412278,
                -0.9281670182364469,
                0.0644994318999306,
                -3.0015604047327167,
                -3.5023122396277406,
                4.072356068761455,
                -3.9622523641908374,
                -0.36336794351572416,
                -2.458621719007715,
                -2.0279890192213568,
                -2.236814173962637,
                0.1647733112568043,
                -1.8102579041049662,
                -1.9963298276262718,
                -0.5714469103610571,
                1.7690611931481337,
                0.7967576868486941,
                -4.961360075622447,
                1.7899656265346626,
                0.11605002622102868,
                -4.0129452741969756,
                -5.161105837507927,
                3.894596361158655,
                -0.9562211570037531,
                -1.9683508183832787,
                -2.6044004541736814,
                5.616767570887657,
                -1.7605045860289075,
                -1.9626045674786212,
                -4.172502578637326,
                3.6370596626445932,
                -1.0514791365992635,
                -1.6503134062740599,
                0.9844196714090973,
                -1.321337121669093,
                -2.4325893079764453,
                6.09446903696891,
                -3.0399928232537436,
                -2.1007611580156427,
                -4.952209439128584,
                -1.2111103975297939,
                -6.178688925933241,
                2.4504692899080953,
                -3.1951713144102456,
                -1.1858350795607377,
                -1.3658863281705733,
                -2.9811556796061165,
                -0.30501896811276397,
                -2.4893753186867267,
                -1.6822141033744562,
                7.108676513705703,
                -1.6607414157399616,
                -4.032275892878502,
                -0.9826131108647418,
                -0.473168249208367,
                -1.379206179895869,
                -3.142349963895473,
                -3.494344690911156,
                -0.1958866403202018,
                -1.3154159381146013,
                -3.3936503976616876,
                3.067242351529005,
                -4.960627911564218,
                -2.8832888192889548,
                1.4649682569956608,
                -0.101115813472136,
                -2.92641037229419,
                -1.8130441461300475,
                -1.7801239873281132,
                3.845800405561617,
                -3.239133021171805,
                -2.0124337531823437,
                0.31185995260330013,
                -2.569556137406482,
                -3.7239802974302925,
                -1.2761940762515558,
                -4.2721476995249335,
                -1.1859973539531925,
                -2.3898360178959503,
                1.003518629477115,
                0.44968267997024836,
                -0.7064854755369933,
                -3.862960272800832,
                -0.7406199518768994,
                -2.555946714905604,
                2.407821206598888,
                2.3840922048719233,
                -0.6422595088789386,
                -2.8530088079913134,
                -1.7009827661090318,
                -3.006323625197362,
                -2.5128031840810645,
                -3.1403098362857347,
                -2.2850803101469777,
                -1.7161996601257297,
                0.7290477897619558,
                -2.1741032387748898,
                -4.558829304876748,
                -3.7815931307030834,
                -1.9177477091772963,
                -0.889980821789448,
                -2.965903535816558,
                -1.8037858411144851,
                -0.8695927151331472,
                0.6921057537259179,
                -1.6142542682515038,
                -2.1167944273872803,
                -1.4305387098529194,
                -3.068629405973967,
                0.9230553821925085,
                0.7067620801957428,
                -3.077859697522071,
                0.49315184503001297,
                -5.439369980382941,
                -2.768702201002753,
                -3.2877109746027364,
                -3.456813080036055,
                -0.4885364119014594,
                3.2244414765697087,
                -4.144058880332125,
                -2.5496121031641246,
                -1.8772095207092387,
                -1.8527703296973241,
                -2.0547581488948765,
                4.941332556803076,
                -1.2656992501218993,
                -2.605546545254332,
                6.037461963415379,
                0.9671136943636947,
                -2.929304287971892,
                -1.6028056960462433,
                -0.472777765503219,
                -2.314265352384787,
                0.33606302198251486,
                -0.853895702835571,
                -4.021152679661506,
                -2.7495842144740554,
                -1.9840037749052164,
                -2.1187457870104915,
                -5.844799069119376,
                -1.8605369836234313,
                -2.6098224618008783,
                -3.872812627445955,
                -4.418745646294088,
                -3.085812077709376,
                -0.8007042763028632,
                -1.9344222417258612,
                -2.5790150145722803,
                -0.19234627391926581,
                -1.667900932204326,
                -3.123554412147042,
                1.2639110787452477,
                -4.1478417621920824,
                -1.7460894039533712,
                -4.161703961970981,
                -1.922237718474651,
                -7.107060277094793,
                -0.7254100349466656,
                0.16522900836610327,
                2.829955085348852,
                -1.6036073090159497,
                -1.8085913098400845,
                -0.7525623688740909,
                -1.2273289223045063,
                2.7452775539866714,
                -3.003557781014867,
                -0.9490369752748627,
                -1.7784088618232188,
                -2.984031090621809,
                2.650687080990549,
                -1.2924279444424827,
                -1.9067720780346127,
                -2.338884142640331,
                -2.149808386966734,
                -0.4314104814783187,
                1.8866690901179801,
                2.262197759222226,
                -2.339747364105452,
                0.8735355054512265,
                -3.027241885911426,
                -4.285882673655546,
                -2.3421586870033537,
                -0.9321087317721249,
                -2.3149210921683823,
                0.23279021768535188,
                -2.3187917120604853,
                -2.610408249908909,
                0.0970577089644248,
                -1.5972352124088423,
                0.03812530277351478,
                0.2291295349369478,
                -1.277117853355469,
                -3.168776043441326,
                -1.8051471327574349,
                -4.253105528639428,
                -3.485947000463137,
                1.4230066993020247,
                -2.148902688978761,
                1.337593407930839,
                -2.1553299356281377,
                3.032603583829517,
                1.24609299606128,
                -2.0232024617325415,
                -1.8590580249130606,
                -0.6166304056985368,
                -3.1170544186510347,
                -1.9217876060777825,
                -2.296725152183296,
                -1.0789020505078222,
                -2.9568296454762413,
                -1.3047140582251588,
                -2.897747917223339,
                -1.8149614952698123,
                -0.5441052656197853,
                -2.0317283792294223,
                6.5824909586944145,
                2.6666154889144966,
                -3.497493507593329,
                -1.9449067573832663,
                -3.344382133524653,
                -1.6255092606760055,
                -2.279946590574774,
                -3.203537273360303,
                -3.4803698242310355,
                -4.146505003192197,
                -4.013051138457896,
                -1.5006210459422742,
                0.5880041522136635,
                -3.933167799729711,
                -2.6860642605409852,
                -1.8086963612622418,
                -1.612667479535201,
                -0.6677937704177033,
                -4.003655414359813,
                -0.050709879590188085,
                6.469376059939423,
                -0.08371047732999569,
                -2.9215644188194063,
                -0.7775040366031399,
                -3.0809523885830825,
                -3.8554357712558596,
                0.8309809457936647,
                -1.6388302861686792,
                -0.4288734004261382,
                -4.240134028661382,
                -2.2157159940319495,
                -0.6436332872561956,
                -2.9092854635122634,
                -0.8741668161800158,
                2.2992201622773263,
                -0.6292672966989451,
                -0.5398846889802799,
                -2.924668907829269,
                -1.9902443924412854,
                -2.4522730417875582,
                3.389472180682392,
                -3.709982692252631,
                -2.177221819371876,
                0.8199937237934128,
                -3.366259697614305,
                -2.285782175061462,
                0.13969087480035194,
                0.7348863812653256,
                -0.94917496557455,
                -1.1250957836870892,
                1.196057310837078,
                -3.341645393337932,
                -4.905152050357671,
                -3.7505225665368567,
                -1.4850258345778455,
                -2.284873323221824,
                -0.7724261839683736,
                -2.510205811356501,
                0.5462593560566665,
                -1.185318139186735,
                -3.853975480556853,
                -3.1715470603900586,
                0.7134198951038377,
                4.2712322514775565,
                -4.21352128211937,
                -1.4567474712731734,
                -3.4787439803951123,
                0.7995575777943458,
                -7.4408290515715185,
                -2.2365849181352204,
                -3.5765467388464267,
                -4.044522729229241,
                -1.2489595355094967,
                -0.9363334293168593,
                0.5348878993441751,
                -2.0913855732180338,
                -1.6849425799551756,
                -0.2299340364940731,
                -2.187546909275064,
                -0.9354860119411831,
                1.744227468796519,
                -5.885429396699644,
                -3.1765081603568217,
                -2.4261878953056963,
                -3.2816802996188725,
                -1.7686224886314403,
                -3.3694749772865267,
                -2.6198128807346985,
                -0.24740581973758055,
                -2.0190195422056676,
                -4.200623859240702,
                -1.7901435107294446,
                -1.1740384438017308,
                -1.2902493023621828,
                -2.3723727369461525,
                1.0026904351171737,
                -0.993116404849152,
                1.28725187012571,
                -1.2452454762599776,
                -3.0240122178582407,
                0.27402686070874177,
                -1.694118412189464,
                -1.7657510258162534,
                0.8175299373813317,
                -2.97303827834751,
                2.4677885315903056,
                0.3049419686461152,
                -2.634680582176806,
                -0.6297626062685382,
                1.934639913532764,
                -2.849429257896606,
                -2.3355338991626082,
                -2.62028243763405,
                -3.550478799173941,
                -5.624744140794447,
                -2.3994750215919924,
                -3.147858492060482,
                -3.747210657084904,
                -1.7240016505972409,
                -2.490066917504462,
                -1.472426753794278,
                -0.36364642414108106,
                -3.101616842069119,
                0.19578481145073026,
                1.2547166424410487,
                -1.4698141319853697,
                -5.287545829302809,
                -5.475883740351812,
                3.913797120872011,
                6.5028671300218175,
                -2.589753011791409,
                -3.1744834623790474,
                -1.5868808314245966,
                -0.15113327169650614,
                0.6453893952833052,
                -1.5935492926423331,
                0.7839116725303402,
                -1.1948188231092944,
                -2.3326479609627717,
                -2.615710832573789,
                3.159770399002646,
                -4.625425841671197,
                -4.990638998367145,
                -2.245772544859225,
                -0.5963597849153588,
                -0.9602572748533789,
                -3.587351019708031,
                2.8101269379927905,
                -1.8146457996985634,
                0.5072818904234733,
                -1.7688110418882028,
                4.957264960767197,
                -2.8551348113594193,
                -1.7924074173167557,
                -0.9341289450340664,
                -5.037657391359241,
                -2.1365742928597484,
                0.49718629094184913,
                -2.3612394372971535,
                -1.4403431341808255,
                3.1778893656189773,
                -3.10784716863243,
                -4.9860460580834305,
                -2.1372133641303583,
                0.772098610075875,
                -0.820103464711799,
                -1.3659333660592077,
                0.8097358336680067,
                -3.95626529164296,
                -1.5212126862290196,
                -2.811603650936945,
                -1.2933305001329443,
                -3.9576113800593724,
                -1.7462070370345502,
                -2.557336125871166,
                1.6939445217687694,
                -0.34720191085451985,
                0.4900691526247384,
                -2.5270645684865727,
                -2.4032055767980802,
                -2.145176953162473,
                -1.4748653298104835,
                -0.16044470755078155,
                -2.4911408994139896,
                0.016485319930136386,
                2.3873908370744337,
                -3.822837087403367,
                -1.398012099601526,
                -4.92169987832937,
                2.12308495541481,
                1.0825924338958177,
                -2.7738123346305863,
                0.6753126546493927,
                -1.6903250662898257,
                -2.7251069392462224,
                -3.2211657094654838,
                0.6556634669979519,
                -2.61077478565302,
                -2.1767749864086614,
                -0.16281539714725168,
                -3.9772614179853187,
                -1.7737785685831322,
                -2.74143037106202,
                0.7205845391525109,
                -2.51363407000423,
                -2.500615399471544,
                3.4374246208379287,
                1.0875663871340853
            ],
            "weighted_projection": [
                -3.577180244516484,
                -1.0819441687661344,
                -1.1211372463537483,
                -0.33434126590965385,
                -1.9149671408395577,
                -0.4664038834088955,
                -3.862969588343728,
                0.48420924096133044,
                1.2248721053569702,
                0.32064346113164444,
                -1.34966023195386,
                -1.951164433517585,
                -0.7125174423771025,
                1.9021809950092674,
                1.292348587941181,
                -1.9244257172928827,
                -0.09575385671355757,
                -1.4455423020476972,
                -2.3418917335104354,
                -2.0086234783352426,
                -1.5178510437268422,
                -2.819309660391143,
                0.23699305945837953,
                -0.543810563244601,
                -0.41838912442989945,
                -0.9095671283904363,
                -1.9045164963096055,
                1.4399874379839142,
                -3.54749368862339,
                -0.6223305968979927,
                -3.1867497440098957,
                -1.3923763167668786,
                -2.974674716147237,
                -6.941113941712481,
                1.7576664518824698,
                -2.966593429745521,
                -0.3085526990425919,
                -3.613048986138491,
                -0.7799218927438645,
                -1.1907635950045306,
                -3.2887418456738504,
                -2.4936233432432946,
                -2.305143480363211,
                -3.9063081587203943,
                -2.155236717871095,
                6.178044986688918,
                -1.8915369417135368,
                -1.6830671753112463,
                0.8208223409131316,
                -2.174055087620668,
                -2.9443418266992145,
                -2.8623989565976418,
                0.043594730874758764,
                -1.244309335660409,
                -3.2984499737005692,
                -4.680707917729121,
                -0.6671344062992131,
                1.5068401388709678,
                -2.11225047502862,
                -1.513946755734961,
                0.038206482934967395,
                -2.523298385240836,
                1.2275968954818242,
                -1.6499740182762002,
                0.13639030540851066,
                -1.0798805791783685,
                -3.5557663068746925,
                -1.336633601486309,
                -2.7516032762914104,
                -0.31822193304939755,
                0.5770931927877088,
                -2.5372122972366187,
                -2.7190416141473506,
                -1.3304962473379613,
                -0.6765970684561022,
                0.11007168976917203,
                -2.7842935795129984,
                -3.3149061602934586,
                4.1181609914255555,
                -4.053324764359873,
                -0.11054610832890274,
                -2.2873057584662053,
                -1.8979487860505917,
                -2.0412162541221934,
                0.145210412272354,
                -1.5558139857487814,
                -1.8106221330536345,
                -0.3870973911854573,
                1.776559164371432,
                0.7889199667827105,
                -4.76195008286578,
                1.7974828689411637,
                0.3030565048012614,
                -3.9017875322519515,
                -4.958091655209259,
                3.937672797639524,
                -0.7239159957937732,
                -1.768640576272255,
                -2.402948213608387,
                5.686801350724334,
                -1.5478258899507344,
                -1.7665351635318394,
                -4.063557154196684,
                3.672631643610944,
                -0.807139093031835,
                -1.4971288828344615,
                0.979067528735249,
                -1.3657546875762372,
                -2.2372648629480536,
                6.176451502339882,
                -2.8383463527259307,
                -1.9350920403699081,
                -4.826540015824721,
                -1.045860526890662,
                -6.065631118803164,
                2.466658610755579,
                -2.983981348863075,
                -1.071448398730545,
                -1.2049069225106366,
                -2.809361418135257,
                -0.33435210536867377,
                -2.2816369400844483,
                -1.6629893700755332,
                7.202749572275658,
                -1.5454823209695927,
                -3.830284909756744,
                -0.6941403778839536,
                -0.21137217445975146,
                -1.354153957817651,
                -2.9070253287679675,
                -3.3181556199520323,
                -0.22165224788127416,
                -1.2935169899286683,
                -3.312084467935303,
                3.0959524716745555,
                -4.791127128230166,
                -2.604006933285612,
                1.4981022056961988,
                -0.12536329700796692,
                -2.7769905746391146,
                -1.7104631090806135,
                -1.5245873441671016,
                3.891040657487077,
                -3.0145007693330506,
                -1.8176302683486758,
                0.29419200176064697,
                -2.444015183268593,
                -3.7419810222867547,
                -1.1905548638808596,
                -4.090191397902689,
                -1.2305305404547815,
                -2.2163721273116734,
                0.9944381307347909,
                0.7588648257869717,
                -0.4445714725051908,
                -3.6734899776364345,
                -0.7765121622026377,
                -2.387642140105941,
                2.427260039511059,
                2.5858658387473925,
                -0.39206911384321846,
                -2.8564731166815895,
                -1.4536112016023746,
                -3.047245094507285,
                -2.31347060548008,
                -3.1054545628477475,
                -2.065519800656056,
                -1.5622332788584745,
                0.784898504805208,
                -2.1669378447458114,
                -4.374879714687485,
                -3.536578065143569,
                -1.6855167754350748,
                -0.855731354543752,
                -2.7348883464063123,
                -1.6290058152678837,
                -0.8163379455789244,
                0.7093693761746642,
                -1.6640037003906114,
                -1.8981091500645009,
                -1.2705035912835503,
                -2.885775870539293,
                0.9175265692768884,
                0.6989027180405671,
                -2.94142142562767,
                0.4802659133153782,
                -5.244462347371345,
                -2.53392202397664,
                -3.0769800480402987,
                -3.245742719316099,
                -0.21055302008204735,
                3.2539660181979455,
                -3.956123204818682,
                -2.6146317373526067,
                -1.810549778284938,
                -1.7413348369727752,
                -1.7392813114364207,
                5.001522554996194,
                -1.2064910438754215,
                -2.5223628593874743,
                6.117468557153177,
                0.9585102095952571,
                -2.7224337134865055,
                -1.4765476854865494,
                -0.5040863639727846,
                -2.1176021205933724,
                0.6582612621356931,
                -0.7379568814941948,
                -3.8281872484935846,
                -2.5394822043832486,
                -2.0385547342103973,
                -1.803922243188325,
                -5.708639526780425,
                -1.711196453233296,
                -2.501736853448825,
                -3.959726763716414,
                -4.296815389983323,
                -3.0098906042483904,
                -0.5490908084932149,
                -1.7581471909266453,
                -2.341536279278111,
                0.024666499752695942,
                -1.4619398906989298,
                -2.8596513146832634,
                1.2955301583718428,
                -3.934159230117163,
                -1.5419899495439227,
                -3.9335379295479664,
                -1.8105573824802657,
                -6.975590609924367,
                -0.4759506776555332,
                0.14364470953561287,
                2.8553392312889994,
                -1.436701286569777,
                -1.6510609668677134,
                -0.7884248417939209,
                -1.236896067620239,
                2.521527662869394,
                -2.770068885282831,
                -0.7285472086320449,
                -1.7968052250478186,
                -2.8578690607793007,
                2.6722786676224857,
                -1.0724880938579244,
                -1.6959863281881296,
                -2.171045959765693,
                -1.9914367315852917,
                -0.4620255035853677,
                1.8927885275695533,
                2.2770534793243655,
                -2.2756884728115594,
                0.8631112679530241,
                -2.823772040569731,
                -4.384948165481839,
                -2.073734054553583,
                -0.717357293190978,
                -2.168914104081881,
                0.3368248026535118,
                -2.1630478462892166,
                -2.385086082989587,
                0.20411246776129616,
                -1.5030076852830163,
                0.2780676769337207,
                0.2095885259149532,
                -1.1266689508373742,
                -3.037467195591553,
                -1.580379261350527,
                -4.144785842243207,
                -3.3609473197375332,
                1.6280461924350447,
                -2.119717815651721,
                1.3377818006474507,
                -1.9934565212170758,
                3.0629175776741935,
                1.242917114837872,
                -1.7683333168137887,
                -1.6533358585312647,
                -0.37606251757231096,
                -2.996271262894623,
                -1.9739856227569461,
                -2.071431757798427,
                -1.1207962026739866,
                -2.843747650741108,
                -1.2219524098463452,
                -2.681985775883907,
                -1.602468744315886,
                -0.5747418226413633,
                -1.7971443295141698,
                6.671439507937267,
                2.6899592340768548,
                -3.42661067659636,
                -1.852241720823363,
                -3.1843496307047396,
                -1.3407695616458581,
                -2.344692528225813,
                -2.9812543093234254,
                -3.356135060380715,
                -3.924976120164542,
                -3.863921533480226,
                -1.3154712063862144,
                0.5766257867803357,
                -3.8350063176261373,
                -2.4878563997565446,
                -1.7816831141180867,
                -1.4440983088601387,
                -0.632673721081922,
                -3.8579346582141754,
                -0.040126641564360535,
                6.590614696306443,
                -0.002171711106937535,
                -2.777007282581531,
                -0.5917627376946906,
                -2.701338303878701,
                -3.7329757279291766,
                0.8245738646244756,
                -1.6594009552769402,
                -0.17730696291016446,
                -4.016756743474175,
                -2.038102278744382,
                -0.6739594775931064,
                -2.7946594676616523,
                -0.7101183712236177,
                2.31297105730544,
                -0.6599106668196979,
                -0.2852849934853098,
                -2.8730328891879404,
                -1.8228967726496166,
                -2.447438939874383,
                3.4216704266059366,
                -3.5958856690104155,
                -2.2719902123133715,
                0.8136706809048286,
                -3.224097569329403,
                -2.080383027971668,
                0.12357679430908608,
                0.914798840909001,
                -0.9555098818418535,
                -1.0974228254870662,
                1.1935857347319137,
                -3.318838265730664,
                -4.698866719820433,
                -3.488355838375756,
                -1.248593231447558,
                -2.2014320586030807,
                -0.4946207362698752,
                -2.350778953390172,
                0.6028228458013885,
                -0.993779637139888,
                -3.6533312015175805,
                -2.9563563353716917,
                0.7753233543210273,
                4.444588122206535,
                -3.970825211980671,
                -1.1984323637191856,
                -3.258245125336879,
                0.7904099459068912,
                -7.309987535292815,
                -2.1448507412667572,
                -3.319735886986985,
                -3.8693650259365486,
                -1.0858497496922228,
                -0.7678475169149476,
                0.5195488138757227,
                -1.8402073058381507,
                -1.530020013388098,
                -0.007998338403760324,
                -1.9592824979005612,
                -0.6224267944232136,
                1.7478611770323644,
                -5.691697166339688,
                -3.020552273185937,
                -2.258133514431607,
                -3.1401479494855886,
                -1.5306960488098107,
                -3.3214458898678516,
                -2.6891438627755027,
                -0.2428782139396613,
                -1.8322428540293452,
                -4.2917407094317594,
                -1.6910400881778096,
                -1.2166935541659594,
                -1.3039809523450494,
                -2.4370299579258625,
                1.0297841058455814,
                -0.8258336755696073,
                1.28205783725844,
                -1.0823898823932276,
                -2.8511786870025597,
                0.4710532284352764,
                -1.576491511669318,
                -1.854297682036782,
                0.8080570163353408,
                -2.835860094430729,
                2.484981664518716,
                0.5115466613643194,
                -2.706517449568748,
                -0.5044734965844,
                1.9463417093868578,
                -2.5516010261139845,
                -2.143527309771678,
                -2.348628431375831,
                -3.6318630895581636,
                -5.421591331342035,
                -2.1522860834817723,
                -3.0844215849342627,
                -3.5673477630106762,
                -1.4721675404939496,
                -2.3517122240555013,
                -1.2745260930268212,
                -0.2389464583804767,
                -2.8855817703317634,
                0.17941766725452377,
                1.253223667542713,
                -1.2538808854284664,
                -5.3604055934891,
                -5.315076853732106,
                3.9571364530524216,
                6.587684079060122,
                -2.536774826952173,
                -3.051288356771011,
                -1.6380834847659285,
                0.029960990722993762,
                0.9348826222350958,
                -1.437192769543024,
                0.7754843150964834,
                -1.2378802225647225,
                -2.2201586255947565,
                -2.4828503757390177,
                3.18999987587275,
                -4.496034288808527,
                -4.790449311552891,
                -2.089410337847238,
                -0.5028782647240652,
                -0.6899032073148463,
                -3.4301507039364676,
                2.8635311869698796,
                -1.619551782010082,
                0.7864210703121316,
                -1.5968285227234678,
                5.019208995093184,
                -2.724742873006537,
                -1.8469616307830514,
                -0.8985174316340924,
                -4.8700198540719715,
                -1.9120640967319373,
                0.8130746250581203,
                -2.250167419040249,
                -1.4865294712880956,
                3.209605061856065,
                -2.9286866452503153,
                -4.75473297279491,
                -2.103149993895853,
                0.7648088675933623,
                -0.5991063634739212,
                -1.2053749330260972,
                0.8032496722324497,
                -3.88343433602457,
                -1.4199763205258704,
                -2.6261341654304027,
                -1.2138066009401691,
                -4.043686908742809,
                -1.6336571715163006,
                -2.2985299228224636,
                1.6972964075661197,
                -0.34431122751225707,
                0.6638887364508141,
                -2.525480822072408,
                -2.372580133963018,
                -2.046495369633465,
                -1.2755618768989114,
                -0.18486519776648755,
                -2.346112115744004,
                0.06686205984646619,
                2.438304229454715,
                -3.657276605108088,
                -1.1056222771190227,
                -4.719585596518047,
                2.4380905497031415,
                1.1119313395509407,
                -2.6595781407264423,
                0.666713757552609,
                -1.7089979894155292,
                -2.4989301161167186,
                -2.982934863328065,
                0.643814182626277,
                -2.490504150464564,
                -2.0496322700223493,
                -0.187015084545132,
                -3.9967105532602902,
                -1.5530884930501467,
                -2.806081597362985,
                0.705807192902524,
                -2.2897183692638348,
                -2.251097008063169,
                3.470496694865885,
                1.0771237431018523
            ]
        }
    }
}