{
    "args": {
        "model": "llama_8b",
        "dataset": "tsm_sums",
        "token_mode": "last_token",
        "ood": true,
        "smoke_test": false,
        "components": 50,
        "mode": "default",
        "model_name": "llama_8b",
        "target_dataset": "tsm_tst",
        "datetime": "2026-05-05 23:31:52"
    },
    "test_metrics": {
        "test_metrics_by_layer": [
            {
                "n_total": 500,
                "auroc": 0.4666080000000001,
                "accuracy": 0.5,
                "f1": 0.0,
                "tpr_at_fpr_0_05": 0.0,
                "optimal_threshold_f1": 0.5,
                "optimal_threshold_acc": 0.5,
                "aupr": 0.48338277651625
            },
            {
                "n_total": 500,
                "auroc": 0.648288,
                "accuracy": 0.586,
                "f1": 0.43902439024390244,
                "tpr_at_fpr_0_05": 0.188,
                "optimal_threshold_f1": 0.5,
                "optimal_threshold_acc": 0.5,
                "aupr": 0.658405639107063
            },
            {
                "n_total": 500,
                "auroc": 0.689552,
                "accuracy": 0.648,
                "f1": 0.5368421052631579,
                "tpr_at_fpr_0_05": 0.248,
                "optimal_threshold_f1": 0.5,
                "optimal_threshold_acc": 0.5,
                "aupr": 0.7153273110183909
            },
            {
                "n_total": 500,
                "auroc": 0.7387360000000001,
                "accuracy": 0.656,
                "f1": 0.5473684210526316,
                "tpr_at_fpr_0_05": 0.276,
                "optimal_threshold_f1": 0.5,
                "optimal_threshold_acc": 0.5,
                "aupr": 0.7459251062436587
            },
            {
                "n_total": 500,
                "auroc": 0.79976,
                "accuracy": 0.668,
                "f1": 0.553763440860215,
                "tpr_at_fpr_0_05": 0.28,
                "optimal_threshold_f1": 0.5,
                "optimal_threshold_acc": 0.5,
                "aupr": 0.7898840676312939
            },
            {
                "n_total": 500,
                "auroc": 0.820176,
                "accuracy": 0.648,
                "f1": 0.4913294797687861,
                "tpr_at_fpr_0_05": 0.356,
                "optimal_threshold_f1": 0.5,
                "optimal_threshold_acc": 0.5,
                "aupr": 0.8234872557935953
            },
            {
                "n_total": 500,
                "auroc": 0.8345919999999999,
                "accuracy": 0.658,
                "f1": 0.5043478260869565,
                "tpr_at_fpr_0_05": 0.408,
                "optimal_threshold_f1": 0.5,
                "optimal_threshold_acc": 0.5,
                "aupr": 0.8372043743719161
            },
            {
                "n_total": 500,
                "auroc": 0.8344479999999999,
                "accuracy": 0.656,
                "f1": 0.5,
                "tpr_at_fpr_0_05": 0.424,
                "optimal_threshold_f1": 0.5,
                "optimal_threshold_acc": 0.5,
                "aupr": 0.838241954863246
            },
            {
                "n_total": 500,
                "auroc": 0.8308,
                "accuracy": 0.656,
                "f1": 0.5,
                "tpr_at_fpr_0_05": 0.468,
                "optimal_threshold_f1": 0.5,
                "optimal_threshold_acc": 0.5,
                "aupr": 0.830792776817117
            },
            {
                "n_total": 500,
                "auroc": 0.848608,
                "accuracy": 0.644,
                "f1": 0.463855421686747,
                "tpr_at_fpr_0_05": 0.492,
                "optimal_threshold_f1": 0.5,
                "optimal_threshold_acc": 0.5,
                "aupr": 0.8579670502204598
            },
            {
                "n_total": 500,
                "auroc": 0.8827520000000001,
                "accuracy": 0.7,
                "f1": 0.5810055865921788,
                "tpr_at_fpr_0_05": 0.588,
                "optimal_threshold_f1": 0.5,
                "optimal_threshold_acc": 0.5,
                "aupr": 0.8923231458996025
            },
            {
                "n_total": 500,
                "auroc": 0.852688,
                "accuracy": 0.696,
                "f1": 0.5824175824175825,
                "tpr_at_fpr_0_05": 0.516,
                "optimal_threshold_f1": 0.5,
                "optimal_threshold_acc": 0.5,
                "aupr": 0.8655822072195151
            },
            {
                "n_total": 500,
                "auroc": 0.859328,
                "accuracy": 0.654,
                "f1": 0.4804804804804805,
                "tpr_at_fpr_0_05": 0.504,
                "optimal_threshold_f1": 0.5,
                "optimal_threshold_acc": 0.5,
                "aupr": 0.868634808014699
            },
            {
                "n_total": 500,
                "auroc": 0.8495199999999999,
                "accuracy": 0.65,
                "f1": 0.4744744744744745,
                "tpr_at_fpr_0_05": 0.416,
                "optimal_threshold_f1": 0.5,
                "optimal_threshold_acc": 0.5,
                "aupr": 0.8445347076010338
            },
            {
                "n_total": 500,
                "auroc": 0.86216,
                "accuracy": 0.606,
                "f1": 0.3583061889250814,
                "tpr_at_fpr_0_05": 0.516,
                "optimal_threshold_f1": 0.5,
                "optimal_threshold_acc": 0.5,
                "aupr": 0.8649325255627713
            },
            {
                "n_total": 500,
                "auroc": 0.849232,
                "accuracy": 0.61,
                "f1": 0.36893203883495146,
                "tpr_at_fpr_0_05": 0.44,
                "optimal_threshold_f1": 0.5,
                "optimal_threshold_acc": 0.5,
                "aupr": 0.8482957431830255
            },
            {
                "n_total": 500,
                "auroc": 0.8497759999999999,
                "accuracy": 0.604,
                "f1": 0.36129032258064514,
                "tpr_at_fpr_0_05": 0.472,
                "optimal_threshold_f1": 0.5,
                "optimal_threshold_acc": 0.5,
                "aupr": 0.8469426162151449
            },
            {
                "n_total": 500,
                "auroc": 0.846272,
                "accuracy": 0.608,
                "f1": 0.35947712418300654,
                "tpr_at_fpr_0_05": 0.472,
                "optimal_threshold_f1": 0.5,
                "optimal_threshold_acc": 0.5,
                "aupr": 0.8526620903354051
            },
            {
                "n_total": 500,
                "auroc": 0.8469599999999999,
                "accuracy": 0.618,
                "f1": 0.39365079365079364,
                "tpr_at_fpr_0_05": 0.416,
                "optimal_threshold_f1": 0.5,
                "optimal_threshold_acc": 0.5,
                "aupr": 0.8399700542177148
            },
            {
                "n_total": 500,
                "auroc": 0.823456,
                "accuracy": 0.616,
                "f1": 0.3885350318471338,
                "tpr_at_fpr_0_05": 0.392,
                "optimal_threshold_f1": 0.5,
                "optimal_threshold_acc": 0.5,
                "aupr": 0.8181697808845307
            },
            {
                "n_total": 500,
                "auroc": 0.8303679999999999,
                "accuracy": 0.618,
                "f1": 0.39747634069400634,
                "tpr_at_fpr_0_05": 0.384,
                "optimal_threshold_f1": 0.5,
                "optimal_threshold_acc": 0.5,
                "aupr": 0.8313143255890899
            },
            {
                "n_total": 500,
                "auroc": 0.837712,
                "accuracy": 0.628,
                "f1": 0.42592592592592593,
                "tpr_at_fpr_0_05": 0.368,
                "optimal_threshold_f1": 0.5,
                "optimal_threshold_acc": 0.5,
                "aupr": 0.8380082018492809
            },
            {
                "n_total": 500,
                "auroc": 0.8360319999999999,
                "accuracy": 0.62,
                "f1": 0.40625,
                "tpr_at_fpr_0_05": 0.364,
                "optimal_threshold_f1": 0.5,
                "optimal_threshold_acc": 0.5,
                "aupr": 0.8349804443224419
            },
            {
                "n_total": 500,
                "auroc": 0.8146880000000001,
                "accuracy": 0.614,
                "f1": 0.4024767801857585,
                "tpr_at_fpr_0_05": 0.356,
                "optimal_threshold_f1": 0.5,
                "optimal_threshold_acc": 0.5,
                "aupr": 0.8128747850221258
            },
            {
                "n_total": 500,
                "auroc": 0.804928,
                "accuracy": 0.598,
                "f1": 0.35782747603833864,
                "tpr_at_fpr_0_05": 0.388,
                "optimal_threshold_f1": 0.5,
                "optimal_threshold_acc": 0.5,
                "aupr": 0.8023205265245061
            },
            {
                "n_total": 500,
                "auroc": 0.792416,
                "accuracy": 0.592,
                "f1": 0.3419354838709677,
                "tpr_at_fpr_0_05": 0.36,
                "optimal_threshold_f1": 0.5,
                "optimal_threshold_acc": 0.5,
                "aupr": 0.8006280763521649
            },
            {
                "n_total": 500,
                "auroc": 0.787712,
                "accuracy": 0.598,
                "f1": 0.34951456310679613,
                "tpr_at_fpr_0_05": 0.344,
                "optimal_threshold_f1": 0.5,
                "optimal_threshold_acc": 0.5,
                "aupr": 0.8015047030444205
            },
            {
                "n_total": 500,
                "auroc": 0.7914080000000001,
                "accuracy": 0.594,
                "f1": 0.33876221498371334,
                "tpr_at_fpr_0_05": 0.356,
                "optimal_threshold_f1": 0.5,
                "optimal_threshold_acc": 0.5,
                "aupr": 0.8051237695634912
            },
            {
                "n_total": 500,
                "auroc": 0.7898239999999999,
                "accuracy": 0.596,
                "f1": 0.34415584415584416,
                "tpr_at_fpr_0_05": 0.32,
                "optimal_threshold_f1": 0.5,
                "optimal_threshold_acc": 0.5,
                "aupr": 0.804755576974997
            },
            {
                "n_total": 500,
                "auroc": 0.792704,
                "accuracy": 0.588,
                "f1": 0.31788079470198677,
                "tpr_at_fpr_0_05": 0.364,
                "optimal_threshold_f1": 0.5,
                "optimal_threshold_acc": 0.5,
                "aupr": 0.8055831080235334
            },
            {
                "n_total": 500,
                "auroc": 0.783008,
                "accuracy": 0.59,
                "f1": 0.31893687707641194,
                "tpr_at_fpr_0_05": 0.316,
                "optimal_threshold_f1": 0.5,
                "optimal_threshold_acc": 0.5,
                "aupr": 0.7945015179231526
            },
            {
                "n_total": 500,
                "auroc": 0.7864320000000001,
                "accuracy": 0.584,
                "f1": 0.30201342281879195,
                "tpr_at_fpr_0_05": 0.336,
                "optimal_threshold_f1": 0.5,
                "optimal_threshold_acc": 0.5,
                "aupr": 0.7954413649422005
            },
            {
                "n_total": 500,
                "auroc": 0.79856,
                "accuracy": 0.588,
                "f1": 0.31788079470198677,
                "tpr_at_fpr_0_05": 0.336,
                "optimal_threshold_f1": 0.5,
                "optimal_threshold_acc": 0.5,
                "aupr": 0.8011493603681082
            }
        ],
        "mean_projection_metrics": {
            "n_total": 500,
            "auroc": 0.8624640000000001,
            "accuracy": 0.606,
            "f1": 0.36245954692556637,
            "tpr_at_fpr_0_05": 0.484,
            "optimal_threshold_f1": 0.5,
            "optimal_threshold_acc": 0.5,
            "aupr": 0.8656914008164549
        },
        "weighted_projection_metrics": {
            "n_total": 500,
            "auroc": 0.87192,
            "accuracy": 0.606,
            "f1": 0.36245954692556637,
            "tpr_at_fpr_0_05": 0.496,
            "optimal_threshold_f1": 0.5,
            "optimal_threshold_acc": 0.5,
            "aupr": 0.8739511844693089
        },
        "weighted_projection": [
            -3.3422023759980277,
            1.8973074436550592,
            -3.153648881104926,
            -1.7391037558352973,
            -1.820455042432046,
            -3.7745510767372363,
            -1.2751586207759833,
            0.5096431217640061,
            3.506908746593984,
            -1.4715602259073546,
            -3.0438902283790097,
            0.9084265168282281,
            -0.47357531935037056,
            -0.1260818761038987,
            -1.2368798349700514,
            -5.347342428448305,
            -1.6912112467953535,
            -0.3969462672660241,
            -4.150085735404545,
            2.1204133830622136,
            2.113845399347023,
            -0.9193051603876672,
            -3.3351346977091474,
            -2.6805797257367607,
            -0.6641630344160613,
            -1.1196203957878044,
            2.0989511605476143,
            0.055645231765877726,
            -2.6629879234875893,
            0.119718732532227,
            -4.090015091038358,
            -0.5375439422249078,
            1.4262349846991695,
            -0.9591325586124195,
            -0.8536800225695527,
            3.1733727382728127,
            -1.2423415462795568,
            -2.0941066470973064,
            -1.5102349614802333,
            0.3348846152680507,
            -1.4550484240560273,
            -1.7555138094293408,
            -1.9798500260346992,
            -1.580754632685023,
            -1.5940644044897998,
            -2.1209447971739754,
            0.4901989550723639,
            -1.9530664437365628,
            -1.9978455078168211,
            -0.33487657483811384,
            1.0837110660260598,
            -0.9708534907746881,
            -0.9673388476107047,
            -0.46970782623456264,
            -2.110515575516063,
            -1.4844280938973058,
            -3.4862774144212465,
            0.6503712442889524,
            0.6381585192873223,
            -1.2564752429783164,
            -3.628481720959091,
            -1.2028019378428956,
            -2.344281421827938,
            -2.5057384512784,
            -2.3339009399451176,
            -1.0783072338738209,
            1.1409109371556774,
            2.22521653393036,
            -1.255798546360053,
            -0.982375656602826,
            4.788623908809906,
            -0.0429184043124817,
            -2.5683475127459388,
            0.7745640746579514,
            0.6643870960421961,
            -0.49465419699466967,
            0.14083138779214105,
            -6.050380420968912,
            0.28516983937312845,
            1.9187792027576782,
            -0.5675624455960295,
            -2.5495056255249318,
            1.3126903362356808,
            0.15933382345838243,
            1.150019964193196,
            -3.6267231283312684,
            -1.529391682081285,
            -0.9266227970494879,
            -1.8887706216031745,
            1.8006571701994132,
            -1.5179533944343742,
            -1.1774227990861905,
            -1.1113025532030567,
            0.46170414493910295,
            -2.7323680715840712,
            2.5820210859069843,
            -1.3103170445426209,
            -1.4258349455937542,
            -2.3052115005886384,
            -2.00458910268409,
            0.4789631648878587,
            -2.0905972820657386,
            -3.253926565099876,
            -1.7464377289821018,
            -2.702008785720514,
            -2.0174890330404343,
            -1.534171565205637,
            1.4046972415058452,
            -1.5675071778910517,
            0.07371903610249873,
            -0.07978576144442476,
            2.083613194126097,
            -0.3930389891616784,
            2.107413156180752,
            -2.674817298436169,
            -5.015577394332636,
            -3.671518657966644,
            -0.350257122219492,
            0.5421500822233801,
            0.22667627112951694,
            -3.8602718026099265,
            1.046185517412594,
            0.6317587422520743,
            2.483362449461685,
            -1.7897753724428738,
            -2.4790754242004294,
            -0.16129205291409143,
            -1.1008505372128514,
            -0.44782604188667535,
            0.27314854090002916,
            -0.6524764315619368,
            3.7970698429998553,
            -0.6351067032861921,
            4.09708814004733,
            -1.6233463120376757,
            -1.913677060797071,
            -1.440211502233377,
            -1.0692355534992908,
            0.8028379460168211,
            -2.2877376462611236,
            2.814446259305874,
            -1.7299968279062707,
            -0.05848778865718014,
            0.23913662266136462,
            -3.180761866866915,
            1.0320943698491496,
            -2.099903108523154,
            -0.47937293411413173,
            -0.18899117563265053,
            -1.9810242755928478,
            -0.49003424545500274,
            -0.8199577641680309,
            2.0531073910091036,
            -0.2743566836699193,
            -2.119482476094254,
            0.5499016514139453,
            2.07610300950881,
            -0.7501957963965398,
            -1.7546167684550504,
            -1.319501218129301,
            -1.453334017984092,
            -1.2416901530499271,
            -1.1006237611347922,
            -0.46316325860307644,
            1.0709779287282417,
            -0.0010645432133747548,
            -1.1058092138131235,
            -0.31586283829434786,
            1.5083792667579123,
            -2.3072209182657515,
            1.6493010460675033,
            -1.2385493597301294,
            -2.173317163726158,
            -0.5755063889048421,
            -4.143110684093278,
            -0.9839734650262942,
            1.3666716387815907,
            0.5078363002529828,
            1.0845316329929857,
            -2.1557358770548465,
            1.775767521290696,
            -1.81702602645912,
            1.5979587815481935,
            -0.33791407173128835,
            0.045365376013606795,
            -0.10554728292573218,
            0.8095264393451517,
            -0.8946166218631062,
            -2.9664465792593346,
            -2.9854031455926395,
            -1.8724550827934654,
            1.525344518785005,
            -0.25600092133805163,
            -1.1267293844825803,
            -2.1930248057985757,
            -0.9240237254010567,
            -0.528251674568994,
            -1.1783346024520238,
            -0.8460296745971143,
            1.4695604899800436,
            -3.645610102610044,
            0.6644473504714126,
            -0.578924158993924,
            -2.9159744411199413,
            -0.911894821118441,
            0.4184102070067119,
            0.8720637000818192,
            -2.0245188887719343,
            -1.2908791379812168,
            -1.0257946067713384,
            1.2503729537920654,
            -0.23157330514675173,
            1.302031788316041,
            0.1618237320755175,
            -2.304129706875698,
            -2.286207991269156,
            -2.926029788965332,
            -2.732992606163946,
            1.5454998586417654,
            -0.8062356142293801,
            -0.4437526696508563,
            -3.189866346546945,
            -1.491111828443108,
            0.1622391927613684,
            -0.32481087611214393,
            -0.939523094172658,
            -1.6314758385181891,
            -0.7073422017058896,
            0.22277360489547476,
            -1.6126821202390729,
            -3.101971831053525,
            -0.8283006329929203,
            0.30137023096043203,
            1.5110276965863763,
            -2.0710297497278956,
            -1.7972178461010635,
            -4.306408776939525,
            -1.2033041393144321,
            -1.7424575975595211,
            -1.0802697187497037,
            1.487215760101292,
            -2.57932819762739,
            -1.6297810167995532,
            -1.3511563801763027,
            -3.02199253586594,
            1.2703698385326707,
            -2.006948642865003,
            -0.797346373177316,
            -2.6928121797529396,
            -0.4046822008490378,
            -5.611902726823389,
            -5.054856120636859,
            -4.955822166544019,
            -4.802817805295931,
            -2.861009001043609,
            -5.0685862779519795,
            -4.565530538031834,
            -3.320539116850041,
            -0.9506366402357371,
            -4.185593185023291,
            -2.0455822391711385,
            -3.7761988322748987,
            -3.534473020947519,
            -2.4533526688930056,
            -3.841320006261268,
            -5.5334971792625325,
            -3.5379166917105884,
            0.7977226039984868,
            -5.859786623264991,
            -6.0418407732088335,
            -6.26297306579417,
            -1.7605413862345707,
            -4.347010000074321,
            -0.6214104120491125,
            -3.7009855139819785,
            -0.05029006494446012,
            -1.4315290784049104,
            -2.410006026915959,
            -2.386431572000486,
            -4.871170343180527,
            -4.228920809508345,
            -3.0647744768491183,
            -5.95753565926479,
            -3.7378794243780264,
            -2.0265704825034745,
            -2.372812070881223,
            -3.9610588569068046,
            -3.4825020458207634,
            1.2796718405148602,
            -2.134278331696858,
            -2.8622424855797637,
            -3.995270943707611,
            -2.4302215006756818,
            -2.8812833071213984,
            -4.2340313717645754,
            -5.199739643716919,
            -1.5798136709008026,
            -5.9258222201656725,
            -2.2518762227372893,
            -5.4993673876395075,
            -3.492915329054057,
            -1.513719309674104,
            -5.804606906925074,
            -2.9750173073731006,
            -2.478448762181498,
            -2.1282325171943106,
            -6.397711965981278,
            -5.271476423660805,
            -1.1254304231070011,
            -3.2814565099814543,
            -2.4125065239866648,
            -3.639540121396037,
            -1.0008172594559166,
            -5.2999647226025,
            -1.8301023344872316,
            -4.3175851553338935,
            -3.2009078475214925,
            -3.709614927215455,
            -0.609063015263845,
            -4.283483898615136,
            -5.8166481933276435,
            -2.863044336197314,
            -2.4300005612091384,
            -3.9689328432388717,
            -3.357761146656329,
            -1.4855299738883956,
            -0.3995969580292228,
            -2.843315187939896,
            -4.835647397509047,
            -3.514581374094853,
            -2.6362446812633977,
            -1.436309045715378,
            -4.005067878934482,
            -3.809578253647767,
            -3.274533194149933,
            -2.9982735752509946,
            -4.473996184884416,
            -0.45754821225554126,
            -4.610936698449799,
            -3.2910746031345046,
            -3.3631877957008656,
            -2.7624511498178945,
            -4.688065246946683,
            -4.8814936879727515,
            -1.9481671327468728,
            -3.6085337839679554,
            -3.9697808215728996,
            -7.349131276514997,
            -2.3998923175664637,
            -5.207570751902751,
            -2.4830507781963083,
            -5.152319184032043,
            -5.20993897234433,
            -2.7236942298686735,
            -2.4042952599402665,
            -6.88758797174325,
            -3.124562368700215,
            -3.4772913911973875,
            -2.5983057667755007,
            -2.9179646276180957,
            -5.558299820402951,
            -2.9900797557052696,
            -3.5355915369734037,
            -4.693581606130285,
            -0.29347428217135463,
            -4.304463407282939,
            -3.6066026093020964,
            -2.129701152997628,
            -5.121896288411666,
            -4.060534947828682,
            -4.90407955327737,
            -4.99226688634015,
            -2.6286796932312475,
            -4.574065955616063,
            -3.21008456898956,
            -4.298842154680673,
            -3.7928346864446003,
            -1.5397722657423552,
            -2.35688002617321,
            -3.22766194457897,
            -6.404084192915919,
            -1.3803384421024205,
            -2.7178754656299793,
            -2.320978746283932,
            -1.9147306384719822,
            -2.4022614107012767,
            -1.685820716333084,
            -1.7646165110072702,
            -3.1719878498532146,
            -1.9963299373454149,
            -3.889715276406792,
            1.1757057108573206,
            -1.4468460087402446,
            -1.516228100800242,
            -2.2950135135426444,
            -4.118479458009296,
            -6.6827546469701735,
            -4.141868847627703,
            -0.9377285808272326,
            -4.344212908161628,
            -3.6060700024663705,
            -3.4332391897812453,
            -4.860807934333805,
            -2.6368727979798305,
            -2.3906171872070754,
            -3.5661451056775344,
            -2.1852342536846296,
            -4.6752545658555515,
            -3.9656137454682137,
            -4.215080403924767,
            -5.205414372559594,
            -2.706775485476893,
            -1.9655544270800474,
            -1.6052612280915417,
            -4.007129658759265,
            -1.2212680744212716,
            -3.8210221837168996,
            -1.7982572731742235,
            -5.427113095864746,
            -3.723148518564047,
            -6.057163247523137,
            -2.78755151585021,
            -1.713667212351649,
            -2.839740311342333,
            -2.3285486182577273,
            -4.111497747123568,
            -4.156370533815886,
            -2.256462505374423,
            -1.4310290058357928,
            -4.659877356651875,
            -2.4425935981767815,
            -6.346494577003878,
            -1.206728121256642,
            -0.596003000337731,
            -3.697648312706579,
            -6.7049555000619225,
            -4.876080500285386,
            -4.617604664601512,
            -3.5218052919819938,
            -3.0662972549622984,
            -4.322050420997842,
            -3.727885789289351,
            -2.9076293800627413,
            -4.09286343513759,
            -4.1592603698858,
            -4.470913355602578,
            -4.3489699993068776,
            -3.6800029609869367,
            -6.06463781424303,
            -3.4011472783127483,
            -1.1428930441915433,
            -3.6059331263205667,
            -2.5838171880534433,
            -2.931683961323492,
            -2.2736549500165957,
            -3.4260628295175133,
            -5.081836270807236,
            -0.43415600834887597,
            -3.040544132354057,
            -4.596273407291747,
            -3.1209163120753627,
            -4.831607086387258,
            -3.876010585833893,
            -5.205995483008022,
            -3.9253640441683633,
            -1.7752090828419738,
            -2.282163982903277,
            -2.1053948314102016,
            -1.3733610924961932,
            -2.1233873243755914,
            -4.365613543331264,
            -5.366142398319589,
            -3.0483872960675025,
            -3.5627224121019125,
            -6.163895696683652,
            -3.5389743421753876,
            -3.0866320760850168,
            -5.282181493437466,
            -1.8533207168159147,
            -4.141743382064798,
            -2.0526616378212403,
            -3.992879951955256,
            -2.063018149606823,
            -4.465574861112585,
            -4.9968188878278195,
            -2.381796132451493,
            -1.1946149912341193,
            -2.6760567165423432,
            -3.1530949720607833,
            -2.763411804325837,
            -2.836815371616895,
            -3.699224674952544,
            -3.3611044446114904,
            -4.887690462935639,
            -1.6626687695233395,
            -5.599699024826203,
            -4.674976369530702,
            -2.102513214875045,
            -4.61542816963777,
            -2.847782678638862
        ],
        "mean_projection": [
            -3.277093291447061,
            1.861719807449798,
            -3.0849227797840584,
            -1.7762705447140037,
            -1.7726603743636253,
            -3.6714042132756615,
            -1.2413244583699026,
            0.5008562278337804,
            3.43576073282641,
            -1.3958163544472733,
            -2.93947244791268,
            0.8991853576389438,
            -0.4677006496993112,
            -0.11108120464908701,
            -1.225186109556842,
            -5.207820280463168,
            -1.6433723205211745,
            -0.36636066449132976,
            -4.301980748540839,
            2.081637905096726,
            2.072800584197168,
            -0.9085589611477625,
            -3.256711462814841,
            -2.608755142718571,
            -0.6549708753170749,
            -1.0835787598435653,
            2.060142920901406,
            0.06335244848810283,
            -2.595469076083801,
            0.11599047207787194,
            -3.996892812511771,
            -0.5190231057491075,
            1.3931230550200093,
            -0.9133466719965501,
            -0.8344459311712401,
            3.114100570513693,
            -1.206127585141056,
            -2.035396123128257,
            -1.6273704650908194,
            0.303102391231905,
            -1.5612875925134955,
            -2.6416897040284755,
            -1.9299146968754692,
            -1.5217314931951846,
            -1.6250715238323146,
            -2.0737928285917997,
            0.4687294887010141,
            -2.993410234322576,
            -1.9479556850409638,
            -0.32797527958187733,
            1.0674186377249018,
            -0.9419344245773483,
            -0.9407768698616712,
            -0.45656370178985134,
            -2.0598734268956975,
            -1.4555754458712313,
            -3.3909436963375525,
            0.652645283608166,
            0.6312182797431914,
            -1.2178762525237072,
            -3.534967005711367,
            -1.1453334670867978,
            -2.4500679644280807,
            -2.456778762728761,
            -2.267040635224105,
            -1.0520797168760836,
            1.1221735564359936,
            2.1665329597500818,
            -1.2117676740803194,
            -1.8862223340156674,
            4.669120798323396,
            -0.04039089961515829,
            -2.5120031306923516,
            0.7412546256523979,
            0.6493846740627769,
            -0.4625633300085696,
            0.13025565274679865,
            -5.885258201144104,
            0.26766413395592076,
            1.8667359862075332,
            -0.5557703070556237,
            -2.480166134975485,
            1.282955171131654,
            0.1482741280566521,
            1.127104898221061,
            -3.544576202547372,
            -1.4657289086477334,
            -0.8941623896549634,
            -1.8502533456938353,
            1.7472977219674481,
            -1.47307955986963,
            -1.154260623157263,
            -1.0907872664180538,
            0.4542969599493477,
            -2.668310789290969,
            2.538885812102683,
            -1.2520202218556653,
            -2.323356792117985,
            -2.265773365705887,
            -1.9410568875207477,
            0.48329977814263414,
            -2.058312850922885,
            -3.1739339063215133,
            -1.7112807432059647,
            -2.630022127216008,
            -1.9645424276023102,
            -1.4990378199858116,
            1.371218933560992,
            -1.5375203211021646,
            0.08799821871861213,
            -0.08904024261551063,
            2.034318706827271,
            -0.3704774012306892,
            2.0630883405591285,
            -2.590081655435577,
            -4.8982646450964245,
            -3.595913270262551,
            -0.3546879689119274,
            0.520543954680166,
            0.23049467753894606,
            -3.770384246361014,
            0.8909684761813069,
            0.6066139415540664,
            2.4434688352564624,
            -1.7521982238192195,
            -2.419551293587415,
            -0.1578873161410556,
            -1.068304587190761,
            -1.5123864080153149,
            -0.8081707808215349,
            -0.7677838901628073,
            3.7077557026623094,
            -0.6274229607131355,
            4.0084789289353315,
            -1.5878821084463988,
            -1.8705338894636436,
            -2.3270661057053017,
            -1.0672962638981303,
            0.8069724743268684,
            -2.2037003578548635,
            2.7471423789602722,
            -1.6940950138459756,
            -0.04265522120754755,
            0.22036579051411562,
            -3.114447153529224,
            1.0133083810710162,
            -2.028134516809091,
            -0.44584760217984243,
            -0.1694715230811443,
            -1.9439426033340528,
            -0.4732752891011719,
            -0.7859856719395277,
            2.0203313180963334,
            -0.2484526055850236,
            -2.0422052392101384,
            0.543924371291635,
            2.0251504657806696,
            -0.7284526697763973,
            -1.7207670512602375,
            -1.2910256311038408,
            -1.4099112160678269,
            -1.2236369576588535,
            -2.3122331616111222,
            -0.4312733015846573,
            1.0567230798140936,
            -0.008023506417358871,
            -1.0691328840135468,
            -0.3032380493080325,
            1.4874392322267014,
            -2.2434160786110073,
            1.6216970163887736,
            -2.126405043964885,
            -2.1169075462641445,
            -0.5705226731878491,
            -4.03020618070483,
            -1.8848636821534306,
            1.3466056736348893,
            0.5098126094490479,
            1.0561549129360865,
            -2.1108179239866836,
            1.7313616603408941,
            -1.7577198227454924,
            1.5825350415963655,
            -0.3247116622232652,
            0.03530088249720276,
            -0.22869816678173,
            0.7635783554097764,
            -0.8588932901326356,
            -2.908476778515314,
            -2.9053202265326634,
            -1.8208177523631541,
            1.4794505737667591,
            -0.2539870225923444,
            -1.0925317370441847,
            -3.369311320511875,
            -0.902910458037223,
            -0.5332560447055626,
            -1.1367807747226646,
            -0.8255628103680268,
            0.8622218817762785,
            -3.565461987575641,
            0.6483006712516007,
            -0.5883804733958251,
            -2.850907383162232,
            -0.8830366295169264,
            0.4311315412856389,
            0.8824591247306427,
            -1.9751891911288482,
            -1.2476330165712706,
            -0.9972854497586996,
            1.2346903352588723,
            -0.22306591257108846,
            1.2666575255725436,
            0.17144995525320636,
            -2.2417696621418557,
            -2.274872441216269,
            -2.855147918852096,
            -2.6728117341360216,
            1.3723742492497022,
            -0.7814725771771622,
            -0.41286595870109477,
            -3.0988803804017753,
            -1.451011914297135,
            0.16043728494524354,
            -1.4021223679837376,
            -0.9221981024955845,
            -1.6007878281501777,
            -0.6861649253371083,
            0.2159326547907237,
            -1.5694886286731298,
            -3.0259032111407507,
            -0.7954454298801997,
            0.2928399272749275,
            1.4640286965107796,
            -2.0123299146345968,
            -1.7394621755411226,
            -4.193786559888408,
            -1.1786203178922139,
            -1.6904404773631996,
            -1.0565103644127685,
            1.4508698440594539,
            -3.5704721298100734,
            -1.5843674291530279,
            -2.3034323740197737,
            -3.036060696621578,
            1.2498712960115788,
            -1.9305184103174036,
            -0.7682889511950679,
            -2.6350208983828756,
            -0.4000630260617137,
            -5.461378816897041,
            -4.931207261279783,
            -4.825687279464066,
            -4.669330585389478,
            -2.7503732032828054,
            -4.934620812223259,
            -4.43868437029055,
            -3.2502626494777855,
            -0.9094834162727555,
            -4.0636345732956105,
            -1.9990994253572378,
            -3.691225744522145,
            -3.4233309188526038,
            -2.3858275953168935,
            -3.742781912696925,
            -5.400308264739312,
            -3.439949936874463,
            0.8012021260786963,
            -5.715592773440301,
            -5.883227386063779,
            -6.125400157555279,
            -1.7015748206273957,
            -4.240709068467146,
            -0.5909565768817427,
            -3.593399499959895,
            -0.057693724847755444,
            -1.39190982589684,
            -2.336695425127661,
            -2.2933303090136383,
            -4.739358930443222,
            -4.116664120470474,
            -2.975337463129478,
            -5.786529087318984,
            -3.646206877004477,
            -1.9836706466769565,
            -2.305844276511159,
            -3.852951605455299,
            -3.393899907452965,
            1.2616438883600116,
            -2.0715313307278675,
            -2.7873641591896643,
            -3.8985917015982543,
            -2.3656615186722303,
            -2.795575165258018,
            -4.124811658227536,
            -5.06806988999519,
            -1.527396462282098,
            -5.753818118906421,
            -2.1885910685679035,
            -5.359473185013793,
            -3.3898607945143424,
            -1.4805682998077687,
            -5.669350232502316,
            -2.984031309053737,
            -2.3986997626137123,
            -2.069528005548001,
            -6.244912948289736,
            -5.123775635834106,
            -1.1112592458863861,
            -3.204037799781979,
            -2.34065537255795,
            -3.552119810754261,
            -0.969652861235169,
            -5.192351143191734,
            -1.790091681362018,
            -4.428902581230442,
            -3.1138318970575387,
            -3.6215137197851828,
            -0.5723178175178043,
            -4.169055200971758,
            -5.6676030101279125,
            -2.801578513578241,
            -2.44043353050773,
            -3.852899051264741,
            -3.2843004143372387,
            -1.4374111196134063,
            -0.36446453731663264,
            -2.778248814642431,
            -4.720562102328308,
            -3.405001182995594,
            -2.562813921423381,
            -1.4080473124862127,
            -3.8710833903292667,
            -3.7186048577226236,
            -3.192937147008898,
            -2.94647211934293,
            -4.363323321382954,
            -0.43430849888293444,
            -4.48919630043897,
            -3.206079342874356,
            -3.2792878149112004,
            -2.7051645214052193,
            -4.557727426001715,
            -4.76211760326585,
            -1.8970754450261178,
            -3.5116099880905787,
            -3.863598313793125,
            -7.161244880921458,
            -2.3320164965220185,
            -5.096790517806718,
            -2.4128113510411606,
            -5.012563605992911,
            -5.077437271298159,
            -2.6553277404906015,
            -2.3358944264392396,
            -6.701138926492235,
            -3.0362439170128304,
            -3.3717321778315292,
            -2.521330597267459,
            -2.826844302229845,
            -5.415334726383556,
            -2.9088158931873567,
            -3.4562444754541435,
            -4.566914328563443,
            -0.4102035669661794,
            -4.194074029170185,
            -3.5281133278025716,
            -2.074669800040659,
            -4.980037822033467,
            -3.956907361750302,
            -4.755528770227314,
            -4.854782855143553,
            -2.539316394927248,
            -4.453215817939413,
            -3.368090263762109,
            -4.17926875353406,
            -3.701560472262557,
            -1.4964188397931808,
            -2.291161606241239,
            -3.1221259510225465,
            -6.233589183781011,
            -1.5924115415705191,
            -2.6515677732044995,
            -2.2688545919284215,
            -1.8625525970875416,
            -2.3399911710821537,
            -1.6470868531497138,
            -1.70467897957488,
            -3.101221934788642,
            -1.9357077904993436,
            -3.779396122017512,
            1.1659127438377317,
            -1.3953598990292995,
            -1.4729817155384861,
            -2.4020393810601472,
            -4.0109964753443,
            -6.537432361174977,
            -4.043041448559301,
            -0.9028241003925851,
            -4.238007128664472,
            -3.5046630773730567,
            -3.349806781284458,
            -4.725437497572506,
            -2.574059329250197,
            -2.3262868500604057,
            -3.4615020440956017,
            -2.1423265717236637,
            -4.5552299033214165,
            -3.8800481375904954,
            -4.086004015442354,
            -5.060990125778796,
            -2.7061569345727174,
            -1.91270081298104,
            -1.5677535344292182,
            -3.9185466873071624,
            -1.2032189031780003,
            -3.7171166000540468,
            -1.753848797224882,
            -5.30545772963361,
            -3.620740176436851,
            -5.882706340673973,
            -2.7135353625228413,
            -1.6648421224410261,
            -2.7541110395862884,
            -2.2668996899857987,
            -3.9853585766830046,
            -4.043568424177363,
            -2.1886084960793,
            -1.3889017194285367,
            -4.538744596305271,
            -2.3873355303980084,
            -6.180950803360377,
            -1.432616776902165,
            -0.5679090614681589,
            -3.5740544617310874,
            -6.540575318538788,
            -4.7454389879563825,
            -4.487530179950048,
            -3.438584720512119,
            -2.989906773163126,
            -4.185633191197268,
            -3.6148461293729865,
            -2.838169523555917,
            -3.9844399830725084,
            -4.065892993276788,
            -4.347754211684123,
            -4.246460388067518,
            -3.5913191545932115,
            -5.905491257072595,
            -3.2977985123632156,
            -1.1123254437355663,
            -3.496443403801654,
            -2.5223481671037,
            -2.855274864603559,
            -2.2089429663629514,
            -3.3439651401670454,
            -4.964146476101342,
            -0.4235592380338051,
            -2.9668597896332978,
            -4.458995640432414,
            -3.0473402384737915,
            -4.714632493730631,
            -3.7871723746910804,
            -5.081274259584784,
            -3.811748050922826,
            -1.7258560447566431,
            -2.2245683497206006,
            -2.0632577897705997,
            -1.3196850180374007,
            -2.0483871695450047,
            -4.289678977328134,
            -5.239004547655002,
            -2.9468815380007256,
            -3.47656685532934,
            -6.007097683261493,
            -3.4544457916729665,
            -2.994090476390404,
            -5.170021560396264,
            -1.8069528855205719,
            -4.038027776491073,
            -2.012030589823147,
            -3.886491318659411,
            -1.9970167094821072,
            -4.328187772181321,
            -4.895648927810789,
            -2.287564954447793,
            -1.1568298362675025,
            -2.6045492368691923,
            -3.1996045000871725,
            -2.684488231716388,
            -2.75128748443009,
            -3.6071320289661375,
            -3.256632396062978,
            -4.8449221964634805,
            -1.6219210716214578,
            -5.4539094764696685,
            -4.5502642363384975,
            -2.0455044717842186,
            -4.560474580336596,
            -2.750144142588613
        ]
    }
}