{
    "args": {
        "model": "llama_8b",
        "dataset": "drlAttack_perturbation_attacks_llm",
        "token_mode": "last_token",
        "ood": true,
        "smoke_test": false,
        "components": 50,
        "mode": "pca",
        "model_name": "llama_8b",
        "target_dataset": "drlAttack_paraphrase_attacks_llm",
        "datetime": "2026-05-06 23:58:18"
    },
    "test_metrics": {
        "test_metrics_by_layer": [
            {
                "n_total": 500,
                "auroc": 0.63544,
                "accuracy": 0.634,
                "f1": 0.7223065250379362,
                "tpr_at_fpr_0_05": 0.0,
                "optimal_threshold_f1": 0.5,
                "optimal_threshold_acc": 0.5,
                "aupr": 0.5800263979558424
            },
            {
                "n_total": 500,
                "auroc": 0.844112,
                "accuracy": 0.808,
                "f1": 0.7983193277310925,
                "tpr_at_fpr_0_05": 0.684,
                "optimal_threshold_f1": 0.5,
                "optimal_threshold_acc": 0.5,
                "aupr": 0.892943887047889
            },
            {
                "n_total": 500,
                "auroc": 0.944928,
                "accuracy": 0.882,
                "f1": 0.8778467908902692,
                "tpr_at_fpr_0_05": 0.792,
                "optimal_threshold_f1": 0.5,
                "optimal_threshold_acc": 0.5,
                "aupr": 0.9563759298493892
            },
            {
                "n_total": 500,
                "auroc": 0.9486400000000001,
                "accuracy": 0.896,
                "f1": 0.8916666666666667,
                "tpr_at_fpr_0_05": 0.852,
                "optimal_threshold_f1": 0.5,
                "optimal_threshold_acc": 0.5,
                "aupr": 0.958862564586188
            },
            {
                "n_total": 500,
                "auroc": 0.984992,
                "accuracy": 0.924,
                "f1": 0.9184549356223176,
                "tpr_at_fpr_0_05": 0.948,
                "optimal_threshold_f1": 0.5,
                "optimal_threshold_acc": 0.5,
                "aupr": 0.98847363009577
            },
            {
                "n_total": 500,
                "auroc": 0.9911040000000001,
                "accuracy": 0.932,
                "f1": 0.9276595744680851,
                "tpr_at_fpr_0_05": 0.964,
                "optimal_threshold_f1": 0.5,
                "optimal_threshold_acc": 0.5,
                "aupr": 0.9922110748667436
            },
            {
                "n_total": 500,
                "auroc": 0.986288,
                "accuracy": 0.908,
                "f1": 0.8991228070175439,
                "tpr_at_fpr_0_05": 0.94,
                "optimal_threshold_f1": 0.5,
                "optimal_threshold_acc": 0.5,
                "aupr": 0.988152727278796
            },
            {
                "n_total": 500,
                "auroc": 0.987648,
                "accuracy": 0.912,
                "f1": 0.9043478260869565,
                "tpr_at_fpr_0_05": 0.94,
                "optimal_threshold_f1": 0.5,
                "optimal_threshold_acc": 0.5,
                "aupr": 0.9893882731154044
            },
            {
                "n_total": 500,
                "auroc": 0.9904639999999999,
                "accuracy": 0.924,
                "f1": 0.9181034482758621,
                "tpr_at_fpr_0_05": 0.948,
                "optimal_threshold_f1": 0.5,
                "optimal_threshold_acc": 0.5,
                "aupr": 0.9912444715681986
            },
            {
                "n_total": 500,
                "auroc": 0.9910880000000001,
                "accuracy": 0.936,
                "f1": 0.9316239316239316,
                "tpr_at_fpr_0_05": 0.956,
                "optimal_threshold_f1": 0.5,
                "optimal_threshold_acc": 0.5,
                "aupr": 0.9926958830609229
            },
            {
                "n_total": 500,
                "auroc": 0.994464,
                "accuracy": 0.886,
                "f1": 0.871331828442438,
                "tpr_at_fpr_0_05": 0.98,
                "optimal_threshold_f1": 0.5,
                "optimal_threshold_acc": 0.5,
                "aupr": 0.9954045055451387
            },
            {
                "n_total": 500,
                "auroc": 0.996112,
                "accuracy": 0.872,
                "f1": 0.8532110091743119,
                "tpr_at_fpr_0_05": 0.98,
                "optimal_threshold_f1": 0.5,
                "optimal_threshold_acc": 0.5,
                "aupr": 0.9965807492180383
            },
            {
                "n_total": 500,
                "auroc": 0.994944,
                "accuracy": 0.928,
                "f1": 0.9224137931034483,
                "tpr_at_fpr_0_05": 0.98,
                "optimal_threshold_f1": 0.5,
                "optimal_threshold_acc": 0.5,
                "aupr": 0.9958969996880679
            },
            {
                "n_total": 500,
                "auroc": 0.996512,
                "accuracy": 0.922,
                "f1": 0.9154013015184381,
                "tpr_at_fpr_0_05": 0.98,
                "optimal_threshold_f1": 0.5,
                "optimal_threshold_acc": 0.5,
                "aupr": 0.9970605654728307
            },
            {
                "n_total": 500,
                "auroc": 0.996608,
                "accuracy": 0.938,
                "f1": 0.9339019189765458,
                "tpr_at_fpr_0_05": 0.988,
                "optimal_threshold_f1": 0.5,
                "optimal_threshold_acc": 0.5,
                "aupr": 0.9975107551475754
            },
            {
                "n_total": 500,
                "auroc": 0.995088,
                "accuracy": 0.948,
                "f1": 0.9453781512605042,
                "tpr_at_fpr_0_05": 0.984,
                "optimal_threshold_f1": 0.5,
                "optimal_threshold_acc": 0.5,
                "aupr": 0.9959431697806341
            },
            {
                "n_total": 500,
                "auroc": 0.998192,
                "accuracy": 0.952,
                "f1": 0.9495798319327731,
                "tpr_at_fpr_0_05": 0.988,
                "optimal_threshold_f1": 0.5,
                "optimal_threshold_acc": 0.5,
                "aupr": 0.9984007805165291
            },
            {
                "n_total": 500,
                "auroc": 0.9954400000000001,
                "accuracy": 0.94,
                "f1": 0.9364406779661016,
                "tpr_at_fpr_0_05": 0.984,
                "optimal_threshold_f1": 0.5,
                "optimal_threshold_acc": 0.5,
                "aupr": 0.9956634692589446
            },
            {
                "n_total": 500,
                "auroc": 0.997536,
                "accuracy": 0.948,
                "f1": 0.9453781512605042,
                "tpr_at_fpr_0_05": 0.992,
                "optimal_threshold_f1": 0.5,
                "optimal_threshold_acc": 0.5,
                "aupr": 0.997363214844132
            },
            {
                "n_total": 500,
                "auroc": 0.997024,
                "accuracy": 0.95,
                "f1": 0.9475890985324947,
                "tpr_at_fpr_0_05": 0.992,
                "optimal_threshold_f1": 0.5,
                "optimal_threshold_acc": 0.5,
                "aupr": 0.9967025143413801
            },
            {
                "n_total": 500,
                "auroc": 0.9983359999999999,
                "accuracy": 0.948,
                "f1": 0.9453781512605042,
                "tpr_at_fpr_0_05": 0.996,
                "optimal_threshold_f1": 0.5,
                "optimal_threshold_acc": 0.5,
                "aupr": 0.9982050184684158
            },
            {
                "n_total": 500,
                "auroc": 0.9972,
                "accuracy": 0.948,
                "f1": 0.9453781512605042,
                "tpr_at_fpr_0_05": 0.992,
                "optimal_threshold_f1": 0.5,
                "optimal_threshold_acc": 0.5,
                "aupr": 0.9967201312493552
            },
            {
                "n_total": 500,
                "auroc": 0.996656,
                "accuracy": 0.934,
                "f1": 0.929637526652452,
                "tpr_at_fpr_0_05": 0.992,
                "optimal_threshold_f1": 0.5,
                "optimal_threshold_acc": 0.5,
                "aupr": 0.9968080742617977
            },
            {
                "n_total": 500,
                "auroc": 0.9971840000000001,
                "accuracy": 0.93,
                "f1": 0.9250535331905781,
                "tpr_at_fpr_0_05": 0.996,
                "optimal_threshold_f1": 0.5,
                "optimal_threshold_acc": 0.5,
                "aupr": 0.9975874983846162
            },
            {
                "n_total": 500,
                "auroc": 0.9972799999999999,
                "accuracy": 0.934,
                "f1": 0.929637526652452,
                "tpr_at_fpr_0_05": 0.996,
                "optimal_threshold_f1": 0.5,
                "optimal_threshold_acc": 0.5,
                "aupr": 0.9974255916378978
            },
            {
                "n_total": 500,
                "auroc": 0.998304,
                "accuracy": 0.928,
                "f1": 0.9224137931034483,
                "tpr_at_fpr_0_05": 0.996,
                "optimal_threshold_f1": 0.5,
                "optimal_threshold_acc": 0.5,
                "aupr": 0.9984914250024616
            },
            {
                "n_total": 500,
                "auroc": 0.9981119999999999,
                "accuracy": 0.93,
                "f1": 0.9250535331905781,
                "tpr_at_fpr_0_05": 0.996,
                "optimal_threshold_f1": 0.5,
                "optimal_threshold_acc": 0.5,
                "aupr": 0.9983671713717618
            },
            {
                "n_total": 500,
                "auroc": 0.997568,
                "accuracy": 0.92,
                "f1": 0.9130434782608695,
                "tpr_at_fpr_0_05": 0.996,
                "optimal_threshold_f1": 0.5,
                "optimal_threshold_acc": 0.5,
                "aupr": 0.9981215219678796
            },
            {
                "n_total": 500,
                "auroc": 0.998544,
                "accuracy": 0.912,
                "f1": 0.9035087719298246,
                "tpr_at_fpr_0_05": 0.996,
                "optimal_threshold_f1": 0.5,
                "optimal_threshold_acc": 0.5,
                "aupr": 0.9986840858957649
            },
            {
                "n_total": 500,
                "auroc": 0.997568,
                "accuracy": 0.91,
                "f1": 0.9010989010989011,
                "tpr_at_fpr_0_05": 0.996,
                "optimal_threshold_f1": 0.5,
                "optimal_threshold_acc": 0.5,
                "aupr": 0.9978862007860649
            },
            {
                "n_total": 500,
                "auroc": 0.9975999999999999,
                "accuracy": 0.918,
                "f1": 0.9106753812636166,
                "tpr_at_fpr_0_05": 0.992,
                "optimal_threshold_f1": 0.5,
                "optimal_threshold_acc": 0.5,
                "aupr": 0.9979120803113575
            },
            {
                "n_total": 500,
                "auroc": 0.997088,
                "accuracy": 0.922,
                "f1": 0.9154013015184381,
                "tpr_at_fpr_0_05": 0.988,
                "optimal_threshold_f1": 0.5,
                "optimal_threshold_acc": 0.5,
                "aupr": 0.9973556640338811
            },
            {
                "n_total": 500,
                "auroc": 0.993552,
                "accuracy": 0.846,
                "f1": 0.817966903073286,
                "tpr_at_fpr_0_05": 0.988,
                "optimal_threshold_f1": 0.5,
                "optimal_threshold_acc": 0.5,
                "aupr": 0.9949988833296481
            }
        ],
        "mean_projection_metrics": {
            "n_total": 500,
            "auroc": 0.999312,
            "accuracy": 0.944,
            "f1": 0.940677966101695,
            "tpr_at_fpr_0_05": 0.996,
            "optimal_threshold_f1": 0.5,
            "optimal_threshold_acc": 0.5,
            "aupr": 0.9993754255881466
        },
        "weighted_projection_metrics": {
            "n_total": 500,
            "auroc": 0.999296,
            "accuracy": 0.944,
            "f1": 0.940677966101695,
            "tpr_at_fpr_0_05": 0.996,
            "optimal_threshold_f1": 0.5,
            "optimal_threshold_acc": 0.5,
            "aupr": 0.999366674834047
        },
        "scores": {
            "mean_projection": [
                -7.771709944063988,
                3.4140283985789366,
                -8.676311624739078,
                -6.8137696573931565,
                7.456071519876543,
                2.727356260591743,
                -9.959461059753917,
                -10.327800696572236,
                5.17862032909146,
                -4.888066907660505,
                -11.655768087983395,
                9.797369194066881,
                -8.9539353386891,
                -1.3107468380522664,
                0.8067510522637318,
                -8.776049186999273,
                3.261903185150035,
                -7.948440795272595,
                -7.760620648983623,
                2.2869354347459834,
                -10.306385763764933,
                10.618040605760621,
                5.507559080843788,
                -4.162925030191588,
                4.665879239082824,
                -7.5843155730204375,
                3.472645521974547,
                -7.710157009814633,
                -8.491157636493538,
                -5.446140556351985,
                5.037765209611324,
                7.080018120503583,
                1.4898534208177383,
                5.2384091374315345,
                -5.610706027885802,
                7.145985187244691,
                1.5935628624804214,
                7.770007160679294,
                4.929886743038405,
                8.512492382510773,
                -1.5814276890685992,
                -10.299884246292935,
                1.4763550484644532,
                -7.0529286125094295,
                -5.213344359889784,
                -9.73928282028636,
                -8.618466159570296,
                7.8312826149705845,
                4.229800196859856,
                -2.5572912858016323,
                7.189070075951344,
                -4.521863334768761,
                2.7708079522108893,
                7.32337972878538,
                -10.627307378300035,
                5.61324573790529,
                -8.889379984061605,
                -7.180087404962032,
                3.0523533262495244,
                3.4928861365336776,
                -10.59250460623086,
                -8.120761710266045,
                -8.002005317869914,
                -4.900398099255822,
                -8.290213078859622,
                -9.52107509472665,
                -7.363979117857912,
                7.960753308789656,
                -10.18281759713271,
                -6.896660134026645,
                -7.791608346562725,
                10.752192704130477,
                7.688027366790967,
                5.951736952121979,
                -4.65090442868637,
                -8.125980379230933,
                -9.36559400167617,
                -10.22169760947491,
                2.7256127979246623,
                -10.801598618555595,
                5.951736952121979,
                -0.5658298512086001,
                -8.026779437579522,
                -7.078233025319641,
                7.186009214850877,
                7.371529325773201,
                -7.216197759566867,
                -1.169608501104179,
                3.1704390851354742,
                -6.15003741961381,
                7.863681931728615,
                9.704492708331262,
                -6.155738298715669,
                -6.218650620112566,
                9.676083301028765,
                -6.175948750769194,
                5.3140792068207094,
                2.454467819615308,
                -7.837868011127334,
                3.4754478741721533,
                1.3011384659019967,
                -5.823192870093376,
                -9.065378716372823,
                4.472338133992241,
                2.621452986011966,
                -8.639605546003564,
                2.574823477655657,
                -4.471163543652391,
                1.2218201203232912,
                -7.531804166996306,
                11.845106895850606,
                -9.720548381408673,
                -7.94670016449905,
                -8.96557238854679,
                -7.420907394240159,
                -0.10905935270939536,
                -7.240094078315073,
                -9.657893092691998,
                -7.811244820604598,
                -5.060439427180298,
                -7.3180201234475195,
                6.3062755711364264,
                -6.943442116441797,
                -2.369855857054622,
                5.179442466380965,
                0.20536775488094675,
                11.183231109729945,
                5.477909067046576,
                5.413361498845035,
                -7.959860838529804,
                6.901730712269393,
                -7.845176990038052,
                -9.979168152225098,
                3.91408726876426,
                5.035920284532276,
                -8.291919490508194,
                9.213556944340885,
                -6.641767947243333,
                9.565053910963371,
                -9.146434070872562,
                5.640059175399514,
                -7.1039058390708005,
                9.80941792530042,
                -8.916122537091269,
                -10.126987769517573,
                -6.295810304221821,
                -8.38229103421717,
                -5.533680410001195,
                -9.87942665620503,
                -7.176191473715435,
                7.20790271198256,
                -8.377094597313837,
                2.651331753284208,
                3.2220835440527194,
                -5.571363474388696,
                6.405426569348784,
                9.482526039617529,
                5.38327698395303,
                4.83712369501428,
                9.498133107424607,
                -11.560194273628728,
                8.105838064746086,
                1.4594422186047102,
                -7.127940336619809,
                7.519397618510047,
                4.869629020737985,
                3.3189882581511645,
                4.331915186531855,
                -5.968204310877376,
                3.840271353048101,
                -0.43277040173087844,
                -6.91985339311747,
                2.945770515752266,
                5.271176683073988,
                0.04741247942699119,
                1.4955103761027946,
                -6.604406537785467,
                5.003384083656098,
                7.727562224745581,
                -10.728683492896018,
                2.3847055515285924,
                4.21563127090094,
                -8.897579330284682,
                -4.923260071604952,
                -8.064283105844444,
                1.6125852348590894,
                5.542953157729602,
                0.8476440265162741,
                5.507214953255455,
                -9.022755731133495,
                -7.389665419919141,
                -8.726951149196184,
                -12.572032756599157,
                -11.076919166913719,
                5.342701474773466,
                10.147079525560407,
                6.777002198879942,
                -7.973015805056018,
                -6.495197595943348,
                -7.20678654514098,
                2.880885874991111,
                2.9431475968203262,
                -7.202681689428182,
                6.172169311666338,
                -9.739449702273042,
                4.392806231586193,
                -8.042036522268472,
                3.0996770783815815,
                2.3142691699076976,
                -11.559476148667006,
                -9.487035664548237,
                -0.8457691436247721,
                11.419335038747874,
                -8.434470300306806,
                5.7245568767469255,
                -8.669023346596038,
                -6.6273714927526575,
                -10.438734353658939,
                -6.538566516475737,
                -9.120881982345503,
                4.978969916544173,
                -2.6906739013010457,
                9.914775043167323,
                -8.03407220799693,
                -4.966835242160292,
                3.9082519055011806,
                3.558914729280837,
                -6.190876716779855,
                -9.39891118237915,
                4.193060613141527,
                4.711053388552631,
                -1.2177233662251776,
                -8.802828162648796,
                -10.784728710074338,
                4.193495399782599,
                4.0017054291554235,
                -8.899067379327052,
                10.369148370030334,
                -9.879494060170744,
                -4.9182397887553835,
                -6.834090942174424,
                11.088532402131763,
                7.308425240941061,
                -11.518176958777108,
                9.176786585452756,
                1.1299773157458952,
                -10.810628065170558,
                6.071347220573053,
                4.5543879604746165,
                -8.607676901039046,
                4.131868097734418,
                -8.26462835558133,
                -7.145438042892036,
                9.22988770569454,
                7.2828263031738345,
                -4.516886998113778,
                -8.778847312608448,
                -9.524215810489864,
                4.9575782720973445,
                -7.818107389287396,
                5.708443813692008,
                -6.502678690941066,
                -0.7034817593208362,
                -1.2105634565005141,
                8.802156194724157,
                -7.4366681378064,
                -9.475471232767944,
                6.114191635680252,
                -7.798376928796665,
                -9.700614478345637,
                7.8480888117587675,
                -5.6226951606833,
                3.8899155551676885,
                -12.698894251592645,
                -6.483678887619138,
                7.533870575121015,
                -9.902319788338268,
                -6.643314736414078,
                -6.079342937880822,
                -8.463492333819406,
                3.718373180550225,
                -8.693412894079799,
                -8.323483975980386,
                7.488468152412727,
                -6.605180327207331,
                9.221439994205506,
                -4.947636697540631,
                0.0007105668654947416,
                -4.039646198178793,
                -8.608957339906402,
                4.894140522233466,
                -8.550725580060226,
                7.004048746890647,
                2.659251876430454,
                0.9369377373551561,
                -9.02837390604614,
                -9.807249405608305,
                6.311412459288634,
                -9.300534294314152,
                4.780397352464764,
                -9.7649594926814,
                -7.3101856968618275,
                3.993433971532256,
                -8.98033788197447,
                -8.300974837941764,
                -14.450278149640349,
                4.413117881378055,
                0.5762707740137789,
                2.7878293255099034,
                4.5768918967092285,
                5.371420645353168,
                0.3004090778380758,
                -8.987203112921685,
                1.7797814591149805,
                -9.309502396469128,
                7.487230896971465,
                -0.6420097579443819,
                -0.5606832245217814,
                -10.227409925564597,
                -6.177624133468399,
                4.266220320712775,
                -9.42930556492423,
                -11.411847559496819,
                -9.446080467361712,
                -6.834615120729194,
                -9.934438941049686,
                -2.715008986113708,
                -7.999150670653359,
                4.132929906202541,
                -7.562278150534436,
                2.2355740250489533,
                3.8324373181797395,
                -8.939138318872084,
                3.718924103901262,
                8.364865056386622,
                -5.814041397945617,
                3.9258422539597384,
                -4.046521796592046,
                4.272234882519295,
                11.504340027986835,
                4.510263562727283,
                -8.04401771777092,
                3.4338517685836534,
                4.9326022540660786,
                8.038013426511306,
                -2.2716844243278858,
                11.455403302899725,
                -9.432121265786725,
                -9.010789887661685,
                -7.011856104539049,
                -4.9133299308971665,
                -12.255137371554339,
                4.378170283991659,
                -2.8262712171602806,
                10.221028483858229,
                -5.481285565617576,
                -8.732146201337441,
                6.351729091896224,
                2.8629935352726226,
                5.779093849454668,
                -6.2763938787998175,
                0.7826869380541385,
                -5.713656047345361,
                7.147470570998582,
                2.040414516401368,
                -6.690468485920894,
                -6.987745055941957,
                4.730785390436832,
                -8.423036068047804,
                -8.906855260228298,
                -7.39972812539412,
                2.939784961974184,
                2.3515987268796286,
                -5.029082163883462,
                9.410248091974545,
                0.24051623849929368,
                -2.4454363982336504,
                -6.540645072366214,
                -7.799451246809128,
                -8.207904262651407,
                6.970338088831961,
                6.562036066512083,
                -6.6367621597623225,
                -9.296610950676275,
                -5.72798442897745,
                4.375695143672077,
                6.7803253556618,
                4.981644608907094,
                -5.855102898398879,
                -4.557701858171699,
                -11.403924080624442,
                1.0285421861826052,
                3.3407541602537214,
                -8.8716582212277,
                3.0536694998344522,
                7.702419157790747,
                2.7431908369100846,
                -7.107036565241162,
                16.45453951651121,
                4.71599311582982,
                -1.9942870329461337,
                -8.018474326729091,
                -11.394754870980858,
                -7.4100084038975655,
                -7.3294712691228865,
                -8.511954460354636,
                -10.227082217156234,
                6.305356126340723,
                2.3405979016221785,
                2.4127066004619957,
                3.693324778147499,
                3.852185775836765,
                -9.588905753567365,
                11.088343952486532,
                1.003774666318847,
                6.900362122674405,
                -6.33675587653339,
                -8.164562577823597,
                -8.543787856536524,
                -9.955411683299682,
                5.392630832209814,
                4.3680625388200145,
                -6.163204231672543,
                0.3815142950274,
                3.9860984006257567,
                -15.664240256089077,
                -6.442497308508043,
                -11.157584860830102,
                -10.48945984492322,
                4.158027824596469,
                -5.6516434655067105,
                -9.761105549679286,
                4.3995561069856866,
                10.13143808554882,
                4.783206249614561,
                -5.937271296952922,
                1.4098932639549238,
                -6.639754597871666,
                3.3435149295702264,
                -9.099146443201521,
                -9.979925738717265,
                -8.354621311174771,
                -8.030444919829845,
                3.675149061117332,
                5.237698282775875,
                -8.712667462892671,
                1.5826740701578705,
                -9.641086826291707,
                -6.859384361352534,
                6.595115354012013,
                -2.3868645578011964,
                -10.35463906200565,
                1.82589963699392,
                -8.376931324973953,
                5.510535242755984,
                2.9209547649539824,
                -9.621833628658672,
                3.7654738938319894,
                -1.1483451933560798,
                4.862513710293052,
                -6.011752866166779,
                -8.866756449538071,
                4.277873383425804,
                6.670169426311961,
                5.11258856802445,
                -6.8393585671741235,
                -9.63634044307097,
                -5.47805067300123,
                0.9299934672178187,
                0.4990636043215792,
                -10.39665310795868,
                8.584828264808275,
                -9.373530344957732,
                -6.756033743540071,
                -6.847296880719524,
                -9.125390938084053,
                2.636920894814016,
                11.569644456162363,
                4.830567282155181,
                3.708395571775237,
                -10.421785857936133,
                -9.84925543493871,
                -6.3729853394041935,
                5.249295330684703,
                9.70386390805479,
                -9.616921567986465,
                -9.723842122553783,
                -6.9283730900332765,
                -10.311268158726023,
                -5.567608977315258,
                -10.730410390831564,
                4.4931971261350165,
                -1.663637856451999,
                11.475844889165947,
                -11.299046749420931,
                1.5874313386051764,
                4.245532859223048,
                -9.021214772275611,
                -7.547753026640207,
                5.256990247513117
            ],
            "weighted_projection": [
                -7.895609202402089,
                3.4105618527653903,
                -8.898365201639413,
                -6.976537081718654,
                7.576901901327305,
                2.718320198291984,
                -9.612194550670027,
                -10.466739461177824,
                5.223905626656263,
                -5.027117779151391,
                -11.379317692074048,
                9.934916252287875,
                -9.168561138139372,
                -1.3920570283692983,
                1.4473251602278197,
                -8.524659261641684,
                3.2699036918623654,
                -8.125256342353161,
                -7.976482206093535,
                2.2587699644840638,
                -10.535613073358805,
                10.76302566836566,
                5.576024385563285,
                -4.306572322568553,
                4.690986904685661,
                -7.7766214259900535,
                3.499624935559251,
                -7.912046531023694,
                -8.716060861387808,
                -5.60567534362954,
                5.084380520367902,
                7.165082500362644,
                1.4434681454952392,
                5.3070804981397455,
                -5.770984219800619,
                7.255849335041342,
                1.56421841168331,
                7.854731021529065,
                4.965885113268673,
                8.641769580930774,
                -1.5574920987314518,
                -10.559924673153178,
                1.4651930530971295,
                -7.234709055922262,
                -5.349728695990418,
                -9.965131859800872,
                -8.235273685338855,
                7.921592058188935,
                4.241219768303966,
                -2.058568354174664,
                7.273836656849648,
                -4.648014342445705,
                2.775732506281441,
                7.400242776086213,
                -10.88489658836647,
                5.68222345618207,
                -9.02810640160607,
                -6.930459805550308,
                3.1607921144446656,
                3.503828874717008,
                -10.253246769886145,
                -8.338971858178246,
                -8.21687301978026,
                -5.030446951465469,
                -8.522005015537095,
                -9.763195844956343,
                -7.561748583603928,
                8.060396555573208,
                -10.00777046470904,
                -7.091959595626666,
                -7.983306956994026,
                10.909175837585169,
                7.779111038109434,
                6.034190012570377,
                -4.779412390413745,
                -8.346408004038443,
                -9.608247620296579,
                -10.47309073435768,
                2.727056850367632,
                -11.078089605985026,
                6.034190012570377,
                -0.6237029760820321,
                -8.231247481256933,
                -7.271215307890833,
                7.260103936303393,
                7.5113280221754986,
                -7.423902544786961,
                -1.2440145896010735,
                3.1684650199658613,
                -6.309974849941804,
                7.953021625944017,
                9.843121389493637,
                -6.305677385855736,
                -6.29639613075413,
                9.824770802973147,
                -6.35397357039522,
                5.395414856571239,
                2.4427823868492196,
                -8.03455798994389,
                3.4939029522392118,
                1.282262317676671,
                -6.000790015822601,
                -9.188506621153397,
                4.504043159388804,
                2.6141572932719095,
                -8.86830171881678,
                2.597041612612172,
                -4.6065051847564895,
                1.1870699057521608,
                -7.737724722645426,
                12.018102538349499,
                -9.923272646800019,
                -8.15872756722922,
                -9.191079608808602,
                -7.541648397408444,
                -0.15324385621995695,
                -7.402746348890572,
                -9.43254080134051,
                -8.017561831321732,
                -5.208982934021375,
                -7.499981197212051,
                6.363308632980229,
                -7.137955564819921,
                -2.4677954808440212,
                5.228317811741309,
                0.15570411161536818,
                11.359043110945363,
                5.528626806942347,
                5.491644802344075,
                -8.171959559151762,
                7.023485215732313,
                -8.03987815223589,
                -10.212843482819244,
                3.941994195176038,
                5.079948644928408,
                -8.490640120105862,
                9.333167470465732,
                -6.817082409208278,
                9.69119678570321,
                -9.260372931879688,
                5.689673837695503,
                -7.2964543932014765,
                9.948671606748697,
                -9.029905264212717,
                -10.276260543652796,
                -5.810288635634129,
                -8.60608322781368,
                -5.4242497848719085,
                -10.138187172672524,
                -7.3755159402193815,
                7.298187457803055,
                -8.122943006376508,
                2.6415628846595673,
                3.256525450405246,
                -5.7306710017723645,
                6.478355877318461,
                9.606512434383445,
                5.418749890959441,
                4.87915467776298,
                9.64128561787847,
                -11.340320726277271,
                8.211765456700155,
                1.436223663424591,
                -7.304758867182341,
                7.5997921125496335,
                4.9307405742389525,
                3.335445854730967,
                4.340556391575106,
                -6.143190586468712,
                3.903064511111341,
                -0.4928808808747638,
                -7.088740100035073,
                2.9516962281346797,
                5.320125877183649,
                -0.01983887982833142,
                1.4565775201030209,
                -6.793767964714248,
                5.041642482531321,
                7.841867851183083,
                -10.391657386898807,
                2.483840836059609,
                4.240511047168214,
                -9.125386981720604,
                -5.082537771419684,
                -8.259317549191854,
                1.6152905146338745,
                5.617671703297812,
                0.8272624201898832,
                5.5726095021402955,
                -9.264105213651344,
                -7.582425650424065,
                -8.961070595027644,
                -12.311050980621612,
                -10.256783623150572,
                5.440460143432404,
                10.29888575862914,
                6.8506498629781865,
                -8.170143211878825,
                -6.6834284838819,
                -7.390347207354739,
                2.8708071981006076,
                2.9327338928460915,
                -7.377078157319541,
                6.264004602750692,
                -9.849829312343255,
                4.413256300480381,
                -8.253290801056252,
                3.089081781331032,
                2.3033309087601084,
                -11.404565683512109,
                -9.70791292687616,
                -0.9040347818622823,
                11.588215486340864,
                -8.546823026643887,
                5.774728236109688,
                -8.288717202758363,
                -6.514340440884274,
                -10.185647927231162,
                -6.720059903574885,
                -9.341088619203948,
                5.020562922265159,
                -2.7864784217173293,
                10.059512176028651,
                -7.628640995954099,
                -5.097174022081761,
                3.935931692342956,
                3.581324707112039,
                -6.364521262457012,
                -9.648142444240053,
                4.332033403631622,
                4.7500890604762995,
                -1.3112159437881687,
                -9.026843754107457,
                -11.044458063887795,
                4.212401427771783,
                4.00728957829327,
                -9.120137171433647,
                10.515476172269514,
                -9.509962252277008,
                -4.620316596441716,
                -7.036169908764778,
                11.264793207693327,
                7.436253370864793,
                -11.806173726724257,
                9.2981693479214,
                1.0887796528996772,
                -10.441466621134873,
                6.123700132130604,
                4.58896844501266,
                -8.220317553633627,
                4.155776850546588,
                -8.486449356838323,
                -7.350657610006633,
                9.381008261933713,
                7.362098351226331,
                -4.651059465416117,
                -9.009383420906968,
                -9.686071334637969,
                5.0342292645432805,
                -7.907147346975673,
                5.762135819349538,
                -6.685504010061795,
                -0.7389202299168904,
                -1.266547964371168,
                8.935758823504267,
                -7.634764712869695,
                -9.615552531703173,
                6.225350542791981,
                -8.00052994661013,
                -9.825485567014052,
                7.945150626634208,
                -5.77859750544426,
                3.905807709498423,
                -11.934642892914503,
                -6.274883779708311,
                7.621238220421595,
                -10.144819913339072,
                -6.8180949986709845,
                -6.255840157952304,
                -8.68184865234685,
                3.726498951349775,
                -8.918394161982746,
                -7.984870945132726,
                7.5833214310423145,
                -6.76836685449503,
                9.334904581949944,
                -5.105883443941436,
                -0.02294141934093724,
                -4.168303290860292,
                -8.841971355069756,
                4.925672542598381,
                -8.778288713498354,
                7.074165938595273,
                2.6627924646407646,
                0.9231893772463928,
                -9.1621354953003,
                -10.042742127579894,
                6.4261214319254565,
                -9.426024018882474,
                4.831457887187675,
                -9.876506251475975,
                -7.513932821385001,
                4.0172679137352665,
                -9.199034562161506,
                -8.51995613307811,
                -13.680100301125968,
                4.43620637080572,
                0.5531215225610454,
                2.7773696676227764,
                4.591778371515244,
                5.4301780291027,
                0.2630393743311133,
                -9.201906755287549,
                1.745048664012061,
                -9.082858135230472,
                7.574179781893325,
                -0.725443149464033,
                -0.6205743085718071,
                -10.485029556977628,
                -6.134735776493383,
                4.299936616948659,
                -9.05412352934179,
                -11.685184231423506,
                -9.591491269835922,
                -7.030932584018047,
                -10.189681508294465,
                -2.771507329795145,
                -8.170094140604181,
                4.146923072693478,
                -7.770269811076661,
                2.2441709607825358,
                3.8548576106759507,
                -9.040627244010874,
                3.7235401597962015,
                8.487734693344125,
                -5.976712848080371,
                3.9631116105658513,
                -4.198488957619782,
                4.289238256037431,
                11.681318331460783,
                4.547601283665504,
                -8.271022807688167,
                3.4619381021447295,
                4.968826890276699,
                8.144394333688464,
                -2.355561431518437,
                11.627412386888262,
                -9.629955108468607,
                -9.245870483069144,
                -7.206388734196028,
                -4.78589462193644,
                -12.553573978006531,
                4.438271726808649,
                -2.935593211474229,
                10.386502759528751,
                -5.623228726247089,
                -8.957076506602865,
                6.4242883785002505,
                2.8421839041726975,
                5.83362554949657,
                -6.438026885965988,
                0.7673335672282567,
                -5.875729237650687,
                7.236775105302853,
                2.0133251851382417,
                -6.872307184820567,
                -7.100890032809334,
                4.797220173929149,
                -8.527842753997268,
                -9.123523869032732,
                -6.9845445124166945,
                3.0265176247382963,
                2.3614607134584467,
                -5.185552854789628,
                9.539870181055532,
                0.18852924857443681,
                -1.959860903689728,
                -6.7268220372597725,
                -8.003515498183589,
                -8.421021909090136,
                7.039150211883083,
                6.627212751956629,
                -6.79857941438678,
                -9.528807113332983,
                -5.893848817501323,
                4.402005695246909,
                6.84954321096776,
                5.016157480792638,
                -6.024099671390302,
                -4.658076644697159,
                -11.070264213955268,
                0.9854970796031358,
                3.328318823860475,
                -9.08785755455296,
                3.0553933708016245,
                7.80196244559868,
                2.734681676517366,
                -7.289399845147739,
                16.72563859033309,
                4.7375426208073765,
                -1.5941727471039544,
                -8.229075112265134,
                -11.099698589815329,
                -7.622045496616234,
                -7.440989717554876,
                -8.727750041440485,
                -10.478310723473472,
                6.394858929920712,
                2.339599620755583,
                2.389982590997106,
                3.7369798290061276,
                3.8626800008098843,
                -9.825854955448568,
                11.281239020369634,
                1.0094337505536959,
                7.0119172216331,
                -6.519028560527701,
                -8.365997868520665,
                -8.067766977151106,
                -10.184467925832637,
                5.446152057774629,
                4.3912862960904,
                -6.3239087512421355,
                0.3329787782317123,
                3.9916960495801956,
                -14.930743464200898,
                -6.621593837606587,
                -10.810968358381267,
                -10.146773836449329,
                4.197748705008064,
                -5.825057613698631,
                -9.92300365851187,
                4.442638883051516,
                10.298409000085814,
                4.822627922532803,
                -6.06573526225243,
                1.3828050122897302,
                -6.787739443156437,
                3.3589457796162083,
                -9.200132540595035,
                -10.206327498824209,
                -8.43758642369513,
                -8.168287233647536,
                3.6914133637478983,
                5.300257279187732,
                -8.936969199126148,
                1.5536035383974232,
                -9.896559687745775,
                -7.070628522366031,
                6.67605139830461,
                -1.872627296650783,
                -10.601091934699994,
                1.8417845443636132,
                -7.972049686991084,
                5.598762082322368,
                2.922250258183464,
                -9.86181770052816,
                3.7816406610814823,
                -1.2120868960023574,
                4.89158442846341,
                -5.6008854818074845,
                -9.098543094772891,
                4.343207655160988,
                6.743931302339703,
                5.160233871540563,
                -7.032836425129769,
                -9.75686448787324,
                -5.620082947028678,
                0.8856329254957488,
                0.44330383117597466,
                -10.649415045120213,
                8.736698794547488,
                -9.601379072515616,
                -6.590869856716839,
                -7.0152873355828955,
                -9.344451164380978,
                2.632158233032167,
                11.746700274318744,
                4.866552140684837,
                3.748319122370547,
                -10.675228847152248,
                -10.078363911415211,
                -6.555521195883975,
                5.323235875536053,
                9.842950225522507,
                -9.84609820721083,
                -9.964084839586604,
                -7.108809863273437,
                -10.542181856280587,
                -5.721706844816114,
                -10.979247003231077,
                4.56213104498991,
                -1.743495435717182,
                11.644908391521358,
                -10.891358230063457,
                1.5636622438388865,
                4.2684025271611254,
                -9.167691422750352,
                -7.741826124455281,
                5.305558767628697
            ]
        }
    }
}