{
    "args": {
        "model": "llama_8b",
        "dataset": "drlDomain_writing_prompt",
        "token_mode": "last_token",
        "ood": false,
        "smoke_test": false,
        "components": 50,
        "mode": "pca",
        "model_name": "llama_8b",
        "target_dataset": "drlDomain_writing_prompt",
        "datetime": "2026-05-07 10:42:56"
    },
    "test_metrics": {
        "test_metrics_by_layer": [
            {
                "n_total": 500,
                "auroc": 0.7144159999999999,
                "accuracy": 0.698,
                "f1": 0.765891472868217,
                "tpr_at_fpr_0_05": 0.024,
                "optimal_threshold_f1": 0.5,
                "optimal_threshold_acc": 0.5,
                "aupr": 0.6401842030303017
            },
            {
                "n_total": 500,
                "auroc": 0.9884160000000001,
                "accuracy": 0.886,
                "f1": 0.896551724137931,
                "tpr_at_fpr_0_05": 0.98,
                "optimal_threshold_f1": 0.5,
                "optimal_threshold_acc": 0.5,
                "aupr": 0.9923339754791085
            },
            {
                "n_total": 500,
                "auroc": 0.985472,
                "accuracy": 0.946,
                "f1": 0.9471624266144814,
                "tpr_at_fpr_0_05": 0.936,
                "optimal_threshold_f1": 0.5,
                "optimal_threshold_acc": 0.5,
                "aupr": 0.9884886563727256
            },
            {
                "n_total": 500,
                "auroc": 0.990864,
                "accuracy": 0.894,
                "f1": 0.903107861060329,
                "tpr_at_fpr_0_05": 0.972,
                "optimal_threshold_f1": 0.5,
                "optimal_threshold_acc": 0.5,
                "aupr": 0.993096854955532
            },
            {
                "n_total": 500,
                "auroc": 0.998,
                "accuracy": 0.972,
                "f1": 0.9715447154471545,
                "tpr_at_fpr_0_05": 0.988,
                "optimal_threshold_f1": 0.5,
                "optimal_threshold_acc": 0.5,
                "aupr": 0.9981284928448267
            },
            {
                "n_total": 500,
                "auroc": 0.996448,
                "accuracy": 0.946,
                "f1": 0.9429175475687104,
                "tpr_at_fpr_0_05": 0.984,
                "optimal_threshold_f1": 0.5,
                "optimal_threshold_acc": 0.5,
                "aupr": 0.996905944242295
            },
            {
                "n_total": 500,
                "auroc": 0.993632,
                "accuracy": 0.944,
                "f1": 0.9409282700421941,
                "tpr_at_fpr_0_05": 0.96,
                "optimal_threshold_f1": 0.5,
                "optimal_threshold_acc": 0.5,
                "aupr": 0.9941340302128895
            },
            {
                "n_total": 500,
                "auroc": 0.991472,
                "accuracy": 0.936,
                "f1": 0.9322033898305084,
                "tpr_at_fpr_0_05": 0.96,
                "optimal_threshold_f1": 0.5,
                "optimal_threshold_acc": 0.5,
                "aupr": 0.992380266706697
            },
            {
                "n_total": 500,
                "auroc": 0.993488,
                "accuracy": 0.948,
                "f1": 0.9456066945606695,
                "tpr_at_fpr_0_05": 0.976,
                "optimal_threshold_f1": 0.5,
                "optimal_threshold_acc": 0.5,
                "aupr": 0.9939175744262457
            },
            {
                "n_total": 500,
                "auroc": 0.991344,
                "accuracy": 0.954,
                "f1": 0.9521829521829522,
                "tpr_at_fpr_0_05": 0.952,
                "optimal_threshold_f1": 0.5,
                "optimal_threshold_acc": 0.5,
                "aupr": 0.9924985508535508
            },
            {
                "n_total": 500,
                "auroc": 0.9987520000000001,
                "accuracy": 0.968,
                "f1": 0.9670781893004116,
                "tpr_at_fpr_0_05": 0.996,
                "optimal_threshold_f1": 0.5,
                "optimal_threshold_acc": 0.5,
                "aupr": 0.9987638058357917
            },
            {
                "n_total": 500,
                "auroc": 0.998224,
                "accuracy": 0.968,
                "f1": 0.9669421487603306,
                "tpr_at_fpr_0_05": 0.988,
                "optimal_threshold_f1": 0.5,
                "optimal_threshold_acc": 0.5,
                "aupr": 0.9983794768727486
            },
            {
                "n_total": 500,
                "auroc": 0.99904,
                "accuracy": 0.968,
                "f1": 0.9669421487603306,
                "tpr_at_fpr_0_05": 0.996,
                "optimal_threshold_f1": 0.5,
                "optimal_threshold_acc": 0.5,
                "aupr": 0.9990786881668776
            },
            {
                "n_total": 500,
                "auroc": 0.998912,
                "accuracy": 0.972,
                "f1": 0.9711934156378601,
                "tpr_at_fpr_0_05": 0.992,
                "optimal_threshold_f1": 0.5,
                "optimal_threshold_acc": 0.5,
                "aupr": 0.9989460069839275
            },
            {
                "n_total": 500,
                "auroc": 0.99912,
                "accuracy": 0.976,
                "f1": 0.9755102040816327,
                "tpr_at_fpr_0_05": 1.0,
                "optimal_threshold_f1": 0.5,
                "optimal_threshold_acc": 0.5,
                "aupr": 0.9991307617724462
            },
            {
                "n_total": 500,
                "auroc": 0.998672,
                "accuracy": 0.976,
                "f1": 0.975609756097561,
                "tpr_at_fpr_0_05": 0.996,
                "optimal_threshold_f1": 0.5,
                "optimal_threshold_acc": 0.5,
                "aupr": 0.9987450382437877
            },
            {
                "n_total": 500,
                "auroc": 0.999312,
                "accuracy": 0.98,
                "f1": 0.9796747967479674,
                "tpr_at_fpr_0_05": 1.0,
                "optimal_threshold_f1": 0.5,
                "optimal_threshold_acc": 0.5,
                "aupr": 0.9993095241512127
            },
            {
                "n_total": 500,
                "auroc": 0.999344,
                "accuracy": 0.988,
                "f1": 0.9879518072289156,
                "tpr_at_fpr_0_05": 0.996,
                "optimal_threshold_f1": 0.5,
                "optimal_threshold_acc": 0.5,
                "aupr": 0.9993567748575959
            },
            {
                "n_total": 500,
                "auroc": 0.999904,
                "accuracy": 0.988,
                "f1": 0.9878542510121457,
                "tpr_at_fpr_0_05": 1.0,
                "optimal_threshold_f1": 0.5,
                "optimal_threshold_acc": 0.5,
                "aupr": 0.9999049436169876
            },
            {
                "n_total": 500,
                "auroc": 0.9995999999999999,
                "accuracy": 0.984,
                "f1": 0.9838056680161943,
                "tpr_at_fpr_0_05": 1.0,
                "optimal_threshold_f1": 0.5,
                "optimal_threshold_acc": 0.5,
                "aupr": 0.9995994523528456
            },
            {
                "n_total": 500,
                "auroc": 0.999728,
                "accuracy": 0.988,
                "f1": 0.9878542510121457,
                "tpr_at_fpr_0_05": 1.0,
                "optimal_threshold_f1": 0.5,
                "optimal_threshold_acc": 0.5,
                "aupr": 0.9997304028311574
            },
            {
                "n_total": 500,
                "auroc": 0.999568,
                "accuracy": 0.986,
                "f1": 0.9858012170385395,
                "tpr_at_fpr_0_05": 1.0,
                "optimal_threshold_f1": 0.5,
                "optimal_threshold_acc": 0.5,
                "aupr": 0.9995772836982254
            },
            {
                "n_total": 500,
                "auroc": 0.999696,
                "accuracy": 0.988,
                "f1": 0.9878542510121457,
                "tpr_at_fpr_0_05": 1.0,
                "optimal_threshold_f1": 0.5,
                "optimal_threshold_acc": 0.5,
                "aupr": 0.9996991940779298
            },
            {
                "n_total": 500,
                "auroc": 0.999568,
                "accuracy": 0.984,
                "f1": 0.983739837398374,
                "tpr_at_fpr_0_05": 1.0,
                "optimal_threshold_f1": 0.5,
                "optimal_threshold_acc": 0.5,
                "aupr": 0.9995727086462783
            },
            {
                "n_total": 500,
                "auroc": 0.9997119999999999,
                "accuracy": 0.986,
                "f1": 0.9858012170385395,
                "tpr_at_fpr_0_05": 1.0,
                "optimal_threshold_f1": 0.5,
                "optimal_threshold_acc": 0.5,
                "aupr": 0.9997147910201237
            },
            {
                "n_total": 500,
                "auroc": 0.999664,
                "accuracy": 0.986,
                "f1": 0.9858012170385395,
                "tpr_at_fpr_0_05": 1.0,
                "optimal_threshold_f1": 0.5,
                "optimal_threshold_acc": 0.5,
                "aupr": 0.9996682003946045
            },
            {
                "n_total": 500,
                "auroc": 0.999744,
                "accuracy": 0.986,
                "f1": 0.9858012170385395,
                "tpr_at_fpr_0_05": 1.0,
                "optimal_threshold_f1": 0.5,
                "optimal_threshold_acc": 0.5,
                "aupr": 0.999748372628979
            },
            {
                "n_total": 500,
                "auroc": 0.9999359999999999,
                "accuracy": 0.99,
                "f1": 0.98989898989899,
                "tpr_at_fpr_0_05": 1.0,
                "optimal_threshold_f1": 0.5,
                "optimal_threshold_acc": 0.5,
                "aupr": 0.9999365691699604
            },
            {
                "n_total": 500,
                "auroc": 0.999872,
                "accuracy": 0.988,
                "f1": 0.9878542510121457,
                "tpr_at_fpr_0_05": 1.0,
                "optimal_threshold_f1": 0.5,
                "optimal_threshold_acc": 0.5,
                "aupr": 0.9998729420747694
            },
            {
                "n_total": 500,
                "auroc": 0.999568,
                "accuracy": 0.988,
                "f1": 0.9878542510121457,
                "tpr_at_fpr_0_05": 0.996,
                "optimal_threshold_f1": 0.5,
                "optimal_threshold_acc": 0.5,
                "aupr": 0.9995879154710228
            },
            {
                "n_total": 500,
                "auroc": 0.9996799999999999,
                "accuracy": 0.986,
                "f1": 0.9858012170385395,
                "tpr_at_fpr_0_05": 0.996,
                "optimal_threshold_f1": 0.5,
                "optimal_threshold_acc": 0.5,
                "aupr": 0.9996939658580413
            },
            {
                "n_total": 500,
                "auroc": 0.9996799999999999,
                "accuracy": 0.986,
                "f1": 0.9858012170385395,
                "tpr_at_fpr_0_05": 0.996,
                "optimal_threshold_f1": 0.5,
                "optimal_threshold_acc": 0.5,
                "aupr": 0.9996971250627738
            },
            {
                "n_total": 500,
                "auroc": 0.9994719999999999,
                "accuracy": 0.988,
                "f1": 0.9879032258064516,
                "tpr_at_fpr_0_05": 1.0,
                "optimal_threshold_f1": 0.5,
                "optimal_threshold_acc": 0.5,
                "aupr": 0.9994806641201333
            }
        ],
        "mean_projection_metrics": {
            "n_total": 500,
            "auroc": 0.999888,
            "accuracy": 0.988,
            "f1": 0.9878542510121457,
            "tpr_at_fpr_0_05": 1.0,
            "optimal_threshold_f1": 0.5,
            "optimal_threshold_acc": 0.5,
            "aupr": 0.9998895043704228
        },
        "weighted_projection_metrics": {
            "n_total": 500,
            "auroc": 0.99992,
            "accuracy": 0.988,
            "f1": 0.9878542510121457,
            "tpr_at_fpr_0_05": 1.0,
            "optimal_threshold_f1": 0.5,
            "optimal_threshold_acc": 0.5,
            "aupr": 0.9999205049129323
        },
        "scores": {
            "mean_projection": [
                -12.729565679077812,
                4.185000159278713,
                -9.340425662763117,
                -5.225092251787796,
                -8.89953590455497,
                7.240050065417231,
                6.1350587866638655,
                -11.1556415072682,
                -4.4582624203022405,
                6.862879596787093,
                -9.109656964743651,
                -12.396152223736962,
                10.78707231138205,
                13.536728523626936,
                -13.969276599720457,
                -4.430434588764711,
                5.026835170132503,
                6.809365779387562,
                8.728751327636335,
                -9.501507374811439,
                4.481364165279474,
                -9.842755185394577,
                10.101429669132564,
                -4.448100515233071,
                -4.147787395220563,
                -12.671228684303122,
                -9.122660838316028,
                -6.228466830590528,
                17.92563453491775,
                7.024918581656696,
                -10.230429534110236,
                7.729418214991357,
                6.24647659917133,
                4.280175044297215,
                10.793288000103026,
                -4.622427636401775,
                9.673122174734605,
                -12.095993378650693,
                -9.087385517464158,
                -3.514427599483172,
                10.84915035399637,
                -6.555837508070468,
                -4.8880935480617005,
                -10.106673309293035,
                2.26350221186276,
                -4.384226769459842,
                11.676259013588531,
                10.554627134649849,
                7.387501227552576,
                -6.315115133594872,
                13.309234479245077,
                -13.280091961354625,
                9.855530752374964,
                -12.646752227925285,
                -4.838862927699413,
                -12.940789649757653,
                6.6892866901469095,
                7.424189108719611,
                -14.211323176491522,
                4.0987881997671,
                -14.49522537345794,
                7.739331451843864,
                11.33328856300782,
                6.995595767291566,
                14.065057047036847,
                -8.697969053044444,
                -13.371471180130824,
                -6.154252787581159,
                -11.166512165265686,
                -4.47883325681983,
                -16.241211425008245,
                -1.18216908004582,
                14.66729788899385,
                -17.018887509243974,
                5.22391584842293,
                13.088547031647071,
                -3.8273301799935724,
                -2.5438971688610814,
                -5.614834590954979,
                9.399183919990406,
                -10.208923763622737,
                3.4773790974158985,
                6.45188552120332,
                10.920458383266046,
                -12.077998014235803,
                -11.257232009076834,
                5.30741639091707,
                -6.781969649161637,
                -6.00801441156338,
                -6.584509208259166,
                -4.327415648407735,
                10.481852512332889,
                5.491761990836192,
                12.854743000395304,
                2.2364124904705,
                10.092049716252445,
                -13.17077934406456,
                9.968107694701143,
                7.070604540443427,
                -5.173817038017348,
                -8.28459609844551,
                13.86581942996081,
                -8.837067875793771,
                -14.10902669755844,
                -6.505663379860376,
                -6.3503673294711165,
                8.820056181959087,
                3.3789864073744464,
                2.403723925635682,
                -4.7922886167270455,
                -7.265284294062667,
                -5.389123545192125,
                6.07954393043254,
                10.126347616409175,
                -5.303061302284041,
                -7.638704343697611,
                9.371553243406483,
                13.329633042804177,
                -5.693119750052107,
                -6.45946567209003,
                7.963068891743493,
                -0.046121468792921255,
                9.855668626121608,
                13.786114546453978,
                -12.940463082747986,
                11.293681101134801,
                -11.451873210385394,
                4.786884341775331,
                -10.84602466923509,
                4.861469038252934,
                -12.997457069610729,
                6.261941825304516,
                7.7179563263805875,
                4.8955101427861445,
                9.243689471319845,
                -4.948259400986116,
                12.734833028146596,
                9.446725434111595,
                -15.581256274931434,
                -12.69210163238224,
                -10.948047106158526,
                -6.0130625514089,
                8.011388906593753,
                -12.800631079899174,
                9.302162738026347,
                3.955180163049183,
                -13.844834251091607,
                -4.5775892983666555,
                8.177466109435036,
                -5.617347426442925,
                10.33891796027835,
                12.895866685687222,
                -8.666902337656046,
                -7.550559108089794,
                -9.169022514240488,
                6.85330551164262,
                12.383207456205758,
                2.657272089143995,
                11.563535386490358,
                -5.829621960992434,
                -6.8518124350872105,
                5.576151407979061,
                -9.950285849868818,
                -4.723134373350296,
                2.157454488822871,
                13.404277127441143,
                1.8038328622464592,
                5.692519724415357,
                -8.072262636972244,
                15.3001717010184,
                8.352324809385108,
                -7.742491179997739,
                1.0512507051032833,
                -9.367589162186011,
                -6.874210061253728,
                10.985487456079186,
                -7.053569779667238,
                11.975347440848983,
                -7.04826655575579,
                -12.817334166391097,
                12.15379813299341,
                9.953567191892825,
                5.956777853063708,
                -6.848989567257476,
                5.403865053198219,
                -11.395265938315971,
                9.313062848997637,
                12.79228597432802,
                5.632129735779911,
                10.369328583862439,
                16.79640919271647,
                14.022391637350028,
                10.141227197842571,
                -11.400308949217026,
                6.577471001291056,
                -7.161442541341294,
                2.5997593187183794,
                -9.373679808885838,
                -7.004965750279463,
                -7.098183524622967,
                -7.252360731815062,
                -7.920345928394025,
                0.6695640997299754,
                10.053973563227888,
                10.23305425629774,
                -6.5716635457860475,
                -11.292397099130145,
                9.94361813760383,
                6.454952483857042,
                -6.44689126732551,
                -13.184712159693422,
                7.994325753128392,
                -4.949757527552719,
                9.049058329555903,
                9.135132666141224,
                6.5835896993419665,
                8.245223120434586,
                -6.745599993120484,
                -6.57591064852848,
                -8.047288662129247,
                -14.012800223537345,
                -5.603790206952549,
                8.95566254110505,
                -6.349432758547333,
                -7.627220394858637,
                -9.34663313630402,
                10.283248517366369,
                12.238183023624888,
                -9.737921124078579,
                -7.552216254896347,
                10.367632660901833,
                9.309242352712376,
                -8.884620925052511,
                5.666563372708183,
                12.051968498760575,
                8.461668697493808,
                8.177466109435036,
                -4.312787686459091,
                6.892859261040212,
                -11.00303648609419,
                13.871727328030829,
                4.821317144894987,
                -9.405017591301812,
                10.022876872258488,
                -11.516195506783646,
                3.829936123728444,
                -4.735026733327278,
                -9.589711087008785,
                8.138289717447355,
                -16.032579135050042,
                -5.370001092864896,
                12.329419992589974,
                9.698229734712658,
                8.467303602468869,
                9.42193962865969,
                10.473910874679065,
                8.712070987669827,
                -12.347999301325773,
                -9.75087322338005,
                8.268810896320703,
                5.57613611852322,
                -8.05040560642999,
                11.035530936655126,
                -11.652128392230674,
                15.013568710258353,
                12.66243439203751,
                -8.012199280620289,
                -7.781796774304905,
                -6.199830049423197,
                -11.797282233058398,
                5.995881467395734,
                12.175713362484286,
                5.912488429867823,
                -5.70569123472205,
                -6.348195464605818,
                -3.938330446441236,
                8.05534659556981,
                4.878375284351034,
                9.989975138158826,
                5.591143533659179,
                13.934452031115867,
                6.261291921721821,
                -16.458380743910915,
                -6.346940527919133,
                -10.34252473879918,
                10.402364872766594,
                -4.640276269233766,
                9.601866006595966,
                -5.122578297678395,
                -12.925934229532771,
                12.423630208660553,
                9.834136608060748,
                -9.122084669272617,
                -0.9247953273129076,
                -12.370841337373625,
                -4.21241909499843,
                13.55862549000304,
                -6.106661048114219,
                -13.545651933011523,
                -2.8648781932778484,
                8.899156200166948,
                -6.434986501498648,
                -18.11937876610442,
                9.3782013529269,
                13.946021627810017,
                -12.482693965184554,
                8.177466109435036,
                7.462818090918631,
                -9.755315024011615,
                -7.999658473231569,
                -6.19199321452869,
                -4.798648967018358,
                -3.593326451106546,
                -11.925158655574602,
                -8.890996148895912,
                -11.956431138854244,
                -6.209168454853717,
                3.1236965699250243,
                14.065883544603059,
                -5.2611121157020335,
                -11.354013736967817,
                6.908602752793703,
                -9.801110127804208,
                -10.477714603476748,
                16.254952633062864,
                -4.571868159796416,
                1.3766170326763814,
                8.642947438429443,
                5.913862797961918,
                -8.766579268155972,
                7.1224275810932385,
                -15.866879394460108,
                8.260838883920112,
                -7.649881945289067,
                8.55789736097384,
                -9.768061780788377,
                6.05811258845419,
                9.227899123179368,
                7.804459375690867,
                5.028602838548381,
                -10.423133443064623,
                8.653942936851722,
                3.919974140168396,
                6.92144732453189,
                -9.902969399294157,
                -2.788249829076868,
                -9.630200385299043,
                -8.78460073831785,
                -9.431622880124147,
                -9.632474616854463,
                11.796701675928952,
                -6.1520020051020525,
                -10.993039092305404,
                16.054345483358812,
                -4.532344242588789,
                -6.099963191595007,
                -9.848163940065746,
                9.101385448401423,
                -7.644313132734056,
                1.8496554979470685,
                -4.710645258403191,
                -11.682137849852896,
                9.810332849585276,
                -7.22099093253271,
                13.272567634045101,
                7.7135127404247,
                -5.538112449718686,
                -11.963446144607078,
                3.4364678724494997,
                -9.004664828327856,
                12.959412386330829,
                9.198489946882177,
                -6.751252996753993,
                -11.47348877217121,
                -6.351432136857064,
                5.86305530117002,
                -9.161181809992177,
                6.080881113324238,
                -10.637396510739906,
                4.0015954199920225,
                -9.80336021328403,
                9.094895654355733,
                -1.9093101206360574,
                -9.28427776620148,
                -10.597905847515378,
                -7.711858593788186,
                10.977120151688522,
                -9.27209051658516,
                -10.987906257541562,
                13.595187561449734,
                -4.847951166780772,
                -9.111105159997704,
                16.451186033419862,
                -6.242606964858017,
                20.087397583468025,
                6.868974716135226,
                11.209439436570081,
                5.088519675553725,
                13.369742799743829,
                -7.574850515117999,
                -4.619321063809818,
                -4.9165527891876435,
                7.941541674749093,
                9.098435889983818,
                0.4036881303139934,
                -9.400838630789968,
                -9.476747501455725,
                9.306428589719362,
                9.468467324209243,
                -10.157359424857248,
                -6.231818479804998,
                3.9767060719987435,
                -11.344608597379493,
                -8.353249800968056,
                9.572083444563422,
                -5.525216290801027,
                7.139017988579141,
                -11.500712912916065,
                5.378873689844244,
                -6.57604680719094,
                -7.671538157057465,
                12.153555688037528,
                -10.440046718934461,
                -7.151035894994352,
                -2.8434334673841475,
                -10.851269225225112,
                -5.733105943909604,
                7.033662942883028,
                -14.848295833880437,
                9.20773607893781,
                4.671741806779187,
                12.063561472766272,
                -8.238490703147699,
                7.002519379424967,
                7.930070243044394,
                -11.892803513940914,
                13.476890800319186,
                -12.937217941664384,
                -9.862664436194596,
                -6.527730755311147,
                9.985575036885793,
                7.902078471893676,
                9.194666089518542,
                -5.876553423460127,
                -4.908273559486009,
                8.177466109435036,
                12.65560322086615,
                -4.731497212135571,
                0.28915429636680345,
                -14.062712296313155,
                4.386065179271079,
                9.323910845444694,
                -5.367853682194024,
                -5.430023096785277,
                8.706469781255446,
                14.404209002259176,
                -6.124846223258317,
                -7.076675614212894,
                8.788508434707904,
                6.077111648468086,
                -9.535305165212726,
                -2.0017489920855622,
                -8.017583740976397,
                7.898755356484449,
                6.155996846068699,
                13.751166431669883,
                -5.872993280651869,
                18.93655519838269,
                14.841155211662043,
                -8.109043646409578,
                -9.436489605191893,
                16.25500326208905,
                -5.606451951455028,
                -9.718095320681302,
                7.463436964635764,
                8.282446092212016,
                2.821986077645982,
                5.660673925407552,
                2.767610158203506,
                -8.404115071557339,
                13.95381521871026,
                11.758387185441434,
                13.890500280780559,
                8.80077515498113,
                9.328910537957722,
                9.24336420374914,
                8.177466109435036,
                7.081318635491529,
                -1.7589201483809858,
                6.045350694238051,
                -5.237729755592782,
                6.424610458174297,
                -2.8056373157747116,
                -5.6413844815022385,
                -9.510795165492363,
                10.53849543063125,
                -13.937225113584041,
                -10.385191290512955,
                -6.440690986337121,
                12.335482547081373
            ],
            "weighted_projection": [
                -12.388055736224876,
                4.163015820458171,
                -9.570926705263894,
                -5.387678913862547,
                -9.12329319496862,
                7.26566764735782,
                6.143890742242595,
                -11.415471214778927,
                -4.605367461608942,
                6.884395959684013,
                -9.333399460685962,
                -12.105620630268113,
                10.85973433021495,
                13.66264924109824,
                -13.776092652148241,
                -4.587662956853764,
                5.023282226570734,
                6.823118700162146,
                8.764998263636931,
                -9.737159316192084,
                4.46919796583055,
                -9.99555526919099,
                10.164010977033715,
                -4.246172488941729,
                -4.300869963870787,
                -12.45350973828998,
                -9.353042914647201,
                -6.411737330559583,
                18.093338434830414,
                7.040551151027361,
                -10.481585039336329,
                7.766201280697253,
                6.2511501736961375,
                3.888267241009654,
                10.867986923904708,
                -4.784621159809425,
                9.74090157124947,
                -11.725033054292593,
                -9.312485906859266,
                -3.6436985060040032,
                10.913235636744783,
                -6.737844624739363,
                -5.047150493225497,
                -9.857412397962566,
                2.212754944376566,
                -4.5381581046555,
                11.767154902892047,
                10.619346612507307,
                7.413901107052703,
                -6.500922747245577,
                13.416184695457625,
                -13.079837560312514,
                9.924866280166652,
                -12.425539134498441,
                -4.991644042237003,
                -12.729446282674555,
                6.7062786331594015,
                7.44826249107194,
                -13.944188297428074,
                4.077578518562014,
                -14.235849633425065,
                7.768440953821313,
                11.41241261098766,
                7.016083519946993,
                14.17000104956724,
                -8.916793410499725,
                -13.174335332424544,
                -6.33436085110086,
                -10.929088887686065,
                -4.632945418191583,
                -15.948243519585558,
                -1.2867185818246885,
                14.79176183724798,
                -16.739402523069632,
                5.211184157732513,
                13.197949004978756,
                -3.969178288093618,
                -2.667517657899108,
                -5.708207179222662,
                9.45632193456164,
                -9.953616592909158,
                3.4458384310784584,
                6.475284537529706,
                10.993922414216321,
                -11.855657255247014,
                -10.961755242855078,
                5.299655843163086,
                -6.965949824698681,
                -6.1854426654423955,
                -6.773166851949434,
                -4.040217141872551,
                10.539462860719878,
                5.488836891432301,
                12.953701086023749,
                2.1840416379086043,
                10.150150953844038,
                -12.96085909695969,
                10.016908142953712,
                7.09581325807304,
                -5.341055143873099,
                -8.496054735982625,
                13.990299646707573,
                -8.655678724524364,
                -13.913355665362785,
                -6.689598750176511,
                -6.160319538232166,
                8.870317817352722,
                3.351167823629419,
                2.357412211671704,
                -4.946485913700938,
                -7.46819940247316,
                -5.489215548621545,
                6.077417581824382,
                10.19379130374193,
                -5.472386511510019,
                -7.485837644465334,
                9.431719026977222,
                13.442793404250144,
                -5.875758877179413,
                -6.642590842553673,
                7.9960209688670165,
                0.23450754569545793,
                9.915927435659155,
                13.89106824830258,
                -12.731328613990698,
                11.380172943632495,
                -11.633930590117332,
                4.77819155691266,
                -11.097028367813982,
                4.8475607825120814,
                -12.789765188632494,
                6.274002247899719,
                7.758709845380333,
                4.879549911238542,
                9.290528193727196,
                -5.115619606099443,
                12.834879833685608,
                9.504776504603864,
                -15.319755550673426,
                -12.46699632106034,
                -11.20447844517114,
                -6.183140548715837,
                8.043376442079207,
                -12.83659722144483,
                9.361810538589431,
                3.9270632490519843,
                -13.646860821220114,
                -4.7323954953531,
                8.205446700188666,
                -5.786635702721508,
                10.404232918862638,
                12.996892501906165,
                -8.894527379858754,
                -7.74757612952718,
                -9.407422239393817,
                6.869573031309484,
                12.467290360176392,
                2.6225893546491976,
                11.64047956674937,
                -5.996079041698821,
                -7.041480126782098,
                5.568212342843358,
                -9.685273075438781,
                -4.879872828911356,
                2.1040679027142555,
                13.508593058473666,
                1.742378425410856,
                5.687729212615996,
                -8.281097051411487,
                15.433250211206238,
                8.381946849621965,
                -7.948586621245459,
                0.9833641228607817,
                -9.601649077086465,
                -7.064929305558623,
                11.064295580295592,
                -7.251231246499744,
                12.07386390171382,
                -7.251999068626862,
                -12.60039121695211,
                12.255910487672566,
                10.010054828679868,
                5.959880341207382,
                -7.034524272250046,
                5.3964998077684685,
                -11.167848655303244,
                9.363468170455462,
                12.88589442938852,
                5.631930735759384,
                10.436787499090523,
                16.94629983344608,
                14.140258818162296,
                10.208566221210633,
                -11.161967434894576,
                6.586984629021846,
                -7.355780291090361,
                2.554315567179357,
                -9.603209626195035,
                -7.1994032089862365,
                -7.285644875277322,
                -7.460110516293465,
                -8.12840429212326,
                0.596223383138073,
                10.10580200453043,
                10.300113081816034,
                -6.3623408867659315,
                -11.045265743103693,
                9.993453602455498,
                6.462381369342687,
                -6.635338846681248,
                -12.97325034617457,
                8.036276127989279,
                -5.10528217979116,
                9.098800550179687,
                9.195040030407759,
                6.605417930339487,
                8.2866999766634,
                -6.928366659896258,
                -6.680898959066047,
                -8.259369340915272,
                -13.816536605373917,
                -5.77422476520186,
                9.006078748958743,
                -6.537839683412643,
                -7.831602861114638,
                -9.519783574124144,
                10.335499554608926,
                12.335702901625778,
                -9.473434444432357,
                -7.670961986305816,
                10.430938676288665,
                9.35966301668589,
                -9.10836003342938,
                5.65736134713112,
                12.134678233165168,
                8.504096141976921,
                8.205446700188666,
                -4.042859198652701,
                6.919940238885492,
                -10.776416570337574,
                13.985349905631612,
                4.804058201579904,
                -9.636142914046262,
                10.083368588933,
                -11.273268169652564,
                3.8003889532391772,
                -4.893105192277553,
                -9.825053099077225,
                8.17154039342301,
                -15.870125388651001,
                -5.5440635335579245,
                12.427107453087531,
                9.766881413557586,
                8.511505998915286,
                9.475245830980544,
                10.542256201178612,
                8.756733593078343,
                -12.623401296091926,
                -9.410136432918666,
                8.31459305332901,
                5.564842663377041,
                -8.261842379994041,
                11.109491953287426,
                -11.470610963718812,
                15.145125026932275,
                12.767400779127227,
                -8.141427676477695,
                -7.985143523315283,
                -6.381586145657619,
                -11.51492607191888,
                5.999394411792167,
                12.270846891847325,
                5.5439334916116385,
                -5.872927485522403,
                -6.0293945547532335,
                -4.085385017732202,
                8.077506797948352,
                4.864803468016445,
                10.056896536213433,
                5.602526227302902,
                14.03707198735607,
                6.275367961808357,
                -16.22726218216178,
                -6.533149696620853,
                -10.090353324552757,
                10.468511643736319,
                -4.793448948000923,
                9.653905847498747,
                -5.285559292898045,
                -12.757086879470206,
                12.508384395306066,
                9.898906685490772,
                -8.848786719072447,
                -1.018825854405131,
                -12.048247686177046,
                -4.278516053040848,
                13.678674412298399,
                -6.28249715936304,
                -13.396188781110636,
                -2.9864086667985346,
                8.95001108700533,
                -6.129854071911824,
                -17.86788794163021,
                9.419924963369645,
                14.067687205388227,
                -12.316320700707532,
                8.205446700188666,
                7.489015800574235,
                -9.991257831576595,
                -8.213635407068601,
                -6.0059518856702665,
                -4.89537899038178,
                -3.7350056041121302,
                -12.194440138198553,
                -9.113683577812028,
                -11.730555706965005,
                -6.387678144715796,
                3.0852769753649407,
                14.169695485630083,
                -4.953579775852349,
                -11.620380941383578,
                6.922577089816833,
                -9.540151835433633,
                -10.726552277219964,
                16.396679526182115,
                -4.729295251186861,
                0.9601770051486636,
                8.689696300169649,
                5.914240691265893,
                -8.983710872459277,
                7.1438636873234405,
                -15.35276676625006,
                8.300935935639131,
                -7.865168711148461,
                8.60936345451713,
                -9.50472818932197,
                6.059881636103787,
                9.291336702900223,
                7.8383637897185645,
                5.016530239197831,
                -10.263605800382587,
                8.700100076279464,
                3.8877526829881415,
                6.937962779370943,
                -10.148799259297332,
                -2.914947914724133,
                -9.370851845921113,
                -9.003545252272678,
                -9.660140136639598,
                -9.421307225758751,
                11.873043793751652,
                -6.327181673298686,
                -10.751105209061429,
                16.18964088312703,
                -4.6821762562332285,
                -6.277137878640975,
                -10.085262170707704,
                9.150662102447939,
                -7.847636286840614,
                1.421856004954709,
                -4.880075007183192,
                -11.366113664171209,
                9.877082935049135,
                -7.41914092209084,
                13.382165205355907,
                7.744652530913511,
                -5.70211210190966,
                -11.73200288788785,
                3.4020949881501283,
                -8.690721992185585,
                13.063670389017638,
                9.25360335887261,
                -6.468650016852026,
                -11.165610015318206,
                -6.531621109389875,
                5.8657925406775995,
                -9.389923236162746,
                6.0876736660514075,
                -10.886638394235817,
                3.980711461934053,
                -9.538510373075251,
                9.142292282163034,
                -2.027184371192013,
                -9.013085536629722,
                -10.851724235737024,
                -7.911856921186652,
                11.049643608940164,
                -9.498347285964538,
                -10.743533513980495,
                13.702996163719567,
                -5.01369441763651,
                -8.838440583798446,
                16.58879673801707,
                -6.421750957908079,
                20.294273317040567,
                6.520487730182499,
                11.27587827681889,
                5.082483254513627,
                13.480517117294136,
                -7.7772305604796275,
                -4.771581614924275,
                -5.079929429507572,
                7.967199518412255,
                9.154502346559989,
                0.320072049758256,
                -9.04628015552226,
                -9.700249368048132,
                9.357833427729554,
                9.517109286591001,
                -9.957059298323186,
                -6.412911675147462,
                3.949543220911021,
                -11.100186126063598,
                -8.509442476591822,
                9.630474772452779,
                -5.694171796593634,
                7.16283657797039,
                -11.268460138074131,
                5.370797967563114,
                -6.770276785225575,
                -7.873639267122321,
                12.23917283249179,
                -10.187653128775702,
                -7.343613542320141,
                -2.97850113830143,
                -10.605466455839434,
                -5.904170551521444,
                7.049545620267582,
                -14.660571300469185,
                9.261648300604598,
                4.660717670126656,
                12.146379870291062,
                -8.450945640619793,
                7.021269438097258,
                7.959596506345708,
                -11.660583699241107,
                13.57904245876293,
                -13.22902559248624,
                -10.098619359233588,
                -6.713057732090868,
                10.052242316196448,
                7.940053104212044,
                9.246309783603841,
                -6.0580352579553045,
                -5.062801445211484,
                8.205446700188666,
                12.745712318900859,
                -4.889070342819125,
                -0.16682778415875485,
                -13.863725244181218,
                4.369458801771231,
                9.37622015970106,
                -5.180482490142001,
                -5.591593573790109,
                8.749550371120092,
                14.528161712881849,
                -6.22228314902467,
                -6.735297983009468,
                8.839296802041256,
                6.0831368278541476,
                -9.261148485985409,
                -2.1145039482691725,
                -8.223155869017816,
                7.939879189712277,
                6.166188900236127,
                13.867833110501701,
                -6.049487506609539,
                19.127898214064817,
                14.958692988067227,
                -8.318930660253402,
                -9.663401859696203,
                16.408263586006466,
                -5.774819059879404,
                -9.456525926043515,
                7.490024918276684,
                8.329516430316655,
                2.7758894986948652,
                5.666612225916787,
                2.7300342551000605,
                -8.539960823953614,
                14.083671541942726,
                11.838525278238016,
                14.008257406123148,
                8.844802580467693,
                9.382556696380574,
                9.294935282324808,
                8.205446700188666,
                7.0963453028197225,
                -1.3969786640404687,
                6.056005407399002,
                -5.022610116261962,
                6.435495437765591,
                -2.572634564230007,
                -5.521497113094826,
                -9.25922141833023,
                10.608985861119473,
                -13.743664661034787,
                -10.631976581828438,
                -6.623518067587376,
                12.435394476678395
            ]
        }
    }
}