{
    "args": {
        "model": "llama_8b",
        "dataset": "tsm_first",
        "token_mode": "last_token",
        "ood": true,
        "smoke_test": false,
        "components": 50,
        "mode": "pca",
        "model_name": "llama_8b",
        "target_dataset": "tsm_tst",
        "datetime": "2026-05-05 23:07:32"
    },
    "test_metrics": {
        "test_metrics_by_layer": [
            {
                "n_total": 500,
                "auroc": 0.49727200000000005,
                "accuracy": 0.514,
                "f1": 0.054474708171206226,
                "tpr_at_fpr_0_05": 0.028,
                "optimal_threshold_f1": 0.5,
                "optimal_threshold_acc": 0.5,
                "aupr": 0.506093238630802
            },
            {
                "n_total": 500,
                "auroc": 0.64576,
                "accuracy": 0.6,
                "f1": 0.5,
                "tpr_at_fpr_0_05": 0.156,
                "optimal_threshold_f1": 0.5,
                "optimal_threshold_acc": 0.5,
                "aupr": 0.6565675493819816
            },
            {
                "n_total": 500,
                "auroc": 0.6779519999999999,
                "accuracy": 0.624,
                "f1": 0.5252525252525253,
                "tpr_at_fpr_0_05": 0.232,
                "optimal_threshold_f1": 0.5,
                "optimal_threshold_acc": 0.5,
                "aupr": 0.7106576461612448
            },
            {
                "n_total": 500,
                "auroc": 0.722448,
                "accuracy": 0.654,
                "f1": 0.5506493506493506,
                "tpr_at_fpr_0_05": 0.304,
                "optimal_threshold_f1": 0.5,
                "optimal_threshold_acc": 0.5,
                "aupr": 0.7559146913606756
            },
            {
                "n_total": 500,
                "auroc": 0.801184,
                "accuracy": 0.666,
                "f1": 0.5373961218836565,
                "tpr_at_fpr_0_05": 0.38,
                "optimal_threshold_f1": 0.5,
                "optimal_threshold_acc": 0.5,
                "aupr": 0.8204138811365724
            },
            {
                "n_total": 500,
                "auroc": 0.8213279999999998,
                "accuracy": 0.672,
                "f1": 0.536723163841808,
                "tpr_at_fpr_0_05": 0.412,
                "optimal_threshold_f1": 0.5,
                "optimal_threshold_acc": 0.5,
                "aupr": 0.8414965913741812
            },
            {
                "n_total": 500,
                "auroc": 0.8154399999999999,
                "accuracy": 0.672,
                "f1": 0.5494505494505495,
                "tpr_at_fpr_0_05": 0.368,
                "optimal_threshold_f1": 0.5,
                "optimal_threshold_acc": 0.5,
                "aupr": 0.8286415696336463
            },
            {
                "n_total": 500,
                "auroc": 0.79456,
                "accuracy": 0.66,
                "f1": 0.5277777777777778,
                "tpr_at_fpr_0_05": 0.336,
                "optimal_threshold_f1": 0.5,
                "optimal_threshold_acc": 0.5,
                "aupr": 0.8097154566401805
            },
            {
                "n_total": 500,
                "auroc": 0.7488159999999999,
                "accuracy": 0.64,
                "f1": 0.48863636363636365,
                "tpr_at_fpr_0_05": 0.292,
                "optimal_threshold_f1": 0.5,
                "optimal_threshold_acc": 0.5,
                "aupr": 0.7668910917707299
            },
            {
                "n_total": 500,
                "auroc": 0.784592,
                "accuracy": 0.656,
                "f1": 0.5195530726256983,
                "tpr_at_fpr_0_05": 0.364,
                "optimal_threshold_f1": 0.5,
                "optimal_threshold_acc": 0.5,
                "aupr": 0.7995560748205742
            },
            {
                "n_total": 500,
                "auroc": 0.857936,
                "accuracy": 0.712,
                "f1": 0.6170212765957447,
                "tpr_at_fpr_0_05": 0.5,
                "optimal_threshold_f1": 0.5,
                "optimal_threshold_acc": 0.5,
                "aupr": 0.871040583726588
            },
            {
                "n_total": 500,
                "auroc": 0.855488,
                "accuracy": 0.72,
                "f1": 0.6335078534031413,
                "tpr_at_fpr_0_05": 0.492,
                "optimal_threshold_f1": 0.5,
                "optimal_threshold_acc": 0.5,
                "aupr": 0.8658217693678041
            },
            {
                "n_total": 500,
                "auroc": 0.8471679999999999,
                "accuracy": 0.68,
                "f1": 0.550561797752809,
                "tpr_at_fpr_0_05": 0.464,
                "optimal_threshold_f1": 0.5,
                "optimal_threshold_acc": 0.5,
                "aupr": 0.8546423387056106
            },
            {
                "n_total": 500,
                "auroc": 0.834768,
                "accuracy": 0.682,
                "f1": 0.5619834710743802,
                "tpr_at_fpr_0_05": 0.436,
                "optimal_threshold_f1": 0.5,
                "optimal_threshold_acc": 0.5,
                "aupr": 0.8423454380942387
            },
            {
                "n_total": 500,
                "auroc": 0.822384,
                "accuracy": 0.688,
                "f1": 0.5714285714285714,
                "tpr_at_fpr_0_05": 0.46,
                "optimal_threshold_f1": 0.5,
                "optimal_threshold_acc": 0.5,
                "aupr": 0.8365799385685231
            },
            {
                "n_total": 500,
                "auroc": 0.828416,
                "accuracy": 0.682,
                "f1": 0.5595567867036011,
                "tpr_at_fpr_0_05": 0.484,
                "optimal_threshold_f1": 0.5,
                "optimal_threshold_acc": 0.5,
                "aupr": 0.8405107645122462
            },
            {
                "n_total": 500,
                "auroc": 0.849024,
                "accuracy": 0.702,
                "f1": 0.6109660574412533,
                "tpr_at_fpr_0_05": 0.408,
                "optimal_threshold_f1": 0.5,
                "optimal_threshold_acc": 0.5,
                "aupr": 0.846396373322918
            },
            {
                "n_total": 500,
                "auroc": 0.845936,
                "accuracy": 0.68,
                "f1": 0.5628415300546448,
                "tpr_at_fpr_0_05": 0.356,
                "optimal_threshold_f1": 0.5,
                "optimal_threshold_acc": 0.5,
                "aupr": 0.8457427305686551
            },
            {
                "n_total": 500,
                "auroc": 0.8456,
                "accuracy": 0.684,
                "f1": 0.5775401069518716,
                "tpr_at_fpr_0_05": 0.36,
                "optimal_threshold_f1": 0.5,
                "optimal_threshold_acc": 0.5,
                "aupr": 0.8375393813130908
            },
            {
                "n_total": 500,
                "auroc": 0.8344160000000002,
                "accuracy": 0.686,
                "f1": 0.583554376657825,
                "tpr_at_fpr_0_05": 0.344,
                "optimal_threshold_f1": 0.5,
                "optimal_threshold_acc": 0.5,
                "aupr": 0.8268352557455918
            },
            {
                "n_total": 500,
                "auroc": 0.8316960000000001,
                "accuracy": 0.684,
                "f1": 0.5797872340425532,
                "tpr_at_fpr_0_05": 0.36,
                "optimal_threshold_f1": 0.5,
                "optimal_threshold_acc": 0.5,
                "aupr": 0.8260123558973121
            },
            {
                "n_total": 500,
                "auroc": 0.8304959999999999,
                "accuracy": 0.662,
                "f1": 0.5493333333333333,
                "tpr_at_fpr_0_05": 0.372,
                "optimal_threshold_f1": 0.5,
                "optimal_threshold_acc": 0.5,
                "aupr": 0.8189017340040772
            },
            {
                "n_total": 500,
                "auroc": 0.837872,
                "accuracy": 0.664,
                "f1": 0.5555555555555556,
                "tpr_at_fpr_0_05": 0.348,
                "optimal_threshold_f1": 0.5,
                "optimal_threshold_acc": 0.5,
                "aupr": 0.8206145354970996
            },
            {
                "n_total": 500,
                "auroc": 0.8393759999999999,
                "accuracy": 0.666,
                "f1": 0.5498652291105122,
                "tpr_at_fpr_0_05": 0.336,
                "optimal_threshold_f1": 0.5,
                "optimal_threshold_acc": 0.5,
                "aupr": 0.8210106192314587
            },
            {
                "n_total": 500,
                "auroc": 0.82504,
                "accuracy": 0.654,
                "f1": 0.5311653116531165,
                "tpr_at_fpr_0_05": 0.316,
                "optimal_threshold_f1": 0.5,
                "optimal_threshold_acc": 0.5,
                "aupr": 0.811654317773015
            },
            {
                "n_total": 500,
                "auroc": 0.8164159999999999,
                "accuracy": 0.666,
                "f1": 0.5474254742547425,
                "tpr_at_fpr_0_05": 0.336,
                "optimal_threshold_f1": 0.5,
                "optimal_threshold_acc": 0.5,
                "aupr": 0.8049182966113566
            },
            {
                "n_total": 500,
                "auroc": 0.803808,
                "accuracy": 0.66,
                "f1": 0.5355191256830601,
                "tpr_at_fpr_0_05": 0.32,
                "optimal_threshold_f1": 0.5,
                "optimal_threshold_acc": 0.5,
                "aupr": 0.7982126259970901
            },
            {
                "n_total": 500,
                "auroc": 0.8059200000000001,
                "accuracy": 0.658,
                "f1": 0.5236768802228412,
                "tpr_at_fpr_0_05": 0.344,
                "optimal_threshold_f1": 0.5,
                "optimal_threshold_acc": 0.5,
                "aupr": 0.8020520478065217
            },
            {
                "n_total": 500,
                "auroc": 0.8030879999999999,
                "accuracy": 0.656,
                "f1": 0.5248618784530387,
                "tpr_at_fpr_0_05": 0.304,
                "optimal_threshold_f1": 0.5,
                "optimal_threshold_acc": 0.5,
                "aupr": 0.7907287313499638
            },
            {
                "n_total": 500,
                "auroc": 0.8003200000000001,
                "accuracy": 0.65,
                "f1": 0.5179063360881543,
                "tpr_at_fpr_0_05": 0.316,
                "optimal_threshold_f1": 0.5,
                "optimal_threshold_acc": 0.5,
                "aupr": 0.7899393390334417
            },
            {
                "n_total": 500,
                "auroc": 0.797504,
                "accuracy": 0.652,
                "f1": 0.5245901639344263,
                "tpr_at_fpr_0_05": 0.284,
                "optimal_threshold_f1": 0.5,
                "optimal_threshold_acc": 0.5,
                "aupr": 0.7804656116120476
            },
            {
                "n_total": 500,
                "auroc": 0.7958559999999999,
                "accuracy": 0.644,
                "f1": 0.510989010989011,
                "tpr_at_fpr_0_05": 0.252,
                "optimal_threshold_f1": 0.5,
                "optimal_threshold_acc": 0.5,
                "aupr": 0.7814139569343844
            },
            {
                "n_total": 500,
                "auroc": 0.8026719999999999,
                "accuracy": 0.636,
                "f1": 0.47701149425287354,
                "tpr_at_fpr_0_05": 0.316,
                "optimal_threshold_f1": 0.5,
                "optimal_threshold_acc": 0.5,
                "aupr": 0.797451764122804
            }
        ],
        "mean_projection_metrics": {
            "n_total": 500,
            "auroc": 0.8480160000000001,
            "accuracy": 0.674,
            "f1": 0.5434173669467787,
            "tpr_at_fpr_0_05": 0.396,
            "optimal_threshold_f1": 0.5,
            "optimal_threshold_acc": 0.5,
            "aupr": 0.8480971815950011
        },
        "weighted_projection_metrics": {
            "n_total": 500,
            "auroc": 0.8491679999999999,
            "accuracy": 0.678,
            "f1": 0.5515320334261838,
            "tpr_at_fpr_0_05": 0.416,
            "optimal_threshold_f1": 0.5,
            "optimal_threshold_acc": 0.5,
            "aupr": 0.8489093202264888
        },
        "weighted_projection": [
            -4.932531108327373,
            8.848245729097867,
            -0.8446429931859255,
            -5.6367724654169775,
            -4.952105773376298,
            -2.9898815780492556,
            -1.9854848193237329,
            5.797419963507271,
            10.006239101742207,
            -2.4203331740077823,
            0.025004600210917424,
            0.9925174172929486,
            -0.6485533666065132,
            -0.4237980804604807,
            -2.0196082346968356,
            -7.582414632822796,
            -3.2766436240637438,
            -1.4527443472989372,
            -6.71697783344953,
            -0.7788979621993056,
            5.234242077836564,
            4.997455535840503,
            -2.814982273478865,
            -0.3403648129109121,
            1.4198377536285522,
            -4.81479778941254,
            0.24192535454422287,
            0.3446472980210507,
            -4.368598356875027,
            2.7455128649582248,
            -1.0789494417203775,
            0.9618122367237866,
            10.184631628661563,
            -4.679879143174151,
            -5.843726327629044,
            11.561874293459713,
            -0.55461312305516,
            -1.181345602519441,
            -4.026940376912752,
            2.470031227124782,
            -6.504941260703033,
            7.372765653767182,
            -2.799648427271661,
            -3.9110709498665255,
            -0.23224018725207496,
            0.09354435793880286,
            0.2921897002361976,
            4.1205160062161905,
            -2.6104071783262026,
            -3.901235794291974,
            4.435776707428882,
            0.804039378892603,
            2.1251815493802293,
            -1.6970173855931105,
            -4.379581161087435,
            -4.269080507701278,
            -6.255118140664716,
            4.024567207843522,
            1.8428760590572513,
            0.22984047693669998,
            -5.464812864103238,
            -2.2627943110301723,
            -7.353311619978571,
            -4.172163045912015,
            -5.5793288521041475,
            -4.362957346451566,
            -0.8508056923959408,
            8.965550973485701,
            0.9597142235947698,
            13.071037820184767,
            8.018482948567163,
            3.775570599847553,
            -3.855329594365922,
            -1.0801904334732135,
            1.0018072456054918,
            -1.3290601250514522,
            -0.43778332846966517,
            -7.932780566774592,
            2.229049439972883,
            -0.19735564080592666,
            1.6916307187459256,
            -5.445482128263589,
            5.345392829585538,
            -0.5203637413085479,
            -1.6643403255915263,
            -2.314534591685553,
            0.6565677623123262,
            -1.580833158722894,
            -5.469295952397861,
            4.965543458582607,
            -5.632993901434326,
            -1.4374009833092576,
            3.083283854334686,
            2.332622624963792,
            -3.789369207164385,
            3.4360581363612197,
            -2.777011689713018,
            7.264182401094393,
            -4.2689159871434725,
            0.9102099433840631,
            0.6949001847687456,
            -3.2643924387356433,
            -5.345910292171469,
            -7.09963176655739,
            -3.193068837004096,
            -5.234542204702537,
            -0.9434583826900803,
            5.635612520150355,
            -0.41531232404523905,
            -0.6191139375983079,
            -0.3259653303561453,
            3.942341179923987,
            -2.155636276784098,
            3.585347509346352,
            -4.343792093132045,
            -8.423107945413474,
            -3.3455937968165315,
            -0.33894899949745017,
            3.817246191493562,
            -1.4758913460620728,
            -2.0600576859603312,
            -0.5151138128740587,
            1.1720138147753463,
            4.768315894563787,
            -2.3801311797453963,
            -1.1323995867477705,
            1.6745042900281428,
            -0.4059807124495011,
            1.121430188003002,
            10.226088768557277,
            -5.068393045359248,
            6.865733588210808,
            2.021860526979661,
            11.477727736731792,
            -1.5803343871762427,
            2.6914223930254586,
            7.210203390962988,
            0.10629992533829768,
            2.12311472569631,
            -3.677136095200096,
            1.763832469249693,
            3.48308348916491,
            -4.284912858411161,
            3.210451379424807,
            -0.8996108119892396,
            3.163077409185429,
            -8.738331497471489,
            -0.13306882768565925,
            1.9177426603116023,
            -5.376229196854235,
            -0.4386027510770138,
            0.695443236498031,
            6.285205628547449,
            1.017078197483285,
            -5.043306878922013,
            3.975268445881469,
            3.758704343845874,
            -0.18470839274074924,
            -4.4682513245013835,
            -1.107310699074764,
            -1.883487078503469,
            -1.1002981059500558,
            1.8442303924561876,
            10.893379265632536,
            0.6140100252710106,
            2.068608937470939,
            -1.9282369712653635,
            4.270956503325053,
            4.599798653863911,
            -0.3646166018034657,
            2.692986395300708,
            7.299195063692057,
            -3.122597435824319,
            1.0995655122703105,
            -5.832347334095563,
            7.371384694530056,
            3.49449758831561,
            2.8796486756679043,
            4.823024638161895,
            -1.6598031126422779,
            4.508125555671787,
            -1.0560466381247229,
            5.144677510496431,
            -2.121843366790442,
            -3.7050351413746663,
            -4.3936531069918745,
            1.1580145940834843,
            -0.468329265901568,
            -1.9428482956600612,
            -2.725856186418766,
            -2.171022726769102,
            6.119410500095126,
            -0.9684184198998288,
            0.25327321875822395,
            0.9700592208539871,
            -4.113266690787038,
            2.636509361648383,
            3.9159731311706585,
            -5.108615777820556,
            3.3878023852551555,
            -2.619707050865959,
            1.2695689082708672,
            0.7164017724231936,
            -4.321389579285772,
            -3.253252471705488,
            2.324698505881588,
            6.473604076874461,
            -2.4084555982389944,
            -2.7325945308170603,
            -1.8732413372253476,
            3.6593424516921966,
            1.3744867243938776,
            -1.1258472586617692,
            3.0154721558009574,
            -2.7620020548707958,
            -1.8290296619617465,
            -1.8920198337277738,
            -0.4105215170861058,
            -1.6891697951902018,
            -0.4043750778675423,
            -0.5708286003412437,
            -6.960443199771852,
            6.08950191475704,
            2.724758576994874,
            1.626115822407482,
            1.3589201896719594,
            -1.7170977256381994,
            -2.0654580380564784,
            3.174347138718626,
            -3.2897495078601673,
            -4.741746688623612,
            -1.6264565868246903,
            -1.1720803093147076,
            3.147357424719967,
            -5.02005241346594,
            -4.026929462429348,
            -6.789713042309364,
            -3.827401444751559,
            -2.034484450151793,
            -2.7774196153533643,
            -0.5112517130076109,
            -4.454392873907918,
            1.5134522091953748,
            5.341775333308837,
            -2.033696997735482,
            8.24539242228933,
            -3.7556356549992844,
            1.899236452239099,
            -6.719550937661789,
            -0.22730315621244238,
            -8.321878610756215,
            -10.27205691529356,
            -4.798050004716728,
            -9.450294258925325,
            -6.147368736037647,
            -3.2295786587498867,
            -9.040894995695147,
            -4.567184975187659,
            2.1029808323994015,
            -6.0895429844374185,
            -7.185882643665463,
            -9.038005963686729,
            -6.368477934663904,
            -6.058652259274422,
            -6.3236420135193,
            -9.77231659091365,
            -5.452267842706679,
            0.17136135798744012,
            -5.286353118445528,
            -7.84737319553798,
            -7.809251168992851,
            -2.5081503147011146,
            -5.847027357329486,
            -4.199269576629798,
            -8.068959137438348,
            2.05956645683006,
            -3.573628858704662,
            -6.197706577321973,
            -5.0921928200426265,
            -10.016620437671024,
            -8.593977487087967,
            0.42245462134464207,
            -11.315386342867638,
            -5.127480217420947,
            -4.412549167463934,
            -4.814010546954882,
            -4.300347304138417,
            -3.891766567728556,
            2.9850623348699243,
            -3.8289449890530856,
            -1.9384511398260995,
            -1.9626404378931297,
            -2.8179998073749433,
            -3.986098530546091,
            -2.9713460799981735,
            -8.42214150342419,
            -0.3404858197711158,
            -6.836767976693324,
            -1.9753842766868432,
            -8.147093540016607,
            -5.506936819755807,
            -6.185265092129877,
            -5.80581567323431,
            -4.126556945680013,
            -2.1884660720098394,
            -5.788275235466074,
            -6.781165265259842,
            -8.545367520236354,
            -2.1684304305377324,
            -8.130724592588319,
            -7.392239710246709,
            -5.882664847564367,
            2.6287885235100235,
            -8.869226259778955,
            -2.733862182577743,
            -9.168899957151574,
            -3.9187922678724227,
            -2.9114155857047255,
            -0.5497773957552425,
            -7.284124946308701,
            -11.051036257878577,
            -6.5232553216367775,
            -0.8001834065186854,
            -5.7571797707061645,
            -5.354718350864687,
            -5.864752595881847,
            -2.663892591203178,
            -3.63329542847373,
            -8.448096794026881,
            -7.0645070399828205,
            -2.9017831830149476,
            -3.7768167527530205,
            -5.990576715996847,
            -6.5425081995018095,
            -6.5682048133937245,
            -6.1616555110454545,
            -8.894759797167207,
            -2.1315578676112943,
            -1.887697360563764,
            -6.844407251281373,
            -7.515286854855414,
            -7.990949116384827,
            -6.083613769716333,
            -5.860950677411475,
            -2.7884214839933517,
            -1.5407489431867578,
            1.133116515818827,
            -6.8876528614497445,
            -3.7240150791198694,
            -9.803554920558662,
            -5.648609670082563,
            -11.018918254086454,
            -6.4334648455763075,
            0.1551589602506772,
            -3.847051442962201,
            -14.325969308842792,
            -8.659745679242976,
            -6.157256427381216,
            -5.03068207330744,
            0.7853191218616051,
            -8.165517498636492,
            -7.351122179972077,
            -4.100847436529016,
            -4.812561725005366,
            -4.404453829500678,
            -9.19103987661563,
            -9.940250755138626,
            -5.168986639306357,
            -2.9031748371926724,
            -3.9509224109878267,
            -6.145693730024903,
            -8.78076549519516,
            -5.417987987087676,
            -6.837271846197305,
            -8.477641268807458,
            -7.833792860189916,
            -8.958288179907177,
            -6.194450812680649,
            -7.212099621669617,
            -5.285816957272857,
            -10.337538648112828,
            -5.216749278359854,
            -3.007776329872216,
            -6.493806370025103,
            -3.6856745595112232,
            -2.8454387963056376,
            -6.496518906441877,
            -3.399339067206328,
            -6.539762645623887,
            -0.19435363672653488,
            -2.4695563420273206,
            5.432731433750049,
            -3.8187424334018663,
            -4.046690135788811,
            -8.670308767740773,
            -8.029226013761303,
            -9.88438233181055,
            -7.318724241727769,
            -4.771733902808954,
            -4.455144217020496,
            -5.294180856493374,
            -7.9362166305725586,
            -7.3954587578241515,
            -5.0964275652670015,
            -4.332218199843697,
            -6.244900106893106,
            -7.1487311022570905,
            -11.60754393567669,
            -6.969588214953123,
            -5.241713105680583,
            -9.388671849140149,
            -0.5268153121121849,
            -5.321603641984377,
            -5.884829005970316,
            -4.656465825041035,
            0.09591459754953356,
            1.5082389908185025,
            -0.3645580196346379,
            -10.546225521327967,
            -3.454310077063046,
            -7.173297726323041,
            -0.792826070255009,
            -1.8090112701448429,
            -2.233656509041235,
            -3.802263842396201,
            -4.128652136909893,
            -11.165327938023704,
            -5.471092731933432,
            -4.24408904923041,
            -7.7291988418987945,
            -7.86103795707696,
            -9.617124222452018,
            -6.590970499268897,
            0.3004647334722891,
            -9.028236528814485,
            -9.60973100022333,
            -5.106700793198725,
            -7.310421698638949,
            -5.076017151005192,
            -5.997465786230546,
            -7.528729852397103,
            -9.280279978225765,
            -7.6737769942303755,
            -6.728766347849891,
            -3.8370613188333667,
            -2.988410514263756,
            -3.676857257222546,
            -11.599883917694196,
            -7.983908279887339,
            -1.1768400772012693,
            1.1895884416923028,
            -2.959451689222156,
            -1.4470433830749831,
            -6.387928085291234,
            -0.7781997655211338,
            -6.500554020237822,
            -6.984309023528696,
            3.3198493488578205,
            -3.530505770435714,
            -9.125047463289926,
            -1.4326368363039481,
            -4.804432564135998,
            -7.7970964787873385,
            -5.267453452314032,
            -5.152012084025483,
            -4.178298383673194,
            -6.830349512442003,
            -6.527291239730294,
            -4.601027098165414,
            -1.051583242566917,
            -8.52696997935973,
            -7.452780401203287,
            -0.524154075737986,
            -6.233965476572307,
            -3.2430618080535245,
            -9.339296565673486,
            -7.717450601290933,
            -10.382312663256062,
            -5.6247728105114625,
            -4.469123628221254,
            -1.7739948058875872,
            -6.330278427751674,
            -7.664575766074059,
            -5.854855255959849,
            -10.051888835180467,
            -2.8490956506818805,
            -4.324463408971992,
            -7.495034909941895,
            -3.3620289035505557,
            -1.6962348948784858,
            -5.5198534948263145,
            -4.263566464525479,
            -7.50051478747601,
            -8.255922565356558,
            -2.2668828012182494,
            -6.79967747794494,
            -7.747172438795257,
            -1.286178713684672,
            -5.025848062265341,
            -9.189641727770816
        ],
        "mean_projection": [
            -4.848925247201451,
            8.517538871303174,
            -0.8290074120564703,
            -5.5759069343466106,
            -4.916943277805015,
            -2.9022193544728245,
            -1.8839691800735714,
            5.642959182276712,
            9.794495521681762,
            -2.415231897566221,
            0.01773638761318312,
            1.0230017872030264,
            -0.6840307457370793,
            -0.36355659290675657,
            -2.0499309614050705,
            -7.408402035961731,
            -3.110602454590763,
            -1.4082382012043246,
            -6.725892306105276,
            -0.7910783694450251,
            5.183530937971282,
            4.85769351081363,
            -2.778408838533466,
            -0.2601017155766129,
            1.4540412865636319,
            -4.683316057521347,
            0.23545040325850664,
            0.3100684485320976,
            -4.224026480323965,
            2.8121724225648737,
            -1.0587633579579854,
            0.8802499791927767,
            9.850494410658099,
            -4.8214186259034335,
            -5.662101783104564,
            11.28258621302891,
            -0.645900149904834,
            -1.1100935056083419,
            -4.088008652578299,
            2.295328126129371,
            -6.450578763650931,
            7.992635121214519,
            -2.7354321101107533,
            -3.7391946669076126,
            -0.3122456720020312,
            0.08863218783182712,
            0.28811696749452076,
            3.4574920853185196,
            -2.5973403518022518,
            -3.768371895402076,
            4.200722020721711,
            0.7758893333175253,
            2.0052808150957833,
            -1.6275960480530043,
            -4.276475064341013,
            -4.179896461264412,
            -6.120211841701738,
            3.90598499223253,
            1.853693376087416,
            0.21230661450835933,
            -5.327922813431567,
            -2.19899177433296,
            -7.276425447344099,
            -4.105997983334716,
            -5.43816986306271,
            -4.272316628535801,
            -0.7534845274863057,
            8.641249067311662,
            0.8409582838628185,
            13.589155451078547,
            7.739798945248744,
            3.7108774091022454,
            -3.709840810426668,
            -1.0457179934925922,
            0.9659653486584386,
            -1.3105911749500336,
            -0.345268200156033,
            -7.709876367099827,
            2.0684641664101546,
            -0.20580230685461212,
            1.5893073020629642,
            -5.298852865485723,
            5.234837925437744,
            -0.5180528909262975,
            -1.705031661102503,
            -2.319896756740961,
            0.6396602970192611,
            -1.5025348483966456,
            -5.428630598558271,
            4.763846684939164,
            -5.5953662381371565,
            -1.4300733590048145,
            3.011783266572694,
            2.2046277055696795,
            -3.7077589870726753,
            3.347788374220908,
            -2.6768219166504497,
            7.901306902378482,
            -4.199089174809408,
            0.87942947256963,
            0.6380214458085943,
            -3.156007903615395,
            -5.258836046598971,
            -7.007881390386316,
            -3.0304687816330262,
            -5.0671882422557815,
            -0.9229349282598946,
            5.510220773876745,
            -0.4804412691491476,
            -0.6390745077058293,
            -0.27527085679010754,
            3.7694667499289434,
            -2.1061215457786573,
            3.433216410518136,
            -4.315238928095582,
            -8.276603947461389,
            -3.297022245357496,
            -0.3560053815967071,
            3.585214405502558,
            -1.4354139378143642,
            -1.9918090071195445,
            -0.6032258255470012,
            1.1132112496038222,
            4.670468772462052,
            -2.3150304057005386,
            -1.0888822859677731,
            1.6173305892051095,
            -0.4043181689528894,
            0.2558709378409734,
            10.132076016855109,
            -4.910341692235638,
            6.673426276212068,
            2.0395937589416953,
            11.169106911397542,
            -1.456203455107041,
            2.6103448270239045,
            7.85115139122209,
            0.07314414782949422,
            2.1522783526834,
            -3.505550713862936,
            1.7729923269971872,
            3.442887281665608,
            -4.1524458094146555,
            3.0989555621872085,
            -0.8821615879511934,
            3.0209642233612253,
            -8.49486823351465,
            -0.06534195515252708,
            1.9166094011769337,
            -5.274411324701159,
            -0.4170757346345555,
            0.6548871762639549,
            6.116642461237931,
            0.9792731067931769,
            -4.905481274209425,
            3.8610437357427574,
            3.7257463267501656,
            -0.14525946104728496,
            -4.303800365370614,
            -0.9661447355422493,
            -1.8219439688014811,
            -1.0816423693852035,
            1.7346185577301785,
            10.601662474001515,
            0.6381723761832558,
            2.100692699573552,
            -1.891678880236592,
            4.131727954896011,
            4.538884855039798,
            -0.3153872288766711,
            2.6627669721668727,
            7.940043913664879,
            -3.0939745088942954,
            0.9358622616310135,
            -5.689778804336125,
            8.006705418922058,
            3.392716919787331,
            2.853724970932234,
            4.701602898358195,
            -1.6668950003226766,
            4.310286640113175,
            -1.0306244000571592,
            5.017419625078298,
            -2.1482700346170915,
            -3.5863766798073953,
            -4.274527051361201,
            1.1002204219951557,
            -0.3549081370253372,
            -1.939008967792512,
            -2.6154728521204813,
            -2.1428565270965567,
            6.053143213863221,
            -0.9595790468571781,
            0.2561979136867499,
            0.26282142094141153,
            -4.048496961782554,
            2.5905966236854105,
            3.7983211198653963,
            -5.045768950327249,
            3.3800208982885516,
            -2.5768105836047903,
            1.2104735370163202,
            0.5943159144317816,
            -4.263329547050589,
            -3.140048662078798,
            2.3613098006522772,
            6.325352153390578,
            -2.348298564026937,
            -2.5788860061043444,
            -1.813051832793043,
            3.4470293643951195,
            1.3323523878562302,
            -1.0141269113802922,
            2.8847737419427104,
            -2.6172109487684962,
            -1.8398624335532063,
            -1.887911966246412,
            -0.38218114573206674,
            -1.7218453345056624,
            -0.37106640785494727,
            -0.4743540366354602,
            -6.772337466809415,
            5.896727864979366,
            2.6309321732612077,
            0.7269364627416419,
            1.2936931630680315,
            -1.7432576560163682,
            -2.0073557599059746,
            3.061565411524718,
            -3.2374888932336083,
            -4.672968359430291,
            -1.5642402286790416,
            -1.1645638102265554,
            3.0349452938791472,
            -4.855888878099735,
            -3.8784135628796275,
            -6.6599218451505084,
            -3.7753615117427253,
            -1.9955763340430899,
            -2.549411543639489,
            -0.42442539295210957,
            -4.436383304108294,
            1.4947269200888689,
            5.194371120375072,
            -2.1021725717085604,
            8.011291085486999,
            -3.6745624037210405,
            1.880573613335502,
            -6.503726298661894,
            -0.2539659265044538,
            -8.166462234032833,
            -10.08529349764312,
            -4.670014515498721,
            -9.225307321556569,
            -5.991424924040578,
            -3.0839139289447433,
            -8.68661119985607,
            -4.485252407749456,
            2.0909560536267366,
            -5.85269303313619,
            -6.934266881621689,
            -8.860047776083672,
            -6.161545934968799,
            -5.947017278480533,
            -6.072984620279434,
            -9.472838261121426,
            -5.323166884840894,
            0.27270328635799235,
            -5.141400496555888,
            -7.626594233540771,
            -7.6191249719183025,
            -2.417419331063867,
            -5.68739189702808,
            -4.102268566565506,
            -7.803917277990174,
            1.9547323893893354,
            -3.4855692644794742,
            -6.053704740120299,
            -4.834606869809157,
            -9.735594046596121,
            -8.396346160971683,
            0.4829603388077564,
            -10.918373871834515,
            -4.990623551147125,
            -4.3555978396310335,
            -4.685596488513751,
            -4.2109092398418655,
            -3.7121855683753244,
            2.8790873075274708,
            -3.65734998996697,
            -1.9189440618138893,
            -1.8674628912880697,
            -2.717839977364325,
            -3.8165775805134623,
            -2.8902261695930784,
            -8.188646728140634,
            -0.3718926724602718,
            -6.661845999542962,
            -1.8723640999661069,
            -7.9466400107747965,
            -5.439170954628964,
            -6.038756212137638,
            -5.615943089152311,
            -4.035555617232938,
            -2.1722294609147768,
            -5.771454509295971,
            -6.623595795482068,
            -8.316841967598595,
            -2.1376116548414505,
            -7.839470325186103,
            -7.19873744268565,
            -5.792460078088777,
            2.4818728701077006,
            -8.733753049739988,
            -2.6984500706109107,
            -9.06898837688667,
            -3.848166450555833,
            -2.9024136618284873,
            -0.5289868957683819,
            -7.041902824855924,
            -10.761914960004555,
            -6.349536501102202,
            -0.8333079465765165,
            -5.606664190522011,
            -5.187460017964245,
            -5.717422409823697,
            -2.5948379332602154,
            -3.5154253373562745,
            -8.259032304396662,
            -6.885741991184542,
            -2.8313267267441145,
            -3.7433975207018877,
            -5.753354646786983,
            -6.341755670759174,
            -6.355334497031059,
            -6.047952272604295,
            -8.745656999224835,
            -2.1340286330913654,
            -1.7990629541830523,
            -6.664116999254215,
            -7.276856784521083,
            -7.795753997282745,
            -5.9379876114135905,
            -5.734195250946457,
            -2.6469025610021557,
            -1.5509941270132745,
            1.1259980711701438,
            -6.606195228284872,
            -3.5964941673360666,
            -9.559865245148226,
            -5.476072362604974,
            -10.681805693394752,
            -6.255607730777079,
            0.09157158481963575,
            -3.756249821315124,
            -13.928401668834386,
            -8.454992726642638,
            -6.055041667004171,
            -4.877600014126933,
            0.7082645497689513,
            -7.865846253575045,
            -7.144955709880218,
            -3.990285708725361,
            -4.602413879770571,
            -4.396759830740975,
            -9.053672949817242,
            -9.602924324157133,
            -5.046275452360591,
            -2.8052930443999284,
            -3.86528803585726,
            -5.947062685980824,
            -8.493841605470847,
            -5.230390857605553,
            -6.796803091165065,
            -8.38374912896374,
            -7.556415763064373,
            -8.728152792931262,
            -6.020122490882369,
            -6.973702215058153,
            -5.136224150431636,
            -10.03143202441972,
            -5.153117628414843,
            -2.9921523646169756,
            -6.369017831678262,
            -3.6052043066239303,
            -2.797460776800595,
            -6.333717389527669,
            -3.30349513766134,
            -6.389025294520895,
            -0.21750800882034715,
            -2.335338737935082,
            5.3061498181529085,
            -3.6673349793988432,
            -3.9431046253783184,
            -8.549708485328464,
            -7.794713826721708,
            -9.63825194620731,
            -6.978691632684197,
            -4.605472453139333,
            -4.349470240051954,
            -5.139932049884264,
            -7.732976007525117,
            -7.176821784309823,
            -4.9683356805867005,
            -4.192836869443493,
            -5.9687126123872885,
            -6.899828919903939,
            -11.34199001452504,
            -6.885177765613274,
            -5.087356652295086,
            -9.075546139740853,
            -0.5543966494318315,
            -5.224308865444928,
            -5.746806007992645,
            -4.547609526341242,
            0.09811309555210558,
            1.4230480236252192,
            -0.3883200127740676,
            -10.3380717675393,
            -3.347516828107845,
            -7.008312127783881,
            -0.7521026385729471,
            -1.7689333926166908,
            -2.178986889189472,
            -3.742871954469093,
            -3.9825391812406523,
            -10.831329074825991,
            -5.307563297149042,
            -4.082976751713708,
            -7.662394048629895,
            -7.75763472092487,
            -9.370117563295679,
            -6.522804773771888,
            0.26837748086638036,
            -8.736426389238009,
            -9.40891625478271,
            -5.020182154617908,
            -7.05262500494044,
            -4.865263106843024,
            -5.803794575187659,
            -7.291764293109016,
            -8.968366999784664,
            -7.386120104166541,
            -6.579179630418987,
            -3.716557907267706,
            -2.8889360273566163,
            -3.5515318052857046,
            -11.317785470350922,
            -7.84561727174727,
            -1.1684069510227204,
            1.1494959169737828,
            -2.8775708120702195,
            -1.4039725671466665,
            -6.248283571952859,
            -0.8001231657108689,
            -6.406654335459134,
            -6.767843072668656,
            3.174538085843907,
            -3.4753226736136678,
            -8.851139254059888,
            -1.3143505378940246,
            -4.581058327358421,
            -7.509034883084835,
            -5.158380267086667,
            -5.0452551801906464,
            -4.1083562335060435,
            -6.709366462207205,
            -6.366567669176094,
            -4.443092645004587,
            -1.005097805668698,
            -8.430150352650314,
            -7.242967689901141,
            -0.5370836069252,
            -5.9676326077992226,
            -3.123125590166204,
            -9.08635743657436,
            -7.483026485423814,
            -10.158332192412892,
            -5.393048955112807,
            -4.329308523474459,
            -1.707055131452292,
            -6.198744582678417,
            -7.502168204873825,
            -5.712953377855138,
            -9.841767864297665,
            -2.6524417683602657,
            -4.25998515927109,
            -7.3371346692381945,
            -3.331886799658405,
            -1.6099065869940583,
            -5.295357108571814,
            -4.12597847677739,
            -7.305881573429086,
            -8.061670586008717,
            -2.127168859067971,
            -6.56483961299405,
            -7.567889884906972,
            -1.255959042256188,
            -4.925022015467558,
            -8.84765356660539
        ]
    }
}