{
    "args": {
        "model": "llama_8b",
        "dataset": "drlAttack_multi_llm_mixing",
        "token_mode": "last_token",
        "ood": true,
        "smoke_test": false,
        "components": 50,
        "mode": "pca",
        "model_name": "llama_8b",
        "target_dataset": "drlAttack_perturbation_attacks_llm",
        "datetime": "2026-05-06 23:08:50"
    },
    "test_metrics": {
        "test_metrics_by_layer": [
            {
                "n_total": 500,
                "auroc": 0.646704,
                "accuracy": 0.644,
                "f1": 0.729483282674772,
                "tpr_at_fpr_0_05": 0.0,
                "optimal_threshold_f1": 0.5,
                "optimal_threshold_acc": 0.5,
                "aupr": 0.5869957038271856
            },
            {
                "n_total": 500,
                "auroc": 0.8631359999999999,
                "accuracy": 0.758,
                "f1": 0.7070217917675545,
                "tpr_at_fpr_0_05": 0.548,
                "optimal_threshold_f1": 0.5,
                "optimal_threshold_acc": 0.5,
                "aupr": 0.8751104276606954
            },
            {
                "n_total": 500,
                "auroc": 0.911936,
                "accuracy": 0.784,
                "f1": 0.7416267942583732,
                "tpr_at_fpr_0_05": 0.612,
                "optimal_threshold_f1": 0.5,
                "optimal_threshold_acc": 0.5,
                "aupr": 0.9185384737860716
            },
            {
                "n_total": 500,
                "auroc": 0.900864,
                "accuracy": 0.752,
                "f1": 0.6820512820512821,
                "tpr_at_fpr_0_05": 0.628,
                "optimal_threshold_f1": 0.5,
                "optimal_threshold_acc": 0.5,
                "aupr": 0.9093201074203606
            },
            {
                "n_total": 500,
                "auroc": 0.9856159999999999,
                "accuracy": 0.816,
                "f1": 0.7745098039215687,
                "tpr_at_fpr_0_05": 0.932,
                "optimal_threshold_f1": 0.5,
                "optimal_threshold_acc": 0.5,
                "aupr": 0.9868772683914214
            },
            {
                "n_total": 500,
                "auroc": 0.991456,
                "accuracy": 0.876,
                "f1": 0.8584474885844748,
                "tpr_at_fpr_0_05": 0.972,
                "optimal_threshold_f1": 0.5,
                "optimal_threshold_acc": 0.5,
                "aupr": 0.993513889727738
            },
            {
                "n_total": 500,
                "auroc": 0.9923200000000001,
                "accuracy": 0.858,
                "f1": 0.8344988344988346,
                "tpr_at_fpr_0_05": 0.96,
                "optimal_threshold_f1": 0.5,
                "optimal_threshold_acc": 0.5,
                "aupr": 0.9934883795272828
            },
            {
                "n_total": 500,
                "auroc": 0.9921119999999999,
                "accuracy": 0.892,
                "f1": 0.8794642857142857,
                "tpr_at_fpr_0_05": 0.98,
                "optimal_threshold_f1": 0.5,
                "optimal_threshold_acc": 0.5,
                "aupr": 0.9933783597043185
            },
            {
                "n_total": 500,
                "auroc": 0.994208,
                "accuracy": 0.922,
                "f1": 0.9157667386609071,
                "tpr_at_fpr_0_05": 0.964,
                "optimal_threshold_f1": 0.5,
                "optimal_threshold_acc": 0.5,
                "aupr": 0.9945486315082751
            },
            {
                "n_total": 500,
                "auroc": 0.99448,
                "accuracy": 0.944,
                "f1": 0.9409282700421941,
                "tpr_at_fpr_0_05": 0.972,
                "optimal_threshold_f1": 0.5,
                "optimal_threshold_acc": 0.5,
                "aupr": 0.995189311173349
            },
            {
                "n_total": 500,
                "auroc": 0.9982880000000001,
                "accuracy": 0.958,
                "f1": 0.9561586638830898,
                "tpr_at_fpr_0_05": 0.992,
                "optimal_threshold_f1": 0.5,
                "optimal_threshold_acc": 0.5,
                "aupr": 0.998487592501519
            },
            {
                "n_total": 500,
                "auroc": 0.99752,
                "accuracy": 0.95,
                "f1": 0.9473684210526315,
                "tpr_at_fpr_0_05": 0.984,
                "optimal_threshold_f1": 0.5,
                "optimal_threshold_acc": 0.5,
                "aupr": 0.9979121621250987
            },
            {
                "n_total": 500,
                "auroc": 0.996304,
                "accuracy": 0.938,
                "f1": 0.9339019189765458,
                "tpr_at_fpr_0_05": 0.984,
                "optimal_threshold_f1": 0.5,
                "optimal_threshold_acc": 0.5,
                "aupr": 0.9968983741567274
            },
            {
                "n_total": 500,
                "auroc": 0.996704,
                "accuracy": 0.942,
                "f1": 0.9384288747346072,
                "tpr_at_fpr_0_05": 0.988,
                "optimal_threshold_f1": 0.5,
                "optimal_threshold_acc": 0.5,
                "aupr": 0.9970813081260865
            },
            {
                "n_total": 500,
                "auroc": 0.997376,
                "accuracy": 0.942,
                "f1": 0.9386892177589852,
                "tpr_at_fpr_0_05": 0.992,
                "optimal_threshold_f1": 0.5,
                "optimal_threshold_acc": 0.5,
                "aupr": 0.9974994548284577
            },
            {
                "n_total": 500,
                "auroc": 0.997904,
                "accuracy": 0.948,
                "f1": 0.9453781512605042,
                "tpr_at_fpr_0_05": 0.988,
                "optimal_threshold_f1": 0.5,
                "optimal_threshold_acc": 0.5,
                "aupr": 0.9979555096597313
            },
            {
                "n_total": 500,
                "auroc": 0.999088,
                "accuracy": 0.958,
                "f1": 0.9561586638830898,
                "tpr_at_fpr_0_05": 1.0,
                "optimal_threshold_f1": 0.5,
                "optimal_threshold_acc": 0.5,
                "aupr": 0.9990844648327161
            },
            {
                "n_total": 500,
                "auroc": 0.9990559999999999,
                "accuracy": 0.94,
                "f1": 0.9361702127659575,
                "tpr_at_fpr_0_05": 0.996,
                "optimal_threshold_f1": 0.5,
                "optimal_threshold_acc": 0.5,
                "aupr": 0.9990720112191548
            },
            {
                "n_total": 500,
                "auroc": 0.999424,
                "accuracy": 0.97,
                "f1": 0.9690721649484536,
                "tpr_at_fpr_0_05": 1.0,
                "optimal_threshold_f1": 0.5,
                "optimal_threshold_acc": 0.5,
                "aupr": 0.9994351504545096
            },
            {
                "n_total": 500,
                "auroc": 0.9992639999999999,
                "accuracy": 0.946,
                "f1": 0.9429175475687104,
                "tpr_at_fpr_0_05": 0.992,
                "optimal_threshold_f1": 0.5,
                "optimal_threshold_acc": 0.5,
                "aupr": 0.9992975024617885
            },
            {
                "n_total": 500,
                "auroc": 0.9992000000000001,
                "accuracy": 0.964,
                "f1": 0.9626556016597511,
                "tpr_at_fpr_0_05": 0.992,
                "optimal_threshold_f1": 0.5,
                "optimal_threshold_acc": 0.5,
                "aupr": 0.9992386107382055
            },
            {
                "n_total": 500,
                "auroc": 0.9980800000000001,
                "accuracy": 0.948,
                "f1": 0.9451476793248945,
                "tpr_at_fpr_0_05": 0.988,
                "optimal_threshold_f1": 0.5,
                "optimal_threshold_acc": 0.5,
                "aupr": 0.9982210434137301
            },
            {
                "n_total": 500,
                "auroc": 0.997792,
                "accuracy": 0.942,
                "f1": 0.9386892177589852,
                "tpr_at_fpr_0_05": 0.992,
                "optimal_threshold_f1": 0.5,
                "optimal_threshold_acc": 0.5,
                "aupr": 0.9978663250483004
            },
            {
                "n_total": 500,
                "auroc": 0.9979039999999999,
                "accuracy": 0.94,
                "f1": 0.9367088607594937,
                "tpr_at_fpr_0_05": 0.992,
                "optimal_threshold_f1": 0.5,
                "optimal_threshold_acc": 0.5,
                "aupr": 0.997937882285276
            },
            {
                "n_total": 500,
                "auroc": 0.998464,
                "accuracy": 0.946,
                "f1": 0.9429175475687104,
                "tpr_at_fpr_0_05": 0.996,
                "optimal_threshold_f1": 0.5,
                "optimal_threshold_acc": 0.5,
                "aupr": 0.9984921879306915
            },
            {
                "n_total": 500,
                "auroc": 0.998752,
                "accuracy": 0.962,
                "f1": 0.9604989604989606,
                "tpr_at_fpr_0_05": 0.996,
                "optimal_threshold_f1": 0.5,
                "optimal_threshold_acc": 0.5,
                "aupr": 0.9987687102510077
            },
            {
                "n_total": 500,
                "auroc": 0.998096,
                "accuracy": 0.94,
                "f1": 0.9361702127659575,
                "tpr_at_fpr_0_05": 0.992,
                "optimal_threshold_f1": 0.5,
                "optimal_threshold_acc": 0.5,
                "aupr": 0.998183843012757
            },
            {
                "n_total": 500,
                "auroc": 0.9988159999999999,
                "accuracy": 0.958,
                "f1": 0.9561586638830898,
                "tpr_at_fpr_0_05": 0.992,
                "optimal_threshold_f1": 0.5,
                "optimal_threshold_acc": 0.5,
                "aupr": 0.9988423721817477
            },
            {
                "n_total": 500,
                "auroc": 0.997328,
                "accuracy": 0.95,
                "f1": 0.9475890985324947,
                "tpr_at_fpr_0_05": 0.992,
                "optimal_threshold_f1": 0.5,
                "optimal_threshold_acc": 0.5,
                "aupr": 0.9976543024524842
            },
            {
                "n_total": 500,
                "auroc": 0.997456,
                "accuracy": 0.946,
                "f1": 0.9433962264150944,
                "tpr_at_fpr_0_05": 0.992,
                "optimal_threshold_f1": 0.5,
                "optimal_threshold_acc": 0.5,
                "aupr": 0.9976519482773166
            },
            {
                "n_total": 500,
                "auroc": 0.994368,
                "accuracy": 0.938,
                "f1": 0.9344608879492601,
                "tpr_at_fpr_0_05": 0.972,
                "optimal_threshold_f1": 0.5,
                "optimal_threshold_acc": 0.5,
                "aupr": 0.9951390691419648
            },
            {
                "n_total": 500,
                "auroc": 0.996448,
                "accuracy": 0.942,
                "f1": 0.9389473684210526,
                "tpr_at_fpr_0_05": 0.984,
                "optimal_threshold_f1": 0.5,
                "optimal_threshold_acc": 0.5,
                "aupr": 0.9964504539885579
            },
            {
                "n_total": 500,
                "auroc": 0.9951840000000001,
                "accuracy": 0.93,
                "f1": 0.9250535331905781,
                "tpr_at_fpr_0_05": 0.976,
                "optimal_threshold_f1": 0.5,
                "optimal_threshold_acc": 0.5,
                "aupr": 0.9951750185767544
            }
        ],
        "mean_projection_metrics": {
            "n_total": 500,
            "auroc": 0.9991680000000001,
            "accuracy": 0.962,
            "f1": 0.9604989604989606,
            "tpr_at_fpr_0_05": 0.992,
            "optimal_threshold_f1": 0.5,
            "optimal_threshold_acc": 0.5,
            "aupr": 0.9992234370457782
        },
        "weighted_projection_metrics": {
            "n_total": 500,
            "auroc": 0.9993759999999999,
            "accuracy": 0.962,
            "f1": 0.9604989604989606,
            "tpr_at_fpr_0_05": 0.992,
            "optimal_threshold_f1": 0.5,
            "optimal_threshold_acc": 0.5,
            "aupr": 0.9994056538512053
        },
        "scores": {
            "mean_projection": [
                -9.893516496950767,
                -7.46576524865969,
                -7.169770929508896,
                2.507195346212253,
                2.5719847874083555,
                -10.86912591934895,
                -8.760016459862433,
                -6.047272489218353,
                13.206656182369594,
                -6.952153508676386,
                -8.190908066378864,
                5.545899737257596,
                -12.440985426105788,
                -12.8318181154904,
                -10.362078149655007,
                12.147944111158214,
                5.476244980810963,
                2.1572107976481845,
                -11.05096752580631,
                -4.692891817904381,
                1.7282520079792631,
                4.491191583121454,
                9.862525530542602,
                5.545193530034912,
                -7.201511846406106,
                -11.384618714101041,
                6.091644563522427,
                2.2779292928009047,
                -7.5090539968866965,
                0.993433343714635,
                -1.4478107298725977,
                6.893309668518628,
                -8.275413196737297,
                -5.66540650176121,
                5.056817880727881,
                -5.952789396464968,
                6.37690210341202,
                -10.602563092228852,
                2.8093741226119855,
                -6.6783878017611675,
                -11.331755776423046,
                -7.47835563791355,
                -11.708046408342858,
                -4.113643381371377,
                2.436745885291998,
                -7.267282406277388,
                9.256657301061932,
                -7.72194800351029,
                -12.34874130189439,
                -5.591573093418457,
                -5.948113294601586,
                8.425638855614984,
                -6.088904816793823,
                -11.647577099584218,
                -7.431427681834469,
                -6.706763615025853,
                8.876210245993864,
                -6.202389076209669,
                -8.659897006393372,
                3.1278958254165805,
                -6.756125467867379,
                -4.176745259010212,
                5.5337215883857676,
                6.202550340424577,
                2.903716809105041,
                -5.476141609381364,
                -2.9506367534950217,
                1.870307618701818,
                -6.884074078168069,
                10.712605252232228,
                3.2236159590369167,
                -4.517741059600283,
                5.3364468958832845,
                5.967651147376361,
                -6.852480284390978,
                5.833151767585181,
                10.41403460716903,
                -9.091715554938755,
                5.012388461995719,
                -7.559686033724648,
                12.366526709328626,
                6.458941755853766,
                5.324664476304031,
                -9.8564127808334,
                5.935018368783076,
                -4.80640083008004,
                -5.088161654021887,
                -6.295532446815915,
                -0.5864351782770982,
                7.987861174778297,
                -9.217018707173334,
                0.16717814968305264,
                4.438154658236454,
                -5.691992874564891,
                4.330582729670071,
                -9.802511444582816,
                -6.705142739248078,
                4.63071951937044,
                7.043268690243243,
                -8.161129319470287,
                5.1618667757822525,
                -12.767423161468987,
                3.8430088292014775,
                3.837611830638124,
                -8.603728434125017,
                -9.902079633487084,
                3.8577233646990647,
                -3.6849526698364072,
                -8.397311170316462,
                5.870655716450067,
                -8.240585040053766,
                0.5214722809700489,
                5.002936792417495,
                4.083347683095292,
                -9.46299406879358,
                2.891250009623568,
                6.192079812905305,
                -8.36856737041632,
                -11.440231454562397,
                9.059396119082278,
                3.618042611848521,
                -7.318947062295141,
                2.8771521634724997,
                10.364014378231067,
                -8.33917586448464,
                -10.833044257920665,
                1.841755532854303,
                -7.317882939263012,
                -6.426045754052837,
                -0.2329789992774991,
                1.1991522604353688,
                -8.549768426693204,
                0.7666764154987185,
                -6.181274771880271,
                9.43826376235407,
                8.449292675594204,
                5.237728328812016,
                -11.516889558320209,
                9.793151712289532,
                -8.201933759875402,
                3.2721955950941246,
                9.806726873073277,
                5.165961487914944,
                4.775237386950532,
                -5.885536317046488,
                -5.185696356043529,
                -16.931079718610388,
                -6.24629953770297,
                5.974497839354059,
                3.6463208459944605,
                -7.026283559995178,
                -8.295383368083726,
                -8.70361059805857,
                7.532311434896578,
                -7.777948824752371,
                -6.120990839269723,
                -3.817710482017912,
                -7.665490056004797,
                -10.964282798860252,
                6.746415895333284,
                1.6859638876323495,
                4.259090011002361,
                -6.739357075455503,
                7.323239910383828,
                -8.813857214638332,
                -6.779017223062315,
                -6.26603416673008,
                -2.3664444095426656,
                2.3682766985389287,
                -7.987857548752698,
                4.708707740677828,
                12.007216846524711,
                -13.397062246880024,
                -8.170002131424903,
                -7.657248471418226,
                1.7623583935575466,
                -8.450949706058397,
                5.082608006214747,
                2.0972091426979462,
                6.88608278986768,
                3.4514719979601094,
                3.0161474097799523,
                4.109982760307951,
                11.833356321149534,
                2.4779352644230555,
                11.034909382719132,
                7.099583257649265,
                -10.96255208352383,
                9.48986423169696,
                -5.934423247922086,
                1.8148750319362281,
                -7.4402193055717705,
                6.468522910039597,
                -3.1153388720526993,
                4.552776170452363,
                -9.833644619358267,
                -8.29473687298701,
                -3.031627283823882,
                -5.788953366658422,
                -10.16719827819827,
                -7.2409628324326585,
                -5.21797110650772,
                -8.085144353491525,
                -8.569395487831478,
                -5.8122780586864975,
                4.920814590765261,
                6.18405018048426,
                7.603638619281146,
                4.955078030994966,
                -10.162822033115075,
                9.996344750458409,
                5.618379579380409,
                -7.800842075965904,
                -11.88418556787056,
                -8.310688453413428,
                -4.220005921854517,
                -8.847266627203362,
                -7.7903015418219255,
                -2.405906608353109,
                4.642787897914729,
                -4.954367575081772,
                4.598893154093919,
                -0.0523292657434441,
                3.1046999304588554,
                -10.845339974883196,
                -8.701021630295118,
                -7.210157317135398,
                1.7548578973591218,
                -7.311111521469649,
                6.407236088835708,
                4.347116462454822,
                15.042541434920453,
                1.6780208336178184,
                -11.62948773283124,
                2.5093539444697526,
                -8.956394966732978,
                -10.178930011437885,
                13.076250911995325,
                1.659326019136375,
                5.629985674310788,
                -5.784504389676206,
                -9.482035685067366,
                -6.756063433651799,
                3.2723246854776944,
                4.234647768466786,
                3.826347404920709,
                0.6241643972294392,
                4.856722869963739,
                -10.240502116490864,
                -8.368446805241076,
                7.761455139385457,
                2.655825888173812,
                -9.814625890784336,
                8.019866507494516,
                8.506260668565085,
                4.093207619305691,
                -10.37317723750004,
                -9.614298144822014,
                -10.13903544169753,
                1.5801113917303709,
                2.7815916654177943,
                -5.514278382874885,
                3.3592558077941987,
                5.9451484039794655,
                8.602823270497014,
                2.2290320949633764,
                -10.761180606815538,
                3.4289839290923427,
                1.0022194546878778,
                -5.605128014997777,
                7.076889568894851,
                -8.920445801101636,
                -14.48897562652575,
                4.288788585937974,
                -6.005752924351931,
                -7.794114977244879,
                -5.468876684807178,
                6.045495315487575,
                -7.016504256432194,
                1.2808591980134347,
                -7.574625921384053,
                10.106016517557954,
                3.3727560735180853,
                6.308153905143004,
                -1.411147745886362,
                -3.431514043748938,
                -0.7528788902817694,
                0.03572111337334038,
                6.818314400815298,
                -8.569341605577815,
                8.72568152682776,
                5.390414574266653,
                11.101536400721688,
                -12.626365678889607,
                4.270700974564759,
                -9.740402079973647,
                1.1910588922412617,
                5.852226767821128,
                3.0552781907621074,
                -4.3445142641265795,
                -6.682049410533006,
                -5.195811951212642,
                -9.369837286509021,
                0.9473173071910558,
                -9.571003621837301,
                -7.911296061630904,
                -7.923066185030245,
                11.739709800157167,
                1.1670167075067075,
                6.675557512609108,
                2.6280211328561363,
                -8.657327000483207,
                3.3976045449319408,
                -7.529274798346642,
                2.962071366570237,
                4.265643868933655,
                -4.860206929903097,
                13.015415681017512,
                6.272148906135915,
                7.577836259537068,
                -6.4533226754189945,
                -6.457364719241012,
                -3.7762193825558534,
                3.2287132144803476,
                -6.739648463602702,
                6.329416237806398,
                -5.43929792762388,
                -6.275169359286868,
                -4.643476447823291,
                -8.039034966000761,
                0.4620862316142069,
                -12.1265302477209,
                -0.648106328049398,
                10.748855975632576,
                4.510462318262226,
                1.0980911581333643,
                -6.566515101145631,
                6.376334961111367,
                -10.98403437544856,
                12.874280485373184,
                8.43468666723758,
                4.997378657346835,
                -9.301119096393698,
                7.761351749595189,
                -10.447608562317233,
                -3.8509565771634438,
                -5.660354236161356,
                -8.041645963572345,
                4.899166220127912,
                -6.0815344266558595,
                -9.516757336028357,
                -11.39823194401254,
                10.327431493904248,
                4.136455645991353,
                -8.606523965512649,
                2.4688476648516953,
                -8.452808066961945,
                -8.934342996502311,
                6.905469737421874,
                -0.21932279306270508,
                3.859179217100322,
                9.084269521354853,
                1.88665234697095,
                -11.37982462251867,
                -10.371372832548928,
                7.901706080758042,
                11.711243475394035,
                -6.485809160205238,
                8.049844378584433,
                -9.839043943339,
                5.923830080948942,
                -2.723879852253603,
                -8.252713280628326,
                8.457490166899511,
                5.152055826336305,
                -11.604436858631704,
                -9.120693169146623,
                5.085869289386346,
                9.825952145047289,
                6.295934939165928,
                -7.654637138126519,
                9.400819973377219,
                -11.683014624458169,
                -0.17894380056612744,
                1.4546240913557353,
                -10.17234333849401,
                -8.428552829010332,
                8.089312435074444,
                -11.196045324691578,
                -6.859704017528364,
                15.981135329197931,
                -9.57088497686743,
                -7.963927110606448,
                -0.023012274612500012,
                -10.99698781642139,
                -5.880314145082501,
                -4.8735795115339995,
                0.8294236408628033,
                5.94011335810075,
                3.2845932241398472,
                -11.560444347943758,
                4.449559758565299,
                -12.147670743451577,
                5.849740282301801,
                4.21671645725688,
                -10.824982669667792,
                -2.9063124167780536,
                2.813037676022007,
                -8.659592645462363,
                -6.558698184634265,
                1.2502857071303246,
                -8.63251751578098,
                3.2895233107544914,
                -6.477489380924492,
                -5.852607719549347,
                10.134738649631467,
                5.930192562748683,
                -9.20487536205098,
                -6.37221697038989,
                -5.836030979364587,
                8.796780742558028,
                -10.461905216095724,
                3.9215682212329117,
                6.244964420537978,
                5.73503185746076,
                8.111771113594134,
                7.255153814349276,
                7.260529637173958,
                -5.460770339061726,
                0.7594685794874705,
                2.5836909273973996,
                -7.07417496390144,
                -10.528003820175494,
                13.068768644905253,
                4.232479036579201,
                -9.975386828668386,
                -5.980889987996459,
                -10.113799158671808,
                -8.894776434390103,
                -7.129862524294376,
                -7.5725092315205,
                -5.5246528401111945,
                -9.601814502657279,
                6.42367904415922,
                -0.5865105195656914,
                -7.040263602441368,
                5.6983731498123875,
                -8.86440774936075,
                -9.055200916199347,
                -5.794018207868068,
                -9.74064206237278,
                -5.791215170200835,
                -6.305555614466245,
                0.8392580510491161,
                -4.252122289629523,
                5.873624048920639,
                -9.596261531843762,
                5.386062926311549,
                2.22763718756152,
                -5.077079820202168,
                -4.8864757647175825,
                2.514519312469776,
                13.802257214886435,
                -5.449518059276138,
                -9.495290057592664,
                1.0787022517238303,
                2.213616691785353,
                5.9778309675338,
                -7.1685203994051285,
                2.8481617132217236,
                -10.08790113597368,
                -10.385284596793412,
                3.3448833144113075,
                -9.177597315793797,
                -5.636158104623641,
                13.77402215681259,
                -9.018012411950767,
                3.5431247204253906,
                -12.6223474249723,
                6.149876995781927,
                3.1700368159384986,
                -8.731422471328534,
                -4.938918024432462,
                4.733219514248746,
                -9.576729054673086,
                -7.21754892229193,
                12.01564574909656,
                5.364615527377753,
                -9.187024660847943,
                6.296838652161836,
                -6.605561972232958,
                2.155662510525706,
                -11.08520447160121,
                -4.580701277390983,
                -11.626794357990725,
                -6.747006966926154,
                -10.403006131755763,
                0.40563048036902943,
                1.6036199919721312,
                -6.302564515659058
            ],
            "weighted_projection": [
                -9.716701668632385,
                -7.645337852454579,
                -7.339408247396214,
                2.526694961602092,
                2.598426991294975,
                -10.787252182803485,
                -8.965842087697338,
                -6.201669556146695,
                13.41683201736182,
                -7.116033028531889,
                -8.32500590316745,
                5.608524052184769,
                -12.371065134817167,
                -12.766058131664943,
                -10.593874023559263,
                12.33564118205654,
                5.547114103030507,
                2.1702368542062755,
                -10.957169531543787,
                -4.816355042875605,
                1.7151389732044897,
                4.572262582677633,
                10.0163984102234,
                5.607102776604808,
                -7.365713639531457,
                -11.222644272067654,
                6.170517866557225,
                2.286390730598144,
                -7.686325917706355,
                0.9767637390042796,
                -1.5117831243953028,
                6.981639672700616,
                -8.14344889215019,
                -5.80531445305615,
                5.11703217341384,
                -6.0949797454967545,
                6.455108892314676,
                -10.833895972583026,
                2.833877161083776,
                -6.8327756763243235,
                -11.580054349732789,
                -7.596590083739642,
                -11.961480018711216,
                -4.2244436319187875,
                2.443887152688326,
                -7.431752492934607,
                9.394778595678499,
                -7.901661236758527,
                -12.286163832818639,
                -5.7273617126433765,
                -6.095336335057586,
                8.558656008021599,
                -6.196440184099557,
                -11.561235119026874,
                -7.600027408116629,
                -6.868300046847559,
                8.99886224066497,
                -6.346976193180095,
                -8.861722947360835,
                3.144385861477827,
                -6.919756018908441,
                -4.2927258599119975,
                5.5984657324929366,
                6.273939389149609,
                2.924950078659698,
                -5.614642335805925,
                -3.0481548346359864,
                1.862165692890217,
                -7.05817918568339,
                10.87019819371067,
                3.244456843886037,
                -4.636099448668571,
                5.397817643376653,
                6.036474813756169,
                -6.952221813246275,
                5.9007874616686715,
                10.5754526368319,
                -9.297716776824412,
                5.06951281937029,
                -7.742967587440279,
                12.56128655772272,
                6.543207362647474,
                5.391087454997186,
                -9.820349523401605,
                6.024211848219545,
                -4.9326104936631525,
                -5.216531841553207,
                -6.409396418519289,
                -0.6273981227293453,
                8.101215697697683,
                -9.427468154943323,
                0.1404071266462886,
                4.492001034420749,
                -5.829529758698936,
                4.384541780646134,
                -10.021999869069445,
                -6.800817592576213,
                4.681570561244401,
                7.147327826162761,
                -8.354684065487062,
                5.230018612112107,
                -12.703683055465243,
                3.881093682919825,
                3.865919598827126,
                -8.801113883144822,
                -10.12004577930147,
                3.904694825714689,
                -3.790001305051822,
                -8.584148587684417,
                5.95584877964392,
                -8.403575597719636,
                0.5007580102264247,
                5.052730425390155,
                4.1288591914035635,
                -9.354992697496167,
                2.9041719144521876,
                6.270432259525712,
                -8.559634658250962,
                -11.352392319553243,
                9.196031699593247,
                3.6568490238168008,
                -7.43305228545968,
                2.8978257098625173,
                10.537100998382671,
                -8.369338591342375,
                -11.067140373925266,
                1.844950469384159,
                -7.4902747856604215,
                -6.571344202455997,
                -0.26809632185942367,
                1.1785822661054612,
                -8.73609254336941,
                0.7455865513151831,
                -6.331290642312443,
                9.582693918183514,
                8.569564560135099,
                5.293318324853146,
                -11.769890788199499,
                9.958258620906339,
                -8.389588886582958,
                3.2979012293534833,
                9.969566910700637,
                5.236557841082962,
                4.820563928836785,
                -6.025078345248125,
                -5.317153049720425,
                -16.95189711672728,
                -6.342886052350597,
                6.057776681751702,
                3.681887556131738,
                -7.139349493321803,
                -8.478824513933773,
                -8.586548014207171,
                7.6421526711858885,
                -7.959248808349322,
                -6.215648283721819,
                -3.9306213004478643,
                -7.4501966999408715,
                -11.201491025651073,
                6.846840515720899,
                1.6889963616501618,
                4.307612381869282,
                -6.851992710547452,
                7.41941761112883,
                -8.48793470408707,
                -6.946221510187807,
                -6.418559450612517,
                -2.4509853003305815,
                2.3803824241610156,
                -8.166505974953585,
                4.762883224269615,
                12.209079941158555,
                -13.347366193139566,
                -8.357056923999536,
                -7.838752806272597,
                1.7556478624756489,
                -8.270973729878715,
                5.134620245924785,
                2.0956374563405316,
                6.98262783072125,
                3.545772125514442,
                3.0312112899478154,
                4.152034763494681,
                12.014926404019532,
                2.483516201068992,
                11.221429929662946,
                7.193466752806526,
                -10.863469171319071,
                9.634131937971608,
                -6.07354718530874,
                1.819389338827261,
                -7.6145945073927415,
                6.5570225167595515,
                -3.2163130139471328,
                4.611788688709061,
                -10.043593961937718,
                -8.479390642431168,
                -3.069620755931095,
                -5.885147477911099,
                -10.333122916170751,
                -7.410446338843526,
                -5.315262705608203,
                -8.268381735665004,
                -8.765033049134543,
                -5.956539701991491,
                4.973824612136888,
                6.255841564334849,
                7.706784596009423,
                5.010787366216759,
                -9.162243247362321,
                10.161193336867793,
                5.694476873222893,
                -7.928454637656084,
                -12.145794875831834,
                -8.328682162795525,
                -4.273668010025316,
                -9.047291557708379,
                -7.979537664790398,
                -2.4295349815321963,
                4.692722389005774,
                -4.7467191906930974,
                4.641345968372605,
                -0.09539539354419103,
                3.134276863215849,
                -10.468228876109027,
                -8.866804523579352,
                -7.383562598037748,
                1.7463931185951467,
                -7.44829067123924,
                6.493392013769167,
                4.393845283755407,
                15.294851213066515,
                1.6748542903531611,
                -11.5426553505668,
                2.5351101327602277,
                -9.155071525245484,
                -9.176094702869852,
                13.275560190392849,
                1.658852452140724,
                5.693494035760871,
                -5.922940356315124,
                -8.462925714732183,
                -6.9179184094875685,
                3.3024781286110683,
                4.285752471632635,
                3.8684439036101925,
                0.6042285340375416,
                4.912728907076117,
                -10.477833908429997,
                -8.568950028048768,
                7.861319673270169,
                2.6779702814734443,
                -10.023710010876886,
                8.136850296373876,
                8.628697605837873,
                4.127248448801196,
                -10.313140915864341,
                -9.394151055964867,
                -10.36002465090078,
                1.5673025185455018,
                2.7900146566653095,
                -5.642639370593082,
                3.388029543314724,
                6.025180114748569,
                8.73236450287375,
                2.236974103944231,
                -11.004635502333997,
                3.447014494110558,
                0.9869528607404021,
                -5.752736599120526,
                7.190800561481216,
                -9.1245624256375,
                -14.476639169296234,
                4.327166000533072,
                -6.153689121074302,
                -7.9122500930708926,
                -5.545812446912169,
                6.125616103780557,
                -7.125135543023617,
                1.3280473740096204,
                -7.744728469387775,
                10.27154644390576,
                3.403520141793289,
                6.390233939936478,
                -1.472909705850315,
                -3.5352968518794534,
                -0.7954761449968475,
                0.012484709918382159,
                6.917362763406945,
                -8.757475060140688,
                8.846796176473816,
                5.462913890846317,
                11.27066756037124,
                -12.67645746793362,
                4.320134754837642,
                -9.955022512336782,
                1.187549388527919,
                5.911589800109297,
                3.080038830125089,
                -4.458719544384007,
                -6.841808102111186,
                -5.32846141829024,
                -9.578697616765137,
                0.9406895472497594,
                -9.44684829407806,
                -8.090435097806624,
                -8.10280464822563,
                11.920989431407246,
                1.1515507370322215,
                6.761987937715037,
                2.6402428530354403,
                -8.850977727406063,
                3.423126836559171,
                -7.6507515793702465,
                2.9842031622398215,
                4.31539887406964,
                -4.917220657315172,
                13.217050446423249,
                6.356821289860137,
                7.678372881066976,
                -6.606457024628752,
                -6.549219859998049,
                -3.882562094970315,
                3.2860611630301704,
                -6.894409001287569,
                6.415444873296515,
                -5.576815989056246,
                -6.427591220417391,
                -4.766656460310645,
                -8.167845882548717,
                0.432679702919695,
                -12.386552428293438,
                -0.6962182863002364,
                10.9156862733881,
                4.5600413386274825,
                1.0899816687137187,
                -6.735713538617459,
                6.456872665278469,
                -10.904177326917155,
                13.078585789168267,
                8.56419333657567,
                5.061417403802607,
                -9.52130624478344,
                7.868729878588548,
                -10.401281418051054,
                -3.956483930676013,
                -5.805857048925779,
                -8.21906269237391,
                4.959217849292758,
                -6.229965038269064,
                -9.728873172396563,
                -11.646760655016678,
                10.48849519287082,
                4.180235515094716,
                -8.749816421940565,
                2.4739672641681705,
                -8.643850072393374,
                -9.136870043780064,
                7.009699517007526,
                -0.26153202857608465,
                3.90283045513443,
                9.21360936821821,
                1.8837952059703917,
                -11.63198980748389,
                -10.550178570222869,
                8.01129239429811,
                11.903876766422,
                -6.649541615569476,
                8.167175701328828,
                -9.443472856967759,
                6.00470699341475,
                -2.806092433335236,
                -8.440825226317436,
                8.578295423448017,
                5.210574659571027,
                -11.24523581536044,
                -9.333004155300562,
                5.15491799210477,
                9.981652954872834,
                6.3676183454356465,
                -7.8395437292340535,
                9.546897211018868,
                -11.938588449048234,
                -0.2113385083771868,
                1.4552164314143554,
                -10.364027031904955,
                -8.583519350486078,
                8.200571196176542,
                -11.434922436751595,
                -7.02596707274309,
                16.251106583025845,
                -9.786347682438253,
                -8.146844149617122,
                -0.06236047350578247,
                -11.238909342416875,
                -6.028128099324494,
                -4.603589277876457,
                0.8109044694500956,
                6.021097227884636,
                3.3736239826373864,
                -11.812052368439312,
                4.494149286642298,
                -12.410098753572917,
                5.936963942327041,
                4.26009140258524,
                -11.065733330800569,
                -3.0018555078294407,
                2.825464455701716,
                -8.598868196565888,
                -6.65908836983172,
                1.2394540998187682,
                -8.821128921786721,
                3.319669216849186,
                -6.631647201846484,
                -5.941349767711349,
                10.29175586153151,
                6.004192736781228,
                -9.41300907101511,
                -6.525840804659309,
                -5.980218442618976,
                8.930972573166708,
                -10.690780984479725,
                3.9955476174896183,
                6.328863128602567,
                5.819059419384502,
                8.237460432308815,
                7.365332743547671,
                7.366450327286495,
                -5.603009335750379,
                0.7406691819712348,
                2.5955990777575795,
                -7.241282079487554,
                -10.41895198425604,
                13.277242400189817,
                4.2745370004677525,
                -10.192401520277436,
                -6.123802351196642,
                -9.107073401900317,
                -9.097963085115609,
                -7.255032724849616,
                -7.749745416142543,
                -5.6610701384107545,
                -9.476963932722812,
                6.511410836292346,
                -0.6295652440931089,
                -7.206230917128694,
                5.765779499914952,
                -9.054752127079107,
                -9.259421930748557,
                -5.874031366876614,
                -9.959053339391026,
                -5.931633399986274,
                -6.462228530425842,
                0.8233366867580809,
                -4.3729026956498585,
                5.9573277375856675,
                -9.808206632116782,
                5.4539694095342535,
                2.243156939400483,
                -5.2149654421006355,
                -5.022796405657945,
                2.5330582091431038,
                14.035952604022757,
                -5.557633758305306,
                -9.708017088782485,
                1.0702612760578076,
                2.221145998028658,
                6.04285227440356,
                -7.331878748388311,
                2.895255564226358,
                -10.31667711642084,
                -10.617506190958117,
                3.3671524483648896,
                -9.388857808205142,
                -5.770719577701278,
                14.000192904768335,
                -9.190298904191478,
                3.5826402348876814,
                -12.895219693722774,
                6.237025954507497,
                3.202699857608766,
                -8.92545086937997,
                -5.069714090966842,
                4.801241424179421,
                -9.416000118302483,
                -7.212241378760607,
                12.216001286464559,
                5.4344477993138245,
                -9.393926438085291,
                6.382996114614537,
                -6.758223128979258,
                2.159914587178052,
                -10.951412621283742,
                -4.704955046535259,
                -11.53700820691783,
                -6.909767161090813,
                -10.625032344982593,
                0.3785045055478953,
                1.604321811675887,
                -6.206735191930035
            ]
        }
    }
}