{
    "args": {
        "model": "llama_8b",
        "dataset": "tsm_sums",
        "token_mode": "last_token",
        "ood": true,
        "smoke_test": false,
        "components": 50,
        "mode": "pca",
        "model_name": "llama_8b",
        "target_dataset": "tsm_first",
        "datetime": "2026-05-05 23:33:51"
    },
    "test_metrics": {
        "test_metrics_by_layer": [
            {
                "n_total": 500,
                "auroc": 0.531344,
                "accuracy": 0.506,
                "f1": 0.023715415019762844,
                "tpr_at_fpr_0_05": 0.012,
                "optimal_threshold_f1": 0.5,
                "optimal_threshold_acc": 0.5,
                "aupr": 0.5204561546296363
            },
            {
                "n_total": 500,
                "auroc": 0.698832,
                "accuracy": 0.622,
                "f1": 0.6427221172022685,
                "tpr_at_fpr_0_05": 0.276,
                "optimal_threshold_f1": 0.5,
                "optimal_threshold_acc": 0.5,
                "aupr": 0.7431190704224861
            },
            {
                "n_total": 500,
                "auroc": 0.7334400000000001,
                "accuracy": 0.68,
                "f1": 0.689922480620155,
                "tpr_at_fpr_0_05": 0.348,
                "optimal_threshold_f1": 0.5,
                "optimal_threshold_acc": 0.5,
                "aupr": 0.7652027500845806
            },
            {
                "n_total": 500,
                "auroc": 0.809248,
                "accuracy": 0.742,
                "f1": 0.7261146496815286,
                "tpr_at_fpr_0_05": 0.384,
                "optimal_threshold_f1": 0.5,
                "optimal_threshold_acc": 0.5,
                "aupr": 0.8283899784060909
            },
            {
                "n_total": 500,
                "auroc": 0.878528,
                "accuracy": 0.8,
                "f1": 0.7942386831275721,
                "tpr_at_fpr_0_05": 0.476,
                "optimal_threshold_f1": 0.5,
                "optimal_threshold_acc": 0.5,
                "aupr": 0.8844900079846194
            },
            {
                "n_total": 500,
                "auroc": 0.92448,
                "accuracy": 0.828,
                "f1": 0.8200836820083682,
                "tpr_at_fpr_0_05": 0.62,
                "optimal_threshold_f1": 0.5,
                "optimal_threshold_acc": 0.5,
                "aupr": 0.9286470748247162
            },
            {
                "n_total": 500,
                "auroc": 0.9083519999999999,
                "accuracy": 0.824,
                "f1": 0.8078602620087336,
                "tpr_at_fpr_0_05": 0.624,
                "optimal_threshold_f1": 0.5,
                "optimal_threshold_acc": 0.5,
                "aupr": 0.9201237339575482
            },
            {
                "n_total": 500,
                "auroc": 0.901008,
                "accuracy": 0.81,
                "f1": 0.7855530474040632,
                "tpr_at_fpr_0_05": 0.664,
                "optimal_threshold_f1": 0.5,
                "optimal_threshold_acc": 0.5,
                "aupr": 0.915769296364856
            },
            {
                "n_total": 500,
                "auroc": 0.89728,
                "accuracy": 0.796,
                "f1": 0.7571428571428571,
                "tpr_at_fpr_0_05": 0.656,
                "optimal_threshold_f1": 0.5,
                "optimal_threshold_acc": 0.5,
                "aupr": 0.9125774177304354
            },
            {
                "n_total": 500,
                "auroc": 0.8897600000000001,
                "accuracy": 0.776,
                "f1": 0.7358490566037735,
                "tpr_at_fpr_0_05": 0.604,
                "optimal_threshold_f1": 0.5,
                "optimal_threshold_acc": 0.5,
                "aupr": 0.9056949671310609
            },
            {
                "n_total": 500,
                "auroc": 0.939664,
                "accuracy": 0.872,
                "f1": 0.8626609442060086,
                "tpr_at_fpr_0_05": 0.752,
                "optimal_threshold_f1": 0.5,
                "optimal_threshold_acc": 0.5,
                "aupr": 0.9438411631972664
            },
            {
                "n_total": 500,
                "auroc": 0.940032,
                "accuracy": 0.862,
                "f1": 0.8503253796095445,
                "tpr_at_fpr_0_05": 0.76,
                "optimal_threshold_f1": 0.5,
                "optimal_threshold_acc": 0.5,
                "aupr": 0.9419654351163651
            },
            {
                "n_total": 500,
                "auroc": 0.946208,
                "accuracy": 0.866,
                "f1": 0.8533916849015317,
                "tpr_at_fpr_0_05": 0.78,
                "optimal_threshold_f1": 0.5,
                "optimal_threshold_acc": 0.5,
                "aupr": 0.9477093730616848
            },
            {
                "n_total": 500,
                "auroc": 0.924384,
                "accuracy": 0.832,
                "f1": 0.8116591928251121,
                "tpr_at_fpr_0_05": 0.68,
                "optimal_threshold_f1": 0.5,
                "optimal_threshold_acc": 0.5,
                "aupr": 0.9281593850160055
            },
            {
                "n_total": 500,
                "auroc": 0.927664,
                "accuracy": 0.84,
                "f1": 0.8214285714285714,
                "tpr_at_fpr_0_05": 0.68,
                "optimal_threshold_f1": 0.5,
                "optimal_threshold_acc": 0.5,
                "aupr": 0.9325280571396855
            },
            {
                "n_total": 500,
                "auroc": 0.929808,
                "accuracy": 0.83,
                "f1": 0.806378132118451,
                "tpr_at_fpr_0_05": 0.716,
                "optimal_threshold_f1": 0.5,
                "optimal_threshold_acc": 0.5,
                "aupr": 0.9344892525390596
            },
            {
                "n_total": 500,
                "auroc": 0.9392639999999999,
                "accuracy": 0.826,
                "f1": 0.7981438515081206,
                "tpr_at_fpr_0_05": 0.716,
                "optimal_threshold_f1": 0.5,
                "optimal_threshold_acc": 0.5,
                "aupr": 0.9438703787754119
            },
            {
                "n_total": 500,
                "auroc": 0.936512,
                "accuracy": 0.836,
                "f1": 0.8101851851851852,
                "tpr_at_fpr_0_05": 0.764,
                "optimal_threshold_f1": 0.5,
                "optimal_threshold_acc": 0.5,
                "aupr": 0.9417533971253852
            },
            {
                "n_total": 500,
                "auroc": 0.936624,
                "accuracy": 0.822,
                "f1": 0.7915690866510539,
                "tpr_at_fpr_0_05": 0.716,
                "optimal_threshold_f1": 0.5,
                "optimal_threshold_acc": 0.5,
                "aupr": 0.9407614978243676
            },
            {
                "n_total": 500,
                "auroc": 0.932368,
                "accuracy": 0.814,
                "f1": 0.7811764705882352,
                "tpr_at_fpr_0_05": 0.728,
                "optimal_threshold_f1": 0.5,
                "optimal_threshold_acc": 0.5,
                "aupr": 0.9377043745322682
            },
            {
                "n_total": 500,
                "auroc": 0.926592,
                "accuracy": 0.794,
                "f1": 0.7553444180522565,
                "tpr_at_fpr_0_05": 0.652,
                "optimal_threshold_f1": 0.5,
                "optimal_threshold_acc": 0.5,
                "aupr": 0.9296161752588301
            },
            {
                "n_total": 500,
                "auroc": 0.929392,
                "accuracy": 0.8,
                "f1": 0.7619047619047619,
                "tpr_at_fpr_0_05": 0.68,
                "optimal_threshold_f1": 0.5,
                "optimal_threshold_acc": 0.5,
                "aupr": 0.9335090559908578
            },
            {
                "n_total": 500,
                "auroc": 0.93016,
                "accuracy": 0.798,
                "f1": 0.7577937649880095,
                "tpr_at_fpr_0_05": 0.672,
                "optimal_threshold_f1": 0.5,
                "optimal_threshold_acc": 0.5,
                "aupr": 0.9354187075405788
            },
            {
                "n_total": 500,
                "auroc": 0.930256,
                "accuracy": 0.812,
                "f1": 0.7772511848341233,
                "tpr_at_fpr_0_05": 0.72,
                "optimal_threshold_f1": 0.5,
                "optimal_threshold_acc": 0.5,
                "aupr": 0.9363064416280462
            },
            {
                "n_total": 500,
                "auroc": 0.921888,
                "accuracy": 0.816,
                "f1": 0.784037558685446,
                "tpr_at_fpr_0_05": 0.704,
                "optimal_threshold_f1": 0.5,
                "optimal_threshold_acc": 0.5,
                "aupr": 0.9298253584326578
            },
            {
                "n_total": 500,
                "auroc": 0.918736,
                "accuracy": 0.806,
                "f1": 0.7717647058823529,
                "tpr_at_fpr_0_05": 0.672,
                "optimal_threshold_f1": 0.5,
                "optimal_threshold_acc": 0.5,
                "aupr": 0.9251121694013127
            },
            {
                "n_total": 500,
                "auroc": 0.925584,
                "accuracy": 0.826,
                "f1": 0.8009153318077803,
                "tpr_at_fpr_0_05": 0.7,
                "optimal_threshold_f1": 0.5,
                "optimal_threshold_acc": 0.5,
                "aupr": 0.9304304441717159
            },
            {
                "n_total": 500,
                "auroc": 0.9216799999999999,
                "accuracy": 0.822,
                "f1": 0.7963386727688787,
                "tpr_at_fpr_0_05": 0.696,
                "optimal_threshold_f1": 0.5,
                "optimal_threshold_acc": 0.5,
                "aupr": 0.9276570441953071
            },
            {
                "n_total": 500,
                "auroc": 0.9177759999999999,
                "accuracy": 0.822,
                "f1": 0.7915690866510539,
                "tpr_at_fpr_0_05": 0.696,
                "optimal_threshold_f1": 0.5,
                "optimal_threshold_acc": 0.5,
                "aupr": 0.925626438243214
            },
            {
                "n_total": 500,
                "auroc": 0.92104,
                "accuracy": 0.812,
                "f1": 0.7761904761904762,
                "tpr_at_fpr_0_05": 0.712,
                "optimal_threshold_f1": 0.5,
                "optimal_threshold_acc": 0.5,
                "aupr": 0.9280251325674351
            },
            {
                "n_total": 500,
                "auroc": 0.9152319999999999,
                "accuracy": 0.79,
                "f1": 0.7432762836185819,
                "tpr_at_fpr_0_05": 0.676,
                "optimal_threshold_f1": 0.5,
                "optimal_threshold_acc": 0.5,
                "aupr": 0.9258227760671608
            },
            {
                "n_total": 500,
                "auroc": 0.9200159999999998,
                "accuracy": 0.79,
                "f1": 0.7432762836185819,
                "tpr_at_fpr_0_05": 0.688,
                "optimal_threshold_f1": 0.5,
                "optimal_threshold_acc": 0.5,
                "aupr": 0.9296752512094719
            },
            {
                "n_total": 500,
                "auroc": 0.8999199999999999,
                "accuracy": 0.784,
                "f1": 0.7378640776699029,
                "tpr_at_fpr_0_05": 0.672,
                "optimal_threshold_f1": 0.5,
                "optimal_threshold_acc": 0.5,
                "aupr": 0.9170538702975303
            }
        ],
        "mean_projection_metrics": {
            "n_total": 500,
            "auroc": 0.9475039999999999,
            "accuracy": 0.812,
            "f1": 0.7793427230046949,
            "tpr_at_fpr_0_05": 0.744,
            "optimal_threshold_f1": 0.5,
            "optimal_threshold_acc": 0.5,
            "aupr": 0.9499441203167034
        },
        "weighted_projection_metrics": {
            "n_total": 500,
            "auroc": 0.948672,
            "accuracy": 0.828,
            "f1": 0.8009259259259259,
            "tpr_at_fpr_0_05": 0.772,
            "optimal_threshold_f1": 0.5,
            "optimal_threshold_acc": 0.5,
            "aupr": 0.9511591407058069
        },
        "weighted_projection": [
            9.17110386040526,
            -0.9411253462928434,
            -1.5829872366173625,
            -0.1381491091568102,
            1.3891169119669813,
            1.5505197091620817,
            2.276891333332441,
            1.0112646590766354,
            2.17831625879805,
            6.294157926482737,
            -0.8391580497947044,
            8.883076403266546,
            -1.6432966351858929,
            7.8326388584219195,
            3.4310563950546915,
            0.563009106451605,
            2.446038041022514,
            0.210241243427568,
            -0.8432873534178621,
            10.364396471216624,
            3.5969740805812935,
            4.521086680055811,
            16.12484047664065,
            -1.7973041239620968,
            4.00419864173956,
            -0.5638582880540818,
            -3.9701666207026327,
            -1.2802356607747545,
            7.669833992419072,
            9.807445585388347,
            -4.431879554922682,
            8.782975494525015,
            -0.06773712410368514,
            -1.3505088740461961,
            0.9696003127040878,
            1.1469549691753123,
            -1.7484053829825927,
            0.5649160049573649,
            8.711178073067382,
            -0.3028741082463095,
            -1.6448969896209005,
            -2.848059572742604,
            -2.2335141240604663,
            2.233712086891048,
            12.199106382545803,
            0.5898747701432221,
            7.96641884426628,
            8.00235321307098,
            -5.061159169107072,
            -0.46983173161722536,
            9.504687998703837,
            3.143585742910658,
            -0.19721784239447934,
            3.8558554897948416,
            12.603204809987881,
            7.308139122276619,
            8.284107180685506,
            6.6831706570813445,
            13.380509934268368,
            1.0943264360174885,
            -1.825910222151766,
            3.206595961219641,
            9.143186691965953,
            8.446360854302744,
            -0.38819714201129385,
            8.0884040216357,
            2.7847802667376977,
            -1.1689862375001931,
            -0.25920682332621126,
            11.430974206100123,
            9.34868637768276,
            8.16347883608085,
            -1.5681218067854161,
            0.07724245650606783,
            4.041794146604729,
            8.425680524414988,
            15.107390103257675,
            5.515974938853788,
            5.609152737914299,
            8.306244974527683,
            -1.114108275333733,
            9.682662637063428,
            14.00584385766912,
            4.829430152252717,
            3.472271723158549,
            -0.18033339921203517,
            8.206569456082322,
            0.27465560158811675,
            3.4006005868749116,
            1.1263422115973092,
            -2.291053729490395,
            -0.2547569901293226,
            8.750482685211864,
            9.639292701237803,
            7.523316028439858,
            3.4026125678720676,
            2.907361651034504,
            7.908120455480953,
            0.9442901088549907,
            -6.266263558711353,
            3.066442310982089,
            2.0671665341225296,
            10.792947247760923,
            0.35121053281796344,
            0.8867881790249633,
            2.46117661360643,
            5.582657688380622,
            1.5842204857116535,
            6.45498386279446,
            0.6525557049985347,
            6.652287417164515,
            9.727564838837528,
            2.3263059272792606,
            1.4341194266754465,
            -0.6081685064499659,
            -1.0994988311868752,
            13.339245127173786,
            -0.8156054934248327,
            7.069168781567452,
            5.574389312939674,
            9.198504135598373,
            5.666473743657638,
            -0.5571414698041781,
            -1.216448980707321,
            5.061827176960026,
            -0.6578689166188019,
            1.269789838032431,
            8.646267957952597,
            1.0826747615823287,
            10.193096650184508,
            2.8474640613013733,
            -0.9907203112983516,
            -2.694493391149235,
            4.877112557670798,
            4.992902187066803,
            2.261606299171298,
            -1.5099857466171698,
            9.4811346961699,
            0.8126412720799743,
            0.7818735563161421,
            1.6661658668562052,
            2.4188057758323205,
            3.920728538280765,
            -8.226914907741032,
            4.545704373155095,
            1.9577687467308351,
            9.265790340739482,
            -0.0014693638133667641,
            5.821422088059067,
            4.527541267092828,
            -0.4881614649341752,
            3.532181300507496,
            -7.1285057424471345,
            8.909717836074288,
            7.880575058832539,
            8.128108246471863,
            3.2660980023301187,
            0.6692173003600126,
            15.986070695392003,
            5.437064475001067,
            0.01031187498913047,
            -5.350922160961361,
            10.560679133559061,
            10.578194875239685,
            -1.0480196122212908,
            6.230138489342367,
            -2.4720841883499043,
            4.195360731572626,
            0.5199836456700866,
            1.6788772933115166,
            10.36328393650831,
            8.4171861362907,
            5.058092845487847,
            12.090955250212673,
            0.05638438335620066,
            12.17104149339251,
            -6.49614380263753,
            -0.7836386961664245,
            1.107593353867488,
            6.6533262529159405,
            3.1727852286335265,
            11.460454570419529,
            2.3697511463284684,
            2.5687781418089775,
            8.626963292325115,
            1.5816126163719997,
            12.774011871617327,
            6.203629010365255,
            4.63913676421236,
            6.958560953497172,
            9.964582757332058,
            -5.1304326993263025,
            15.290589264217477,
            1.2893143463077479,
            8.430734526394149,
            -3.1472396190924536,
            -0.43319102697281514,
            -4.428506061693296,
            8.091291901163178,
            3.196817472886215,
            6.494864197477992,
            8.19017238990733,
            -0.6431227198108697,
            4.423204401876865,
            9.237833688581318,
            -5.6264274973721315,
            13.843503130971722,
            -2.272144375967664,
            5.378090944131961,
            -2.4061848913875417,
            -3.2141158336905318,
            -0.8670563936199159,
            10.139776169567646,
            3.9226019802004846,
            -1.5203322531839996,
            1.0330912149587423,
            10.316768962878289,
            4.80722519598819,
            7.8985616541090735,
            2.2691742358072213,
            9.438222102582921,
            -6.952842836840675,
            10.16707976497293,
            0.45082874464447875,
            1.5232171549584563,
            4.438089523830677,
            -2.9064840076018768,
            11.845204001370131,
            8.268430706986676,
            4.693359662617991,
            3.2239949894634665,
            2.534078745384342,
            4.670066579590206,
            -6.465923941401746,
            0.3831465506001278,
            2.830546085001275,
            14.071049760116182,
            0.830575587015672,
            -5.962060455581333,
            0.4473819531239283,
            8.453124340242251,
            9.775876676761163,
            6.526077067046652,
            10.416794514040507,
            1.3976729277517712,
            -1.0546568728071066,
            -7.077028296933784,
            0.32372835117945004,
            -1.2503385448807698,
            9.526482596121012,
            -3.549971306312045,
            -5.561569836780837,
            1.2051721493499734,
            -11.887342382376886,
            -2.841597395084943,
            -6.299245203885253,
            -4.672540976118231,
            -7.244037400286344,
            -10.099650085692739,
            -10.495518741154553,
            -7.918553232632457,
            -9.81904514336957,
            -7.623031217128162,
            -9.19494176630127,
            -11.368918236375935,
            3.979442546422279,
            -6.783445427528133,
            -8.164443091179303,
            -10.43237865477854,
            -1.3386457449055913,
            -1.245290424829559,
            -5.030730459973566,
            -2.833495975396193,
            -3.813661084727155,
            -3.5881939800660403,
            0.4961552425441019,
            -5.694937579441849,
            -9.196535194268812,
            -5.193099790112081,
            -9.917810306145638,
            0.208835647722764,
            -3.352617381934288,
            -6.105044295147384,
            -3.564177728693555,
            -4.003446695318697,
            -9.437452741981181,
            -2.888547854790844,
            -7.658566229280129,
            -4.898627685779198,
            -4.31454313111541,
            -11.230842007429326,
            -4.5504993435152175,
            -12.602210331446852,
            -5.452278355943793,
            -7.211759324149105,
            -8.086817773907383,
            -6.689790990996372,
            -3.3889392037400556,
            -8.983705857217604,
            -4.488469318380396,
            -2.4443861702908083,
            -4.046465015737155,
            -6.548744506673142,
            1.7475434015117377,
            -1.9116578855857165,
            -4.44666946729814,
            -6.416407742638668,
            -10.306654302849369,
            -5.317207101380967,
            -5.571944854007492,
            -0.16202252573232856,
            -5.736635305663551,
            -8.214993939144819,
            -7.870161714112101,
            -5.970496260667858,
            -4.732654612837425,
            -9.372666897649177,
            -4.466188331773312,
            -4.447353130729386,
            -7.4396761956068564,
            -6.779700497793563,
            -4.306798454103302,
            -8.613517312879525,
            -7.571335700581585,
            -4.065864227717789,
            -7.864902212662163,
            -0.44295231346841085,
            -6.428403113987849,
            -9.585038862362065,
            -13.657007444152375,
            -9.740099345995656,
            -1.6759150379142214,
            -6.392410333859821,
            -0.6517428062656258,
            -5.638867655206771,
            -9.124541510888621,
            -3.878256903062585,
            -9.691822010471606,
            -16.034731436463755,
            -10.643134473221128,
            -6.301625890142893,
            -10.799644832705617,
            -7.637626383355199,
            -11.381990625643741,
            -4.365925357281041,
            -6.838697014035327,
            -2.9706564384766265,
            -4.888215818995001,
            -8.191823323380602,
            -6.676315579284014,
            -9.650348433645657,
            -5.525881012686922,
            -8.88475559814189,
            -5.134667731116241,
            -7.698781214865781,
            -8.657293791133988,
            -4.964409930619259,
            -3.592960376053217,
            -2.2435816209036257,
            -4.9708397796457815,
            -3.1026103926355804,
            -2.742042814151942,
            -6.837150886027406,
            -3.9129414415441817,
            -2.4132703940701776,
            -8.401580596383871,
            -9.920868660520195,
            -3.539026854997486,
            -8.459826851596146,
            -5.862178871078774,
            -6.308526834315287,
            -7.714198414127144,
            -5.826134100676068,
            -6.141305295909951,
            -3.22335505966717,
            -6.240164855542362,
            0.5771558011922795,
            -8.46531415851139,
            -1.9686807505835995,
            -6.655523267518985,
            -4.364952804217307,
            -7.905648220093278,
            -3.714647884560785,
            -8.306012494769206,
            -8.270440752579649,
            -4.661106615429544,
            -3.5280329023793398,
            -8.990478164023518,
            -3.422326129033347,
            -6.667813257791182,
            -9.96347562296157,
            -10.772323658153509,
            -14.316544091273808,
            -12.581797450059398,
            -5.70551179515847,
            -7.834755141151394,
            -4.5275628164630755,
            -8.077251320723127,
            -9.704978209655343,
            -13.640112597990704,
            -8.814891912626628,
            -4.84239240342784,
            -6.822709618937202,
            -8.953366827079705,
            -2.2151640756951756,
            -10.092926830026606,
            -5.780942776506651,
            -12.510372455394014,
            1.5403633950699296,
            -8.214017442967746,
            -7.274416352157865,
            2.0926336100808594,
            -13.000765894833803,
            -4.672184862549226,
            -6.401376620032299,
            -2.1683052189087713,
            -6.490302872160293,
            -6.370667721588293,
            -3.1436479719582686,
            -7.304706032669669,
            -6.829892717492098,
            -11.281344419174884,
            -2.933797550276373,
            -8.232008960030468,
            -6.372333542196039,
            -4.784644915452092,
            -5.7983159130815505,
            -8.668431397546636,
            -7.4033424297693236,
            -7.829227736546815,
            -2.7201691378844806,
            -5.067363866687001,
            -10.454234986278406,
            -5.447665525455823,
            -11.084492651127228,
            -4.29812997761756,
            -5.684123327834487,
            -14.410572986071527,
            -5.116920066226476,
            -11.204768904083585,
            -11.26679433021661,
            -7.631291666987414,
            5.729465192874881,
            -9.247608578621943,
            -4.6264896161551805,
            -10.97661148379785,
            -6.80987993447381,
            -5.304641828720047,
            -7.991343268421232,
            -6.710382387185644,
            -12.315870785170318,
            -1.635963021708835,
            -2.5931325809892343,
            -5.314892427412017,
            -2.27064300511156,
            -10.09869339835864,
            -4.649836693032189,
            -7.047309781270413,
            -4.512314724556964,
            -8.837382005657307,
            -10.228620208846209,
            -6.024847408854069,
            -3.8055658735632485,
            -6.948967357814336,
            -3.3949762565991737,
            -9.741234900839935,
            -0.9658260858060708,
            -7.379813149510169,
            -7.32319198224905,
            -11.356852898196271,
            -9.564129089817104,
            -9.378237111821102,
            -8.791803804243383,
            -6.059164676707499,
            -4.623878586355867,
            4.068319697992345,
            -6.5662163710506745,
            -5.348008846561474,
            -6.6982886332698355,
            -5.128626441023423,
            -0.6288339436982272,
            -3.3776019596557134,
            -4.2285193237881336,
            -7.460962425935135,
            -6.299385178642504,
            -4.1063144759597,
            -3.719751746556508,
            -4.1220713698976805,
            -11.564232306304538,
            -5.966396571861023,
            -2.631998603250762,
            -5.800607631636095,
            -7.689165436587482,
            -7.23554229792577,
            -6.085775623271246,
            4.910506772326509,
            -1.7201693732179275,
            -2.798933703560847,
            -4.807654617829034,
            -7.758195580394869
        ],
        "mean_projection": [
            8.970027406176671,
            -0.9091969547432242,
            -1.4184219157267808,
            -1.3476287079536224,
            1.4129530095227705,
            1.5880325625043004,
            2.2080390355036683,
            1.0608273737040297,
            4.101974388425075,
            6.131888704771382,
            -0.8524589516795972,
            8.560250948469735,
            -1.6370298259698628,
            7.641674257415031,
            3.3234099306391207,
            0.5923821825516598,
            2.421824996515104,
            -0.9967936466997498,
            -0.8492696717451155,
            10.19435322147587,
            3.538951444209226,
            4.4359235518237,
            15.673776965489699,
            -1.7324703462842297,
            3.8811851132497996,
            -0.6440959055963056,
            -3.793021048905917,
            -1.1182197330611443,
            7.490440878035124,
            9.627294521537381,
            -4.249883126757041,
            8.552646872546442,
            0.04943436744210732,
            -1.282557355831825,
            -0.41339879234926646,
            1.0608465682484094,
            -1.700692342941271,
            0.6031668274070767,
            8.455512502473605,
            -0.26344922163077633,
            -1.5458784405582882,
            -3.825066931007953,
            -3.3044053441046946,
            2.2453009393318433,
            11.892443311260951,
            0.48214086139530543,
            7.783296870844635,
            7.826562391767439,
            -4.903400923899632,
            -0.4921009431920476,
            9.320344344937507,
            3.092953178625499,
            -0.2049578527300158,
            3.8701591711411014,
            12.372823694017477,
            7.15238883183961,
            8.104809394104821,
            6.583343747170722,
            12.977595498629919,
            1.2149283804535032,
            -1.741172863884297,
            3.172411364696083,
            9.100194614519483,
            8.221644021775509,
            1.5551560893247602,
            7.81222133036869,
            2.7007229385806046,
            -1.1074849831437763,
            -0.30689706751812207,
            11.116108452646456,
            9.241379598851093,
            7.8611935101559824,
            -1.482206727605689,
            0.15664324326594758,
            3.9171993427366796,
            8.212046382220068,
            14.651948360027385,
            5.382864192024851,
            5.518292395646628,
            8.108084817889715,
            -1.046720202208106,
            9.520821660077786,
            13.672780067739057,
            4.713809834831838,
            3.4950907711259953,
            -0.1442409068004474,
            7.962271128485902,
            0.2777863489339073,
            3.3171443900108435,
            -0.11607408815243059,
            -2.22562478996626,
            -1.431929976763854,
            8.534817475469458,
            9.365421046169628,
            7.345918115774955,
            3.3437280200808965,
            2.846914091694105,
            7.770815523061753,
            -0.2860189822192795,
            -6.151440359705959,
            2.98957455195603,
            1.9794284157034778,
            10.539146487743304,
            -0.7858944679565695,
            -0.3389978028282066,
            2.46320863025798,
            5.526173697980546,
            1.6045467892347614,
            6.2748960346486875,
            0.6077902521357256,
            6.56318140955928,
            9.41836760172129,
            2.2406863833174895,
            1.45328244529766,
            -0.6108663103775114,
            -1.0859638399503353,
            12.977788227135608,
            -0.8111611486248321,
            6.867421779501042,
            5.391602732347309,
            8.911615656631366,
            5.474888590871994,
            -0.539088240800418,
            -1.1378903882470985,
            4.948046262116388,
            -0.6313445866899071,
            1.2715276249080483,
            8.404334591720927,
            1.0679380653632078,
            9.960596394771093,
            2.8000415021974594,
            -0.9217558196210922,
            -2.646925738733516,
            4.770774305157129,
            4.8513725245249,
            2.2269323609689273,
            -1.4996575266624625,
            9.215210072907425,
            -0.32958725569953135,
            0.7883637619315393,
            1.5976474974519639,
            4.313648925480405,
            3.8177337728490612,
            -7.980850381271664,
            4.436662182485527,
            1.9295717793041671,
            9.131585970212704,
            -1.129503143604018,
            5.655380659688575,
            4.414845179453515,
            -0.39539130125359545,
            3.4821044094733717,
            -6.907236983308887,
            8.668948135155876,
            7.752448451853058,
            7.8988019099047895,
            3.244279074556171,
            -0.5672539520898845,
            15.476590384865146,
            5.361325753613261,
            0.039811081507517415,
            -5.1589079362658055,
            10.227785882899495,
            10.353250889435701,
            -1.0463528553327068,
            6.039225101016975,
            -2.428989512117155,
            4.0449755896442445,
            0.5945370226526818,
            1.687179227185831,
            10.135103554433469,
            8.239765568067556,
            4.915735280054892,
            11.880540182634924,
            0.06110105341380185,
            11.931466693181473,
            -6.3066204277828195,
            -0.7756096549773658,
            1.1201098952097253,
            6.541249000814806,
            2.938392703244172,
            11.09941164482782,
            2.300616859367816,
            2.509269466386582,
            8.43253507381942,
            1.4950941453130873,
            12.522994266170755,
            6.1047063422358105,
            4.574560017826197,
            6.855133262139639,
            9.8032051913099,
            -4.96227455874235,
            14.951382439109171,
            -0.08801095899243129,
            8.2142978201211,
            -3.00508503160381,
            -1.5646606177218136,
            -4.114730965932693,
            7.867829577503985,
            3.1158416094043093,
            6.334035556528908,
            7.985288084313694,
            -0.5547521614565153,
            4.367039617912898,
            9.011605182567337,
            -5.509540775713861,
            13.490740437686524,
            -2.184720050194995,
            5.277205043369554,
            -2.376216079490763,
            -3.124018910618959,
            -0.8254951521477135,
            9.872463141140873,
            3.9440409404352175,
            -1.460757416779841,
            1.0284264766689715,
            10.060820393051014,
            4.683448190691823,
            7.678055696511541,
            2.20782270891395,
            9.300764259934242,
            -6.736396447700519,
            9.948503834497163,
            0.42951399644694543,
            1.4312652222525895,
            4.1923124486624825,
            -2.781367808406092,
            11.641313759940397,
            8.077530929480284,
            4.659315602886025,
            3.253819587047727,
            2.45969181318865,
            4.5472157121608685,
            -6.275603962356974,
            0.3484832318286022,
            2.7665189161188457,
            13.78426022450412,
            0.874158102897847,
            -5.842256226334648,
            0.3646334285856285,
            8.290040454853248,
            9.500876688848576,
            6.3595936369850365,
            10.17563970520747,
            1.3646258008991043,
            -1.0022108014882924,
            -6.882798002383669,
            0.26321484665477507,
            -1.1852498852764481,
            9.2418780560698,
            -3.832478957103184,
            -5.450390805788403,
            1.2085491617583914,
            -13.743507634795458,
            -2.7007588516576453,
            -6.0444965507622515,
            -4.603413910852256,
            -7.0147034667893085,
            -9.835735894003706,
            -10.179635724282734,
            -8.209341937539522,
            -9.50211866184138,
            -7.405311631056099,
            -8.962006993334226,
            -11.09035227899675,
            3.9291370309012934,
            -6.771488459051578,
            -7.8864493721298565,
            -10.053188446451486,
            -1.2653159425653429,
            -1.2075373551224793,
            -4.775322944642972,
            -2.7713158426008393,
            -3.685922633972227,
            -3.4798500207771568,
            0.5246252289720836,
            -5.710635436792856,
            -8.925820482126221,
            -5.071583671497368,
            -9.523087133052817,
            0.2056314742736029,
            -3.2491519848197585,
            -5.907780459064651,
            -3.40421839922383,
            -3.8634113157069425,
            -9.08806746811428,
            -2.7731317495758234,
            -7.905915695730388,
            -4.785270695759801,
            -4.169664738032627,
            -10.844267817691728,
            -4.369750194951788,
            -12.2198190312426,
            -5.307268404212188,
            -6.91526941858708,
            -7.809707691332065,
            -6.4275853818313085,
            -3.246403506168656,
            -9.036232082437222,
            -4.287559764715182,
            -2.374530019356908,
            -3.972378608312739,
            -6.3994853381266905,
            1.7514882470579638,
            -1.8477522343863115,
            -4.362344313429887,
            -6.246410574118466,
            -9.965857773507784,
            -5.132022839335188,
            -5.370228157674003,
            -0.13000541730368237,
            -5.593341356500528,
            -8.427987891291817,
            -7.612547651812324,
            -6.173527033679199,
            -4.514225228660463,
            -9.10152892645669,
            -4.289938898590172,
            -4.268907229834291,
            -7.148469721374326,
            -6.564667024239301,
            -4.1849811473627785,
            -8.354721385652052,
            -7.321694061964381,
            -3.9099658012921745,
            -7.611060943906447,
            -0.4048177485607486,
            -6.203860330241967,
            -9.30332864570323,
            -13.30019831743416,
            -9.449443843397802,
            -1.5495230697208369,
            -6.108070603905865,
            -0.5918743818280158,
            -5.520747565434615,
            -8.786230546598116,
            -3.6750707645561076,
            -10.43783224720988,
            -15.52240908546046,
            -10.270172228349198,
            -6.086779552167829,
            -10.48383758408722,
            -7.381680216817969,
            -11.004139324202502,
            -4.1966065697643,
            -6.641738844905143,
            -3.155966654551801,
            -4.693688163227024,
            -7.981643252592519,
            -6.49125922619294,
            -9.399473615994879,
            -5.373468715475403,
            -8.60698797873797,
            -4.988874569418564,
            -7.5034170364946,
            -8.412909058243752,
            -4.797874447056389,
            -3.412051979767432,
            -2.1661540500684637,
            -4.7387261707362125,
            -2.9362678825712796,
            -2.6899928828860666,
            -6.635043999043478,
            -3.7543018095324974,
            -2.337378989477157,
            -8.328743442192241,
            -9.49417578543892,
            -3.367462514296774,
            -8.222804439384717,
            -5.603357587074124,
            -6.076382553285652,
            -7.4666524026201,
            -5.7964522120890525,
            -5.966715149995659,
            -3.1530265324292293,
            -6.034386660654681,
            0.5838641037885608,
            -8.12076320529694,
            -3.1799524218605106,
            -6.476330786796058,
            -4.185412665785475,
            -7.66861600722645,
            -3.5550778636878544,
            -7.975729162731854,
            -8.423685818158477,
            -4.561338641651369,
            -3.371301550103501,
            -8.738696024044637,
            -3.316545976814977,
            -6.484724218962788,
            -9.659395714132616,
            -10.48836171258556,
            -15.813892794607469,
            -13.787298101190283,
            -5.537512624969371,
            -7.59316078954707,
            -4.367417347271091,
            -7.825133419994067,
            -9.43332931764843,
            -13.655925163705195,
            -8.989856866257869,
            -4.738244659607464,
            -6.556162737247264,
            -8.679547317266062,
            -2.0999866275132195,
            -9.69895480241914,
            -5.578856464118006,
            -12.15029115364269,
            1.4725495957874117,
            -7.941685787250187,
            -7.15358637601323,
            2.115792713567568,
            -12.590028571272512,
            -4.529674373769622,
            -6.197941652010654,
            -2.082266328303932,
            -6.312910570120191,
            -6.1871449507954095,
            -3.0190710859282484,
            -7.026754182115468,
            -6.589493278911277,
            -10.941289168871176,
            -2.8610437449892174,
            -8.372623808734481,
            -6.157397262630002,
            -4.637022032636564,
            -5.646864751363773,
            -8.49513868624164,
            -7.163629260019209,
            -7.593823963050421,
            -2.5968984676139155,
            -4.861301335270232,
            -10.164113514817274,
            -5.264277010279685,
            -10.694937773565268,
            -4.184364194432305,
            -5.454902306802684,
            -13.940252485634208,
            -4.979865524689349,
            -10.863476070165934,
            -11.994941227372294,
            -7.421851783128298,
            5.540757711739328,
            -8.95121523932834,
            -4.487450431847309,
            -12.737159633138484,
            -7.070573278994028,
            -5.122787994477852,
            -7.801364514703693,
            -6.521072385415223,
            -13.193920102473236,
            -1.53114397677442,
            -2.514063513243171,
            -5.055277822802407,
            -2.208873048128495,
            -9.838352372357338,
            -4.565325180531427,
            -6.848960221128929,
            -4.362171685806629,
            -8.528399839999349,
            -9.89102011579408,
            -5.923160122559681,
            -3.6992401545844737,
            -6.7405465419773085,
            -3.500436946842889,
            -9.433647213390964,
            -0.9158302203253363,
            -7.1474213038861905,
            -7.080436637365667,
            -11.095121033792879,
            -9.194155262036945,
            -9.15633156429776,
            -8.515829337337813,
            -6.255766311463411,
            -4.457756395344832,
            3.924705593192058,
            -6.362800864991216,
            -5.171538384112571,
            -6.473932733840678,
            -4.961947419056141,
            -0.57259974111082,
            -3.246965419674515,
            -4.128437654005767,
            -7.229697603616565,
            -6.1515067954195075,
            -4.004830581531762,
            -3.600910819229138,
            -4.021687983451574,
            -11.221054125983787,
            -5.753373162231907,
            -2.5704704742436846,
            -5.662212330500568,
            -7.4398394632365745,
            -6.9588353597210055,
            -5.896335297975568,
            4.807803152777332,
            -1.7476978433602484,
            -2.665704464348495,
            -4.639718936394109,
            -7.4391808456425075
        ]
    }
}