{
    "args": {
        "model": "llama_8b",
        "dataset": "drlAttack_multi_llm_mixing",
        "token_mode": "last_token",
        "ood": true,
        "smoke_test": false,
        "components": 50,
        "mode": "pca",
        "model_name": "llama_8b",
        "target_dataset": "drlAttack_paraphrase_attacks_llm",
        "datetime": "2026-05-06 23:08:38"
    },
    "test_metrics": {
        "test_metrics_by_layer": [
            {
                "n_total": 500,
                "auroc": 0.6356959999999999,
                "accuracy": 0.634,
                "f1": 0.7223065250379362,
                "tpr_at_fpr_0_05": 0.0,
                "optimal_threshold_f1": 0.5,
                "optimal_threshold_acc": 0.5,
                "aupr": 0.5800908353949513
            },
            {
                "n_total": 500,
                "auroc": 0.9580639999999999,
                "accuracy": 0.902,
                "f1": 0.8989690721649485,
                "tpr_at_fpr_0_05": 0.868,
                "optimal_threshold_f1": 0.5,
                "optimal_threshold_acc": 0.5,
                "aupr": 0.9642031799145854
            },
            {
                "n_total": 500,
                "auroc": 0.9641599999999999,
                "accuracy": 0.924,
                "f1": 0.9191489361702128,
                "tpr_at_fpr_0_05": 0.872,
                "optimal_threshold_f1": 0.5,
                "optimal_threshold_acc": 0.5,
                "aupr": 0.9726932318170207
            },
            {
                "n_total": 500,
                "auroc": 0.9667680000000001,
                "accuracy": 0.894,
                "f1": 0.8835164835164835,
                "tpr_at_fpr_0_05": 0.872,
                "optimal_threshold_f1": 0.5,
                "optimal_threshold_acc": 0.5,
                "aupr": 0.9733405716900092
            },
            {
                "n_total": 500,
                "auroc": 0.9853600000000001,
                "accuracy": 0.888,
                "f1": 0.8738738738738738,
                "tpr_at_fpr_0_05": 0.94,
                "optimal_threshold_f1": 0.5,
                "optimal_threshold_acc": 0.5,
                "aupr": 0.9883239852046525
            },
            {
                "n_total": 500,
                "auroc": 0.989568,
                "accuracy": 0.894,
                "f1": 0.8814317673378076,
                "tpr_at_fpr_0_05": 0.964,
                "optimal_threshold_f1": 0.5,
                "optimal_threshold_acc": 0.5,
                "aupr": 0.9913466372747439
            },
            {
                "n_total": 500,
                "auroc": 0.9843679999999999,
                "accuracy": 0.89,
                "f1": 0.8769574944071589,
                "tpr_at_fpr_0_05": 0.928,
                "optimal_threshold_f1": 0.5,
                "optimal_threshold_acc": 0.5,
                "aupr": 0.9874114247350138
            },
            {
                "n_total": 500,
                "auroc": 0.9714079999999999,
                "accuracy": 0.864,
                "f1": 0.8425925925925926,
                "tpr_at_fpr_0_05": 0.896,
                "optimal_threshold_f1": 0.5,
                "optimal_threshold_acc": 0.5,
                "aupr": 0.977243538029445
            },
            {
                "n_total": 500,
                "auroc": 0.985824,
                "accuracy": 0.896,
                "f1": 0.8839285714285714,
                "tpr_at_fpr_0_05": 0.944,
                "optimal_threshold_f1": 0.5,
                "optimal_threshold_acc": 0.5,
                "aupr": 0.9891857161617406
            },
            {
                "n_total": 500,
                "auroc": 0.983952,
                "accuracy": 0.896,
                "f1": 0.8839285714285714,
                "tpr_at_fpr_0_05": 0.948,
                "optimal_threshold_f1": 0.5,
                "optimal_threshold_acc": 0.5,
                "aupr": 0.9877653460542506
            },
            {
                "n_total": 500,
                "auroc": 0.997024,
                "accuracy": 0.89,
                "f1": 0.8764044943820225,
                "tpr_at_fpr_0_05": 0.98,
                "optimal_threshold_f1": 0.5,
                "optimal_threshold_acc": 0.5,
                "aupr": 0.997279013212673
            },
            {
                "n_total": 500,
                "auroc": 0.9954719999999999,
                "accuracy": 0.864,
                "f1": 0.8425925925925926,
                "tpr_at_fpr_0_05": 0.98,
                "optimal_threshold_f1": 0.5,
                "optimal_threshold_acc": 0.5,
                "aupr": 0.9959119371481118
            },
            {
                "n_total": 500,
                "auroc": 0.9939039999999999,
                "accuracy": 0.866,
                "f1": 0.8452655889145496,
                "tpr_at_fpr_0_05": 0.968,
                "optimal_threshold_f1": 0.5,
                "optimal_threshold_acc": 0.5,
                "aupr": 0.9942690264110492
            },
            {
                "n_total": 500,
                "auroc": 0.993232,
                "accuracy": 0.888,
                "f1": 0.8738738738738738,
                "tpr_at_fpr_0_05": 0.964,
                "optimal_threshold_f1": 0.5,
                "optimal_threshold_acc": 0.5,
                "aupr": 0.9940824771210576
            },
            {
                "n_total": 500,
                "auroc": 0.996624,
                "accuracy": 0.912,
                "f1": 0.9035087719298246,
                "tpr_at_fpr_0_05": 0.988,
                "optimal_threshold_f1": 0.5,
                "optimal_threshold_acc": 0.5,
                "aupr": 0.9967531047224087
            },
            {
                "n_total": 500,
                "auroc": 0.991568,
                "accuracy": 0.928,
                "f1": 0.9224137931034483,
                "tpr_at_fpr_0_05": 0.956,
                "optimal_threshold_f1": 0.5,
                "optimal_threshold_acc": 0.5,
                "aupr": 0.9928468296089265
            },
            {
                "n_total": 500,
                "auroc": 0.992592,
                "accuracy": 0.896,
                "f1": 0.8839285714285714,
                "tpr_at_fpr_0_05": 0.948,
                "optimal_threshold_f1": 0.5,
                "optimal_threshold_acc": 0.5,
                "aupr": 0.9935164816806085
            },
            {
                "n_total": 500,
                "auroc": 0.995568,
                "accuracy": 0.894,
                "f1": 0.8814317673378076,
                "tpr_at_fpr_0_05": 0.984,
                "optimal_threshold_f1": 0.5,
                "optimal_threshold_acc": 0.5,
                "aupr": 0.9960449068913803
            },
            {
                "n_total": 500,
                "auroc": 0.9978880000000001,
                "accuracy": 0.944,
                "f1": 0.940677966101695,
                "tpr_at_fpr_0_05": 0.984,
                "optimal_threshold_f1": 0.5,
                "optimal_threshold_acc": 0.5,
                "aupr": 0.998044805077238
            },
            {
                "n_total": 500,
                "auroc": 0.997152,
                "accuracy": 0.914,
                "f1": 0.9059080962800875,
                "tpr_at_fpr_0_05": 0.976,
                "optimal_threshold_f1": 0.5,
                "optimal_threshold_acc": 0.5,
                "aupr": 0.9972805850800134
            },
            {
                "n_total": 500,
                "auroc": 0.997824,
                "accuracy": 0.93,
                "f1": 0.9247311827956989,
                "tpr_at_fpr_0_05": 0.984,
                "optimal_threshold_f1": 0.5,
                "optimal_threshold_acc": 0.5,
                "aupr": 0.9978825114005423
            },
            {
                "n_total": 500,
                "auroc": 0.995536,
                "accuracy": 0.914,
                "f1": 0.906318082788671,
                "tpr_at_fpr_0_05": 0.972,
                "optimal_threshold_f1": 0.5,
                "optimal_threshold_acc": 0.5,
                "aupr": 0.9955324024983006
            },
            {
                "n_total": 500,
                "auroc": 0.993968,
                "accuracy": 0.902,
                "f1": 0.891832229580574,
                "tpr_at_fpr_0_05": 0.98,
                "optimal_threshold_f1": 0.5,
                "optimal_threshold_acc": 0.5,
                "aupr": 0.9944614315326886
            },
            {
                "n_total": 500,
                "auroc": 0.994592,
                "accuracy": 0.902,
                "f1": 0.891832229580574,
                "tpr_at_fpr_0_05": 0.976,
                "optimal_threshold_f1": 0.5,
                "optimal_threshold_acc": 0.5,
                "aupr": 0.9950768396276288
            },
            {
                "n_total": 500,
                "auroc": 0.9964,
                "accuracy": 0.91,
                "f1": 0.9010989010989011,
                "tpr_at_fpr_0_05": 0.98,
                "optimal_threshold_f1": 0.5,
                "optimal_threshold_acc": 0.5,
                "aupr": 0.99666612475262
            },
            {
                "n_total": 500,
                "auroc": 0.997984,
                "accuracy": 0.918,
                "f1": 0.9106753812636166,
                "tpr_at_fpr_0_05": 0.988,
                "optimal_threshold_f1": 0.5,
                "optimal_threshold_acc": 0.5,
                "aupr": 0.9980117529522338
            },
            {
                "n_total": 500,
                "auroc": 0.9974240000000001,
                "accuracy": 0.918,
                "f1": 0.9106753812636166,
                "tpr_at_fpr_0_05": 0.992,
                "optimal_threshold_f1": 0.5,
                "optimal_threshold_acc": 0.5,
                "aupr": 0.9975660940349435
            },
            {
                "n_total": 500,
                "auroc": 0.9990559999999999,
                "accuracy": 0.942,
                "f1": 0.9384288747346072,
                "tpr_at_fpr_0_05": 0.992,
                "optimal_threshold_f1": 0.5,
                "optimal_threshold_acc": 0.5,
                "aupr": 0.9990783094718156
            },
            {
                "n_total": 500,
                "auroc": 0.99704,
                "accuracy": 0.924,
                "f1": 0.9181034482758621,
                "tpr_at_fpr_0_05": 0.992,
                "optimal_threshold_f1": 0.5,
                "optimal_threshold_acc": 0.5,
                "aupr": 0.9971431232861057
            },
            {
                "n_total": 500,
                "auroc": 0.997408,
                "accuracy": 0.924,
                "f1": 0.9181034482758621,
                "tpr_at_fpr_0_05": 0.988,
                "optimal_threshold_f1": 0.5,
                "optimal_threshold_acc": 0.5,
                "aupr": 0.9974409925122819
            },
            {
                "n_total": 500,
                "auroc": 0.994032,
                "accuracy": 0.93,
                "f1": 0.9250535331905781,
                "tpr_at_fpr_0_05": 0.964,
                "optimal_threshold_f1": 0.5,
                "optimal_threshold_acc": 0.5,
                "aupr": 0.9945824293238408
            },
            {
                "n_total": 500,
                "auroc": 0.995984,
                "accuracy": 0.94,
                "f1": 0.9364406779661016,
                "tpr_at_fpr_0_05": 0.992,
                "optimal_threshold_f1": 0.5,
                "optimal_threshold_acc": 0.5,
                "aupr": 0.9961395380773953
            },
            {
                "n_total": 500,
                "auroc": 0.995312,
                "accuracy": 0.904,
                "f1": 0.8942731277533039,
                "tpr_at_fpr_0_05": 0.98,
                "optimal_threshold_f1": 0.5,
                "optimal_threshold_acc": 0.5,
                "aupr": 0.9951688663985117
            }
        ],
        "mean_projection_metrics": {
            "n_total": 500,
            "auroc": 0.998816,
            "accuracy": 0.924,
            "f1": 0.9177489177489178,
            "tpr_at_fpr_0_05": 0.992,
            "optimal_threshold_f1": 0.5,
            "optimal_threshold_acc": 0.5,
            "aupr": 0.9988846055912566
        },
        "weighted_projection_metrics": {
            "n_total": 500,
            "auroc": 0.9989600000000001,
            "accuracy": 0.922,
            "f1": 0.9154013015184381,
            "tpr_at_fpr_0_05": 0.992,
            "optimal_threshold_f1": 0.5,
            "optimal_threshold_acc": 0.5,
            "aupr": 0.9990055233974148
        },
        "scores": {
            "mean_projection": [
                -8.606523965512649,
                4.896894115999124,
                -9.15901441552496,
                -8.532673416440556,
                10.18254347485485,
                1.7997943331123727,
                -11.845575605705202,
                -6.776362606170109,
                3.543713137979547,
                -5.691992874564891,
                -12.608715379768563,
                9.408991000994751,
                -9.975386828668386,
                0.6370717683831482,
                4.8284166936833905,
                -7.5278329167195706,
                -0.897093393725429,
                -9.195456098972446,
                -7.0782778915909565,
                4.7123900506965954,
                -8.368446805241076,
                8.58270234312962,
                2.2418261278925673,
                -3.6020601490649486,
                1.2719697496235485,
                -6.739648463602702,
                3.9024665665487817,
                -8.876009827201736,
                -8.657327000483207,
                -6.591367018992467,
                0.44843152104983497,
                7.454675695247378,
                -1.1961572761384256,
                4.14942095037584,
                -6.792434749202786,
                7.287715864155235,
                4.281573706710189,
                7.867075069904679,
                6.600116149053012,
                10.07707170259541,
                -2.664838678868497,
                -12.496089431932354,
                1.7065743556163762,
                -7.47770460256709,
                -8.252713280628326,
                -6.477489380924492,
                -9.601814502657279,
                5.666607251506486,
                1.0035653409472924,
                -5.444895038547673,
                10.057333570260234,
                -6.622000593359431,
                4.49365915407443,
                1.7652808616049023,
                -12.918511947420564,
                6.582347044183303,
                -7.966176612477058,
                -8.573753932382454,
                1.3535213209723758,
                3.557088911973962,
                -14.202731964193193,
                -9.566309541698754,
                -9.187024660847943,
                -6.263949110522717,
                -7.406272179297789,
                -8.928667290905574,
                -6.4937255518170085,
                8.452521430339278,
                -11.05096752580631,
                -7.2409628324326585,
                -6.910534202464147,
                10.938913317420344,
                8.538576639168042,
                6.74512334890604,
                -5.636158104623641,
                -9.52986214507139,
                -6.599048587268642,
                -12.6223474249723,
                4.214469901977818,
                -10.857247331090742,
                6.74512334890604,
                -1.972984703287207,
                -9.67476818014695,
                -6.192407078347956,
                8.43599121872114,
                10.336402059356491,
                -7.506948076100425,
                0.2481335599365359,
                1.091247189992361,
                -5.890316029246012,
                11.419061105622445,
                11.450615122694941,
                -7.283556608091774,
                -5.685532734081093,
                11.833741850571323,
                -7.205983005794044,
                5.6706908430443494,
                2.2992086575692956,
                -8.758779572240336,
                3.109549999336257,
                1.399232004501459,
                -6.276114231555531,
                -9.476818645059518,
                0.5016250900306368,
                0.06178217903988473,
                -8.199662020174857,
                3.489484009862836,
                -7.5725092315205,
                -3.10438123968686,
                -6.192979958461302,
                10.568027085303346,
                -10.08401544908191,
                -6.588760851364439,
                -10.94395076977392,
                -8.635826090037817,
                1.4646461311202477,
                -10.13903544169753,
                -10.162822033115075,
                -5.608993563659838,
                -6.1667803207640945,
                -5.383174080617383,
                6.070886713401386,
                -7.4300982308569,
                -3.9981454508921326,
                5.19423392204511,
                -1.5375006800730588,
                13.736536747928852,
                5.534783057593464,
                3.1302094443367317,
                -6.4533226754189945,
                9.778388554330952,
                -7.186061003477568,
                -7.5090539968866965,
                7.680591072077925,
                4.744886862997797,
                -8.144961846688599,
                10.64607439967712,
                -5.265943443376104,
                9.7628688226754,
                -8.341521764505197,
                1.164017518530657,
                -6.181274771880271,
                15.38436364119094,
                -5.645005311303751,
                -8.039034966000761,
                -6.002852539590255,
                -7.578150211397342,
                -8.63765694181125,
                -8.920445801101636,
                -6.082316699192388,
                3.3182992958206827,
                -6.739357075455503,
                -0.10591361617746878,
                4.166604364629935,
                -3.1153388720526993,
                2.7422979247625627,
                12.858048069865376,
                6.912736250359574,
                7.4222233915104185,
                11.144078918669443,
                -13.196343368903142,
                5.575647891029693,
                5.782891448444034,
                -6.936834680257379,
                5.94840298632727,
                6.711750507872053,
                5.023791743416874,
                4.7758959493860536,
                -5.182258853144043,
                7.569592763808319,
                -2.4652384570231547,
                -3.8509565771634438,
                2.524474035356625,
                2.516422354308566,
                2.2804918669340073,
                6.871770834813089,
                -4.035312449790761,
                4.051447591426528,
                7.004966628639987,
                -13.849334425249841,
                3.0677035032398527,
                1.525483632533098,
                -6.859704017528364,
                -6.884074078168069,
                -8.86440774936075,
                0.2815291739990675,
                7.458020314203942,
                -0.39322662451793716,
                7.647911028154429,
                -8.503614321746664,
                -8.201933759875402,
                -10.1433204856816,
                -14.268979885657712,
                -11.389916685114798,
                5.503383583760905,
                13.914396888161631,
                4.746542185999189,
                -7.911296061630904,
                -7.654637138126519,
                -6.906711169358164,
                5.828831405079957,
                2.619810013753793,
                -6.872613959508792,
                9.820002667942227,
                -6.558698184634265,
                1.9985620619389985,
                -9.424114952386873,
                3.668211987939169,
                -1.2316382734628513,
                -11.179772706281693,
                -8.63251751578098,
                -0.2902079090725797,
                14.396977613400004,
                -7.673458672762643,
                8.945353123172792,
                -10.816424374893023,
                -7.644389489076684,
                -10.240662538716013,
                -5.349478820420371,
                -6.747006966926154,
                6.183435553559277,
                -1.411147745886362,
                9.771218434225913,
                -11.384618714101041,
                -3.5312880895421803,
                3.865954322689673,
                4.798641588772481,
                -4.425915950176679,
                -9.922934846989897,
                4.741292448608724,
                4.23969074767092,
                -0.19212690322061193,
                -8.108762880438348,
                -10.567226279561805,
                4.284262433925538,
                6.161633519094976,
                -10.304942874287367,
                15.951263699123237,
                -12.4715917738785,
                -8.813857214638332,
                -8.129495226923371,
                13.463253349780585,
                8.263781201393986,
                -11.39823194401254,
                11.554683509372813,
                -0.08691707397974856,
                -12.283891173816714,
                5.767665665690593,
                5.165604207855399,
                -10.566223685534084,
                0.28810319389585953,
                -5.37017254435356,
                -3.431514043748938,
                8.865599375930083,
                6.510385079474085,
                -3.9276441091118754,
                -9.344028817134385,
                -7.737814689516702,
                5.718022487771824,
                -7.47835563791355,
                6.72752704723293,
                -6.152355501960396,
                1.1183100010825624,
                -0.7997623414952795,
                10.055923010646593,
                -7.169770929508896,
                -7.371887865483694,
                8.406710908869798,
                -10.331951273217044,
                -5.964908709857981,
                9.126902915021624,
                -6.027981698580014,
                2.934416740356717,
                -14.983857224927702,
                -7.8340789218356175,
                9.039261588985049,
                -9.305138830413116,
                -4.153953987532263,
                -6.676558537342545,
                -6.216257805802152,
                1.546837768155311,
                -8.048798564573888,
                -9.293477967231548,
                7.149928722857288,
                -9.740402079973647,
                8.570095413575126,
                -4.643476447823291,
                3.2447243716533634,
                -3.782593059013358,
                -9.902079633487084,
                4.3790703195579965,
                -11.37982462251867,
                11.63145900294126,
                1.287666067017861,
                -0.20651455659363746,
                -7.800842075965904,
                -11.636602430852085,
                8.988485121533483,
                -6.852480284390978,
                5.1869253752650195,
                -6.05651174178086,
                -8.29768768030923,
                5.093684166265703,
                -8.397311170316462,
                -8.058992188963629,
                -10.98403437544856,
                5.745616471913558,
                0.5628804106771423,
                2.4109064468780126,
                2.1558195331393724,
                3.263312891391408,
                3.007407512596014,
                -4.345254063624249,
                -0.6531465225633915,
                -8.061066503554049,
                7.053825813732745,
                -3.4004548249901374,
                -0.19605064794523472,
                -10.833044257920665,
                -8.659592645462363,
                5.884260658767605,
                -10.846493506729331,
                -8.855048762234603,
                -9.497907354753762,
                -7.456555129064117,
                -9.54607951569461,
                -0.4383982512015623,
                -8.29473687298701,
                0.7079836370601292,
                -6.861519897360438,
                1.4841369328024425,
                1.781878552708615,
                -6.5644288377936455,
                5.114573440595932,
                7.269854724501037,
                -8.237213066434782,
                5.626628625649271,
                -5.279045847284775,
                2.522852573602519,
                13.67743763360126,
                1.0424428599268636,
                -8.327447530925149,
                3.6160627231362668,
                4.085320990613876,
                9.897261998151414,
                -2.975072175504722,
                9.836565533799481,
                -11.219051665934812,
                -9.73432628972585,
                -7.4184688360810815,
                -9.627690951812532,
                -9.635226997661281,
                4.598395163585401,
                -4.176745259010212,
                8.37967597721166,
                -8.491549317191268,
                -10.392105390436285,
                9.323431956007193,
                5.046196860605296,
                2.9727183179746084,
                -8.373460460809442,
                3.917118100223329,
                -7.154632275907096,
                8.78238139902829,
                1.1049285870488053,
                -7.267282406277388,
                -7.292004059186764,
                4.817428922315026,
                -5.794018207868068,
                -8.354634609857264,
                -9.836283726712665,
                3.2816886113436183,
                2.042613633548738,
                -4.604373989190217,
                7.195103268794431,
                4.14270990562184,
                -4.590362139499229,
                -4.80640083008004,
                -9.220700280609451,
                -6.756125467867379,
                8.630717017836425,
                6.080331277584441,
                -8.549768426693204,
                -12.1265302477209,
                -4.033420976563332,
                8.95585111871519,
                6.887762342327674,
                2.5463651598632167,
                -2.8872885828790618,
                -3.3498363727727805,
                -12.801012394822521,
                -0.9100802030307275,
                -0.42156145295004366,
                -4.913288764006707,
                2.2417813148239154,
                7.966545632623041,
                0.6430397621264128,
                -4.620473378128113,
                18.76847058136092,
                2.7349484988093615,
                -3.110523156223575,
                -9.115910966331597,
                -12.626365678889607,
                -4.361079420799661,
                -7.229025841112924,
                -7.3948981379973135,
                -10.878597250233685,
                6.449038122124383,
                1.7836313505490242,
                2.0677533060162063,
                6.140448262353649,
                -0.34304825239976633,
                -10.824982669667792,
                14.070752065703026,
                1.098116349376293,
                5.40162610982235,
                -7.621374707319604,
                -10.154047214701121,
                -10.447608562317233,
                -6.6783878017611675,
                7.1465186581196125,
                2.3125516847372256,
                -8.335173769667923,
                1.9177772358353147,
                3.892967123024173,
                -14.48897562652575,
                -8.442074755907905,
                -12.8318181154904,
                -13.906002557819392,
                6.771365404894042,
                -7.864457021239539,
                -8.797819885611933,
                3.3144562198302174,
                13.762788190797469,
                2.4613218433059147,
                -7.267521244363861,
                -1.0084210158340206,
                -5.5246528401111945,
                6.467775200481803,
                -5.918989390830754,
                -8.26629281218866,
                -7.016504256432194,
                -9.234305427402473,
                3.285164758566488,
                5.037681291206391,
                -9.687951457798112,
                1.657369035501309,
                -7.657248471418226,
                -6.485809160205238,
                7.736472688299607,
                -2.927137478183195,
                -8.95124600299334,
                1.5177390634862746,
                -8.97933289522419,
                6.458004669630388,
                -0.01884582816123296,
                -10.385284596793412,
                4.219438001253292,
                -1.3845218185437,
                4.83508020948994,
                -6.176850135751552,
                -7.559686033724648,
                6.124747661596383,
                4.999958436080532,
                5.721337854242444,
                -7.661591855704646,
                -8.438176082053934,
                -7.633827435589113,
                2.7828827327166192,
                -1.234080418729568,
                -11.959776133384556,
                9.701946593165903,
                -10.403006131755763,
                -6.56877745835425,
                -8.521512109843384,
                -5.43929792762388,
                4.476241336144655,
                10.62300406700109,
                8.828564458039061,
                3.308625893962024,
                -11.683014624458169,
                -6.70419875986181,
                -7.079724261526528,
                10.209653644223433,
                8.061263633038918,
                -7.210157317135398,
                -12.446704848535555,
                -4.955590720645919,
                -11.254657287514563,
                -6.0815344266558595,
                -8.569395487831478,
                6.326360019019297,
                2.017442004347909,
                12.39176662095837,
                -8.428552829010332,
                -0.8318953750521442,
                4.979699824541149,
                -9.797683403173297,
                -6.417868655651795,
                7.995160740039206
            ],
            "weighted_projection": [
                -8.749816421940565,
                4.94032734237068,
                -9.358540509725632,
                -8.71380508093468,
                10.34054625455054,
                1.7894288132121605,
                -11.768916925935287,
                -6.879041185539763,
                3.57524046190932,
                -5.829529758698936,
                -12.268289973618106,
                9.542597328852096,
                -10.192401520277436,
                0.6065335578938115,
                5.090261848322606,
                -7.651043419434227,
                -0.9494337682184427,
                -9.37194957856818,
                -7.246677646951651,
                4.7608108076339475,
                -8.568950028048768,
                8.698757292465968,
                2.24693155538726,
                -3.7043472824013826,
                1.2558279980718694,
                -6.894409001287569,
                3.9314785595590047,
                -9.079250728619026,
                -8.850977727406063,
                -6.7386544829612625,
                0.4180975686286351,
                7.555609115396226,
                -1.2583275255128086,
                4.188938901156364,
                -6.956487894687676,
                7.372425990529994,
                4.31379646020989,
                7.967893344305193,
                6.67932819550048,
                10.22591580027633,
                -2.688912450757644,
                -12.771901222477506,
                1.7105785969535297,
                -7.6471140738937775,
                -8.440825226317436,
                -6.631647201846484,
                -9.476963932722812,
                5.7269128263841385,
                0.9760060121839723,
                -5.356684379932913,
                10.202049294078833,
                -6.776311434553013,
                4.536697082219088,
                1.7536575627288329,
                -13.195598398755411,
                6.665593724951709,
                -8.112097610007002,
                -8.393628829042871,
                1.4021443834584844,
                3.583384364936277,
                -14.166036517899228,
                -9.777077318106995,
                -9.393926438085291,
                -6.409014450033758,
                -7.579608006361203,
                -9.133919641718032,
                -6.648592368690447,
                8.573818645307206,
                -10.957169531543787,
                -7.410446338843526,
                -7.063619220425922,
                11.110707802023759,
                8.658497152468703,
                6.828554425993289,
                -5.770719577701278,
                -9.749955753533486,
                -6.758409340073924,
                -12.895219693722774,
                4.236896829059666,
                -11.094189388972934,
                6.828554425993289,
                -2.0451114471986354,
                -9.891250815536146,
                -6.349336921634846,
                8.548414304335262,
                10.499960867206028,
                -7.685120252001538,
                0.22058453007274773,
                1.0694515125075004,
                -6.03258342118121,
                11.585197691775862,
                11.623580861275597,
                -7.450481444107123,
                -5.773318727520834,
                12.00216710739184,
                -7.376663530349675,
                5.737101489791868,
                2.295153457305254,
                -8.951002453263976,
                3.1329126478691567,
                1.3925265048016757,
                -6.432772987124,
                -9.629730276854664,
                0.4748651814413662,
                0.022152360308539704,
                -8.381858073525708,
                3.509444759101807,
                -7.749745416142543,
                -3.198415315395029,
                -6.351058241644511,
                10.720607694578787,
                -10.27395455084158,
                -6.749819594574015,
                -11.17768352786481,
                -8.798947516551044,
                1.4606176946368055,
                -10.36002465090078,
                -9.162243247362321,
                -5.751748027613255,
                -6.320218383284945,
                -5.52016042828713,
                6.134097217476332,
                -7.605333691286028,
                -4.107956338854232,
                5.257051449474762,
                -1.6020667613241937,
                13.956658298417642,
                5.598275919268618,
                3.1509314016803818,
                -6.606457024628752,
                9.920862906571202,
                -7.359428721646091,
                -7.686325917706355,
                7.776311048567427,
                4.795211278760092,
                -8.322678705472478,
                10.805958574614728,
                -5.39699638371367,
                9.906157791789317,
                -8.474787322340214,
                1.1459860499621568,
                -6.331290642312443,
                15.634527578212833,
                -5.725261482348545,
                -8.167845882548717,
                -5.948620395688437,
                -7.759596987219853,
                -8.616625492084008,
                -9.1245624256375,
                -6.229438094797241,
                3.345783308523225,
                -6.851992710547452,
                -0.14463188996516135,
                4.197326623851285,
                -3.2163130139471328,
                2.7546684574729605,
                13.050592071451211,
                7.00452271912342,
                7.513657995857278,
                11.302087749468221,
                -13.428879846837207,
                5.643966844966801,
                5.84513275141269,
                -7.100946836852662,
                6.016568117427959,
                6.798502156905001,
                5.089483072655793,
                4.817669989016569,
                -5.318104602394279,
                7.6665578085557,
                -2.5462975984827527,
                -3.956483930676013,
                2.534357667105014,
                2.523037760576242,
                2.27697993455922,
                6.949365598203408,
                -4.148645988694249,
                4.086936580575364,
                7.096015823120242,
                -13.810599174612237,
                3.150998010144638,
                1.5154820742981772,
                -7.02596707274309,
                -7.05817918568339,
                -9.054752127079107,
                0.25909491187928074,
                7.554254949741139,
                -0.4339912086273277,
                7.747903646035897,
                -8.697386629313227,
                -8.389588886582958,
                -10.37542829962817,
                -13.961108114341517,
                -11.310225581027806,
                5.573158779165876,
                14.146250399311356,
                4.795449651012878,
                -8.090435097806624,
                -7.8395437292340535,
                -7.072018850638899,
                5.89549192880548,
                2.630756494924087,
                -7.043394764580674,
                9.966053907704381,
                -6.65908836983172,
                1.9939289110168565,
                -9.635026665126764,
                3.6912601084246095,
                -1.2947051779055128,
                -11.250230905780375,
                -8.821128921786721,
                -0.33450160900102766,
                14.62944214408627,
                -7.797041818173084,
                9.065206445211626,
                -10.718837999243405,
                -7.497718568342716,
                -10.420576742017886,
                -5.481108666798887,
                -6.909767161090813,
                6.255393308820521,
                -1.472909705850315,
                9.915339446007634,
                -11.222644272067654,
                -3.6281369884731296,
                3.897905636691918,
                4.8484686254371905,
                -4.550242875023801,
                -10.145291119788089,
                4.857379373518202,
                4.277538482998371,
                -0.24130135892423304,
                -8.291146284676929,
                -10.796385810877005,
                4.322401969995479,
                6.226797337860658,
                -10.529785683538611,
                16.20596450638357,
                -12.402618082064455,
                -8.48793470408707,
                -8.318620134551352,
                13.679118967026566,
                8.379114244369525,
                -11.646760655016678,
                11.736203931420517,
                -0.13066216434701433,
                -12.373806708339323,
                5.829419791545146,
                5.22314276622062,
                -10.46064060016705,
                0.2568004608209062,
                -5.508867653849641,
                -3.5352968518794534,
                8.994026374467976,
                6.586986530288868,
                -4.022635950204783,
                -9.552428785454996,
                -7.861050565245642,
                5.810742893862224,
                -7.596590083739642,
                6.811840809058985,
                -6.306976726467004,
                1.103770731466629,
                -0.8424799064224807,
                10.196362695690503,
                -7.339408247396214,
                -7.485502926763762,
                8.520346482013997,
                -10.561313164314496,
                -6.0563058500067335,
                9.25588231948234,
                -6.175980346056164,
                2.951494901141013,
                -14.968645131410725,
                -7.689338613296718,
                9.174526945130925,
                -9.512953278231407,
                -4.2632637621731115,
                -6.848729935085117,
                -6.36675567505067,
                1.527983362159656,
                -8.24052315932886,
                -9.131288707122359,
                7.252815440728183,
                -9.955022512336782,
                8.686297591956242,
                -4.766656460310645,
                3.296752056012068,
                -3.884593321336863,
                -10.12004577930147,
                4.4233502657422035,
                -11.63198980748389,
                11.799634244500782,
                1.2724140134165738,
                -0.2420923839964428,
                -7.928454637656084,
                -11.886095885237511,
                9.12431879552554,
                -6.952221813246275,
                5.2503689520947,
                -6.1415666491305565,
                -8.489365618562548,
                5.146416969981823,
                -8.584148587684417,
                -8.243043019957563,
                -10.904177326917155,
                5.813398880268006,
                0.5393226905045306,
                2.4174454886911447,
                2.1554988148040324,
                3.2844424787805204,
                3.022118317970007,
                -4.461541538267329,
                -0.709221278163897,
                -8.192551421258509,
                7.150289183966872,
                -3.507681056509518,
                -0.2362484323571831,
                -11.067140373925266,
                -8.598868196565888,
                5.949333678428808,
                -10.738268446989265,
                -9.059964993917964,
                -9.67161845895793,
                -7.633187101497,
                -9.762178154431048,
                -0.4846591073912353,
                -8.479390642431168,
                0.683027549259027,
                -7.031322948620052,
                1.474334375878377,
                1.782864838275859,
                -6.661990954181013,
                5.158980310409768,
                7.3617910451675455,
                -8.421729542462772,
                5.6914460158243925,
                -5.412332566050491,
                2.5241419078831018,
                13.906347812846828,
                1.0276277159753335,
                -8.522727321452784,
                3.648817514948624,
                4.120926515939424,
                10.039569888920964,
                -3.063096113736597,
                9.983011882021655,
                -11.431318366030117,
                -9.949679670334092,
                -7.59641807730899,
                -9.574464844579973,
                -9.854471042505873,
                4.638677037945079,
                -4.2927258599119975,
                8.502597413467216,
                -8.681404559712192,
                -10.621882536187202,
                9.460213003587238,
                5.099969207189433,
                2.99447923190697,
                -8.560058508638775,
                3.9454536281270647,
                -7.320749480678938,
                8.912491471733048,
                1.0852495274486083,
                -7.431752492934607,
                -7.425297105663189,
                4.8664016105620185,
                -5.874031366876614,
                -8.55711643375904,
                -9.714222145025355,
                3.343833573058266,
                2.063172659846877,
                -4.737875998410195,
                7.2916431234807355,
                4.182052600072423,
                -4.3716542706615975,
                -4.9326104936631525,
                -9.424491511897719,
                -6.919756018908441,
                8.750414333564871,
                6.159307057710076,
                -8.73609254336941,
                -12.386552428293438,
                -4.142695962189936,
                9.073242378283814,
                6.975904042670495,
                2.5484618538242407,
                -2.989840906859216,
                -3.415124808666707,
                -12.739610293007004,
                -0.967192792985535,
                -0.4729378876133234,
                -5.041953578404607,
                2.24248237658549,
                8.078778140172801,
                0.6158259434019615,
                -4.741565362055956,
                19.07800560618303,
                2.745388827564928,
                -2.957305865008729,
                -9.326551305005168,
                -12.67645746793362,
                -4.483144416037707,
                -7.347091805031462,
                -7.574675392950484,
                -11.11423113688565,
                6.521560866466833,
                1.7783259682883292,
                2.064853565219007,
                6.216645582130083,
                -0.39007153834728564,
                -11.065733330800569,
                14.292552042239016,
                1.1104676312358923,
                5.457895716690045,
                -7.804260655692707,
                -10.38004398810083,
                -10.401281418051054,
                -6.8327756763243235,
                7.2456919909775515,
                2.312330635946362,
                -8.5221375279528,
                1.9223157370842476,
                3.9238993843725503,
                -14.476639169296234,
                -8.639350688736874,
                -12.766058131664943,
                -13.86552067983838,
                6.853572558613862,
                -8.046678185818006,
                -8.961723868934085,
                3.335649952671942,
                13.98275778796882,
                2.4658441643420246,
                -7.40583656139146,
                -1.0615240793786804,
                -5.6610701384107545,
                6.540629755082757,
                -6.002188600436875,
                -8.456670586134408,
                -7.125135543023617,
                -9.403770559579355,
                3.306424852520187,
                5.092867461717567,
                -9.903017695020845,
                1.650487947495962,
                -7.838752806272597,
                -6.649541615569476,
                7.842268685394331,
                -2.7904292234434243,
                -9.155920955113174,
                1.5124413405581847,
                -8.835083343849327,
                6.536944029163568,
                -0.05412543346453014,
                -10.617506190958117,
                4.261073956475853,
                -1.4388517049689205,
                4.883075387663426,
                -6.157547229676616,
                -7.742967587440279,
                6.206516192921645,
                5.0559952355363444,
                5.795824927127941,
                -7.834771318073599,
                -8.5731578176258,
                -7.806020985513934,
                2.7932310941175618,
                -1.2943620539397527,
                -12.214990126842084,
                9.853836430042927,
                -10.625032344982593,
                -6.488072131303976,
                -8.705359404209775,
                -5.576815989056246,
                4.517707178776831,
                10.7830961406011,
                8.956372468500145,
                3.3228979433727854,
                -11.938588449048234,
                -6.865661023907018,
                -7.246345767730534,
                10.354552943426746,
                8.178291407235296,
                -7.383562598037748,
                -12.719968079024921,
                -5.087789201720123,
                -11.472615794066884,
                -6.229965038269064,
                -8.765033049134543,
                6.4034507922301165,
                2.0190931979477926,
                12.57995085689704,
                -8.583519350486078,
                -0.8735936465469339,
                5.030156684848246,
                -9.977601430006336,
                -6.57436610131165,
                8.106275405700655
            ]
        }
    }
}