{
    "args": {
        "model": "llama_8b",
        "dataset": "tsm_first",
        "token_mode": "last_token",
        "ood": true,
        "smoke_test": false,
        "components": 50,
        "mode": "pca",
        "model_name": "llama_8b",
        "target_dataset": "tsm_extend",
        "datetime": "2026-05-05 23:07:04"
    },
    "test_metrics": {
        "test_metrics_by_layer": [
            {
                "n_total": 500,
                "auroc": 0.4354239999999999,
                "accuracy": 0.514,
                "f1": 0.054474708171206226,
                "tpr_at_fpr_0_05": 0.028,
                "optimal_threshold_f1": 0.5,
                "optimal_threshold_acc": 0.5,
                "aupr": 0.48044575939622836
            },
            {
                "n_total": 500,
                "auroc": 0.644464,
                "accuracy": 0.628,
                "f1": 0.520618556701031,
                "tpr_at_fpr_0_05": 0.224,
                "optimal_threshold_f1": 0.5,
                "optimal_threshold_acc": 0.5,
                "aupr": 0.696653006956935
            },
            {
                "n_total": 500,
                "auroc": 0.6317600000000001,
                "accuracy": 0.616,
                "f1": 0.5223880597014925,
                "tpr_at_fpr_0_05": 0.276,
                "optimal_threshold_f1": 0.5,
                "optimal_threshold_acc": 0.5,
                "aupr": 0.6925045987733949
            },
            {
                "n_total": 500,
                "auroc": 0.607664,
                "accuracy": 0.618,
                "f1": 0.4879356568364611,
                "tpr_at_fpr_0_05": 0.28,
                "optimal_threshold_f1": 0.5,
                "optimal_threshold_acc": 0.5,
                "aupr": 0.6917125365575006
            },
            {
                "n_total": 500,
                "auroc": 0.723856,
                "accuracy": 0.658,
                "f1": 0.5072046109510087,
                "tpr_at_fpr_0_05": 0.384,
                "optimal_threshold_f1": 0.5,
                "optimal_threshold_acc": 0.5,
                "aupr": 0.7622879950409818
            },
            {
                "n_total": 500,
                "auroc": 0.816064,
                "accuracy": 0.652,
                "f1": 0.5,
                "tpr_at_fpr_0_05": 0.392,
                "optimal_threshold_f1": 0.5,
                "optimal_threshold_acc": 0.5,
                "aupr": 0.8191302445218696
            },
            {
                "n_total": 500,
                "auroc": 0.822112,
                "accuracy": 0.664,
                "f1": 0.5307262569832403,
                "tpr_at_fpr_0_05": 0.38,
                "optimal_threshold_f1": 0.5,
                "optimal_threshold_acc": 0.5,
                "aupr": 0.822803117410788
            },
            {
                "n_total": 500,
                "auroc": 0.754656,
                "accuracy": 0.63,
                "f1": 0.47293447293447294,
                "tpr_at_fpr_0_05": 0.304,
                "optimal_threshold_f1": 0.5,
                "optimal_threshold_acc": 0.5,
                "aupr": 0.7625347454437109
            },
            {
                "n_total": 500,
                "auroc": 0.7166559999999997,
                "accuracy": 0.628,
                "f1": 0.44970414201183434,
                "tpr_at_fpr_0_05": 0.316,
                "optimal_threshold_f1": 0.5,
                "optimal_threshold_acc": 0.5,
                "aupr": 0.7459104058988095
            },
            {
                "n_total": 500,
                "auroc": 0.7298879999999999,
                "accuracy": 0.65,
                "f1": 0.498567335243553,
                "tpr_at_fpr_0_05": 0.348,
                "optimal_threshold_f1": 0.5,
                "optimal_threshold_acc": 0.5,
                "aupr": 0.7566292971784105
            },
            {
                "n_total": 500,
                "auroc": 0.869456,
                "accuracy": 0.714,
                "f1": 0.6266318537859008,
                "tpr_at_fpr_0_05": 0.48,
                "optimal_threshold_f1": 0.5,
                "optimal_threshold_acc": 0.5,
                "aupr": 0.8674608153705183
            },
            {
                "n_total": 500,
                "auroc": 0.8553759999999999,
                "accuracy": 0.704,
                "f1": 0.6063829787234043,
                "tpr_at_fpr_0_05": 0.516,
                "optimal_threshold_f1": 0.5,
                "optimal_threshold_acc": 0.5,
                "aupr": 0.8589952172383802
            },
            {
                "n_total": 500,
                "auroc": 0.8772800000000001,
                "accuracy": 0.71,
                "f1": 0.6133333333333333,
                "tpr_at_fpr_0_05": 0.492,
                "optimal_threshold_f1": 0.5,
                "optimal_threshold_acc": 0.5,
                "aupr": 0.8808525428160792
            },
            {
                "n_total": 500,
                "auroc": 0.8701439999999998,
                "accuracy": 0.716,
                "f1": 0.6282722513089005,
                "tpr_at_fpr_0_05": 0.496,
                "optimal_threshold_f1": 0.5,
                "optimal_threshold_acc": 0.5,
                "aupr": 0.8759442949876337
            },
            {
                "n_total": 500,
                "auroc": 0.852128,
                "accuracy": 0.686,
                "f1": 0.5698630136986301,
                "tpr_at_fpr_0_05": 0.472,
                "optimal_threshold_f1": 0.5,
                "optimal_threshold_acc": 0.5,
                "aupr": 0.8569898378796541
            },
            {
                "n_total": 500,
                "auroc": 0.8456799999999999,
                "accuracy": 0.694,
                "f1": 0.5714285714285714,
                "tpr_at_fpr_0_05": 0.46,
                "optimal_threshold_f1": 0.5,
                "optimal_threshold_acc": 0.5,
                "aupr": 0.8543819070289884
            },
            {
                "n_total": 500,
                "auroc": 0.825424,
                "accuracy": 0.692,
                "f1": 0.5904255319148937,
                "tpr_at_fpr_0_05": 0.388,
                "optimal_threshold_f1": 0.5,
                "optimal_threshold_acc": 0.5,
                "aupr": 0.8365873673173894
            },
            {
                "n_total": 500,
                "auroc": 0.825952,
                "accuracy": 0.68,
                "f1": 0.5555555555555556,
                "tpr_at_fpr_0_05": 0.46,
                "optimal_threshold_f1": 0.5,
                "optimal_threshold_acc": 0.5,
                "aupr": 0.8366033551505968
            },
            {
                "n_total": 500,
                "auroc": 0.7908,
                "accuracy": 0.66,
                "f1": 0.5142857142857142,
                "tpr_at_fpr_0_05": 0.42,
                "optimal_threshold_f1": 0.5,
                "optimal_threshold_acc": 0.5,
                "aupr": 0.8105912118360914
            },
            {
                "n_total": 500,
                "auroc": 0.7576640000000001,
                "accuracy": 0.66,
                "f1": 0.519774011299435,
                "tpr_at_fpr_0_05": 0.384,
                "optimal_threshold_f1": 0.5,
                "optimal_threshold_acc": 0.5,
                "aupr": 0.7868098160196482
            },
            {
                "n_total": 500,
                "auroc": 0.754272,
                "accuracy": 0.66,
                "f1": 0.5114942528735632,
                "tpr_at_fpr_0_05": 0.368,
                "optimal_threshold_f1": 0.5,
                "optimal_threshold_acc": 0.5,
                "aupr": 0.7825132802613937
            },
            {
                "n_total": 500,
                "auroc": 0.747024,
                "accuracy": 0.658,
                "f1": 0.5072046109510087,
                "tpr_at_fpr_0_05": 0.356,
                "optimal_threshold_f1": 0.5,
                "optimal_threshold_acc": 0.5,
                "aupr": 0.7735046224631548
            },
            {
                "n_total": 500,
                "auroc": 0.7499359999999999,
                "accuracy": 0.652,
                "f1": 0.5056818181818182,
                "tpr_at_fpr_0_05": 0.324,
                "optimal_threshold_f1": 0.5,
                "optimal_threshold_acc": 0.5,
                "aupr": 0.7700795944398302
            },
            {
                "n_total": 500,
                "auroc": 0.7679360000000001,
                "accuracy": 0.642,
                "f1": 0.4811594202898551,
                "tpr_at_fpr_0_05": 0.34,
                "optimal_threshold_f1": 0.5,
                "optimal_threshold_acc": 0.5,
                "aupr": 0.7782528697203037
            },
            {
                "n_total": 500,
                "auroc": 0.76624,
                "accuracy": 0.644,
                "f1": 0.48554913294797686,
                "tpr_at_fpr_0_05": 0.348,
                "optimal_threshold_f1": 0.5,
                "optimal_threshold_acc": 0.5,
                "aupr": 0.772296350355397
            },
            {
                "n_total": 500,
                "auroc": 0.7432800000000002,
                "accuracy": 0.632,
                "f1": 0.4682080924855491,
                "tpr_at_fpr_0_05": 0.316,
                "optimal_threshold_f1": 0.5,
                "optimal_threshold_acc": 0.5,
                "aupr": 0.7592080237480654
            },
            {
                "n_total": 500,
                "auroc": 0.738608,
                "accuracy": 0.644,
                "f1": 0.49142857142857144,
                "tpr_at_fpr_0_05": 0.32,
                "optimal_threshold_f1": 0.5,
                "optimal_threshold_acc": 0.5,
                "aupr": 0.7590381118690928
            },
            {
                "n_total": 500,
                "auroc": 0.741328,
                "accuracy": 0.642,
                "f1": 0.478134110787172,
                "tpr_at_fpr_0_05": 0.332,
                "optimal_threshold_f1": 0.5,
                "optimal_threshold_acc": 0.5,
                "aupr": 0.7626775300482703
            },
            {
                "n_total": 500,
                "auroc": 0.7421119999999999,
                "accuracy": 0.622,
                "f1": 0.4391691394658754,
                "tpr_at_fpr_0_05": 0.288,
                "optimal_threshold_f1": 0.5,
                "optimal_threshold_acc": 0.5,
                "aupr": 0.7604753931999213
            },
            {
                "n_total": 500,
                "auroc": 0.738944,
                "accuracy": 0.628,
                "f1": 0.4431137724550898,
                "tpr_at_fpr_0_05": 0.3,
                "optimal_threshold_f1": 0.5,
                "optimal_threshold_acc": 0.5,
                "aupr": 0.7615209809202259
            },
            {
                "n_total": 500,
                "auroc": 0.751488,
                "accuracy": 0.634,
                "f1": 0.456973293768546,
                "tpr_at_fpr_0_05": 0.34,
                "optimal_threshold_f1": 0.5,
                "optimal_threshold_acc": 0.5,
                "aupr": 0.7635122153800444
            },
            {
                "n_total": 500,
                "auroc": 0.762688,
                "accuracy": 0.636,
                "f1": 0.4647058823529412,
                "tpr_at_fpr_0_05": 0.328,
                "optimal_threshold_f1": 0.5,
                "optimal_threshold_acc": 0.5,
                "aupr": 0.7747947060750253
            },
            {
                "n_total": 500,
                "auroc": 0.7391679999999999,
                "accuracy": 0.606,
                "f1": 0.39384615384615385,
                "tpr_at_fpr_0_05": 0.284,
                "optimal_threshold_f1": 0.5,
                "optimal_threshold_acc": 0.5,
                "aupr": 0.7553259697561128
            }
        ],
        "mean_projection_metrics": {
            "n_total": 500,
            "auroc": 0.7994559999999999,
            "accuracy": 0.664,
            "f1": 0.5172413793103449,
            "tpr_at_fpr_0_05": 0.408,
            "optimal_threshold_f1": 0.5,
            "optimal_threshold_acc": 0.5,
            "aupr": 0.8174092000299932
        },
        "weighted_projection_metrics": {
            "n_total": 500,
            "auroc": 0.805472,
            "accuracy": 0.664,
            "f1": 0.5172413793103449,
            "tpr_at_fpr_0_05": 0.408,
            "optimal_threshold_f1": 0.5,
            "optimal_threshold_acc": 0.5,
            "aupr": 0.8205199486172193
        },
        "weighted_projection": [
            -0.44030317387837126,
            -5.114906255156274,
            -2.333702845897627,
            0.34074634226816525,
            -0.6665011887696005,
            -4.9676045556514055,
            7.902563607795601,
            -5.855464333075566,
            -1.3292367843216923,
            -4.069630250325896,
            -4.75105218455007,
            -1.5772837448184,
            -2.249327916670477,
            -1.7972307997099766,
            1.1968175813475104,
            2.3740985510900385,
            -1.154971908622898,
            11.887729774879503,
            0.902359785913471,
            -1.1165127164407946,
            -5.8702461105087425,
            -7.850216925479466,
            2.5095603139214044,
            -6.312427362056868,
            -3.0508222703783545,
            -3.834344090878997,
            3.9877821079039495,
            -6.919630679584429,
            8.342120931547754,
            1.792504838265016,
            -6.763925203898491,
            -7.851842386737756,
            8.703070445044611,
            1.6457874577187888,
            6.1009179266286875,
            1.012887481152707,
            -3.9574337495411664,
            -3.2800669984246644,
            3.545921652951683,
            7.130138816483325,
            4.199387271895424,
            2.266074193783476,
            -0.5803720828874486,
            -4.063467419334972,
            -4.132692744851623,
            -1.401316568481079,
            -6.0015369384178445,
            -6.750651665341728,
            -7.738062484632656,
            9.78377435223314,
            -2.846779402413856,
            3.556781441405677,
            -3.0642276180125574,
            -1.7344116697871446,
            7.602841332175896,
            -4.966261401522813,
            0.48477892375566606,
            -0.5053320303686967,
            -5.842481665376807,
            -1.3896897322819062,
            1.1997792746493907,
            6.542025495538208,
            0.7051463611809035,
            1.4538322339692267,
            -5.228756072508808,
            -2.462234421017393,
            -3.7937532856734117,
            -2.4320782225081214,
            11.052257949131896,
            0.13235655924846876,
            -4.524871858641629,
            1.3515414343914582,
            -4.2022708276898255,
            5.309164203577174,
            1.61075743006504,
            4.551788510357336,
            -5.62512484153208,
            1.5060070883689491,
            5.749735391793728,
            -3.91441680367246,
            -0.7957710351366163,
            1.1368526643940444,
            -2.88616915619646,
            7.5364058679764465,
            -7.424434601627238,
            -0.2981474482206085,
            -2.1362287738215766,
            3.5463475882207742,
            -5.20841269170865,
            -9.550952104938592,
            -3.606052288615076,
            -7.102772916005157,
            -1.927285492428942,
            -3.2623144985768073,
            -0.2125864050690037,
            5.685558639077047,
            -1.7496056623524017,
            -6.014427189676191,
            -3.795536890386282,
            1.8324153490555763,
            -7.783224906508175,
            -2.9047190620561865,
            -8.908375212231903,
            2.1702589982889577,
            -2.825178047273547,
            3.0873566141281263,
            -0.30701696628411157,
            -5.428337708770258,
            -4.2874530278228615,
            -5.780340100532814,
            -6.095391452671866,
            -3.401261193930106,
            -4.367091974648704,
            -0.31397230948721055,
            -3.8875699291740013,
            -2.693183288306667,
            -4.296709253135264,
            1.911958197325213,
            -3.677056588935152,
            2.350839664252322,
            -6.644959658549087,
            -5.9538455713279825,
            -9.022631712641878,
            -3.9781765910567377,
            -4.857486174281213,
            -5.160296190154638,
            4.997867383943335,
            -1.6323324793445892,
            -4.342688360656698,
            -2.1716826015033415,
            9.081915546096575,
            -0.9973610787426281,
            -2.5313498465311297,
            0.08367178206409964,
            0.9576097721603261,
            7.167648001613402,
            -4.662579373619626,
            -3.875977525624808,
            -3.4413562960346926,
            -1.25443700877836,
            -6.064604940463655,
            -4.810805205959343,
            6.037269953119897,
            -7.034171814701048,
            -6.26180177458409,
            6.899247895346907,
            5.04620669086452,
            -8.552535494987549,
            3.681265379713517,
            -2.905969635818248,
            -2.715347072830245,
            2.5495435565231634,
            -3.9899681650647967,
            -2.139455890369254,
            -3.8486841510611334,
            1.88408394117107,
            0.5994921583733549,
            -3.072374459127579,
            4.897881216517019,
            0.8239934991156508,
            4.989108930058613,
            -1.499573677975038,
            -1.0279424233835,
            2.8038664246700433,
            8.059200418043583,
            -3.970550754485898,
            2.0294928314503076,
            -2.040067336185892,
            2.3833560662152173,
            -6.615182904739356,
            -5.613418167023637,
            5.570157959559484,
            -3.755653254420712,
            -6.643639927462041,
            4.373759838104749,
            3.0412861448726534,
            -3.4337844310917167,
            6.71138597862694,
            2.089543083983902,
            0.11476462503771168,
            -7.984706967394445,
            -4.325957592582595,
            6.245107301787827,
            1.8518700537323207,
            3.731005732381952,
            -0.8768834883152106,
            0.9716709531258069,
            -1.5284268018197045,
            -1.2039060080035708,
            6.178308796882174,
            1.3527008901966284,
            -0.7246624311549058,
            -6.222143377456858,
            15.163500938133742,
            -8.305464032221531,
            -4.622028561071459,
            4.265714716225012,
            -3.981205131233632,
            4.231191971208602,
            1.7260503077694784,
            7.921987962594555,
            0.6196130203559749,
            0.8595999589057967,
            3.7201421877550844,
            -1.113299696672409,
            -6.6508483370266225,
            -3.839804627255646,
            -8.02692259281394,
            1.463049173344744,
            -1.4178098627523061,
            -1.618698944591323,
            1.3560186310952658,
            1.1219593109092492,
            5.060056364278348,
            -2.928390906444235,
            -6.303029322897571,
            -3.328081513656022,
            1.2038682895080186,
            5.629814015912802,
            4.7727333687765015,
            -0.7716606714515613,
            -7.942609847718038,
            -3.8245949240333346,
            -2.5748722416632264,
            6.661999972555534,
            1.4950475671649466,
            -0.6514840641803362,
            -2.8590250256057277,
            7.032622066283065,
            -5.194297241163935,
            10.306004965332173,
            -0.8830282481001541,
            -1.776148203624979,
            -1.5865328107137082,
            -0.17579956256503698,
            -6.267996223635848,
            0.3008829195004653,
            0.6998335085038536,
            -3.1690715329436157,
            -6.149709820025106,
            -0.9977041433040503,
            -7.486459803647832,
            -0.6128168008775862,
            -4.0535875165698245,
            -7.254480167224752,
            -5.683899474030763,
            -5.212867976223352,
            0.9510916066685818,
            -0.5074920278654869,
            -4.592619022297824,
            -8.291606352361274,
            -5.094680651892757,
            -4.625369578523789,
            -4.601843309327421,
            -5.361641900997078,
            -5.814908090769691,
            -6.500076342157322,
            -5.809305052108445,
            -4.065749035223912,
            -6.4953875427312076,
            -6.351883903171373,
            -0.4189607574644761,
            -6.245998865824432,
            -10.163119162748991,
            -6.597465825734513,
            -6.969082350003721,
            -6.212286928426575,
            -6.130384099727473,
            -12.960524229751213,
            -4.939916357620396,
            -6.2119267296982255,
            -6.309375974437908,
            -8.794370033104016,
            -5.683482606476527,
            -6.562173913848405,
            -3.6757779668051453,
            -2.111079840713934,
            -5.51608574207053,
            -6.672930044136022,
            -7.593302202053436,
            -3.0763217273412025,
            3.3788729921352862,
            -12.448177824830948,
            -2.2130499146052482,
            -7.613162397526301,
            -6.055879251741746,
            -8.950484630627477,
            -7.207628867629041,
            -9.148455804155798,
            -3.2010775357188974,
            -3.2391478211403264,
            -2.357388072073692,
            -7.5235776076638174,
            -5.999848980378873,
            -7.209146103584011,
            -2.3805134359211446,
            -7.542936901470575,
            -11.583134873530755,
            -5.827982221932789,
            -2.688006208779012,
            -2.3313842974602306,
            -5.451484726442884,
            -8.067309480970069,
            -9.683644368494319,
            -5.223516952645447,
            0.5375394412379715,
            -4.762788696904162,
            -5.240955831625067,
            -10.970458591011372,
            -5.358911457251342,
            -11.18361295576548,
            -2.5999211791160604,
            -8.014033300016099,
            -7.356778415730073,
            -8.29684744944103,
            -8.647852549885055,
            0.9927515347864211,
            -7.051491319189161,
            -8.551488845479115,
            -4.692768375176516,
            -3.3356589683518485,
            -4.091319089372685,
            -2.1531767310172034,
            -7.7274951919906965,
            -8.849263897612577,
            -9.220020381327563,
            -8.617454788464656,
            -3.0107993394797967,
            -4.33334714716968,
            -0.7133585277446122,
            -4.648857742590009,
            -11.355909250915156,
            -6.627706871236344,
            -6.21997598515331,
            -8.868457899929629,
            -4.10272532448749,
            -1.9470804619095876,
            -0.2695135286004903,
            -2.5803729805907056,
            -5.047210593990921,
            -7.656203380031053,
            -4.837218294813581,
            -6.3228363405410875,
            -9.650316447693852,
            -8.484440802183668,
            -6.69834583045769,
            -5.300986387195436,
            -6.609293622256769,
            -1.352750069238117,
            -6.8969128046220725,
            -2.3971986696274863,
            -8.056019547675296,
            -9.967890908104623,
            -2.931919433049882,
            -4.34506122628132,
            -4.879127921714761,
            -7.9670610261675225,
            -4.926861030113245,
            -4.13379291471364,
            -6.612659955340751,
            -2.2661859414454044,
            -4.221418428259439,
            -6.164079263447757,
            -9.1865710008252,
            -11.406697790307335,
            -11.831900554593608,
            -4.681645649506064,
            -6.605132464559833,
            -5.213213255315564,
            -4.3926292585399125,
            -6.777799102536129,
            -2.9457845188735527,
            -1.2225128674864532,
            -3.6571267682300164,
            1.7324071400631722,
            -7.6468376534409845,
            -1.1126511718018819,
            -5.802488362624718,
            -8.417785400760852,
            -9.621068572460977,
            -8.474353726462713,
            -5.0865793054513615,
            -7.263036085884571,
            -2.7395749046993694,
            -8.122774016238985,
            -0.5988947688733035,
            -2.488912288538681,
            -7.65160206096116,
            -2.139797919893213,
            -1.6046004168334884,
            -5.932379790026231,
            -2.0898605599898428,
            -4.958695860123339,
            -8.245056785197932,
            -4.224812941046247,
            -7.039030674588008,
            -0.4835376797784486,
            -12.632378505685619,
            -7.909564333288927,
            -1.8794080947528724,
            -5.782194202390078,
            -8.323684913873267,
            -8.717854461539313,
            -6.120725731412666,
            -4.269513585866465,
            -3.1018111238690285,
            -6.778967737835417,
            -8.624187556490462,
            -4.758919260864236,
            -9.823673784919487,
            -4.954494134677107,
            -2.381333349331724,
            -8.626988085114185,
            -10.162665479361669,
            -7.309974940383202,
            -6.677878092478279,
            -4.6230184666828995,
            -8.145273965736937,
            -3.7001100083412144,
            -2.5101341185956048,
            -6.299669525848576,
            -3.280659784172664,
            -15.030533393727874,
            -8.245202641563589,
            -5.0533540513754005,
            -1.024097368261064,
            -10.853113133207708,
            1.4998592865924933,
            -11.383059407788258,
            -5.539769441135417,
            -9.928540980286495,
            -9.84826058754726,
            -8.386002329453056,
            -9.642911402322719,
            -7.813283591061676,
            2.652951511649058,
            -8.939627365618017,
            -3.200830257925752,
            -2.646251517286145,
            -4.35851447259815,
            -6.308655804432499,
            -1.646553580932236,
            0.239048866050148,
            -7.617570859508801,
            -6.0235309455688,
            -9.578547690732451,
            0.6775365081974978,
            -6.928952568599857,
            -6.710222110104596,
            -5.520473930940147,
            -4.495984739082726,
            -2.2541747748328396,
            -1.9438625198715422,
            -8.07570766824076,
            -9.385942294046878,
            -6.264151972848623,
            -2.7446167366519876,
            -7.681315296535456,
            -2.839343489496131,
            -7.230281908411792,
            -4.726181416303537,
            0.4061007931117861,
            -2.205517277109582,
            -5.830171917181986,
            -1.024139422556862,
            -10.05190511432103,
            -3.497061874155071,
            -8.133371536547472,
            -5.091318984131264,
            -6.70786105269473,
            -3.52683580958872,
            -9.835430461293477,
            -7.595306436099348,
            -7.88064668359013,
            -8.589879294400792,
            -8.109013851729182,
            -7.515146810712229,
            -4.700203451032102,
            -2.708695200408176,
            -8.934323247588253,
            -3.747998013166356,
            -2.627294564227146,
            -4.965969898317917,
            -4.10014014355585,
            -3.4943675092089603,
            -7.490463829820442,
            -5.173601219139321,
            -5.252649059070925,
            -3.9878952600257542,
            -8.350623469058105,
            -8.231830277162633,
            -3.7250790071990214,
            -5.183417927760727,
            -9.014257482503101,
            -9.729886283660267,
            -6.215855481690398,
            6.486791364173467,
            -8.08755801367807,
            -7.545150643574951,
            -10.561554794237297
        ],
        "mean_projection": [
            -0.3920896149212324,
            -5.196148329940218,
            -2.26403939682977,
            0.2744721475983051,
            -0.82776583493758,
            -4.87242207028219,
            7.649614999849696,
            -5.634771758664906,
            -1.5963922981208465,
            -3.9855209607231687,
            -5.359000463884568,
            -1.5203508921292754,
            -2.3256802594555728,
            -1.7349372025347145,
            1.1572039256835776,
            2.34091700816794,
            -1.0484327269622529,
            12.446769300446562,
            0.8914336171557788,
            -1.1296204376332584,
            -5.864826221822526,
            -7.857090322132394,
            2.40436962537386,
            -6.0794541450808435,
            -2.9030905736846018,
            -3.8728443228898466,
            3.9313634001035718,
            -6.894212625547023,
            8.024302426547152,
            1.7359862733095823,
            -6.741285618235824,
            -7.790949356677862,
            9.305020239665463,
            1.6304582423777754,
            5.895083810660243,
            1.0388676574678333,
            -4.060575939121314,
            -3.293100872561257,
            3.377393272558479,
            6.973285687048424,
            4.035956061319393,
            2.186832423443615,
            -0.48673198020345027,
            -3.911661165497917,
            -4.032828462120921,
            -1.4733402798083532,
            -5.817805447534316,
            -6.8044981130807605,
            -7.7098148045257675,
            9.443776986469246,
            -2.954809223151488,
            3.474409319792336,
            -3.0883854467669614,
            -1.6949642993036107,
            7.392001655817419,
            -4.787558455665898,
            0.44818442418094545,
            -0.48168155003416707,
            -5.852110372278052,
            -1.311248944508126,
            1.1241841057294037,
            6.361388885198633,
            0.7692468667680167,
            1.511327565811485,
            -5.180894034540092,
            -2.3855424948008235,
            -3.6442808794699615,
            -2.3670967307791195,
            10.697611142529349,
            0.12688732078385906,
            -4.445004323543557,
            1.2975581824741376,
            -4.197676329832986,
            5.266809336848173,
            1.53890895586162,
            4.411377641325168,
            -6.485788323358332,
            1.4560862570885185,
            6.438749822191187,
            -4.028422202740614,
            -0.8395856040126594,
            1.1311548366839828,
            -2.810265007190845,
            7.281554461111874,
            -7.281626369716214,
            -0.28199154669299126,
            -2.0616931254047386,
            3.4642048596829347,
            -5.0368360261335745,
            -9.402583387609958,
            -3.5458257496867387,
            -7.073084925787967,
            -2.0656552056751107,
            -3.4172559289391184,
            -0.18324496046589162,
            5.546005208135185,
            -1.7090213708295416,
            -5.83049614646264,
            -3.664850339674649,
            1.744311966484734,
            -7.791140035327014,
            -2.775088575312019,
            -8.86072376834575,
            2.1084713284814636,
            -2.7713939002529377,
            3.051527962965072,
            -0.3303557767609909,
            -5.269701990674731,
            -4.304175672544064,
            -5.623542314511628,
            -5.914478669755672,
            -3.3167473310577034,
            -4.26357910566993,
            -0.3357265111655013,
            -3.8005905151235773,
            -2.780719720486784,
            -4.401717982152995,
            1.8193977132042276,
            -3.552163911669206,
            2.2240781211367397,
            -6.605611794596653,
            -5.904730759339677,
            -8.89714628564975,
            -4.004673172418428,
            -4.880660323270679,
            -4.9947047267027935,
            4.873471638714126,
            -1.5810059679050292,
            -4.175910252107311,
            -2.2121913380347835,
            8.705469436357681,
            -1.15569871849784,
            -2.6378890405998505,
            -0.1140507586161402,
            0.8037259313950009,
            6.876530193384401,
            -4.657298659406713,
            -3.7014713890100555,
            -3.3076017424894752,
            -1.2356799384813095,
            -5.887217753338341,
            -4.8904954913598,
            5.886955102312175,
            -7.126716058428901,
            -6.386794921333057,
            6.702189892705522,
            4.961655850423057,
            -8.307824876779735,
            3.521554043363957,
            -3.0602863638769544,
            -2.5622350276346313,
            2.458398033021446,
            -4.158066588260781,
            -2.0763260877511995,
            -3.7595145986935656,
            1.7396998455024641,
            0.5820207353742394,
            -3.187100719800203,
            4.731720992179168,
            0.8094864476938172,
            4.99350954781975,
            -1.3799517825421286,
            -0.953790820793425,
            2.669742797532097,
            8.675035345469608,
            -4.90187637478112,
            2.593547153385905,
            -2.230952595424618,
            2.3334197569987114,
            -6.398007764934384,
            -5.620737735307147,
            5.534671819438223,
            -3.657963989308527,
            -6.583132603543697,
            4.305877829672852,
            2.8920779283789058,
            -3.4517054181454494,
            6.607016302314842,
            2.018922399819201,
            0.11305589138295982,
            -7.784764379071103,
            -4.4374279220854085,
            6.023107435834019,
            1.883713631757116,
            3.6964442766285446,
            -0.8746619829420291,
            0.9007717431843973,
            -1.40972941279939,
            -1.3280547801328013,
            6.0453312546398505,
            1.2041244497190415,
            -0.6578121128924616,
            -6.256553581179649,
            15.62117337369279,
            -8.260969861243556,
            -4.711197568417203,
            4.21074930870607,
            -3.8730691451753825,
            4.162831377604727,
            1.7010301065787325,
            8.527252430754379,
            0.5941110367601998,
            0.8508607145945907,
            3.6388013365364102,
            -0.9615261920955249,
            -6.627868789077358,
            -3.7174901291502014,
            -8.831644208098469,
            1.4921730054738644,
            -1.4157211186947223,
            -1.4639429122457233,
            1.2726927344560839,
            1.0381634140955402,
            4.899964574839371,
            -2.8642477432344955,
            -6.396274780741813,
            -3.438397351244202,
            1.1529660654680332,
            5.527490659573626,
            4.624292687660395,
            -0.6530070492509079,
            -7.6766287341813655,
            -3.7443266453650863,
            -2.872848590128818,
            6.3983829324152515,
            1.4389067598003338,
            -0.6603347973526499,
            -3.075084192458132,
            6.848962377261858,
            -5.004964452586649,
            10.06176182782134,
            -0.793051539641633,
            -1.7213343004587556,
            -1.6132967833076817,
            -0.12003404250588677,
            -6.30370383149123,
            0.10105031269533,
            0.712289996893624,
            -3.038278088937291,
            -6.125150934580699,
            -0.9147405746225662,
            -7.4697747874314695,
            -0.5843433317124104,
            -3.8752444049241643,
            -7.219417734828109,
            -5.713108785991161,
            -4.9998576325062505,
            0.8455749793804362,
            -0.5363197187653328,
            -4.5257060897305195,
            -9.817857846290986,
            -4.905294476381578,
            -4.510645850122375,
            -4.5247087918941835,
            -5.1819344122973865,
            -5.694821852780688,
            -6.261388837312648,
            -5.682199612751039,
            -3.9806708565055344,
            -6.2577636947681174,
            -6.162026929096665,
            -0.44195663816506486,
            -6.122447690904506,
            -10.035212430336303,
            -6.377736471029549,
            -6.752181532974984,
            -6.142079181672653,
            -5.943254674396936,
            -12.781483133488516,
            -4.7818988733097445,
            -6.075562192005478,
            -6.222080079495947,
            -9.99956273535991,
            -5.528702273825377,
            -6.347602660469038,
            -3.601737194554928,
            -2.0748513780306923,
            -5.326771092451116,
            -6.4847506459253825,
            -7.406938168049216,
            -3.0284550925361082,
            3.2167483375935504,
            -12.513247602129272,
            -2.105358038664223,
            -7.283625157863991,
            -5.881096041810663,
            -8.68684121104877,
            -7.033787082853818,
            -9.041858791881504,
            -3.1065477354522826,
            -3.074891481993702,
            -2.255302647600871,
            -7.335655261366229,
            -5.839388407223321,
            -7.1441807119993115,
            -2.261849530268638,
            -7.299281175717861,
            -11.462813346794738,
            -5.644033016085697,
            -2.6238267541905325,
            -2.182949535242802,
            -5.311587138827556,
            -7.7578699798690165,
            -9.41121706592809,
            -5.057195296271148,
            0.5003163986290996,
            -4.599552916692204,
            -5.1692462053839225,
            -10.775310369087599,
            -5.227845759767495,
            -11.133224218745946,
            -2.604958861090916,
            -7.775314472063521,
            -7.17755771041277,
            -8.105384884929029,
            -8.601392638939092,
            1.0010151351877876,
            -6.89738076752514,
            -8.522571183380677,
            -4.579577390850964,
            -3.210066310396885,
            -3.9853475192862375,
            -2.0899755714208945,
            -7.534635792415652,
            -8.533285817936694,
            -8.930993663175155,
            -8.33968809692062,
            -2.952734475091702,
            -4.196060097328526,
            -0.767610945655585,
            -4.547081322980289,
            -10.994207466833858,
            -6.5479215851739125,
            -6.102500100057181,
            -8.678921246566553,
            -3.949496311410464,
            -1.9102951252765414,
            -0.20548250881837177,
            -2.5993786565895056,
            -4.8675125740799965,
            -7.456227920404775,
            -4.800259726296972,
            -6.227285120886518,
            -9.377089496937431,
            -8.243766906046261,
            -6.45582187534144,
            -5.109272283458827,
            -6.356674798002836,
            -1.3405701423447585,
            -6.717074217680401,
            -2.302988880247853,
            -7.801100970552771,
            -9.685018286719373,
            -2.898640618654227,
            -4.189548614662884,
            -4.84304149682644,
            -7.7098480012726345,
            -4.760646178264883,
            -4.000527772136368,
            -6.420158930124662,
            -2.2547745211580428,
            -4.00884278246414,
            -5.997880222197424,
            -8.951632377876424,
            -11.097953362585383,
            -11.769371383755704,
            -4.533213247502807,
            -6.338985900289621,
            -5.082112907421675,
            -4.2834831265470035,
            -6.611580986892349,
            -2.933350752508096,
            -1.2213387167863008,
            -3.5792228023679473,
            1.6693172762284263,
            -7.401502799517004,
            -1.0786064646079685,
            -5.651394336693605,
            -8.205462909033132,
            -9.36978350371238,
            -8.139594038474618,
            -4.892798677372049,
            -7.765865470395316,
            -2.704232704581692,
            -7.872442740135697,
            -0.5730235821462851,
            -2.4701134042272046,
            -7.5284509533263915,
            -2.1791839748049098,
            -1.5946314183114936,
            -5.715249001261336,
            -2.057484877956012,
            -4.820727988633506,
            -8.096092806093935,
            -4.084373166047185,
            -7.059674072420287,
            -0.3786814868920325,
            -12.242885675190456,
            -7.767767035772599,
            -1.8128873107119028,
            -5.7195952230175955,
            -8.097046645856272,
            -8.621319265280585,
            -5.964646145808548,
            -4.108594208460315,
            -2.9976347196969226,
            -6.596027976241352,
            -8.369982462189272,
            -4.678155874974323,
            -10.020232084315396,
            -4.761317399632903,
            -2.380993042700904,
            -9.291644337003126,
            -9.724555869317326,
            -7.071337745843375,
            -6.431736847556456,
            -4.494043142846066,
            -7.950863989033604,
            -3.7412476719514065,
            -2.422335175835819,
            -6.031463276972278,
            -3.1460638662320277,
            -14.757676641984917,
            -8.140510083548133,
            -4.9366247573905,
            -0.9657195088390901,
            -10.49606670347095,
            1.4474531181483319,
            -11.03494478173944,
            -5.438238156355059,
            -9.632523726293915,
            -9.580037350573164,
            -8.111844407744565,
            -9.656834863680444,
            -7.606059297272623,
            2.5065952536862857,
            -8.68855977175824,
            -3.085395951409614,
            -2.5700410569371894,
            -4.324285473452632,
            -6.127336299351801,
            -1.6621686486635563,
            0.26564848787847145,
            -7.354673040285124,
            -5.808064049167565,
            -9.226452545877981,
            0.6868881146605338,
            -6.725145232488994,
            -6.719722098172203,
            -5.3495729438834285,
            -4.379730386074662,
            -2.1997514263532354,
            -1.8902605472301404,
            -7.9369928064018405,
            -9.17499458477282,
            -6.125491330546802,
            -2.6726090533867435,
            -7.520644376510324,
            -2.7079997821763624,
            -7.125693426881042,
            -4.52554440996918,
            0.4435580680581628,
            -2.138706479373334,
            -5.678989571165885,
            -0.9638593727869553,
            -9.9574671169112,
            -3.3902616440340223,
            -8.2014451829331,
            -4.886557209546044,
            -6.526128825636564,
            -3.4099429137427006,
            -9.608184202843958,
            -7.382221957075089,
            -7.674398104851577,
            -8.356397865395628,
            -7.921856719853121,
            -7.2613033694860425,
            -4.5380508601307685,
            -2.6779806741343073,
            -8.653317209892672,
            -3.630250811092258,
            -2.542168407136062,
            -4.813267351605278,
            -3.933734830756743,
            -3.3393872873086443,
            -7.341600803498764,
            -5.009878966007639,
            -5.095403686364479,
            -3.9464740034418035,
            -8.136458340514533,
            -7.99486851649533,
            -3.5696124224840413,
            -5.070578759802781,
            -8.717955437177856,
            -9.628892219992615,
            -6.030787791994977,
            6.330466512133302,
            -7.794559888948971,
            -7.284244491425954,
            -10.219563623499957
        ]
    }
}